weights['MEYDA'] = {"conv0.weight": [[[[0.7646580934524536, 1.4832680225372314, 0.04378215968608856], [-1.6220271587371826, -0.776063859462738, -0.5149410963058472], [-0.11112876236438751, 0.9847899079322815, 0.004077277146279812]]], [[[-1.0274454355239868, -1.769310474395752, -1.8815255165100098], [-0.6226840615272522, -0.8125478625297546, -0.21597827970981598], [2.275622844696045, 2.7163851261138916, 2.8017659187316895]]], [[[-3.0721607208251953, -0.4528064429759979, 2.0933759212493896], [-2.5873234272003174, 0.21961119771003723, 2.8757009506225586], [-2.208855628967285, 0.8821420073509216, 2.3052892684936523]]], [[[-0.7816842198371887, 0.6448925733566284, -0.031456585973501205], [-0.3847801685333252, 1.0306438207626343, -0.43625715374946594], [-0.13806837797164917, 0.5030577778816223, -0.6419205665588379]]], [[[1.0381227731704712, 1.8181716203689575, 1.8420042991638184], [0.5621423125267029, 0.4136163294315338, 0.1534596085548401], [-1.024256706237793, -2.1387317180633545, -2.0304653644561768]]], [[[-2.70514178276062, 0.6579347848892212, 2.020993709564209], [-0.39187636971473694, -0.09809254109859467, 0.43425941467285156], [3.1538376808166504, -0.44108864665031433, -2.5922036170959473]]], [[[1.0303795337677002, 0.7793107628822327, 1.265362024307251], [-1.4702374935150146, -1.8794128894805908, -1.3629894256591797], [1.1047357320785522, 0.5693604350090027, 0.3215256333351135]]], [[[0.6025448441505432, 0.5771448016166687, -2.0136215686798096], [1.798640251159668, 0.7716572284698486, -1.8983807563781738], [1.9024540185928345, 0.6026051640510559, -1.4652601480484009]]], [[[1.3140276670455933, 1.7524771690368652, 0.29935145378112793], [0.9202041029930115, 0.7546472549438477, -1.3682698011398315], [-0.9222894906997681, -1.2428920269012451, -3.0487329959869385]]], [[[1.7244701385498047, 1.016733169555664, -2.7739930152893066], [1.743133306503296, 0.8040395975112915, -2.7092976570129395], [1.1895054578781128, 1.167442798614502, -2.1600019931793213]]], [[[-1.06492280960083, -0.18205274641513824, 1.0893176794052124], [0.9941736459732056, -0.5422400236129761, -0.52126544713974], [1.5880928039550781, 0.042493171989917755, -1.3642158508300781]]], [[[-0.15343381464481354, 1.3259460926055908, 2.0410304069519043], [-1.1551114320755005, -0.36322468519210815, 0.8658161759376526], [-1.158128023147583, -1.4644423723220825, -0.19546262919902802]]], [[[0.8947776556015015, -1.5669288635253906, 0.8983529806137085], [1.3838318586349487, -2.6192843914031982, 1.4520466327667236], [1.1227309703826904, -2.3614394664764404, 1.2241493463516235]]], [[[0.39057233929634094, 0.048281703144311905, 0.056615885347127914], [0.4238818287849426, 0.24194973707199097, -0.5181966423988342], [0.05774848163127899, -0.5657492876052856, -1.4477629661560059]]], [[[1.078396201133728, -0.8960352540016174, 0.3042496144771576], [-0.41563504934310913, -1.88813054561615, -0.009795892052352428], [0.41260161995887756, -0.06197718158364296, 1.1973803043365479]]], [[[-1.4614167213439941, -0.5204010009765625, 1.8040013313293457], [-0.5740161538124084, 0.7900636196136475, 0.679521381855011], [2.192697286605835, 0.5997740030288696, -2.336061716079712]]], [[[-1.0797652006149292, -0.8847967982292175, 0.9951384663581848], [-1.8262696266174316, -2.1704511642456055, -0.7514419555664062], [-0.19198916852474213, -0.7203600406646729, 0.9403129816055298]]], [[[0.46123650670051575, 0.08211144804954529, 0.5991220474243164], [-0.35515421628952026, -1.634666919708252, -1.0095463991165161], [1.1339153051376343, 0.004989376291632652, 0.28205060958862305]]], [[[-1.6042972803115845, -1.3969522714614868, -0.14596086740493774], [-0.6363013386726379, -0.12211431562900543, 1.5753616094589233], [-0.40808525681495667, 0.5127944946289062, 1.7310333251953125]]], [[[-1.5932304859161377, 1.7454833984375, 1.1887680292129517], [-2.439091444015503, 1.19219970703125, 0.733330249786377], [-2.368102788925171, 0.9768548011779785, 0.5309242010116577]]], [[[0.20707161724567413, 0.31137198209762573, 0.5667131543159485], [1.5415675640106201, 1.5819809436798096, 1.262397289276123], [-1.3606903553009033, -1.7694250345230103, -1.866877794265747]]], [[[2.119267463684082, 2.159698486328125, 1.8610947132110596], [-0.4493885040283203, -0.5335878133773804, -0.5625511407852173], [-1.31429922580719, -1.8360767364501953, -1.3361648321151733]]], [[[-1.5728721618652344, 0.09845200181007385, 1.581597089767456], [2.9210588932037354, -1.0239675045013428, -1.8117504119873047], [-1.2351408004760742, 0.782511830329895, 0.39838144183158875]]], [[[0.7096593379974365, 0.028384599834680557, -0.5975385904312134], [0.5316482782363892, -0.21746495366096497, -0.4746672511100769], [-0.023750534281134605, -0.21768523752689362, 0.06174501031637192]]], [[[-2.2573068141937256, -0.06334482133388519, 2.3577756881713867], [-0.8580328226089478, 0.032422348856925964, 0.7672366499900818], [3.228409767150879, 0.10922101885080338, -3.1824827194213867]]], [[[-2.644862651824951, -2.860658645629883, -2.5578434467315674], [-0.12037558108568192, 0.23532520234584808, 0.3420993387699127], [2.4961836338043213, 2.5639233589172363, 2.639075994491577]]], [[[1.2294416427612305, -2.279693603515625, 0.9200966358184814], [-1.586139440536499, 0.015514510683715343, 1.4472007751464844], [-0.03522851690649986, 2.2725412845611572, -2.020843029022217]]], [[[1.0733917951583862, 0.17700761556625366, -0.20448173582553864], [-0.0565466582775116, -2.077279567718506, -0.3889274001121521], [0.11235028505325317, -0.39269495010375977, 1.896328330039978]]], [[[0.5016714334487915, -0.8530729413032532, 1.6175583600997925], [0.4213009178638458, -1.161043405532837, 1.4878004789352417], [-0.2688451111316681, -2.5595929622650146, -0.39683258533477783]]], [[[-1.018309235572815, 0.9039863348007202, 0.10406908392906189], [-0.8418262600898743, 1.1670832633972168, -0.3307013213634491], [-0.3176388442516327, 1.2900127172470093, -0.8001689314842224]]], [[[0.3660876750946045, -1.4841856956481934, -1.4230918884277344], [1.7912397384643555, -0.27769744396209717, -0.7670095562934875], [1.8721693754196167, 0.04009866341948509, -0.2981896698474884]]], [[[1.7347136735916138, 0.00022945692762732506, -1.4608802795410156], [-2.7715024948120117, 1.132617712020874, 1.6755106449127197], [0.9527161717414856, -1.0942071676254272, 0.2033032327890396]]], [[[2.4234094619750977, 0.3261798620223999, -2.65321946144104], [0.2095216065645218, 0.2445220798254013, -0.3195141553878784], [-2.5602521896362305, -0.7577069997787476, 3.164349317550659]]], [[[-0.6168360710144043, 0.0837496966123581, 0.7006946206092834], [-0.06944092363119125, 0.2053609937429428, 0.3590649366378784], [0.4594232141971588, 0.12234954535961151, -0.3999766707420349]]], [[[0.8830816149711609, 1.0506970882415771, 1.3738315105438232], [-1.824742317199707, -2.3228936195373535, -1.5079736709594727], [0.8866845965385437, 0.5104217529296875, 0.8697986602783203]]], [[[2.172977924346924, -0.5944191217422485, -1.1381561756134033], [2.060610771179199, -0.7188068628311157, -1.2200640439987183], [1.2184537649154663, -0.6100782752037048, -0.5655574202537537]]], [[[1.8422788381576538, 1.5024421215057373, 0.9233789443969727], [0.24542944133281708, 0.10040026158094406, -0.24332693219184875], [-1.4088243246078491, -1.7030158042907715, -0.7593013644218445]]], [[[-0.6605225801467896, -0.9317216873168945, -0.3211328983306885], [1.6203441619873047, 1.7349892854690552, 1.88579523563385], [-0.6050363183021545, -1.3942844867706299, -1.2926386594772339]]], [[[2.135089874267578, 1.3030059337615967, 0.14518839120864868], [2.8371615409851074, 2.1891915798187256, 1.2822481393814087], [-0.01379235927015543, 0.047485221177339554, -0.3377998471260071]]], [[[1.577789306640625, 0.00763282272964716, -1.0551531314849854], [1.2317675352096558, -0.1722012311220169, -1.1606862545013428], [0.6430020928382874, -0.2870332896709442, -0.2310771644115448]]], [[[-1.3604652881622314, -1.4212967157363892, -0.669177234172821], [2.551784038543701, 2.9051642417907715, 2.964444160461426], [-0.5854532122612, -1.50062096118927, -1.5456604957580566]]], [[[0.49643731117248535, 0.7823481559753418, 0.4328944683074951], [-1.8126885890960693, -1.6668800115585327, -1.9591680765151978], [0.526907742023468, 1.3541877269744873, 1.1553981304168701]]], [[[1.014108657836914, 1.8701907396316528, 3.007896900177002], [-0.23670589923858643, 0.23334252834320068, 1.2068960666656494], [-1.2276453971862793, -0.7966294288635254, -0.19707588851451874]]], [[[0.621621310710907, 0.302944540977478, -0.22747071087360382], [0.5927737355232239, -0.6616323590278625, -0.5232349634170532], [-0.3992597460746765, -0.5840297937393188, 1.1295408010482788]]], [[[3.080000400543213, -0.9492772221565247, -2.1188716888427734], [0.187294140458107, -0.04001636058092117, -0.03792639821767807], [-3.250885486602783, 0.8327094912528992, 2.360866069793701]]]], "bn1.running_mean": [0.5380585789680481, 3.1583077907562256, 1.1449755430221558, 5.605193857299268e-45, 3.698391914367676, 3.740359306335449, 5.605193857299268e-45, 5.605193857299268e-45, 5.605193857299268e-45, 11.088685989379883, 5.693251609802246, 40.10268783569336, 176.8470458984375, 15.972349166870117, 5.605193857299268e-45, 9.687836647033691, 31.697277069091797, 9.234313011169434, 10.168747901916504, 54.03522872924805, 3.203071355819702, 12.153950691223145, 3.0341851711273193, 4.8029375076293945, 0.9328063130378723, 7.770031452178955, 5.451551914215088, 6.07216215133667, 5.605193857299268e-45, 5.605193857299268e-45, 45.183189392089844, 4.4586920738220215, 3.2139132022857666, 7.112054824829102, 70.71985626220703, 1.3456560373306274, 2.1246864795684814, 4.980444431304932, 5.460750102996826, 5.605193857299268e-45, 1.4705458879470825, 5.605193857299268e-45, 5.605193857299268e-45, 0.8788623213768005, 4.576941967010498], "bn1.running_var": [21.39212989807129, 170.89459228515625, 52.83738327026367, 5.605193857299268e-45, 229.67539978027344, 395.515380859375, 5.605193857299268e-45, 5.605193857299268e-45, 5.605193857299268e-45, 632.2227783203125, 440.3074645996094, 1396.7142333984375, 7844.32666015625, 1301.15625, 5.605193857299268e-45, 824.463134765625, 1656.0501708984375, 737.9423828125, 514.01171875, 2604.873779296875, 209.39952087402344, 816.0404052734375, 146.19097900390625, 324.0027770996094, 47.16197967529297, 406.60955810546875, 301.6828308105469, 351.8450927734375, 5.605193857299268e-45, 5.605193857299268e-45, 2897.091552734375, 219.1052703857422, 212.6925048828125, 438.4179382324219, 2584.748046875, 50.66710662841797, 113.9528579711914, 338.7779235839844, 554.3877563476562, 5.605193857299268e-45, 81.99159240722656, 5.605193857299268e-45, 5.605193857299268e-45, 57.96813201904297, 436.48492431640625], "bn1.num_batches_tracked": 474598, "conv1.weight": [[[[-0.5478474497795105, -0.7183175086975098, 0.043830420821905136], [0.4143730103969574, -1.7586290836334229, -1.0764930248260498], [0.22008085250854492, -1.892647624015808, -2.2379801273345947]], [[-0.5379435420036316, 1.5982410907745361, 0.5480977296829224], [2.185682535171509, 1.288680911064148, -0.1284659504890442], [-0.4156142771244049, 1.9256720542907715, -0.3489995002746582]], [[0.7874971032142639, 1.4507452249526978, -1.3190646171569824], [2.2040045261383057, -0.16002924740314484, -0.945904016494751], [-0.8871068358421326, 0.16234546899795532, -0.5056279897689819]], [[0.6956977248191833, -0.9233894944190979, -0.19216002523899078], [0.26703065633773804, 0.07753103971481323, -1.785334587097168], [1.202955722808838, -0.8525506854057312, -0.0387074276804924]], [[1.0862711668014526, -1.0513217449188232, 0.021605433896183968], [1.153652310371399, -0.24791252613067627, -2.383533000946045], [0.7511913776397705, -1.7857130765914917, -3.6909282207489014]], [[1.287861704826355, 0.25248995423316956, 0.11102581024169922], [2.7101354598999023, 1.2141749858856201, -1.1562179327011108], [2.5523178577423096, -4.344883918762207, -0.5534113645553589]], [[-0.6939406394958496, 1.2392864227294922, 0.6857025623321533], [0.830132782459259, -1.4937704801559448, -1.6674878597259521], [0.9095170497894287, -1.8480749130249023, -1.2706913948059082]], [[0.4693651795387268, -0.2520142197608948, -0.8003498911857605], [-0.9437123537063599, 1.1278228759765625, -4.0118231773376465], [-0.2935718297958374, -1.1906315088272095, -3.316450595855713]], [[-0.29275503754615784, -0.8754211664199829, -1.3337446451187134], [-1.2647349834442139, -1.3393772840499878, -4.06642484664917], [0.2096531093120575, -1.4172923564910889, -4.268557548522949]], [[0.4260047972202301, -0.7670914530754089, -1.5524463653564453], [-0.6384190320968628, 0.40687212347984314, -5.806650638580322], [0.3528112471103668, -1.4711494445800781, -3.820969581604004]], [[0.11566689610481262, -0.6751039028167725, -1.3239881992340088], [0.3310490548610687, 1.1445002555847168, -1.9459227323532104], [0.5730327367782593, -3.034613847732544, -1.895448923110962]], [[0.8887477517127991, -0.6293005347251892, -2.1189210414886475], [-1.522993564605713, -0.46787264943122864, -1.2339290380477905], [0.6964144110679626, -1.085288643836975, -3.1520023345947266]], [[-0.05297885462641716, 0.4092670679092407, -1.0965226888656616], [0.26884570717811584, -1.1193697452545166, -0.5898452401161194], [0.684805691242218, -1.5849010944366455, -1.9845366477966309]], [[0.29993027448654175, -0.2660856246948242, -2.4320743083953857], [-0.5512948632240295, -0.10303836315870285, -4.545318126678467], [0.2461182028055191, -0.8260350227355957, -3.0268070697784424]], [[-0.6614795327186584, 1.13749098777771, 0.12495245784521103], [0.0070932842791080475, -1.0663467645645142, -1.5658055543899536], [0.37340685725212097, -0.8472882509231567, -1.3761372566223145]], [[0.20073235034942627, 0.574398934841156, -0.3448369801044464], [3.3001368045806885, 1.0621700286865234, -1.3545935153961182], [2.0377197265625, -1.9197847843170166, -0.7461689710617065]], [[0.6053054332733154, 0.7027403712272644, -2.3165571689605713], [0.24863331019878387, 0.326219767332077, -2.899963140487671], [0.25341567397117615, -0.07254096120595932, -1.484377384185791]], [[0.0677027553319931, 0.8620247840881348, -0.32590892910957336], [-0.39822399616241455, -0.5934973955154419, -4.158364772796631], [0.23196053504943848, -0.23840512335300446, -2.2652955055236816]], [[0.053788334131240845, 1.7229719161987305, -0.30144834518432617], [1.5473072528839111, -0.5961595773696899, -0.9349431991577148], [-2.3294408321380615, 0.33214378356933594, -0.32498815655708313]], [[2.0336899757385254, -0.8536847233772278, -3.096525192260742], [0.8580283522605896, -1.3160456418991089, -1.8141626119613647], [0.10551843047142029, -0.8195804357528687, -1.424641728401184]], [[1.4134413003921509, -0.2490239292383194, 1.2488322257995605], [1.9211010932922363, -0.16457705199718475, -2.973414182662964], [0.01697862520813942, -1.8896141052246094, -3.127811908721924]], [[1.7719790935516357, -1.0986486673355103, 0.49714556336402893], [0.7238350510597229, -0.8269447088241577, -0.3684890866279602], [2.324164628982544, -1.4450981616973877, -4.560181617736816]], [[1.8966126441955566, 1.252813696861267, 1.0205390453338623], [2.3224141597747803, 1.3492223024368286, -0.5640559792518616], [1.7904956340789795, -2.189324140548706, -0.4173285663127899]], [[0.5304774045944214, -0.1412373036146164, -0.634894609451294], [-0.2069884091615677, 0.28378576040267944, -3.144624948501587], [1.3041999340057373, -1.3447924852371216, -3.3141098022460938]], [[0.942301869392395, 0.22090773284435272, -0.2639210522174835], [3.4159562587738037, 1.2013975381851196, -1.2665879726409912], [2.7806832790374756, -4.174903392791748, 0.0872403159737587]], [[-1.3453450202941895, 0.5547875165939331, 0.7873095273971558], [1.9499554634094238, 0.7007123231887817, -0.21287699043750763], [-0.27761638164520264, 1.4351921081542969, -0.5155699849128723]], [[0.6642475128173828, 0.8080675005912781, -0.7274054884910583], [3.141739845275879, 0.6227717995643616, -1.128743290901184], [1.3467243909835815, -2.7199981212615967, -1.2868729829788208]], [[-0.26092198491096497, 0.6890902519226074, 0.20551708340644836], [0.7110487818717957, -1.5368517637252808, -2.24426007270813], [0.7579680681228638, -1.0749313831329346, -2.203436851501465]], [[-0.3937637209892273, 0.6100638508796692, -1.9957586526870728], [-1.7108415365219116, -0.05760875344276428, -3.7769296169281006], [-0.0603172667324543, -0.4344496428966522, -1.765573501586914]], [[0.3103168308734894, -2.946730375289917, -1.2830573320388794], [0.3841741979122162, -1.693040132522583, -0.7995162010192871], [-0.8065420985221863, -2.427983045578003, -1.3318313360214233]], [[-0.3959214389324188, 1.1859182119369507, 0.31754666566848755], [0.554445207118988, 0.8235459327697754, -1.226517677307129], [-0.3547775447368622, -0.3269386291503906, -2.3156049251556396]], [[1.8829481601715088, 0.6540233492851257, 2.126127243041992], [3.521466016769409, -0.15378105640411377, 0.08215400576591492], [0.8160936236381531, -2.3727407455444336, -0.32844868302345276]], [[2.470630407333374, 0.09309130907058716, 2.870924949645996], [4.109390735626221, -1.0790138244628906, 0.2140529751777649], [3.636181116104126, -0.021197207272052765, -1.6549936532974243]], [[-1.3464161157608032, -0.7086268663406372, -0.9199362993240356], [-1.2305010557174683, 0.3030478358268738, 0.08956725895404816], [-1.5082454681396484, -2.202306032180786, -0.06830298900604248]], [[-0.6734896302223206, 1.5602939128875732, 0.8372677564620972], [1.7260147333145142, -0.9174134731292725, -1.5379432439804077], [0.7701095342636108, -2.0624265670776367, -1.7717374563217163]], [[1.8421393632888794, 0.0008033880149014294, -0.6825314164161682], [0.17740654945373535, -0.17167657613754272, -4.11641788482666], [0.6986283659934998, -1.5355621576309204, -3.552027940750122]], [[1.7146059274673462, -1.4112060070037842, 0.26797476410865784], [1.1639907360076904, -0.917007327079773, -1.2457714080810547], [2.04349946975708, -1.0204354524612427, -4.351739406585693]], [[-1.0259177684783936, 0.5798653364181519, 1.7437411546707153], [1.1577484607696533, -0.6052452325820923, -2.898967981338501], [-1.1805020570755005, -3.0258591175079346, -2.7377519607543945]], [[-1.596954107284546, -0.3272612392902374, 0.06308411061763763], [-0.5400562882423401, 1.5440893173217773, -0.5764996409416199], [-1.6910699605941772, -0.2014717012643814, -3.2614450454711914]], [[0.8029106259346008, 0.3318767547607422, -0.3602466583251953], [-0.8613576292991638, 0.4091885983943939, -4.341579914093018], [0.6197596788406372, -0.6728814840316772, -3.7092483043670654]], [[-3.1418755054473877, -0.14609625935554504, 2.6378862857818604], [2.1031506061553955, 0.14354470372200012, -2.1786584854125977], [-1.132431149482727, -2.4709553718566895, -1.157636046409607]], [[-0.4291849732398987, 1.2584829330444336, 0.32864320278167725], [0.8234321475028992, -1.4660860300064087, -2.2933974266052246], [-0.44992777705192566, -1.5534000396728516, -0.9918180108070374]], [[0.09072484076023102, 0.2882050573825836, -1.3871711492538452], [-0.6642552614212036, 2.0853021144866943, 0.5713678598403931], [-1.5372658967971802, -1.9697319269180298, -2.6378297805786133]], [[-1.1042351722717285, -1.2458833456039429, -0.07311340421438217], [-0.5362350344657898, -2.027702808380127, -0.9519461393356323], [1.9249422550201416, -1.4644447565078735, -1.4548065662384033]], [[2.315934896469116, 0.9135966300964355, 2.1736106872558594], [3.9408552646636963, -1.0893839597702026, -0.18434534966945648], [3.4376535415649414, 0.5642173886299133, -1.8165853023529053]]], [[[-0.22081199288368225, -0.5941764712333679, 2.4596214294433594], [0.2273542881011963, -2.06984806060791, 0.659759521484375], [0.945472002029419, -1.938682198524475, -2.1204519271850586]], [[0.13058437407016754, 0.6056938767433167, -0.4938376247882843], [1.0902085304260254, 1.4864569902420044, -1.7969927787780762], [-0.13936541974544525, 1.175059199333191, 1.2630467414855957]], [[-2.119762897491455, 0.43489280343055725, 0.408378928899765], [0.5628726482391357, 0.5478492975234985, -1.5141252279281616], [0.7913769483566284, 1.5568889379501343, -0.8341965079307556]], [[0.5807017683982849, -1.7950592041015625, 0.8249928951263428], [0.24660716950893402, -1.5108038187026978, 1.5556517839431763], [0.8011847138404846, -0.9952283501625061, 0.8976736068725586]], [[-1.7517521381378174, -1.0068854093551636, 1.6437426805496216], [1.6390334367752075, -7.548324108123779, -6.86727237701416], [0.5594459772109985, -3.1866979598999023, -5.127687454223633]], [[-1.607184886932373, 0.12636762857437134, 0.7253852486610413], [1.4222095012664795, 2.783730983734131, 2.615000009536743], [-1.3586870431900024, -0.5373684763908386, -2.5263075828552246]], [[-0.3262910842895508, 0.14976094663143158, 1.2893577814102173], [-1.162686824798584, -1.2732945680618286, -0.07795318961143494], [0.7641319632530212, -1.87288236618042, -2.5729928016662598]], [[0.04833738133311272, -0.5729660987854004, -2.2979061603546143], [-0.18195146322250366, 2.922043800354004, 1.4461982250213623], [-0.8051960468292236, 1.1664345264434814, 1.0601227283477783]], [[-0.035934776067733765, -1.1078296899795532, 1.5488700866699219], [-2.809746026992798, -4.470766067504883, 0.24382299184799194], [0.7662976980209351, -1.6245356798171997, 0.07576750963926315]], [[0.39610859751701355, -0.9312553405761719, -1.9411817789077759], [0.2200455218553543, 3.595808744430542, 3.1317200660705566], [-0.09019920229911804, 1.45554518699646, 2.1948766708374023]], [[-0.5432490110397339, -0.3311450779438019, -0.8900889754295349], [1.2330689430236816, 2.313690423965454, 1.8502203226089478], [-1.1983526945114136, -0.4735358655452728, -1.107767939567566]], [[-2.3757054805755615, 0.6861461997032166, 3.5337817668914795], [-1.7661374807357788, -3.9407618045806885, 0.6299384236335754], [0.8050452470779419, -1.0907902717590332, -1.9420199394226074]], [[-0.3230440616607666, -0.2012149691581726, -0.0362083800137043], [0.7573584318161011, -0.15975052118301392, 1.1230297088623047], [1.7903343439102173, 0.1291762739419937, 1.2289584875106812]], [[0.197353795170784, -0.2525443136692047, 0.6805158853530884], [-1.651743769645691, -1.9834505319595337, 1.168220043182373], [0.4818675220012665, -1.4734429121017456, 0.10323181003332138]], [[0.04062165319919586, 0.1968243271112442, -0.2614227831363678], [-0.0028688551392406225, -1.2456327676773071, -1.0169297456741333], [2.0735487937927246, -1.183600664138794, -0.8552781939506531]], [[-0.8049613833427429, 0.17297504842281342, 0.8017485737800598], [0.9786121249198914, 0.7681055665016174, -1.1638084650039673], [-1.024686336517334, -0.12115802615880966, -1.7387986183166504]], [[0.10475489497184753, 0.6311442255973816, 0.5866525173187256], [-0.5969230532646179, -0.8390846848487854, 1.4319508075714111], [0.7764951586723328, -2.1647441387176514, -0.14461325109004974]], [[-0.1750362664461136, -0.5184582471847534, -0.12408459931612015], [-1.3157494068145752, -1.1425453424453735, 1.903123140335083], [0.4847944378852844, -2.406398296356201, 0.19004935026168823]], [[-0.1396600753068924, 1.570708155632019, 0.8943355083465576], [0.17497003078460693, -0.7529582381248474, -2.2311315536499023], [0.012023325078189373, -0.3787790536880493, -0.8320045471191406]], [[-1.7837549448013306, -0.5088719129562378, 2.059922695159912], [1.0293729305267334, -0.8751073479652405, 1.6535062789916992], [1.8380956649780273, 0.1251210719347, -1.2206836938858032]], [[-1.2250944375991821, -1.6746035814285278, 1.7624921798706055], [0.1336970180273056, -7.866237163543701, -9.518874168395996], [0.8122580647468567, -1.3869549036026, -2.6650400161743164]], [[-0.5021544694900513, -0.2841983437538147, 2.242501974105835], [1.9237630367279053, -5.982182025909424, -4.141407012939453], [0.2610163688659668, -4.8386945724487305, -7.31392765045166]], [[0.8094145059585571, -2.4433960914611816, -2.7069435119628906], [1.662857174873352, 2.7159368991851807, 0.5986828207969666], [-0.6409886479377747, 0.8795236945152283, -2.009152412414551]], [[0.31494131684303284, -0.4296911060810089, -1.8767489194869995], [-0.1206015795469284, 0.8143150806427002, 0.026720361784100533], [-0.609541118144989, 0.8160263895988464, 0.045578330755233765]], [[-1.7242940664291382, 0.4312038719654083, 0.6342623829841614], [1.5525927543640137, 3.3953452110290527, 2.3789944648742676], [-1.7306277751922607, -0.5628414750099182, -2.621063232421875]], [[0.7660178542137146, 1.2451797723770142, -0.19753167033195496], [1.5546600818634033, 2.296984910964966, -2.02934193611145], [-0.3086848855018616, 1.7285600900650024, 1.1795547008514404]], [[0.04633473977446556, -1.3773059844970703, -0.5379778742790222], [2.033726453781128, 1.9648041725158691, 1.0191346406936646], [-0.70271897315979, 0.5753863453865051, -1.9547641277313232]], [[0.05142291635274887, -0.11218192428350449, 0.768651008605957], [-0.4203375577926636, -1.285612940788269, -0.18891634047031403], [1.4908442497253418, -1.8313897848129272, -0.5895127654075623]], [[-0.1590948849916458, 0.3617914617061615, 1.7412216663360596], [-2.0613601207733154, -3.1742498874664307, 0.43699216842651367], [1.4146020412445068, -2.0946085453033447, -0.0952758640050888]], [[-0.6401659846305847, -2.295379638671875, 0.35775983333587646], [1.2723498344421387, -0.6401916742324829, 2.1716015338897705], [1.597007155418396, -0.048057228326797485, 0.2046189308166504]], [[0.45305848121643066, 0.33879128098487854, -0.39022091031074524], [-0.012747107073664665, 0.9787037372589111, -0.1668209433555603], [-0.9135413765907288, -0.2081100046634674, 1.4615463018417358]], [[0.3873593807220459, -3.6351168155670166, -3.0418434143066406], [1.5764697790145874, 1.5429366827011108, -1.1419610977172852], [0.3257306218147278, 2.2462944984436035, -0.7516285181045532]], [[0.3158372640609741, -0.8901513814926147, -2.0572047233581543], [2.2707860469818115, 3.0301318168640137, -1.164346694946289], [-0.8553096055984497, 1.385713815689087, -0.48027411103248596]], [[-0.1491817831993103, -0.7047731280326843, -0.6938989162445068], [0.0750817283987999, -0.5813993215560913, -1.2897857427597046], [-0.617305338382721, 0.5545221567153931, 0.26576367020606995]], [[-1.1050416231155396, -0.49401071667671204, 1.4726749658584595], [-1.5065979957580566, -2.56734299659729, -1.8200386762619019], [1.4880822896957397, -1.3739060163497925, -3.047525644302368]], [[-0.016501370817422867, -0.7512382864952087, -2.420001268386841], [0.12109874188899994, 2.1105616092681885, 1.2110075950622559], [0.3956870436668396, 1.0416187047958374, 0.5027893781661987]], [[-0.4894455075263977, -0.5042756199836731, 2.1190481185913086], [1.857866644859314, -5.2420573234558105, -4.935089111328125], [0.9363159537315369, -2.3874528408050537, -4.6084465980529785]], [[1.3231414556503296, -0.7494693994522095, 1.3787583112716675], [-0.5968701839447021, -4.887054920196533, -8.254895210266113], [1.1666553020477295, 1.2457306385040283, 0.918825089931488]], [[0.25320765376091003, -1.4429776668548584, -1.2196338176727295], [0.7284350395202637, 0.17591595649719238, -1.3119193315505981], [-0.10868002474308014, 1.316009521484375, 0.3389018177986145]], [[0.020869851112365723, -0.43867701292037964, -2.174926519393921], [-0.5070405602455139, 2.053740978240967, 0.4392070174217224], [-0.05919823423027992, 1.1945154666900635, 0.3794877529144287]], [[0.5626204609870911, -1.5254565477371216, -0.48406675457954407], [-0.49543267488479614, -3.932284116744995, -8.179950714111328], [0.18956713378429413, 0.5281133055686951, -0.1425805240869522]], [[-0.35106199979782104, -0.1544777899980545, 0.9207196235656738], [-0.6506310701370239, -1.6728017330169678, -1.3023154735565186], [0.7734378576278687, -1.7669447660446167, -1.725528597831726]], [[-2.0834028720855713, -2.6054508686065674, 0.854590117931366], [0.5890089273452759, -0.990571141242981, -0.3407882750034332], [-0.0439051054418087, 0.4636179208755493, -0.20269775390625]], [[0.4271787703037262, -0.20482313632965088, 0.672649621963501], [0.5744736790657043, -0.5218518376350403, 0.6323549747467041], [0.10921674966812134, -1.1232846975326538, -0.7791683077812195]], [[-0.09839127212762833, -1.1404365301132202, -1.2876588106155396], [1.685882568359375, 2.9509799480438232, -0.8833056092262268], [-1.1440058946609497, 1.6374703645706177, -0.313764750957489]]], [[[-0.9541860818862915, 0.18985728919506073, -0.6100011467933655], [-0.051855191588401794, 0.3026668429374695, -0.8068057894706726], [0.579716145992279, 0.49832209944725037, -0.5397169589996338]], [[2.8269176483154297, -0.2604832649230957, -0.530707597732544], [0.49460986256599426, -0.09526766836643219, -2.9436228275299072], [-0.4922701120376587, -0.527327835559845, -0.5886102318763733]], [[0.4161003828048706, -1.8909215927124023, 0.16770511865615845], [0.5398774147033691, -0.3079495429992676, -1.6326428651809692], [-1.2688802480697632, -0.12529878318309784, 0.2175600826740265]], [[-1.88325834274292, -0.8170714378356934, -0.23956842720508575], [0.8585628867149353, 1.152186632156372, -0.4177592396736145], [-1.1944148540496826, 0.5162579417228699, -0.8268467783927917]], [[0.19531095027923584, -0.1972823590040207, 0.48188814520835876], [1.7152553796768188, -4.475903511047363, -4.293336868286133], [1.583210825920105, 0.10831060260534286, 0.04581392556428909]], [[0.9590649008750916, 2.5192744731903076, 0.9200275540351868], [2.7273974418640137, 1.8258053064346313, -0.6713818311691284], [0.40867480635643005, -0.3644229471683502, -2.033747911453247]], [[-0.5549115538597107, 0.09360677748918533, -1.4212123155593872], [-0.8613650798797607, 0.03978751599788666, -0.9431836605072021], [2.3111608028411865, -0.2036784142255783, -0.08820846676826477]], [[0.33719074726104736, -1.3913145065307617, -1.0500133037567139], [0.7535430192947388, 1.4855291843414307, -1.0343434810638428], [-1.112576961517334, -0.726284384727478, 0.8786410689353943]], [[-2.11798095703125, -0.7940875291824341, -0.151009663939476], [0.030788913369178772, -0.4119468033313751, -0.5869266390800476], [-0.023052114993333817, -1.0363621711730957, -0.07494883239269257]], [[-0.07383514195680618, -1.2496618032455444, -0.43819954991340637], [0.6399013996124268, 1.7300493717193604, -1.0114277601242065], [-1.5335180759429932, -0.2334974855184555, 0.6472643613815308]], [[0.7311691641807556, -0.22012051939964294, -0.18614394962787628], [1.2734906673431396, 1.2876108884811401, -0.2651884853839874], [0.2835638225078583, -1.5586210489273071, 1.7733172178268433]], [[-1.541216492652893, -0.2861212193965912, 0.8634088635444641], [0.4323948919773102, -1.456995964050293, -1.0313349962234497], [0.753696620464325, 0.09514175355434418, -0.5383644104003906]], [[-1.2995387315750122, 3.853048324584961, 3.188722848892212], [-0.3281547427177429, 5.093587398529053, 1.8942590951919556], [-0.1931358277797699, 1.782906413078308, 1.8035298585891724]], [[-2.422032117843628, -1.0782878398895264, -0.8847543001174927], [-0.7301288843154907, -0.4941272437572479, -0.5828279256820679], [-0.434627503156662, -0.8188687562942505, 0.16743843257427216]], [[-0.866222620010376, -0.12866944074630737, -0.5913121104240417], [-1.8319989442825317, 3.322765827178955, 1.202933430671692], [-0.1365709900856018, 1.0404447317123413, 0.42000606656074524]], [[1.1983726024627686, 1.3007735013961792, 0.734213650226593], [1.9818499088287354, 2.3015286922454834, -0.4165797233581543], [-1.0122095346450806, 0.00574931874871254, -1.9625838994979858]], [[0.3332477807998657, -1.6490504741668701, -1.9487171173095703], [-0.6457656025886536, -0.8597067594528198, -2.265031337738037], [0.27423059940338135, -0.8283531665802002, -2.2800095081329346]], [[-0.4942157566547394, -1.753227710723877, -1.0476388931274414], [-0.873199462890625, -0.03337787836790085, 0.014309816062450409], [1.2705705165863037, -0.15815339982509613, -0.08983614295721054]], [[1.648527979850769, -0.7114575505256653, 0.20738093554973602], [-1.2208713293075562, -0.8981766700744629, -1.8750360012054443], [0.3278528153896332, 0.4429278075695038, 0.5717282295227051]], [[-0.5282418131828308, 0.2964768707752228, 0.46926119923591614], [1.7352911233901978, 0.7400187849998474, -0.790034830570221], [0.7112695574760437, 0.13233931362628937, -1.4325850009918213]], [[0.8394933342933655, -0.30914583802223206, -0.43386420607566833], [1.910739541053772, -4.229121685028076, -4.971652507781982], [0.76161789894104, 0.6123116612434387, 0.870241105556488]], [[0.41648343205451965, 0.6770050525665283, 0.42534521222114563], [1.8322261571884155, -2.614553689956665, -3.451127052307129], [2.0758743286132812, 0.21761265397071838, -0.468005895614624]], [[1.4001277685165405, 1.20917546749115, 0.1747477799654007], [1.790579915046692, 3.865342378616333, -2.789853096008301], [-0.08099731802940369, -0.11120867729187012, -0.7960050106048584]], [[0.5684053897857666, -1.7088353633880615, -1.3486448526382446], [1.354203224182129, 0.5036519169807434, -0.053321726620197296], [-0.13359913229942322, -0.5152238011360168, 1.0993942022323608]], [[2.068052291870117, 3.660902261734009, 0.6046772599220276], [3.1367087364196777, 3.0769660472869873, -0.9293339848518372], [0.6754715442657471, 0.20180778205394745, -1.946065902709961]], [[2.4619717597961426, -0.5574730634689331, 0.11367413401603699], [0.5636759996414185, -0.8528888821601868, -2.6931581497192383], [-0.7046098709106445, -0.8387388586997986, -1.387171745300293]], [[1.9482312202453613, 1.8099677562713623, 0.39349988102912903], [1.778756022453308, 4.248602390289307, -1.5210926532745361], [-0.5170005559921265, 0.39081138372421265, -3.4471635818481445]], [[-0.860868513584137, 0.10457000881433487, -0.09917433559894562], [-0.8835267424583435, 2.6062262058258057, 1.2254812717437744], [-0.2033943235874176, -0.05641913414001465, -0.23338139057159424]], [[-2.2169814109802246, 0.9209111332893372, 0.5314968824386597], [-1.0027681589126587, 1.7341890335083008, 0.33416831493377686], [-0.46650075912475586, 0.828353226184845, -0.7052980065345764]], [[-0.47442957758903503, 0.13502797484397888, 1.8937184810638428], [1.2422621250152588, 0.1594301015138626, 0.20309534668922424], [-0.7580999732017517, 0.8356190919876099, -0.6269140243530273]], [[1.2043805122375488, -1.036971926689148, -0.5201578736305237], [0.19768930971622467, 0.9295780062675476, -0.7172574996948242], [-1.4507826566696167, -0.8293176293373108, 0.5353311896324158]], [[0.4499932527542114, 2.3030080795288086, 0.14190754294395447], [1.8656995296478271, 2.3836920261383057, -2.532959461212158], [0.4425808787345886, 1.2189137935638428, -1.549863576889038]], [[1.3736706972122192, 1.6756402254104614, -1.7238612174987793], [2.3482465744018555, 2.8371458053588867, -2.425328016281128], [0.3602294623851776, 0.976989209651947, -2.240720510482788]], [[0.3983924686908722, 0.38584205508232117, -0.1412300318479538], [1.3715531826019287, -0.862694263458252, -2.5529115200042725], [-0.16084179282188416, -0.5298668146133423, -2.0800020694732666]], [[-0.7242404818534851, 0.35110586881637573, -1.311218500137329], [-0.44203299283981323, -0.4617977440357208, -3.3049638271331787], [1.6313878297805786, -0.8608275651931763, -0.4539903402328491]], [[0.6300582885742188, -1.030020833015442, -0.04308389872312546], [1.5481623411178589, 1.9846867322921753, -0.8015750646591187], [-0.19193480908870697, -0.6974443793296814, 0.8790743947029114]], [[0.09257104247808456, 0.690839409828186, 0.3400421142578125], [1.2138439416885376, -2.4091389179229736, -3.230637788772583], [1.4918791055679321, 0.4522574543952942, -0.13846464455127716]], [[-0.7524377107620239, -1.2965304851531982, -0.30856573581695557], [0.4372677803039551, -1.4889357089996338, -2.639831781387329], [-1.324741005897522, 1.2779676914215088, 1.4658973217010498]], [[1.1084630489349365, -2.5542349815368652, -3.764568567276001], [1.9080318212509155, -1.0426206588745117, -3.240788698196411], [0.176436647772789, 0.05662320926785469, -0.9745859503746033]], [[0.27032244205474854, -1.5528247356414795, -0.7643029093742371], [1.3734188079833984, 1.2119029760360718, -0.6229106783866882], [-0.27341434359550476, -0.9166156053543091, 0.7943933606147766]], [[0.7655169367790222, -1.8857113122940063, -0.4475466310977936], [1.3546885251998901, -2.734306812286377, -7.989692211151123], [-0.16934339702129364, 1.3209577798843384, 0.24933989346027374]], [[0.720748782157898, -0.8637112975120544, -2.017521381378174], [-0.331442266702652, 0.8862128853797913, -1.4071358442306519], [2.80755352973938, 0.6661313772201538, 0.46911880373954773]], [[0.1174101009964943, -1.980481743812561, -1.9436540603637695], [1.466264009475708, -2.638936996459961, -3.2914271354675293], [0.7909087538719177, 0.8041790723800659, -1.9067909717559814]], [[-1.0012365579605103, 0.23567689955234528, 0.3457440137863159], [0.4414066672325134, 1.5099856853485107, -0.5327383875846863], [-0.595245897769928, -0.5814430713653564, -1.2855902910232544]], [[2.703195571899414, 1.800126314163208, -1.6782630681991577], [2.191688299179077, 4.1465349197387695, -1.9469351768493652], [0.32580330967903137, 2.074052095413208, -2.0040476322174072]]], [[[-0.02233945019543171, -0.04925774782896042, -0.04256069287657738], [0.009238406084477901, 0.008998067118227482, 0.001738140475936234], [-0.011579913087189198, -0.01447876263409853, 0.001764195621944964]], [[-0.0029939261730760336, -0.022821461781859398, -0.014204698614776134], [0.00454619899392128, -0.033808864653110504, -0.05408891662955284], [-0.08141899853944778, -0.0066648549400269985, 0.012619702145457268]], [[0.014638830907642841, -0.015040368773043156, 0.015411716885864735], [-0.08928778022527695, -0.07616529613733292, -0.10048453509807587], [0.04119747504591942, -0.03276398405432701, -0.0402308814227581]], [[-0.028125591576099396, -0.05561919882893562, -0.0434725396335125], [-0.020027678459882736, -0.03091205097734928, -0.06487000733613968], [-0.07724469900131226, -0.007616446353495121, 0.01099372562021017]], [[-0.040956202894449234, -0.05785529315471649, -0.008270472288131714], [-0.03399946913123131, -0.055157147347927094, -0.06532963365316391], [-0.036419011652469635, 0.019454360008239746, -0.03677373379468918]], [[-0.005428235977888107, -0.0506242997944355, 0.012143046595156193], [0.008328773081302643, -0.023573540151119232, -0.016430631279945374], [0.017109395936131477, -0.05469619482755661, -0.009747803211212158]], [[-0.027430584654211998, -0.031148560345172882, 0.03901107236742973], [-0.04975946620106697, -0.07253722101449966, -0.05382439121603966], [-0.09003688395023346, 0.013512405566871166, -0.05240832641720772]], [[-0.07687786966562271, -0.01321520283818245, -0.06741013377904892], [-0.0712401270866394, -0.013657385483384132, -0.08394928276538849], [0.011962749995291233, 0.021266750991344452, -0.02092362940311432]], [[0.012155272997915745, -0.022242864593863487, 0.006597613450139761], [0.025137048214673996, -0.0003662770031951368, -0.008809750899672508], [-0.06750481575727463, -0.009760820306837559, -0.011300007812678814]], [[-0.08781211078166962, 0.01339930109679699, -0.054454509168863297], [-0.04294237121939659, -0.04188700392842293, -0.020627755671739578], [-0.07873927056789398, -0.024028653278946877, -0.00908199604600668]], [[0.0591982938349247, 0.029879115521907806, -0.025661751627922058], [-0.03701787069439888, 0.028176715597510338, -0.03214899078011513], [0.015477984212338924, 0.01170278713107109, 0.011654770001769066]], [[-0.07998882979154587, 0.0036569798830896616, -0.033845219761133194], [-0.048293985426425934, -0.028587669134140015, -0.03672631457448006], [-0.03616351634263992, 0.020720725879073143, -0.05480220541357994]], [[0.025675486773252487, -0.025506626814603806, -0.025308407843112946], [0.001870450796559453, 0.007917754352092743, 0.006698757875710726], [0.005109094548970461, -0.006497812923043966, -0.010888824239373207]], [[-0.06721296906471252, 0.012960631400346756, -0.01139318011701107], [-0.08797460794448853, 0.03450024127960205, -0.03865300863981247], [-0.0570971854031086, -0.024683877825737, -0.0391065776348114]], [[-0.03644927218556404, -0.05497753247618675, -0.057134076952934265], [-0.06587140262126923, -0.05061972513794899, 0.010124923661351204], [-0.009424895979464054, -0.06766008585691452, -0.031195828691124916]], [[-0.05508934333920479, -0.04641268402338028, -0.04310142621397972], [-0.050294648855924606, -0.0031025849748402834, -0.06581596285104752], [0.012658180668950081, -0.05103540048003197, -0.035358820110559464]], [[-0.0028722318820655346, -0.06423157453536987, -0.015632320195436478], [0.009891343303024769, -0.01981247030198574, -0.05360228568315506], [-0.07570935785770416, -0.04766756668686867, -0.042536377906799316]], [[-0.02492629736661911, -0.04470845311880112, 0.008045072667300701], [-0.06545865535736084, -0.04047810658812523, -0.018139692023396492], [-0.014406315051019192, 0.02661670744419098, -0.023689590394496918]], [[-0.03564806655049324, -0.04198254644870758, 0.015239037573337555], [-0.07084636390209198, -0.056769613176584244, -0.06872356683015823], [-0.09143517166376114, -0.011628842912614346, -0.025975866243243217]], [[0.025036105886101723, 0.05655505880713463, 0.01422478724271059], [-0.0035044141113758087, -0.01766836829483509, -0.003794571850448847], [0.005857739597558975, -0.011912481859326363, -0.014108872972428799]], [[-0.0202171728014946, 0.007349769584834576, -0.07395078241825104], [-0.017384342849254608, -0.06906230002641678, -0.008551711216568947], [-0.019550036638975143, -0.015548346564173698, -0.021899547427892685]], [[0.051256828010082245, -0.018931923434138298, 0.04962747544050217], [-0.0009099737508222461, 0.03109726496040821, 0.0034646515268832445], [8.325406815856695e-05, 0.03179583698511124, 0.0008523993892595172]], [[-0.02580561861395836, -0.06518968194723129, -0.0228907261043787], [-0.031108878552913666, -0.02969389595091343, -0.046854425221681595], [-0.0907699316740036, -0.041372500360012054, -0.008399470709264278]], [[0.018633374944329262, -0.05162227898836136, -0.009629983454942703], [-0.08830384910106659, -0.08146883547306061, -0.09067240357398987], [-0.019267478957772255, -0.011563851498067379, -0.05438292771577835]], [[-0.005352661944925785, 0.014767033979296684, -0.008897761814296246], [-0.00039365916745737195, -0.06416479498147964, -0.04421606287360191], [-0.05278639495372772, -0.026970233768224716, -0.05663549527525902]], [[-0.07125112414360046, 0.011102629825472832, -0.007614232134073973], [0.030510189011693, -0.0457686111330986, -0.025033729150891304], [-0.018397819250822067, 0.015134535729885101, -0.012215442955493927]], [[0.05500892922282219, 0.0615072026848793, 0.08010628074407578], [-0.007899734191596508, -0.0315362885594368, 0.016299864277243614], [-0.03927380591630936, 0.018664801493287086, 0.05319792404770851]], [[0.0030207575764507055, -0.055649518966674805, -0.053998302668333054], [-0.03745615482330322, -0.017774440348148346, -0.01077460590749979], [-0.029270589351654053, 0.01835617981851101, -0.043769143521785736]], [[-0.059898778796195984, -0.02464139461517334, -0.011144558899104595], [-0.06428886204957962, -0.027302265167236328, -0.06701099872589111], [-0.061289288103580475, -0.0451585128903389, 0.014996769838035107]], [[-0.06063425540924072, -0.03840330243110657, -0.07866819202899933], [-0.02767546847462654, -0.06927784532308578, -0.025216026231646538], [-0.03714057430624962, -0.06242237240076065, -0.04723094031214714]], [[-0.03280070424079895, 0.030055273324251175, 0.03252527862787247], [-0.042625583708286285, -0.08626023679971695, -0.049955494701862335], [-0.062034450471401215, -0.040104202926158905, -0.012615245766937733]], [[-0.024081479758024216, 0.009796191938221455, -0.02595358155667782], [-0.057349301874637604, -0.03108716942369938, -0.03583390638232231], [-0.020969394594430923, -0.029665853828191757, -0.03370732069015503]], [[-0.059485405683517456, 0.02451311983168125, -0.008597467094659805], [-0.08633285015821457, -0.0005377987981773913, -0.03633013367652893], [-0.016071557998657227, 0.04386240616440773, -0.01990516483783722]], [[-0.029388459399342537, -0.008175336755812168, 0.024932125583291054], [-0.05285480618476868, -0.06408219039440155, -0.03346153348684311], [-0.005865051411092281, -0.02806425467133522, 0.006853519007563591]], [[0.02430000528693199, 0.038109682500362396, 0.021682776510715485], [-0.02403375878930092, -0.06850109994411469, -0.06105915457010269], [-0.022508252412080765, 0.0016302911099046469, 0.00596713088452816]], [[-0.008099738508462906, 0.027097653597593307, -0.0179549939930439], [-0.06253363192081451, -0.048234403133392334, -0.07832454144954681], [-0.03418802097439766, -0.03416207432746887, -0.038980334997177124]], [[-0.021536335349082947, 0.008563135750591755, -0.012312387116253376], [-0.0016275218222290277, -0.008708026260137558, -0.09360409528017044], [-0.03133595734834671, -0.014349158853292465, 0.022029198706150055]], [[-0.05683939903974533, -0.035279955714941025, -0.06860717386007309], [-0.005051489919424057, -0.046802863478660583, -0.06599491089582443], [0.030665500089526176, 0.029172014445066452, -0.014201984740793705]], [[-0.0735924243927002, 0.0363289900124073, -0.05481957644224167], [-0.0504118837416172, -0.06389021873474121, -0.07471302151679993], [-0.04460533708333969, -0.050594862550497055, -0.06581198424100876]], [[-0.03679067641496658, 0.018274446949362755, -0.0698479413986206], [-0.03934558480978012, -0.04523143172264099, -0.022980691865086555], [0.021739859133958817, -0.025293907150626183, -0.047170527279376984]], [[-0.04812310263514519, -0.02989504486322403, 0.009352610446512699], [-0.04035886749625206, -0.013957507908344269, -0.039158646017313004], [-0.012772361747920513, -0.06187263876199722, -0.011807873845100403]], [[0.012204413302242756, -0.05789525806903839, -0.029718350619077682], [-0.0015909768408164382, -0.04283105954527855, -0.03479461744427681], [-0.015195137821137905, -0.0343339629471302, -0.025988297536969185]], [[-0.03338373452425003, 0.019787339493632317, -0.006979160942137241], [-0.02787332609295845, -0.0248483307659626, -0.01767565682530403], [0.028928352519869804, -0.05056720972061157, -0.02601526863873005]], [[-0.01066645048558712, -0.0510881133377552, 0.02579726278781891], [-0.07397084683179855, -0.010631611570715904, -0.06718642264604568], [-0.03754780441522598, 0.016341442242264748, -0.019805457442998886]], [[-0.044816840440034866, 0.01910560205578804, -0.07352354377508163], [-0.06657084822654724, -0.06326074153184891, -0.07147160917520523], [0.003541849786415696, -0.048492126166820526, -0.0054604727774858475]]], [[[-0.3742813169956207, -0.4342687726020813, -0.09304671734571457], [0.31506142020225525, -2.664816379547119, 0.014030201360583305], [1.3363476991653442, -1.2704497575759888, -1.3888847827911377]], [[1.7143760919570923, -0.0017590264324098825, -0.6909865736961365], [-2.958824634552002, 1.6308398246765137, 2.7421529293060303], [-3.1464431285858154, -3.43642258644104, 0.4700016379356384]], [[2.6461620330810547, -1.538199782371521, -2.9076478481292725], [1.9812945127487183, -1.9368864297866821, -0.707410454750061], [2.4360690116882324, 1.8187236785888672, 3.7249765396118164]], [[-0.33515310287475586, -0.288431853055954, 0.9472335577011108], [0.16097719967365265, -1.2739094495773315, 1.0404927730560303], [-1.0781129598617554, -0.6476313471794128, 1.6440047025680542]], [[-0.8911852836608887, 0.6218764185905457, 1.3263342380523682], [2.5161545276641846, -0.9237108826637268, -2.064887523651123], [0.8166537880897522, -0.12682396173477173, -0.753025472164154]], [[1.9789581298828125, 1.7727196216583252, -0.5589627027511597], [-1.6055145263671875, 1.6699473857879639, -0.6653509736061096], [-1.8246127367019653, 1.9555730819702148, 0.863344132900238]], [[0.18549105525016785, 0.6882684826850891, -0.4749677777290344], [-0.9596351981163025, -0.4112115800380707, -0.5462742447853088], [1.2441550493240356, -1.644907832145691, -2.336527109146118]], [[1.608152151107788, -1.2618298530578613, -1.1642673015594482], [0.4919637143611908, -0.18068747222423553, 0.16633760929107666], [-1.5440058708190918, -0.36613011360168457, 1.3244774341583252]], [[-0.9393860101699829, 0.06326509267091751, 1.9414390325546265], [-0.22630971670150757, -2.415888786315918, -1.9393537044525146], [1.7788643836975098, -1.8033868074417114, -1.9189257621765137]], [[2.179774761199951, -1.2270528078079224, -0.5598702430725098], [2.2021093368530273, 0.12348465621471405, -0.36383485794067383], [-0.1371927559375763, 0.5766293406486511, 1.2717726230621338]], [[1.1112728118896484, -1.4120906591415405, -1.7682045698165894], [-0.9709932208061218, 1.2400985956192017, 0.30524319410324097], [-3.1653740406036377, 0.700833797454834, 1.1228843927383423]], [[-0.3711693584918976, -0.06975569576025009, -0.16839191317558289], [1.33595871925354, -2.2271225452423096, -2.0091402530670166], [2.0755231380462646, 0.7047629356384277, -0.1327277421951294]], [[-1.6383023262023926, -1.7438030242919922, -0.6959235668182373], [-0.9550861716270447, -1.503615379333496, 0.37110838294029236], [-2.2456912994384766, -0.6908923983573914, 2.757758378982544]], [[-1.5388132333755493, -0.7081261277198792, 0.2832694351673126], [-0.7078096866607666, -0.6675692200660706, -1.2313112020492554], [1.0156241655349731, -0.6521545648574829, -1.3558366298675537]], [[0.7440829873085022, -0.04362378269433975, -0.319482684135437], [-0.9665971398353577, -1.7398725748062134, 0.10768956691026688], [0.20786726474761963, -1.759745478630066, 0.020265204831957817]], [[1.714861512184143, 0.5950296521186829, -2.337773561477661], [-1.6282281875610352, 0.7119282484054565, 0.24079841375350952], [-2.0510106086730957, 0.0845620334148407, 1.2207351922988892]], [[-1.3458921909332275, -0.5195583701133728, 0.28143060207366943], [-0.9752687811851501, -1.1878257989883423, 0.7434064149856567], [1.2054413557052612, -1.6053932905197144, -1.4465373754501343]], [[-0.33614087104797363, 0.2517924904823303, 0.8368806838989258], [-0.4661272168159485, -0.32547202706336975, 0.6204971075057983], [1.0196330547332764, -1.0879632234573364, -1.6320598125457764]], [[1.6174293756484985, -1.550950288772583, -1.8353508710861206], [-0.8178438544273376, -1.3869224786758423, 1.1385242938995361], [1.7184844017028809, -1.4747231006622314, 1.9499046802520752]], [[1.0510832071304321, -1.4060131311416626, -2.3085126876831055], [2.037526845932007, -1.4978560209274292, -1.5103470087051392], [2.311119318008423, 2.7836191654205322, 2.0153822898864746]], [[-0.08636562526226044, 0.5999687910079956, 1.7111116647720337], [2.7618467807769775, -0.0360417515039444, -0.8867977857589722], [-0.14550341665744781, -0.3701595664024353, -0.27407652139663696]], [[-0.20980075001716614, 0.7839353680610657, 1.7544666528701782], [1.9418765306472778, -0.6163954734802246, -1.7541389465332031], [1.7494865655899048, -0.7369515895843506, -1.6535425186157227]], [[1.0997024774551392, 1.8509441614151, 0.5527902841567993], [0.48275136947631836, 1.8845326900482178, -0.30339545011520386], [-0.7694414258003235, -0.3563922047615051, -1.2827293872833252]], [[0.6819172501564026, -1.4323828220367432, -0.9612258672714233], [1.3051925897598267, -0.41991886496543884, -0.3072306215763092], [-1.086883544921875, 0.17575637996196747, 1.723924160003662]], [[2.0176610946655273, 2.462071657180786, -0.8505915403366089], [-1.9187595844268799, 1.7677353620529175, -0.9489551782608032], [-2.36076283454895, 2.067995071411133, 0.8953276872634888]], [[1.8193260431289673, -0.3763332962989807, -0.7982304692268372], [-2.703420639038086, 2.1883702278137207, 2.6322596073150635], [-3.9184679985046387, -2.5345616340637207, 0.9208389520645142]], [[0.8800429701805115, 0.6219111084938049, 0.464450865983963], [-1.3733863830566406, 0.6241655945777893, 0.8591939806938171], [-0.8229836225509644, 0.8861337304115295, 1.5677133798599243]], [[-0.8461776971817017, -1.2214338779449463, -0.30212506651878357], [-0.3882003724575043, -1.4258304834365845, 0.35667160153388977], [0.7350574135780334, -0.7120196223258972, -0.6552321314811707]], [[-1.463787317276001, -0.33417052030563354, 0.6726499199867249], [0.13468660414218903, -2.1747634410858154, -1.2907978296279907], [1.5398236513137817, -0.7932596802711487, -0.9113677144050598]], [[1.5819586515426636, -0.258709579706192, 0.9988629221916199], [1.2011164426803589, -0.9882739782333374, 0.9291263818740845], [-1.172205924987793, -0.3613136410713196, 2.024984121322632]], [[1.6630181074142456, -1.1984739303588867, -1.4269983768463135], [-1.9118152856826782, 1.3476260900497437, 1.1847225427627563], [-3.757039785385132, -0.9623162746429443, 0.2907850742340088]], [[0.5739622712135315, 0.44326967000961304, 1.3156883716583252], [1.7422982454299927, 1.6321773529052734, -0.9847836494445801], [-0.07727762311697006, 0.5504612326622009, -1.1317150592803955]], [[0.6160891652107239, -0.9748128652572632, -0.5393974184989929], [2.8669705390930176, 3.8647520542144775, -0.5895823836326599], [-2.085097074508667, 2.3481459617614746, 2.1426053047180176]], [[1.052069902420044, -0.0901774987578392, -0.08351113647222519], [-0.17655961215496063, 0.8192750811576843, -0.07342949509620667], [-0.8263139128684998, 1.8996909856796265, 1.6909278631210327]], [[0.22726772725582123, 0.5417088866233826, -1.129881739616394], [-0.9334098696708679, -0.93658846616745, -0.7080647945404053], [1.9897810220718384, -1.279600739479065, -2.1496121883392334]], [[1.800166368484497, -1.179654836654663, -1.2235909700393677], [1.7221060991287231, -0.6367948651313782, -1.4852795600891113], [-0.4214610457420349, 0.37570908665657043, 1.8997529745101929]], [[-0.4898586571216583, 0.8908964395523071, 1.7882370948791504], [1.906662940979004, -1.0381255149841309, -2.127213716506958], [1.7347429990768433, -0.702233612537384, -1.0548994541168213]], [[-0.8483126163482666, -1.6393370628356934, -1.1059142351150513], [1.792396068572998, 0.5016553401947021, 0.1117638647556305], [-1.4640192985534668, -0.6253136396408081, 0.7531668543815613]], [[-1.2313534021377563, -2.6866705417633057, -1.7216383218765259], [0.012978371232748032, 1.4466841220855713, 0.0776161178946495], [-2.542475938796997, 1.6351343393325806, 1.6266530752182007]], [[1.4988161325454712, -1.450678825378418, -0.24788469076156616], [1.5108835697174072, -1.014788031578064, -0.9764819741249084], [-0.4295883774757385, -0.12402016669511795, 1.626158595085144]], [[-0.9374672770500183, -1.8742752075195312, -2.662602663040161], [0.7169478535652161, 0.37376096844673157, 0.013263621367514133], [-3.8016912937164307, -0.9371078014373779, 1.3108229637145996]], [[0.8013445138931274, 0.4675511419773102, 0.34188440442085266], [-1.2721291780471802, -0.9082531332969666, 0.6573534607887268], [2.053161382675171, -2.4222724437713623, -2.745596408843994]], [[-1.321853518486023, -2.1354408264160156, -1.8972406387329102], [0.3422151207923889, 0.047588150948286057, -1.3957058191299438], [-1.4131054878234863, 1.7946631908416748, 1.691565990447998]], [[-0.3785758316516876, 0.21948786079883575, -0.21431812644004822], [0.49598047137260437, -0.8735371828079224, -0.8624681830406189], [0.3768189549446106, -0.171105295419693, 1.2942146062850952]], [[0.40669143199920654, -1.204771637916565, -0.4997471868991852], [1.8539466857910156, 4.235177040100098, -0.05330783873796463], [-2.489445686340332, 2.382838487625122, 2.6744940280914307]]], [[[-4.423710346221924, -2.37085223197937, -4.260334014892578], [1.379271149635315, 2.2218000888824463, 0.8746663928031921], [-1.9770158529281616, -0.7307716608047485, -1.7853033542633057]], [[-2.592435598373413, -2.6877081394195557, -2.6981043815612793], [-0.7531083822250366, -1.9254481792449951, -1.1251373291015625], [-1.2870545387268066, -0.02646026574075222, 0.536807656288147]], [[-6.017164707183838, -0.6132577657699585, -0.2325390726327896], [-0.5227687954902649, 1.8314759731292725, 3.0860447883605957], [-1.4385284185409546, 1.4624801874160767, 2.326469898223877]], [[-0.31964901089668274, -0.9003972411155701, -1.3675339221954346], [-1.384789228439331, -0.009349657222628593, 0.10157498717308044], [-0.5100496411323547, 0.6324313879013062, 0.4625919461250305]], [[-1.794378638267517, -2.050114870071411, -3.1588406562805176], [-0.7362867593765259, 0.8924157023429871, 0.21604330837726593], [0.8374431133270264, 1.4150147438049316, 2.667797327041626]], [[-6.058926105499268, -4.400994300842285, -3.5797579288482666], [2.839470148086548, 3.370922088623047, 2.46193528175354], [1.19285249710083, 1.5411937236785889, 2.2531778812408447]], [[-4.943257808685303, -2.709488868713379, -4.803807735443115], [1.3955472707748413, 2.196974992752075, 0.5756674408912659], [-0.8717463612556458, 0.02296694740653038, -0.18787141144275665]], [[-4.9553375244140625, -4.174396514892578, -1.7289342880249023], [0.6446841359138489, -0.5809637904167175, 0.2122848778963089], [1.7293684482574463, -0.017430152744054794, -0.7972089052200317]], [[-1.7216603755950928, -1.5859386920928955, -1.8016092777252197], [-0.08106473833322525, 0.7532223463058472, 0.9007551670074463], [-1.3191243410110474, -0.5306164026260376, 0.22492359578609467]], [[-4.27354097366333, -4.089107513427734, -1.1701686382293701], [0.5605638027191162, -1.4649635553359985, 0.6194953918457031], [2.8498051166534424, 0.8197662830352783, 0.7319634556770325]], [[-4.4765448570251465, -2.7399251461029053, -2.815194845199585], [1.488432765007019, 1.026604175567627, -1.0616439580917358], [0.7284438610076904, 0.13985837996006012, -0.6571686863899231]], [[-2.3869709968566895, -2.2807581424713135, -1.5729416608810425], [0.849507749080658, 1.897596001625061, 1.424082636833191], [-1.245519995689392, -0.6572785377502441, 0.7577266693115234]], [[-4.858354091644287, 0.30916470289230347, 0.01711350679397583], [-2.0104854106903076, 1.8189857006072998, 2.0027759075164795], [-1.7474229335784912, 1.802445650100708, 1.5237746238708496]], [[-1.559424877166748, -1.6644928455352783, -1.4161694049835205], [0.09925105422735214, 0.6471667289733887, 0.24113118648529053], [-1.0132663249969482, -0.20217645168304443, -0.19682590663433075]], [[-3.0378384590148926, -0.5194873809814453, -1.1536537408828735], [-0.5351213216781616, 0.5699419975280762, 1.2922523021697998], [-1.9786771535873413, 1.058005928993225, 0.7045362591743469]], [[-3.618673801422119, -2.01456356048584, -1.9189058542251587], [1.1158407926559448, 0.7823832631111145, 1.3723366260528564], [-0.34831514954566956, 0.9984772205352783, 0.7369475364685059]], [[-1.0545817613601685, -1.4736266136169434, -1.0268430709838867], [0.4385547339916229, 1.0602163076400757, 0.31183406710624695], [-1.526678442955017, 0.006563764996826649, -0.22878289222717285]], [[-2.485922336578369, -1.1557059288024902, -0.7713422179222107], [-0.1298469752073288, 0.4925153851509094, 0.27594998478889465], [-1.6951347589492798, 0.29077818989753723, -0.06342305988073349]], [[-1.850348949432373, -0.06733359396457672, 0.13302543759346008], [-0.92634516954422, -0.07495048642158508, 0.43142765760421753], [-1.4044923782348633, 0.6475896239280701, 1.3101226091384888]], [[-2.6667463779449463, -0.06805217266082764, -1.083290934562683], [0.6210581064224243, 2.712340831756592, 1.4551974534988403], [-2.1674792766571045, 0.2565214931964874, -0.579135537147522]], [[-0.523942768573761, -0.6546337008476257, -2.0971567630767822], [-1.6937053203582764, -0.2970515787601471, 0.22817954421043396], [1.6296991109848022, 1.7783993482589722, 2.1733357906341553]], [[-2.8299992084503174, -2.8782291412353516, -3.515444040298462], [0.8329946994781494, 2.292922258377075, 1.3564289808273315], [-0.6762951612472534, -0.4482886493206024, 1.0770606994628906]], [[-5.2470574378967285, -4.175698757171631, -3.2961854934692383], [0.800324022769928, 1.2026939392089844, 0.8437485694885254], [-0.3589220941066742, 0.6716987490653992, 2.227346420288086]], [[-3.256981611251831, -3.0149288177490234, -2.818936824798584], [-0.053393591195344925, 0.1145668774843216, 0.10313484817743301], [0.7415315508842468, -0.41584312915802, -1.4195961952209473]], [[-6.299348831176758, -5.382206439971924, -4.27475118637085], [2.1741416454315186, 1.9076091051101685, 2.475628614425659], [0.4697045683860779, 0.9350847005844116, 1.7849618196487427]], [[-2.7592287063598633, -4.250632286071777, -2.9712798595428467], [-0.2703847289085388, -1.3337234258651733, -0.6643739938735962], [-2.244277000427246, -0.917487382888794, -0.25939592719078064]], [[-5.924123764038086, -4.42177152633667, -2.728912115097046], [-0.7810173034667969, -0.5924225449562073, 2.164750099182129], [-0.5214961171150208, 1.429006814956665, 2.374798059463501]], [[-2.426985263824463, -0.5909501910209656, -0.6090917587280273], [-0.32222697138786316, 0.9552765488624573, 1.8206907510757446], [-1.2116585969924927, 1.5058389902114868, 0.9771677255630493]], [[-1.3281265497207642, -1.365801215171814, -0.6053736805915833], [0.0322066992521286, 0.9076562523841858, 0.8200123310089111], [-1.4435781240463257, -0.1115054041147232, 0.5001075267791748]], [[-3.780177116394043, -0.9269797205924988, -1.3608205318450928], [-0.3120960593223572, 1.4091910123825073, 0.5520364046096802], [-0.781272828578949, 0.5516888499259949, 0.21151505410671234]], [[-3.0624196529388428, -2.0938045978546143, -0.9306860566139221], [0.35089150071144104, -1.1925978660583496, -0.4368664622306824], [-0.5369245409965515, -0.12312212586402893, -0.06692316383123398]], [[-5.706515789031982, -4.039086818695068, -3.5550286769866943], [3.0449044704437256, 3.7032053470611572, 4.57321834564209], [-0.0846162885427475, 1.7210749387741089, 2.617807626724243]], [[-5.361629962921143, -4.187159538269043, -4.522389888763428], [1.708174705505371, 2.745354652404785, 5.386399745941162], [-0.7411580085754395, 1.293898582458496, 0.7840994596481323]], [[-6.026662826538086, -4.74930477142334, -3.90311861038208], [-0.3658391535282135, 0.5075975060462952, 0.02437307871878147], [-0.3455407917499542, -0.20026761293411255, -0.012705615721642971]], [[-5.246877193450928, -3.405099630355835, -5.005302906036377], [1.7751539945602417, 2.5184245109558105, 0.9271823167800903], [-0.4516521096229553, 0.07544974982738495, 0.06716601550579071]], [[-4.816757678985596, -1.2269177436828613, -1.6294227838516235], [-1.1731709241867065, 0.41851940751075745, 0.2985585629940033], [2.626862049102783, 2.4135901927948, 0.03925471752882004]], [[-2.2077293395996094, -2.2424707412719727, -3.3953773975372314], [-0.10183683782815933, 1.0716077089309692, 0.4109446406364441], [-0.004530209116637707, -0.13931013643741608, 1.3382161855697632]], [[-0.4697621166706085, -0.006806610617786646, -2.060295343399048], [-0.572297215461731, 0.9072304368019104, 1.0689570903778076], [0.682763397693634, 1.19044029712677, 0.2439996302127838]], [[-4.347111225128174, -5.177974700927734, -4.21091890335083], [0.6667984127998352, 0.7961665987968445, 0.8568220734596252], [0.9786192774772644, 0.376211941242218, 0.6014103889465332]], [[-4.84641170501709, -2.4905288219451904, -2.4630541801452637], [-0.8206700086593628, -0.48900750279426575, -0.9996933341026306], [1.9553625583648682, 0.8602895140647888, -1.2416911125183105]], [[-1.7123712301254272, -1.354883074760437, -3.5024235248565674], [0.2282162606716156, 1.0449353456497192, 1.7890233993530273], [0.6298063397407532, 1.1752703189849854, 0.5184323787689209]], [[-2.91614031791687, -1.404545783996582, -3.0486984252929688], [1.1592870950698853, 1.4337902069091797, 0.9623924493789673], [-0.6654238700866699, 0.6703400015830994, -0.17441818118095398]], [[-5.0436930656433105, -4.176025867462158, -2.942873001098633], [-0.27902480959892273, 0.5714805722236633, 0.22534339129924774], [0.0735141709446907, -0.07999087870121002, 0.221161350607872]], [[-3.2286829948425293, -0.04439609497785568, -2.5761876106262207], [-1.6757532358169556, 2.250986099243164, 0.5842267870903015], [-1.8480324745178223, 1.0185601711273193, 0.1766393482685089]], [[-5.816243648529053, -4.144069194793701, -4.811051845550537], [1.8667677640914917, 2.5757105350494385, 4.64207649230957], [-0.7641544938087463, 1.7500300407409668, 1.299074649810791]]], [[[-0.03884734958410263, -0.5207659602165222, -0.34968721866607666], [-0.3222496807575226, -0.9501908421516418, -0.6718438863754272], [0.17509688436985016, 0.12922704219818115, 0.06431722640991211]], [[-0.3062305748462677, -0.9581105709075928, -0.26147517561912537], [-0.5379709005355835, -0.841084897518158, 0.2460973709821701], [-0.16600464284420013, 0.11944956332445145, 0.29429924488067627]], [[0.12691687047481537, -0.43726029992103577, -0.310228168964386], [-0.03785517439246178, -0.25818100571632385, 0.45209556818008423], [-0.25082120299339294, 0.6077712774276733, 0.24624282121658325]], [[-0.058552876114845276, 0.036464136093854904, -0.3213510513305664], [-0.24939653277397156, -0.21650393307209015, 0.14303389191627502], [-0.30964553356170654, -0.061153262853622437, -0.12770050764083862]], [[-0.07388441264629364, -0.32773956656455994, -0.21551445126533508], [-0.4399434030056, -1.8402142524719238, -0.5636922717094421], [-0.09347715228796005, -0.14728593826293945, 0.11319192498922348]], [[-0.3210345208644867, -0.22515062987804413, -0.15172190964221954], [-0.1818997859954834, -0.9283376336097717, 0.08861784636974335], [-0.022007936611771584, 0.6393387913703918, -0.45214584469795227]], [[-0.3673122823238373, 0.021859796717762947, 0.5049194097518921], [-0.5424745082855225, -1.040507197380066, -0.5982116460800171], [-0.139572411775589, -0.704605221748352, -0.08872658759355545]], [[-0.148977130651474, -0.597596287727356, -0.5040929913520813], [-0.10038192570209503, -0.29880139231681824, -0.20380228757858276], [0.21248026192188263, 0.2825891673564911, 0.10698099434375763]], [[-0.34276968240737915, -0.6297910809516907, -1.028673529624939], [-0.7056103348731995, -1.1038419008255005, -0.19765816628932953], [-0.3843233287334442, -0.019588138908147812, 0.5583209991455078]], [[-0.17604529857635498, -0.233632430434227, 0.21860899031162262], [-0.18339039385318756, -0.2957598567008972, -0.0658642128109932], [0.30925577878952026, 0.019451569765806198, 0.2781972289085388]], [[-0.347288578748703, -0.1935686320066452, -0.18311965465545654], [0.00031159387435764074, -0.332759827375412, -0.8344223499298096], [-0.043890330940485, -0.422199010848999, -0.31867972016334534]], [[-0.26033738255500793, 0.03897543624043465, 0.27782702445983887], [0.06995755434036255, -0.3350619673728943, -0.568175196647644], [0.2769463360309601, -0.29256460070610046, -0.4618820250034332]], [[-0.10163465142250061, -0.7463553547859192, 0.24771040678024292], [-0.02193339355289936, -0.44974154233932495, 0.3094737231731415], [0.14466775953769684, 0.5689813494682312, 0.29060760140419006]], [[-0.2604183256626129, -0.27759191393852234, -0.5468276143074036], [-0.06909813731908798, -0.08257964998483658, -0.05718474090099335], [0.21092434227466583, -0.021268507465720177, 0.15680871903896332]], [[-0.1728297472000122, -0.6139569878578186, -0.43296152353286743], [-0.539187490940094, -0.6063017249107361, -0.05606568977236748], [-0.1623048484325409, 0.046534281224012375, -0.25933632254600525]], [[-0.05919951945543289, -0.4190649092197418, -0.9273848533630371], [-0.17680807411670685, -0.5686793923377991, 0.1281118094921112], [-0.45562440156936646, 0.6118715405464172, 0.22606369853019714]], [[-0.26023876667022705, -0.23946520686149597, -0.029215700924396515], [-0.18301300704479218, -0.2502182126045227, -0.06661152839660645], [0.2486613541841507, 0.130591481924057, 0.05496387556195259]], [[-0.15367265045642853, -0.13836809992790222, -0.43713170289993286], [-0.35467082262039185, -0.21497027575969696, -0.38010162115097046], [0.023776670917868614, -0.07916631549596786, 0.23043093085289001]], [[-0.061044398695230484, -0.3477817475795746, -0.2290087193250656], [-0.22502143681049347, -0.1900472790002823, 0.26269328594207764], [-0.128693625330925, 0.2034333050251007, -0.18237383663654327]], [[-0.30422744154930115, -0.3028523623943329, -0.14496324956417084], [-0.0971493199467659, -0.29782381653785706, -0.45123857259750366], [0.23987169563770294, 0.43120077252388, -0.6793429851531982]], [[-0.2941906750202179, -0.7964112162590027, -0.786521852016449], [-0.4350312650203705, -1.7945054769515991, 0.15136012434959412], [-0.10950617492198944, -0.13500666618347168, 0.13080109655857086]], [[-0.09627657383680344, -0.13365934789180756, 0.39019739627838135], [-0.44460850954055786, -1.346366047859192, -1.2797151803970337], [0.08570335805416107, -0.28316691517829895, 0.06478622555732727]], [[-0.24767039716243744, -0.6919527053833008, -0.3022554814815521], [-0.19775176048278809, -1.828546166419983, -0.563526451587677], [-0.1912834793329239, 0.21886153519153595, 0.5621495842933655]], [[-0.01928790844976902, -0.1950782835483551, 0.05631911754608154], [0.05865734815597534, -0.0745958685874939, -0.09534192085266113], [0.19096435606479645, 0.15854308009147644, -0.08489575237035751]], [[-0.3073801100254059, -0.9680466651916504, -0.14673036336898804], [-0.2780497968196869, -1.42411470413208, 0.33979472517967224], [-0.1565500795841217, 1.0008419752120972, -0.056633949279785156]], [[-1.0908989906311035, -1.3255655765533447, -0.4661317765712738], [-0.6770222783088684, -1.0593456029891968, -0.05784999579191208], [-0.5814063549041748, -0.036514025181531906, 0.1761460304260254]], [[-0.5700650811195374, -1.7174135446548462, 0.024788688868284225], [-0.7611647248268127, -1.371020793914795, 1.0787360668182373], [0.23151622712612152, 1.4289849996566772, 0.7382929921150208]], [[-0.0888245478272438, -0.5600286722183228, 0.23285964131355286], [-0.5946949124336243, -0.42403775453567505, 0.26785510778427124], [-0.06233375146985054, 0.5666266679763794, 0.03355152904987335]], [[-0.2585037648677826, -0.19674766063690186, -0.21823318302631378], [-0.09819106757640839, -0.09253191947937012, 0.1280149221420288], [0.0276706051081419, -0.33449697494506836, 0.1126786395907402]], [[-0.09119860827922821, -0.050569675862789154, -0.14538608491420746], [0.08992481976747513, -0.4537575840950012, -0.46719011664390564], [0.09589312225580215, -0.004968584980815649, -0.005169645883142948]], [[-0.0658794566988945, 0.06854085624217987, 0.2981727719306946], [0.16140241920948029, -0.06516274064779282, -0.7115628123283386], [0.013568070717155933, -0.4681262969970703, -0.6978096961975098]], [[-0.26353365182876587, -1.2750461101531982, 0.012900485657155514], [-0.22597791254520416, -1.650676965713501, -0.17384666204452515], [-0.19991645216941833, 0.3227704167366028, 0.5727896094322205]], [[-0.46738728880882263, -1.6383326053619385, 0.5605542063713074], [-0.4951874613761902, -0.7935025095939636, 0.36665239930152893], [0.08363412320613861, 0.4417683184146881, -0.41901904344558716]], [[-0.14298349618911743, -0.1724458783864975, -0.21669715642929077], [0.2771642506122589, 0.12873351573944092, 0.2371540367603302], [-0.00029349065152928233, 0.059077583253383636, -0.07349836081266403]], [[-0.5254733562469482, -0.3502213954925537, 0.36555859446525574], [-0.7887975573539734, -1.4545451402664185, -0.5842976570129395], [-0.11769682914018631, -0.45521092414855957, -0.24340634047985077]], [[0.06158795952796936, 0.16632041335105896, -0.2286759912967682], [-0.05688131973147392, 0.14979387819766998, 0.13796763122081757], [0.2442043125629425, 0.5704547762870789, 0.4266147315502167]], [[-0.14859315752983093, -0.13644300401210785, 0.15664219856262207], [-0.3645639717578888, -1.0934667587280273, -1.1865313053131104], [-0.005285714752972126, -0.2967830300331116, 0.012674965895712376]], [[-0.16570641100406647, -0.4290584921836853, -0.6040309071540833], [0.12642426788806915, -0.9906732439994812, -0.13459205627441406], [-0.45655491948127747, -0.366121768951416, 0.14246076345443726]], [[-0.36229702830314636, -0.6322469711303711, 0.06896352022886276], [0.4202677011489868, -0.40288376808166504, -0.8428603410720825], [0.2194412797689438, -0.48099857568740845, -0.2496541291475296]], [[0.014133067801594734, -0.08946290612220764, -0.36245355010032654], [-0.10090599209070206, -0.21379950642585754, -0.6078699827194214], [0.14344732463359833, 0.1357194036245346, 0.2538895905017853]], [[-0.7631343603134155, -1.3834172487258911, -1.4164421558380127], [-0.29618847370147705, -1.8739558458328247, -0.3422987163066864], [-0.7241156101226807, -0.3531782925128937, 0.5237253904342651]], [[-0.25738874077796936, -0.38490745425224304, -0.03137027472257614], [-0.8074468374252319, -0.7212463617324829, 0.2372887134552002], [-0.08217659592628479, 0.32423460483551025, 0.22165849804878235]], [[-0.2914511561393738, -0.35662412643432617, -0.32536038756370544], [-0.05429179593920708, -0.03886527940630913, -0.2066059410572052], [0.10110916197299957, 0.2812223434448242, 0.3950462341308594]], [[-0.0022352312225848436, -0.29812631011009216, 0.18535195291042328], [-0.2749153971672058, -0.3769057095050812, -0.04790155962109566], [0.08821602910757065, 0.3200776278972626, -0.002356448909267783]], [[-0.5260178446769714, -1.3271428346633911, 0.3030772805213928], [-0.6623960733413696, -0.7241082191467285, -0.06253421306610107], [-0.00291003892198205, 0.6314116716384888, -0.25950148701667786]]], [[[-0.013430112041532993, -0.04130230471491814, 0.0030857676174491644], [0.009188368916511536, -0.010297197848558426, -0.07314099371433258], [-0.010738065466284752, 0.026289375498890877, -0.05280951410531998]], [[0.005693896673619747, 0.028605252504348755, -0.03683273866772652], [-0.053207237273454666, -0.07580451667308807, -0.009103110991418362], [0.02972467616200447, 0.00407770462334156, -0.09187760204076767]], [[-0.0674462765455246, -0.034585315734148026, 0.050028398633003235], [-0.0424635075032711, -0.059751030057668686, -0.04864818975329399], [0.0027284040115773678, -0.013869651593267918, -0.048871878534555435]], [[-0.02881200611591339, -0.010202120989561081, -0.014746913686394691], [-0.04763780161738396, -0.036109231412410736, -0.03853905200958252], [-0.055894896388053894, -0.05708719789981842, -0.08269068598747253]], [[-0.04104103893041611, -0.021584874019026756, -0.05196422338485718], [-0.035334937274456024, -0.05246306583285332, 0.005736100487411022], [-0.011803284287452698, 0.06245294585824013, -0.07256612926721573]], [[-0.07452341169118881, -0.017964350059628487, -0.05763194337487221], [0.02653203159570694, -0.056000079959630966, 0.0621403343975544], [0.03418425843119621, -0.027141038328409195, 0.0007419492467306554]], [[0.02575429156422615, 0.01391901820898056, -0.06801129132509232], [-0.023466216400265694, -0.08003075420856476, 0.007841006852686405], [-0.01961350254714489, -0.003951194230467081, -0.07319723814725876]], [[-0.05577129125595093, -0.02685174159705639, 0.007437848951667547], [-0.0290509145706892, -0.04002532735466957, 0.02721000835299492], [0.06906451284885406, -0.04085884615778923, 0.023269757628440857]], [[-0.005344321019947529, 0.012998063117265701, -0.029917582869529724], [-0.09485357999801636, -0.06271713972091675, -0.031086768954992294], [0.05642515793442726, -0.07201050966978073, 0.010250376537442207]], [[-0.006068739574402571, 0.0034086478408426046, 0.019233793020248413], [-0.0364190973341465, -0.052380550652742386, -0.007424104958772659], [0.00953688658773899, -0.0309551153331995, -0.06333478540182114]], [[-0.009980875998735428, 0.006698524113744497, -0.029035544022917747], [-0.07920975983142853, -0.10045245289802551, -0.04268120974302292], [0.056302495300769806, -0.028497353196144104, -0.014870993793010712]], [[-0.050151705741882324, 0.0210161954164505, -0.038313139230012894], [-0.0374901182949543, -0.08400722593069077, -0.07927297055721283], [-0.0284438394010067, 0.005193902645260096, 0.003971066325902939]], [[-0.058142684400081635, -0.020205717533826828, -0.03447263315320015], [0.030533893033862114, -0.0737544372677803, -0.009457327425479889], [0.046752359718084335, 0.015217523090541363, -0.03747997060418129]], [[-0.005491514690220356, -0.03666146099567413, -0.015419898554682732], [-0.06498786062002182, -0.09029770642518997, -0.07601852715015411], [-0.016961272805929184, -0.008396287448704243, -0.0243131872266531]], [[-0.03417021781206131, 0.01803799718618393, -0.020222395658493042], [-0.04509830102324486, -0.00022442874615080655, -0.06899386644363403], [-0.017316685989499092, -0.020616769790649414, -0.0174882635474205]], [[-0.0337047353386879, -0.03602548688650131, 0.009992440231144428], [-0.014732875861227512, -0.03709172457456589, -0.00808695051819086], [0.03944095969200134, 0.004204307217150927, -0.010226218961179256]], [[-0.04100373759865761, 0.03385019302368164, 0.008427283726632595], [-0.0294013861566782, -0.01157727837562561, 0.008038071915507317], [-0.03797789290547371, -0.021627768874168396, -0.07207535207271576]], [[0.05085417255759239, 0.020877182483673096, -0.03530650585889816], [-0.021160731092095375, -0.025706030428409576, -0.03499108552932739], [0.045859985053539276, 0.009726065210998058, -0.08415218442678452]], [[-0.06588853150606155, 0.0004645382286980748, -0.017826059833168983], [-0.002986632287502289, -0.03682585433125496, 0.016889318823814392], [-0.049456097185611725, 0.013339543715119362, 0.002842297777533531]], [[-0.002343780593946576, -0.035181786864995956, 0.020258517935872078], [-0.08468235284090042, -0.013484636321663857, 0.008534426800906658], [-0.09471841156482697, -0.09247922897338867, 0.05977380648255348]], [[-0.04228806495666504, -0.05757742375135422, -0.021609073504805565], [-0.10497891902923584, 0.009986881166696548, 0.012150689028203487], [-0.0037595804315060377, 0.013212411664426327, 0.0001864345249487087]], [[-0.014459313824772835, -0.055516645312309265, 0.01663011685013771], [-0.05070211738348007, 0.005742540583014488, -0.04447520151734352], [-0.023234877735376358, 0.05210431292653084, -0.013850702904164791]], [[-0.03183777630329132, -0.03410258889198303, 0.013641946949064732], [0.015450069680809975, -0.05246371775865555, -0.05388578400015831], [0.004657828249037266, 0.01902238465845585, -0.03186926245689392]], [[-0.036782898008823395, -0.06425880640745163, 0.008752970024943352], [-0.08577951043844223, -0.0828271359205246, 0.0030094622634351254], [0.01961076259613037, -0.01124708354473114, -0.0033505032770335674]], [[-0.06755389273166656, 0.006883798632770777, -0.036271609365940094], [-0.056488316506147385, -0.06892935186624527, -0.012609339319169521], [-0.12235429137945175, -0.02216545306146145, -0.019075801596045494]], [[-0.06664003431797028, -0.05128728598356247, -0.03154248371720314], [-0.009167661890387535, -0.00834356714040041, -0.06515320390462875], [-0.011150630190968513, -0.05484626442193985, -0.046862151473760605]], [[-0.04859112575650215, -0.052485719323158264, -0.03155568242073059], [-0.0610099695622921, -0.016440704464912415, 0.02598239853978157], [0.03780132532119751, -0.05027651786804199, 0.011035064235329628]], [[-0.008548654615879059, 0.04289560765028, -0.07316342741250992], [-0.0721539855003357, -0.08168841153383255, -0.07694955170154572], [0.01751200668513775, -0.008395661599934101, -0.026830876246094704]], [[-0.010187515057623386, -0.004079193342477083, -0.042340923100709915], [-0.057111240923404694, -0.08129575103521347, -0.009040847420692444], [-0.035105593502521515, -0.015644636005163193, -0.01881188154220581]], [[-0.04587407410144806, -0.045949071645736694, -0.06793420016765594], [-0.04222705960273743, -0.011167671531438828, 0.009136900305747986], [0.04245204105973244, -0.028590179979801178, -0.0184110589325428]], [[-0.015650765970349312, 0.014264342375099659, -0.033118829131126404], [-0.05155070126056671, -0.04484016075730324, -0.025826407596468925], [-0.058301761746406555, -0.013521776534616947, -0.007788499817252159]], [[0.00048527048784308136, 0.017632778733968735, -0.0184144489467144], [-0.01778513565659523, -0.04697743058204651, -0.036164749413728714], [0.020962553098797798, -0.03976871818304062, 0.016086304560303688]], [[0.035510990768671036, 0.012621733359992504, -0.029498547315597534], [-0.07159467041492462, -0.039476584643125534, -0.00237537850625813], [-0.03319905325770378, -0.07874315232038498, -0.08295117318630219]], [[0.030046919360756874, -0.02666422910988331, -0.060132261365652084], [-0.05408256873488426, 0.012736125849187374, -0.042986247688531876], [-0.032226718962192535, -0.05736731365323067, -0.012226956896483898]], [[-0.04070233926177025, -0.024295702576637268, -0.019723881036043167], [-0.02068774402141571, -0.0062478152103722095, -0.014212993904948235], [-0.03508962318301201, -0.018387814983725548, -0.05273221433162689]], [[-0.010539339855313301, 0.02001245878636837, -0.06497718393802643], [-0.038021087646484375, -0.1031491681933403, -0.03607762232422829], [-0.02262282557785511, -0.018649017438292503, 0.019552534446120262]], [[-0.0019118960481137037, -0.006471538916230202, -0.02326689101755619], [-0.10203834623098373, -0.05557572841644287, -0.012177680619060993], [-0.07300765067338943, -0.013349778018891811, -0.04022425413131714]], [[0.014517291449010372, -0.06903601437807083, -0.07814599573612213], [0.04258771613240242, -0.07800094038248062, 0.022426826879382133], [0.026094555854797363, -0.07758060842752457, 0.024941204115748405]], [[-0.04020373895764351, -0.05265061557292938, -0.07119767367839813], [-0.06399978697299957, -0.02661118470132351, -0.07615310698747635], [0.03565362095832825, -0.04597538709640503, -0.004462344106286764]], [[-0.04007812589406967, -0.016029926016926765, -0.03545638173818588], [-0.0038858221378177404, -0.06635980308055878, -0.023663530126214027], [0.028310470283031464, -0.06454426050186157, -0.052182573825120926]], [[-0.03420253470540047, -0.0013326718471944332, -0.04778328537940979], [0.015166898258030415, 0.005157696548849344, -0.014388004317879677], [0.004631059244275093, -0.018841136246919632, -0.07733690738677979]], [[-0.040748052299022675, -0.023341240361332893, -0.0522342212498188], [-0.011458185501396656, -0.04379745572805405, -0.05114426836371422], [-0.002988473977893591, -0.008990872651338577, 0.020401038229465485]], [[-0.00015045485633891076, 0.013080380856990814, -0.04435931518673897], [0.008088446222245693, -0.03415471315383911, -0.0036762922536581755], [0.01717381365597248, -0.06440264731645584, -0.032657772302627563]], [[-0.04632939398288727, -0.07152539491653442, -0.025959713384509087], [-0.023383276537060738, -0.041365817189216614, -0.004475838970392942], [-0.01831451803445816, 0.0004785665369126946, -0.028031105175614357]], [[-0.056339725852012634, -0.0386292040348053, -0.0639742836356163], [-0.039401814341545105, -0.03907427564263344, -0.033398836851119995], [-0.024087073281407356, -0.006091113667935133, 0.023331299424171448]]], [[[-0.08065533638000488, -0.01723015308380127, -0.10643606632947922], [-0.08974011242389679, -0.01906389370560646, -0.11276248097419739], [-0.11804699897766113, -0.011483849957585335, -0.11080186814069748]], [[-0.06237486004829407, -0.07732129096984863, -0.016991542652249336], [-0.07291073352098465, -0.04637229070067406, -0.04502471536397934], [-0.0918586477637291, -0.062623992562294, -0.10638795047998428]], [[0.02791796252131462, -0.0827849879860878, 0.010290412232279778], [-0.02206040918827057, -0.00868756603449583, -0.0672304779291153], [-0.030840078368782997, -0.02558065764605999, -0.04706873744726181]], [[-0.05142975226044655, 0.0026398906484246254, -0.10597754269838333], [-0.07666619122028351, -0.02021852508187294, -0.04497220367193222], [-0.021765755489468575, -0.0506884828209877, -0.06445711851119995]], [[-0.12150021642446518, -0.042757462710142136, -0.0832364484667778], [-0.04582541435956955, -0.04821497201919556, -0.06633807718753815], [-0.0859946608543396, -0.0677839070558548, -0.06531180441379547]], [[-0.010580262169241905, -0.06405095756053925, -0.019406702369451523], [-0.02620648965239525, -0.06809167563915253, 0.021865027025341988], [-0.021656151860952377, -0.05330516770482063, -0.09135553985834122]], [[-0.10494406521320343, 0.0016880675684660673, -0.08567820489406586], [-0.10088635236024857, -0.062289610505104065, -0.03990844637155533], [-0.093315988779068, 0.00016962770314421505, -0.03648899123072624]], [[-0.06447642296552658, 0.01817401684820652, -0.031233157962560654], [0.027512377128005028, -0.0029807898681610823, -0.06506706774234772], [-0.018756184726953506, -0.0072690402157604694, -0.0567561537027359]], [[-0.05482172220945358, -0.05863254517316818, -0.050932493060827255], [-0.011950640939176083, 0.03051150031387806, -0.03485448285937309], [-0.09658360481262207, -0.06477371603250504, -0.08709186315536499]], [[-0.09082290530204773, 0.047528378665447235, -0.043508969247341156], [-0.06736738979816437, 0.07086181640625, -0.032239366322755814], [-0.07324305176734924, 0.006743317004293203, -0.05507293716073036]], [[-0.08848021179437637, 0.0005050715990364552, -0.034664493054151535], [-0.06359893828630447, -0.029692109674215317, -0.05966572090983391], [-0.08315818756818771, 0.017227910459041595, -0.037113506346940994]], [[-0.09094155579805374, -0.05178382247686386, -0.04849053546786308], [-0.10184094309806824, -0.028873516246676445, -0.1075890064239502], [-0.04077780991792679, -0.021877195686101913, -0.07359834760427475]], [[-0.05240422487258911, -0.046134598553180695, -0.055274080485105515], [-0.08326121419668198, -0.03838443383574486, -0.04250869154930115], [-0.12580673396587372, -0.049216099083423615, -0.014765671454370022]], [[-0.10171889513731003, 0.011201695539057255, -0.03888044133782387], [-0.11944546550512314, -0.020880797877907753, -0.09365729987621307], [-0.06693271547555923, -0.04666488617658615, -0.08729371428489685]], [[-0.04780010133981705, -0.08421636372804642, -0.08607275784015656], [-0.03642573580145836, -0.046279970556497574, -0.09586404263973236], [-0.06989622861146927, -0.04502636194229126, -0.09804309159517288]], [[-0.048541631549596786, 0.006999067962169647, -0.02770104818046093], [0.029535001143813133, -0.062161050736904144, -0.044997669756412506], [-0.02095428667962551, -0.06387500464916229, -0.024435129016637802]], [[-0.01744522713124752, 0.02355439029633999, -0.10557388514280319], [-0.0347135029733181, -0.006997940596193075, -0.09055153280496597], [-0.06220955774188042, -0.015296058729290962, -0.039073992520570755]], [[-0.12349826097488403, 0.05001581460237503, -0.08703745156526566], [-0.06084660813212395, -0.02874351665377617, -0.1132216826081276], [-0.09903846681118011, 0.03843046724796295, -0.08562866598367691]], [[-0.010602369904518127, -0.025880608707666397, -0.02563220076262951], [-0.08640699833631516, -0.06040429323911667, -0.08197830617427826], [-0.09521444141864777, 0.0052991886623203754, -0.08332907408475876]], [[-0.05757364258170128, -0.09841937571763992, -0.053681839257478714], [-0.07851570844650269, -0.046753473579883575, -0.02684689126908779], [-0.06067245453596115, -0.0008926672744564712, -0.07124512642621994]], [[-0.09195701032876968, -0.09748627245426178, -0.01908976398408413], [-0.07270398736000061, -0.033087003976106644, -0.039184704422950745], [-0.027748480439186096, -0.08978130668401718, 0.001718814019113779]], [[-0.11603084206581116, -0.1109280064702034, -0.010938001796603203], [-0.07461053878068924, -0.10726580768823624, -0.07648154348134995], [-0.11262363195419312, -0.1431334763765335, -0.07233508676290512]], [[-0.013609837740659714, 0.0015679706120863557, -0.05478913336992264], [-0.0888524278998375, 0.021855425089597702, -0.06949525326490402], [-0.053233467042446136, -0.03800887241959572, -0.06904575228691101]], [[0.0010675174416974187, 0.008262891322374344, 0.007860024459660053], [-0.010036390274763107, -0.018175289034843445, -0.054909709841012955], [0.008959273807704449, -0.025706233456730843, -0.0029899030923843384]], [[-0.05571736395359039, -0.07916266471147537, -0.03464030474424362], [-0.03620317950844765, -0.01757684350013733, -0.02175500988960266], [-0.04901701956987381, 0.008478997275233269, -0.0622207336127758]], [[-0.00021786801517009735, -0.062108736485242844, -0.02128385752439499], [-0.036322567611932755, -0.13205213844776154, -0.05311964079737663], [-0.024670816957950592, -0.12549149990081787, -0.06884899735450745]], [[-0.04707732051610947, -0.0631968230009079, -0.03630548343062401], [-0.015666745603084564, -0.08245541900396347, -0.08882135152816772], [-0.003974169958382845, -0.01751980558037758, -0.059723127633333206]], [[-0.019814906641840935, 0.042023517191410065, -0.08000408858060837], [-0.0675344169139862, 0.016187308356165886, -0.08444470167160034], [-0.07930098474025726, -0.009254706092178822, -0.10292886942625046]], [[-0.035151608288288116, -0.03148169443011284, -0.09619981050491333], [-0.017165955156087875, -0.010413199663162231, -0.029466336593031883], [-0.019836759194731712, -0.027013463899493217, -0.05090608447790146]], [[0.04155212640762329, -0.04247370362281799, -0.034727681428194046], [-0.0014227040810510516, -0.0245041660964489, -0.0066462247632443905], [0.01741994544863701, -0.04333215206861496, -0.050335004925727844]], [[-0.0027539273723959923, -0.03834237903356552, -0.09628285467624664], [-0.11613594740629196, 0.017566081136465073, -0.11459214985370636], [-0.09456043690443039, 0.0033471831120550632, -0.1051943227648735]], [[0.014818902127444744, -0.05742424726486206, -0.05359801650047302], [-0.047732800245285034, -0.03415985032916069, -0.04098953679203987], [-0.010837695561349392, -0.05666658282279968, -0.05301110818982124]], [[-0.02107737585902214, -0.04288964718580246, -0.0995708480477333], [-0.07586468756198883, -0.025689881294965744, -0.1430625170469284], [-0.1254352182149887, -0.11240388453006744, -0.07917878031730652]], [[-0.060994770377874374, -0.028905611485242844, -0.02672494575381279], [-0.08644217252731323, -0.07222626358270645, -0.06870485842227936], [-0.09526917338371277, -0.053958453238010406, -0.05375286191701889]], [[-0.029535895213484764, -0.07162801176309586, 0.0014036089414730668], [-0.025280417874455452, -0.10302143543958664, -0.05131050571799278], [0.002356266602873802, -0.06458861380815506, -0.09050953388214111]], [[-0.14207357168197632, 0.0035730188246816397, -0.07232686132192612], [-0.057807132601737976, -0.02511945739388466, -0.03783726692199707], [-0.08422008901834488, -0.0450536347925663, -0.05523257330060005]], [[-0.011866704560816288, -0.055064857006073, -0.022617675364017487], [-0.0534122996032238, -0.1021793857216835, -0.0008400579099543393], [-0.06376809626817703, -0.0476873517036438, -0.06289740651845932]], [[-0.011325390078127384, -0.06360895186662674, -0.044592276215553284], [0.024980880320072174, -0.06547681242227554, 0.004657833371311426], [-0.062401965260505676, -0.021677782759070396, -0.10540743917226791]], [[-0.0701168105006218, -0.05190790817141533, -0.0531802624464035], [-0.024934006854891777, -0.05737290158867836, -0.015450743958353996], [-0.007671056315302849, 0.008957354351878166, -0.002320324769243598]], [[0.012803785502910614, -0.03234482929110527, -0.03141377493739128], [0.020503409206867218, -0.0027155312709510326, -0.03180965036153793], [0.014092286117374897, -0.07168073952198029, 0.00736267538741231]], [[-0.006001880392432213, -0.06096234172582626, -0.10117848217487335], [-0.04930366948246956, -0.009099374525249004, -0.08752450346946716], [-0.11364694684743881, -0.02305668219923973, -0.06181829422712326]], [[-0.04905516654253006, -0.02233210951089859, -0.023316310718655586], [-0.07066180557012558, -0.0545610748231411, -0.11360544711351395], [-0.10807272791862488, -0.06310995668172836, -0.06850119680166245]], [[-0.013252326287329197, 0.003855812828987837, -0.009852823801338673], [-0.05880996584892273, -0.007130472920835018, -0.024425840005278587], [-0.04671354591846466, -0.026180608198046684, -0.06713498383760452]], [[-0.1000966727733612, -0.08369115740060806, 0.007766371592879295], [-0.09758984297513962, -0.029804956167936325, -0.015582487918436527], [-0.09038063138723373, -0.08922023326158524, -0.1005479246377945]], [[-0.009225419722497463, -0.03798775002360344, -0.023907771334052086], [-0.012648365460336208, -0.03589761257171631, 0.010929128155112267], [-0.035415831953287125, -0.049090009182691574, -0.08983185887336731]]], [[[-0.31635019183158875, 0.7925663590431213, 0.5849311351776123], [0.10340353846549988, 1.7844414710998535, 0.7191745042800903], [-0.8616924285888672, 0.43949154019355774, 0.23022347688674927]], [[-1.2531026601791382, -0.6735619306564331, 2.5970866680145264], [-0.8367395997047424, -0.950134813785553, 2.2049641609191895], [0.5142931342124939, 0.06851839274168015, 0.1954670250415802]], [[-1.0911353826522827, 1.8810052871704102, 0.5553768873214722], [-0.40249723196029663, 0.04416839778423309, 1.477356195449829], [-0.06488392502069473, -0.6455238461494446, 0.3160206377506256]], [[0.6518161296844482, 1.6067665815353394, -0.6400652527809143], [1.105492115020752, 0.34985917806625366, -2.1403815746307373], [-0.7308407425880432, -0.5334829092025757, -0.8318336009979248]], [[-1.3816505670547485, 0.8325865864753723, 2.116957187652588], [0.14654652774333954, 0.19847004115581512, 1.242638349533081], [-1.1219420433044434, -1.063140630722046, 2.431445598602295]], [[0.7627848982810974, 1.225441336631775, 0.29233497381210327], [0.1732242852449417, 2.0388879776000977, 1.1605457067489624], [0.5550364851951599, 0.9651217460632324, 1.3448580503463745]], [[-0.3178817629814148, 0.12083228677511215, 1.1113734245300293], [-0.33296456933021545, 1.1029977798461914, 1.4121838808059692], [-0.8295326232910156, 0.3429831564426422, 0.7724398970603943]], [[-0.8936111927032471, -2.1892383098602295, 2.327085494995117], [-3.3770484924316406, -4.37078332901001, -3.023799180984497], [-2.7806942462921143, -3.603684425354004, -3.187269449234009]], [[-0.6542292833328247, -1.7625683546066284, -0.38511180877685547], [0.43549638986587524, -2.3281121253967285, -1.9763221740722656], [0.7907196879386902, -0.9877244234085083, 1.401052474975586]], [[-0.7768220901489258, -4.958683013916016, 1.971001148223877], [-2.800522565841675, -7.167901992797852, -2.0108861923217773], [-2.456563949584961, -6.511845111846924, -2.1279704570770264]], [[-0.057929959148168564, 0.23008576035499573, 0.33599525690078735], [-0.58791583776474, 1.3923085927963257, -1.211158037185669], [0.1751576066017151, 1.8030894994735718, -0.7617278695106506]], [[-0.5437417030334473, 1.9882283210754395, -0.7438909411430359], [0.21597327291965485, 1.4580395221710205, -0.8915731310844421], [-0.7853752970695496, 0.6670733690261841, 0.6459333896636963]], [[-1.0472711324691772, 0.9657331109046936, -2.3521175384521484], [-2.3244903087615967, 1.2332051992416382, -3.7923455238342285], [-1.9494388103485107, 1.7763924598693848, -4.22192907333374]], [[0.1424476057291031, -0.3862132132053375, 0.01606866531074047], [0.6273678541183472, -1.3638334274291992, -2.3657424449920654], [0.9244800209999084, -0.18906693160533905, 0.6160069704055786]], [[0.6502418518066406, 0.07965606451034546, -0.14866873621940613], [0.35615992546081543, 0.8304381370544434, -0.3394458293914795], [-0.38785454630851746, 0.8379018306732178, -1.385369896888733]], [[-0.9663110375404358, -0.2107018381357193, -0.40024635195732117], [-0.07807315140962601, 1.156227469444275, 0.5444207787513733], [0.5354058742523193, 1.2365479469299316, 0.11734428256750107]], [[0.8193944692611694, 0.34440502524375916, -0.510896623134613], [0.9074023365974426, 0.4613408148288727, -1.8175674676895142], [0.26029419898986816, 0.4520692527294159, -1.262372612953186]], [[-0.1346384584903717, 0.2017473578453064, 0.29514244198799133], [0.21104750037193298, -0.13929644227027893, -1.008354902267456], [0.10723665356636047, -0.11180660873651505, -0.15116623044013977]], [[-0.8545700907707214, 0.11034625768661499, -0.33962148427963257], [-0.030696215108036995, -0.160875141620636, 0.2253263145685196], [0.4782989025115967, 0.36995184421539307, -1.2189794778823853]], [[-0.2834969758987427, 4.226100921630859, -2.4494681358337402], [-0.5067210793495178, 3.672520399093628, -2.090207576751709], [-1.6514520645141602, 2.687772035598755, -1.1469544172286987]], [[-1.4546449184417725, 0.6812865138053894, 2.051409959793091], [0.4270167052745819, 0.3716004192829132, 1.4595305919647217], [-0.6034932732582092, -0.4535330533981323, 2.6845991611480713]], [[-1.4202858209609985, 0.3509882390499115, 1.2849005460739136], [0.2620462477207184, 0.8477935791015625, 1.1909528970718384], [-0.7679216265678406, -0.14017102122306824, 2.8690025806427]], [[0.740182638168335, -0.4436100721359253, 1.4715083837509155], [0.16799236834049225, 1.1839708089828491, 3.284125328063965], [0.19654446840286255, 1.055167555809021, 2.96382737159729]], [[-0.8374977707862854, -1.3136142492294312, 1.362338662147522], [-1.4129436016082764, -0.49318695068359375, -0.044969022274017334], [-0.4113287627696991, -0.7079475522041321, -0.5723451375961304]], [[0.6685301661491394, 1.9516159296035767, 1.8815629482269287], [0.7821305990219116, 3.471879243850708, 2.9733450412750244], [1.0197536945343018, 2.2441346645355225, 2.821726083755493]], [[-1.4949569702148438, -1.4660847187042236, 2.0724451541900635], [-0.6156787872314453, -1.321197271347046, 2.132911205291748], [1.3808045387268066, 0.4053441882133484, 0.4921824634075165]], [[-0.5181694030761719, 0.9940178394317627, 2.131558418273926], [-2.018009662628174, 0.23511075973510742, 2.883390426635742], [-1.5085868835449219, 0.4899032711982727, 1.8905352354049683]], [[-0.1048755943775177, 0.377006858587265, 0.6071009635925293], [-0.34449177980422974, 1.404159426689148, 0.45386025309562683], [0.16492587327957153, 1.6732921600341797, 0.33015817403793335]], [[-0.3186255991458893, 0.3527697026729584, -1.2666560411453247], [0.01919989101588726, 0.4224051535129547, -2.679476261138916], [0.5299971103668213, 1.599254846572876, 0.3311557471752167]], [[0.1328078806400299, 2.3016839027404785, -1.1779931783676147], [0.37447676062583923, -0.09460372477769852, -1.5891096591949463], [-1.0800628662109375, -1.4692299365997314, -1.3597650527954102]], [[-1.2503505945205688, -0.8069218397140503, 1.1599327325820923], [-1.1727348566055298, -0.7259911894798279, -1.029595136642456], [0.5779959559440613, 0.5276544690132141, -3.4349703788757324]], [[-0.6602954864501953, -0.9040514230728149, 1.1339764595031738], [-0.05876162275671959, 0.7720965147018433, 3.8284595012664795], [0.938590407371521, 1.5150731801986694, 2.8920857906341553]], [[0.49949586391448975, -0.16568605601787567, 3.471057891845703], [1.178277850151062, 2.7806453704833984, 4.966468811035156], [0.33609455823898315, 1.6320152282714844, 3.8809449672698975]], [[-0.08597119152545929, 0.75633305311203, 0.675334095954895], [0.17936579883098602, -0.42036494612693787, -0.24685311317443848], [-0.4205136299133301, -0.8620419502258301, -0.06292818486690521]], [[-0.5160146355628967, 0.030544891953468323, 1.1635409593582153], [-0.22862882912158966, 1.728685736656189, 2.417823314666748], [-0.7546018362045288, 0.6176592111587524, 1.2010794878005981]], [[-1.6947898864746094, 1.1345640420913696, 1.1507421731948853], [-2.2659239768981934, 1.461748480796814, -2.12921404838562], [-1.8551816940307617, 1.6519484519958496, -2.982208013534546]], [[-1.513727068901062, 0.01787889003753662, 1.482714295387268], [0.21210570633411407, 0.2682037651538849, 0.86370849609375], [-0.652951180934906, -0.35579949617385864, 2.8990111351013184]], [[-0.5810030698776245, 0.0003292574256192893, 1.034852147102356], [-0.07032275944948196, -0.15157675743103027, -0.0071669225580990314], [0.5605111122131348, 1.0126367807388306, 1.0182791948318481]], [[-0.05902079492807388, 0.1652955561876297, 2.63950252532959], [-1.4856760501861572, -2.286078929901123, 0.2247914969921112], [-2.7173268795013428, -4.869843482971191, -2.322951316833496]], [[-0.42870959639549255, -0.05451865494251251, 2.368060827255249], [-1.6248793601989746, -0.48971250653266907, -1.1887218952178955], [-1.79692804813385, -0.12137264013290405, -1.9992800951004028]], [[-1.135368824005127, -0.6188825368881226, 1.0940544605255127], [-0.020404130220413208, -0.406196266412735, 1.4679938554763794], [1.3282676935195923, 1.2287979125976562, 1.846662163734436]], [[0.019737746566534042, 0.3838479220867157, 1.1040067672729492], [-0.1969388723373413, 0.8317029476165771, 1.134222149848938], [-0.5052167177200317, 0.3692016005516052, 0.08295614272356033]], [[-0.9321116805076599, 1.1550774574279785, 2.012211322784424], [-1.3330274820327759, -0.730695903301239, 0.45042940974235535], [-4.085200786590576, -5.353470802307129, -3.042879819869995]], [[-0.1322706639766693, 0.36448293924331665, 1.2087123394012451], [-0.19211269915103912, 1.6153912544250488, 0.402076780796051], [-1.4493448734283447, -0.16983193159103394, -0.8246431350708008]], [[0.22654467821121216, -0.43832677602767944, 3.451505422592163], [0.6308422088623047, 1.8782628774642944, 5.2694315910339355], [0.09927615523338318, 0.9982847571372986, 4.256218433380127]]], [[[-0.3011547923088074, 2.113485097885132, -0.8305580019950867], [0.30571797490119934, 0.9287810921669006, -2.505305528640747], [0.9757174253463745, 0.10550863295793533, -0.49730655550956726]], [[-3.9416191577911377, -1.428542137145996, 0.7527511715888977], [-1.5760669708251953, 