weights['MEYDA'] = {"conv0.weight": [[[[0.34540194272994995, -0.13413845002651215, -0.29536882042884827], [-0.5709871649742126, -0.6727864742279053, 0.5648675560951233], [0.26717624068260193, 0.7514932155609131, 0.3071848750114441]]], [[[0.00354947941377759, -0.4057655930519104, -0.18196050822734833], [-0.7576399445533752, -0.7299177646636963, -0.04379253461956978], [0.48815417289733887, 0.9315896034240723, 1.1349436044692993]]], [[[-0.5981157422065735, -0.8211009502410889, 0.1400783360004425], [0.24770022928714752, 0.030955590307712555, 1.2201690673828125], [-0.16391794383525848, 0.11398901790380478, 0.8034856915473938]]], [[[-0.09808355569839478, -0.2115786373615265, -0.11382636427879333], [-0.2074657678604126, -0.011580273509025574, -0.3149757385253906], [-0.23690572381019592, -0.38074806332588196, -0.20732790231704712]]], [[[-0.14418017864227295, 0.4829561114311218, 0.34919336438179016], [0.6864681839942932, 0.560585618019104, 0.32043880224227905], [-0.256361722946167, -0.8573189377784729, -0.7804468870162964]]], [[[-1.2724940776824951, 0.1254795491695404, 1.1118333339691162], [-1.2751445770263672, 0.013393965549767017, 1.1755915880203247], [-0.6383783221244812, 0.16600100696086884, 0.6334027051925659]]], [[[0.7422657012939453, 0.5014194250106812, 0.5821341872215271], [-1.1626235246658325, -1.1145861148834229, -0.9456496834754944], [0.817820131778717, 0.6820928454399109, 0.41273391246795654]]], [[[0.7649624347686768, 0.30202963948249817, -0.8957042694091797], [1.0295586585998535, 0.12845177948474884, -0.9294489026069641], [1.319495439529419, -0.2064572423696518, -0.9888977408409119]]], [[[0.21500585973262787, 0.8263775706291199, 0.07735297083854675], [0.8835804462432861, 0.6098620891571045, -0.4942706227302551], [-0.14133545756340027, -0.646535336971283, -0.9557853937149048]]], [[[0.7830086350440979, 0.7512925267219543, -0.8817604780197144], [0.7204576134681702, 0.31191638112068176, -0.9170714616775513], [0.543968677520752, 0.22697463631629944, -0.97539222240448]]], [[[0.21584659814834595, 0.45762330293655396, 0.762692928314209], [-0.2540174424648285, -0.9410415291786194, -0.6812403798103333], [0.6803299188613892, 0.4950227737426758, -0.12847988307476044]]], [[[-0.07692114263772964, 0.563235342502594, 0.9184392094612122], [-0.5449222922325134, -0.11834656447172165, 0.19612041115760803], [-0.7741473317146301, -0.8053225874900818, -0.428103506565094]]], [[[0.13592404127120972, -0.41020429134368896, -0.3766035735607147], [0.7807454466819763, -0.5127747654914856, 0.6984488368034363], [0.6629729270935059, -0.5497880578041077, 0.4002312123775482]]], [[[0.3113660514354706, 0.40421056747436523, -0.20309336483478546], [0.43562644720077515, 0.3141796290874481, -0.5453255772590637], [0.08460456132888794, -0.37849289178848267, -0.7169890999794006]]], [[[0.5666444897651672, -0.40546905994415283, 0.18586574494838715], [-0.06418952345848083, -0.6875386238098145, 0.22752763330936432], [0.12443256378173828, -0.030750684440135956, 0.5100655555725098]]], [[[-0.8568279147148132, -0.39019227027893066, 0.15188178420066833], [-0.22514812648296356, 0.9135227799415588, 0.9231628179550171], [0.1698639839887619, 0.6672949194908142, -0.26449596881866455]]], [[[-0.1478356570005417, 0.16186438500881195, 0.8542431592941284], [-0.2784983515739441, 0.011484410613775253, 0.4166405498981476], [-0.9492377638816833, -0.7152467966079712, 0.035899568349123]]], [[[0.9207942485809326, 0.9972632527351379, 0.0365753173828125], [0.20565514266490936, -0.555104672908783, -0.7193267941474915], [-0.16482403874397278, -0.3166249096393585, -0.014202740043401718]]], [[[-0.6257099509239197, -0.39935120940208435, 0.09634596109390259], [-0.15323194861412048, 0.18395452201366425, 0.6857689619064331], [-0.40824684500694275, 0.23334439098834991, 0.5889416933059692]]], [[[-0.7693970799446106, 0.9619569182395935, 0.33627715706825256], [-1.2329837083816528, 0.9502547979354858, 0.2082691639661789], [-1.1753579378128052, 0.9153462648391724, 0.03951503708958626]]], [[[0.13459371030330658, 0.05760279670357704, 0.0883723571896553], [0.6534082889556885, 0.8719044327735901, 0.7029093503952026], [-0.7226020097732544, -0.8620612025260925, -0.963956356048584]]], [[[1.1535266637802124, 1.0845211744308472, 0.9043169617652893], [-0.46307483315467834, -0.48413950204849243, -0.4626000225543976], [-0.3051973283290863, -0.6809508800506592, -0.07547755539417267]]], [[[-0.5439766049385071, 0.0024747459683567286, 0.6225609183311462], [1.2733670473098755, -0.47223472595214844, -0.5655927062034607], [-0.45096465945243835, 0.7142876982688904, 0.1641499549150467]]], [[[-0.18848729133605957, -0.014116266742348671, 0.06552663445472717], [-0.11114177852869034, 0.16567373275756836, 0.422212153673172], [-0.22422172129154205, 0.1898408979177475, 0.359301894903183]]], [[[-0.8140993714332581, -0.060712262988090515, 0.9345576763153076], [-0.5101439952850342, 0.12932559847831726, 0.4640205502510071], [1.1740387678146362, 0.3147623836994171, -1.312157392501831]]], [[[-0.6678311228752136, -1.1899081468582153, -1.1717889308929443], [0.021972740069031715, 0.09336856007575989, -0.1810094714164734], [1.0697447061538696, 1.2344536781311035, 1.0903031826019287]]], [[[0.4335912764072418, -0.5789152979850769, 0.6473609805107117], [-0.4704499840736389, 0.2747131586074829, 0.9278448224067688], [0.23428773880004883, 1.2204869985580444, -0.5509934425354004]]], [[[0.5561863780021667, 0.3178686797618866, -0.5424494743347168], [0.6065690517425537, -0.6086055040359497, 0.012602790258824825], [-0.21324777603149414, -0.27814334630966187, 0.9069305658340454]]], [[[0.37839236855506897, -0.14302323758602142, 0.006244170479476452], [0.388209730386734, 0.03068813867866993, 0.49420469999313354], [-0.08914747089147568, -0.4085991084575653, -0.26170629262924194]]], [[[0.22445343434810638, 0.5663849115371704, 0.5860649347305298], [-0.39692628383636475, -0.7392513155937195, -0.7792803645133972], [0.37285035848617554, 0.5398206114768982, 0.0983557403087616]]], [[[-0.5864924192428589, -1.1957122087478638, -0.8720284700393677], [0.4611220061779022, -0.30972182750701904, -0.47213810682296753], [1.0357502698898315, 0.3549176752567291, 0.4318481385707855]]], [[[0.5577705502510071, 0.03179538622498512, -0.5051573514938354], [-1.052297592163086, 0.6129133701324463, 0.7453933954238892], [0.6412362456321716, -0.5069483518600464, 0.10186336189508438]]], [[[0.9510012269020081, 0.18984870612621307, -1.0619754791259766], [0.33378544449806213, 0.10864269733428955, -0.1813274472951889], [-0.8067024350166321, -0.4051993489265442, 1.4441092014312744]]], [[[-0.03822099789977074, -0.16736464202404022, 0.46492719650268555], [0.020191336050629616, -0.7564725279808044, -0.027825718745589256], [0.7328173518180847, -0.015897447243332863, 0.1407952904701233]]], [[[0.6246498227119446, 0.7443000078201294, 0.6017968654632568], [-1.0395474433898926, -1.2956569194793701, -1.0877195596694946], [0.7954689264297485, 0.6551080942153931, 0.5860546827316284]]], [[[0.9759620428085327, -0.4781738817691803, -0.43993499875068665], [1.0481324195861816, -0.44157758355140686, -0.40267929434776306], [0.7997416853904724, -0.6042054891586304, -0.1539144217967987]]], [[[0.6769967675209045, 0.6435149908065796, 0.11099756509065628], [0.32594963908195496, 0.34963902831077576, -0.04171145707368851], [-0.8168851137161255, -0.873974621295929, -0.0549248531460762]]], [[[-0.21556392312049866, -0.6773713827133179, -0.2656031548976898], [0.921042799949646, 1.2505571842193604, 1.316141128540039], [-0.5424017906188965, -0.818916380405426, -0.5429143309593201]]], [[[-0.037998467683792114, -0.4942565858364105, -1.3666564226150513], [0.9758427739143372, 1.1308194398880005, 0.3219684660434723], [-0.34419700503349304, 0.6403407454490662, 0.30082187056541443]]], [[[0.9960836172103882, -0.39922764897346497, -0.6055190563201904], [1.1148052215576172, -0.18794113397598267, -0.7270745038986206], [1.0734302997589111, -0.37517234683036804, -0.3266283869743347]]], [[[-0.49815109372138977, -0.6101743578910828, -0.5576817393302917], [1.1874980926513672, 1.5361943244934082, 1.5504070520401], [-0.7185670137405396, -0.9980959892272949, -0.9463361501693726]]], [[[0.5190830826759338, 0.15936768054962158, 0.4148419201374054], [-0.8162499070167542, -0.8547789454460144, -0.6663485169410706], [0.07927750051021576, 0.5337380170822144, 0.7069551348686218]]], [[[0.8447689414024353, 0.9890366792678833, 1.128012776374817], [0.5131117105484009, 0.7732468247413635, 1.0480802059173584], [-0.34223678708076477, -0.24445408582687378, -0.28276383876800537]]], [[[0.2790582776069641, -0.1262587308883667, -0.22095781564712524], [0.45231059193611145, 0.11243679374456406, -0.36861950159072876], [-0.6672565340995789, -0.07128599286079407, 0.8686007261276245]]], [[[0.9820954203605652, -0.47737935185432434, -1.2640732526779175], [0.7538961172103882, 0.6864895820617676, -0.5909202694892883], [-0.5529268383979797, 0.6170661449432373, 0.3170887231826782]]]], "bn1.running_mean": [5.925919532775879, 2.097564458847046, 0.9876038432121277, 5.605193857299268e-45, 3.808640480041504, 0.9271542429924011, 1.5555182695388794, 5.605193857299268e-45, 5.605193857299268e-45, 6.347226619720459, 8.580758094787598, 2.1250929832458496, 30.291975021362305, 8.960369110107422, 0.4592777192592621, 0.8258906602859497, 5.744123458862305, 0.4518725872039795, 2.484276533126831, 2.077390670776367, 2.5354278087615967, 5.108064651489258, 0.046621810644865036, 10.344134330749512, 0.9283714890480042, 5.605193857299268e-45, 0.5963037610054016, 2.4642629623413086, 5.605193857299268e-45, 5.839392185211182, 6.89865255355835, 8.553055763244629, 5.605193857299268e-45, 1.333844542503357, 31.323904037475586, 0.8614271879196167, 5.605193857299268e-45, 0.3419499099254608, 1.017327070236206, 5.605193857299268e-45, 5.605193857299268e-45, 5.605193857299268e-45, 5.605193857299268e-45, 1.5044124126434326, 0.7054949998855591], "bn1.running_var": [111.02111053466797, 29.195083618164062, 26.29306411743164, 5.605193857299268e-45, 54.532203674316406, 17.000194549560547, 34.00107955932617, 5.605193857299268e-45, 5.605193857299268e-45, 185.8374786376953, 131.4521026611328, 34.06965637207031, 360.968017578125, 140.78793334960938, 8.178898811340332, 10.670211791992188, 124.23300170898438, 5.102267265319824, 38.37098693847656, 49.49009704589844, 58.335853576660156, 66.01487731933594, 0.5926094055175781, 178.36578369140625, 14.842955589294434, 5.605193857299268e-45, 14.209542274475098, 44.32731246948242, 5.605193857299268e-45, 87.52613067626953, 140.79852294921875, 105.2394027709961, 5.605193857299268e-45, 19.272945404052734, 549.5344848632812, 16.202844619750977, 5.605193857299268e-45, 6.007402420043945, 24.110286712646484, 5.605193857299268e-45, 5.605193857299268e-45, 5.605193857299268e-45, 5.605193857299268e-45, 44.22197723388672, 10.69996452331543], "bn1.num_batches_tracked": 84360, "conv1.weight": [[[[-1.3098467588424683, -1.0694377422332764, -0.8077827095985413], [1.0514942407608032, 0.8188197612762451, -0.2072770595550537], [0.17216452956199646, -0.33053210377693176, -1.0339524745941162]], [[-0.5079348087310791, -0.04736411198973656, 0.31385985016822815], [0.90768963098526, 0.9933103322982788, 0.6384335160255432], [-0.4226149320602417, -0.4676653742790222, -0.5468237400054932]], [[-0.8298683166503906, -0.023214444518089294, -0.016609864309430122], [-0.5297717452049255, 0.584019660949707, 0.1463373601436615], [-0.32057079672813416, 0.3668917119503021, -0.46288344264030457]], [[0.9754124879837036, 0.8506437540054321, -0.41005146503448486], [1.0086523294448853, 0.737274706363678, -0.4270869493484497], [0.13588620722293854, -0.2681331932544708, -1.0767848491668701]], [[0.4082387685775757, 0.8937665224075317, 1.0336545705795288], [-0.3908127546310425, -0.7641451358795166, -0.364531934261322], [0.29836034774780273, -0.5599912405014038, 0.6982021927833557]], [[-0.0984751358628273, 0.26938819885253906, 0.33531689643859863], [-0.08440116047859192, 0.6003349423408508, -0.2362467497587204], [-0.1005948856472969, 0.3530203700065613, -0.66391521692276]], [[-0.5245426297187805, -0.13052749633789062, -0.7484964728355408], [1.7997764348983765, 1.9614371061325073, 1.5772804021835327], [-0.8199983239173889, -1.17746102809906, -2.097968816757202]], [[0.8889607191085815, 0.5334920883178711, -0.7585217952728271], [0.5454294681549072, 0.6148920059204102, -1.7091288566589355], [0.4475950300693512, 0.13066145777702332, -2.260671615600586]], [[0.1346641331911087, 0.630237877368927, 0.6856129765510559], [-0.8736199736595154, -0.9547520279884338, -0.8978684544563293], [-0.1190333440899849, -0.9752033948898315, -0.5600084066390991]], [[0.5387833714485168, 0.3064676523208618, -0.3654506802558899], [0.3072444498538971, 0.2210002988576889, -0.9859484434127808], [0.1644406020641327, -0.2755141258239746, -1.5160517692565918]], [[-0.31845998764038086, -0.14830532670021057, -0.8329638242721558], [1.1362403631210327, 1.0158394575119019, 0.9658641815185547], [-0.024875514209270477, -0.9426073431968689, -1.1470993757247925]], [[0.5325067043304443, 0.6858032941818237, -0.11574740707874298], [0.28662732243537903, -0.006686845328658819, -0.24324291944503784], [-0.1332031488418579, -0.5378094911575317, -0.5823678970336914]], [[-0.6620715856552124, 0.39877551794052124, -0.8962803483009338], [-0.09311116486787796, 0.5071169137954712, -0.9132851958274841], [0.23896749317646027, -0.058639828115701675, -1.3070168495178223]], [[1.0693789720535278, 0.6754097938537598, -0.1478269398212433], [0.4512521028518677, 0.28602704405784607, -0.5273292660713196], [0.2375359684228897, 0.09897708147764206, -0.2797149419784546]], [[0.3294331729412079, 0.7872834205627441, 0.12965983152389526], [0.6558082699775696, 1.5572364330291748, 0.22880302369594574], [-0.4568372368812561, 0.04853188991546631, -0.21256418526172638]], [[-0.3015062212944031, -0.8505578637123108, -1.0197049379348755], [0.05770009011030197, -0.7614458203315735, -0.6632847189903259], [0.06279115378856659, -0.9584254622459412, -1.9204013347625732]], [[0.6002827882766724, 0.6924644112586975, -0.08488242328166962], [0.24482806026935577, 0.09744733572006226, -0.34115099906921387], [-0.08526921272277832, -0.28926050662994385, -0.47451651096343994]], [[0.22358401119709015, 0.10210371017456055, -0.5535858273506165], [0.4228117763996124, 0.5179043412208557, -0.04379589855670929], [-0.6649336814880371, -0.8156251311302185, -1.3793641328811646]], [[-0.127957284450531, 0.4625418186187744, 0.1847936064004898], [0.5740876197814941, 1.1360853910446167, 0.219044491648674], [-0.22035866975784302, -0.12672002613544464, -0.977572500705719]], [[-0.2688368558883667, -0.3345925211906433, -1.1451233625411987], [0.13339927792549133, -0.4893592298030853, -1.4087916612625122], [0.6142057180404663, -0.5942667126655579, -1.440429925918579]], [[0.4374935030937195, 1.042590856552124, 1.1535109281539917], [-0.8242404460906982, -1.3880417346954346, -1.2555822134017944], [-0.003689772915095091, -0.6287916898727417, 0.6365599036216736]], [[-0.39791372418403625, -0.10585257411003113, -0.06481021642684937], [0.10663483291864395, 0.0716932862997055, 0.32744234800338745], [-0.610675036907196, -2.130537271499634, -1.0981907844543457]], [[-0.37540990114212036, -0.5032414793968201, -1.4265121221542358], [0.8921876549720764, 0.3894771933555603, -1.846794843673706], [1.0717508792877197, -0.2585890591144562, -2.53686261177063]], [[0.39401501417160034, -0.31706956028938293, -0.5835824608802795], [0.2021542340517044, -0.2981419563293457, -0.375663161277771], [-0.03373807296156883, -0.6368282437324524, -0.8921815156936646]], [[0.14550267159938812, -0.18777063488960266, -1.4939141273498535], [0.5634663701057434, -0.01252223551273346, -2.039893865585327], [0.6843116879463196, -0.5385693907737732, -2.1181654930114746]], [[-1.110876202583313, -1.067272424697876, -0.5471699237823486], [-0.32447385787963867, -0.5600458979606628, -0.5576353669166565], [-0.8325033783912659, -1.801990270614624, -1.9101673364639282]], [[0.8073109984397888, 0.22142505645751953, -0.8140073418617249], [1.400762915611267, -0.15118782222270966, -1.8016815185546875], [1.4163137674331665, -0.07876451313495636, -2.417583465576172]], [[0.3390481770038605, 0.08719705045223236, -0.5871866941452026], [0.5410499572753906, 0.6031678318977356, -1.1204135417938232], [-0.2610988914966583, -0.9350637197494507, -1.485916018486023]], [[0.4274906516075134, 0.6619079113006592, -0.0001197109668282792], [-0.31407034397125244, -0.12559090554714203, -0.876670241355896], [-0.37400394678115845, -0.35213324427604675, -0.338663250207901]], [[-0.6456807255744934, -0.02948029339313507, -0.5884835124015808], [0.996323823928833, 1.0711283683776855, 1.1299891471862793], [-0.26456600427627563, -0.8167394399642944, -0.9288476705551147]], [[0.4264231026172638, 0.25415223836898804, -0.3345561623573303], [0.9883411526679993, 0.8190268278121948, -0.008519604802131653], [-0.2277771681547165, -0.36722561717033386, -1.08271324634552]], [[-0.2519122064113617, 0.08612815290689468, -0.7142417430877686], [0.6043838858604431, 0.4597489535808563, -1.5316020250320435], [1.1346173286437988, -0.18729959428310394, -1.72942054271698]], [[0.7747266292572021, 0.21691809594631195, -0.8783220052719116], [0.9339784383773804, 0.05554104223847389, -2.2232587337493896], [0.9984831809997559, -0.8526855111122131, -2.229421377182007]], [[-0.29878711700439453, 0.010398872196674347, -0.8696746230125427], [0.5818023681640625, 0.798339307308197, 0.30053117871284485], [-0.3659634292125702, -0.34124574065208435, -0.6098318099975586]], [[-0.8287292122840881, -0.25305449962615967, -0.5544237494468689], [2.1241230964660645, 2.092533588409424, 2.017542839050293], [-0.7452987432479858, -1.4725871086120605, -1.849074125289917]], [[0.9448694586753845, 0.443698912858963, -0.1114620715379715], [0.680819571018219, 0.43067336082458496, -0.9996469616889954], [0.5102858543395996, -0.050750963389873505, -0.9828544855117798]], [[0.1095174252986908, 0.4327034056186676, 0.6803330779075623], [-0.2094452977180481, -0.27167457342147827, -0.2170492261648178], [0.07874977588653564, -1.2685376405715942, -0.2402428835630417]], [[0.39236658811569214, 1.259206771850586, 1.1639273166656494], [-0.2054552137851715, -0.01651822403073311, 0.04358699172735214], [-0.7638161778450012, -1.262355923652649, -0.7504424452781677]], [[-1.0029096603393555, -0.7342040538787842, -0.9441093802452087], [-0.5103340744972229, -0.4277036488056183, -0.7259398698806763], [0.05941251665353775, -0.9988161325454712, -1.8395501375198364]], [[0.41340371966362, -0.18960510194301605, -1.0949549674987793], [0.41330212354660034, 0.3178829848766327, -0.7213796973228455], [0.21110868453979492, -0.10755957663059235, -1.154719352722168]], [[0.40786996483802795, 1.023957371711731, 1.1405187845230103], [-0.28636687994003296, -0.26281270384788513, -0.06948934495449066], [-1.0026055574417114, -1.8385218381881714, -1.1514900922775269]], [[-0.19629286229610443, 0.23243942856788635, -0.14061689376831055], [1.4186862707138062, 1.863442301750183, 1.1655430793762207], [-1.1820131540298462, -0.9355359077453613, -1.7233847379684448]], [[0.44707629084587097, -0.16287067532539368, -0.5588318705558777], [-0.08527921140193939, -0.9348650574684143, -0.3667033016681671], [-0.2742406725883484, -1.1306161880493164, -1.3115869760513306]], [[0.1412816196680069, -0.13810573518276215, -0.45000579953193665], [0.9682930707931519, 0.7795187830924988, -0.4109232425689697], [0.7320758700370789, -0.13726456463336945, -0.26416659355163574]], [[0.1912074089050293, 0.4787950813770294, -0.8547292351722717], [0.35932108759880066, 0.715936541557312, -1.0450266599655151], [0.45829737186431885, -0.1799902319908142, -2.027815341949463]]], [[[0.13306055963039398, -0.16526927053928375, 0.23228596150875092], [0.2863505184650421, -0.10670556873083115, -0.9396471977233887], [0.5709459185600281, 0.571938693523407, -0.8354494571685791]], [[0.6876599192619324, 0.22221213579177856, -0.4468972980976105], [0.31064921617507935, 0.19262894988059998, -1.4398506879806519], [0.6668853759765625, 0.6270909309387207, -0.7563225626945496]], [[-0.24665755033493042, -0.10754154622554779, 0.20896123349666595], [-0.17644229531288147, 0.0024235842283815145, -0.10239393264055252], [0.9933627247810364, 0.10414982587099075, -1.4496310949325562]], [[0.6034159064292908, 0.5355141758918762, -0.023219715803861618], [-0.0007386127253994346, 0.10479699075222015, 0.3620796203613281], [-0.9032528400421143, -0.39356616139411926, 0.8168507814407349]], [[-0.553382396697998, 0.10030905157327652, 1.0532289743423462], [-1.0099196434020996, -1.1596205234527588, 0.7895722985267639], [-0.729587972164154, -0.7965317964553833, 0.3100632131099701]], [[-0.6580376625061035, 0.19506365060806274, 0.5442090034484863], [0.9925696849822998, 0.6071038246154785, 1.2166014909744263], [1.3149133920669556, 0.43464502692222595, -0.47097888588905334]], [[0.8044730424880981, 0.49446552991867065, 0.624221682548523], [-0.6989160776138306, -1.0590546131134033, -0.975928544998169], [-0.5443474650382996, -0.18692642450332642, -0.3613820970058441]], [[-0.13516567647457123, -0.835343599319458, -1.8439996242523193], [0.6508697271347046, 0.8296760320663452, 0.4148488938808441], [0.46908968687057495, 1.4405733346939087, 1.5185836553573608]], [[-0.8443817496299744, -0.9562751650810242, -0.20814642310142517], [-0.628940999507904, -1.110213041305542, -0.025664325803518295], [-0.12312957644462585, -0.24008125066757202, 0.4050861895084381]], [[-0.8618099093437195, -1.9820847511291504, -1.8626981973648071], [0.10871654003858566, 0.10441610217094421, 0.24331003427505493], [0.3864284157752991, 0.7960186004638672, 1.1263749599456787]], [[0.30269038677215576, 0.242354154586792, 0.1511424481868744], [-0.6779251098632812, -0.3724166452884674, -0.12687049806118011], [-0.6616637706756592, 0.14353381097316742, 0.05536256730556488]], [[0.7465742230415344, 0.7114601135253906, 0.5393691658973694], [-0.757073700428009, -1.0519194602966309, 0.34329667687416077], [-1.411346197128296, -1.7771564722061157, -0.5439155101776123]], [[-0.9789600968360901, -0.25212398171424866, 0.5387396812438965], [-0.34094345569610596, 0.12132328748703003, 0.5617188811302185], [0.45684418082237244, 0.18350628018379211, 0.001834081718698144]], [[0.03367653116583824, -0.43119797110557556, -0.6218662858009338], [-0.3616199195384979, -0.42183801531791687, 0.6019358038902283], [-0.5055378675460815, -0.2400641292333603, 1.2700831890106201]], [[0.1356375813484192, 0.4117604196071625, 0.48209670186042786], [0.003193449694663286, -0.14486342668533325, -0.47018104791641235], [0.29184654355049133, -0.14771486818790436, -0.15446601808071136]], [[-1.1929367780685425, -0.37747499346733093, 0.34252771735191345], [-0.5055558085441589, -0.04303484037518501, 0.27099165320396423], [0.1025707796216011, 0.6069515347480774, -0.5506176948547363]], [[1.0770834684371948, 0.8287706971168518, 0.7203360795974731], [-0.3961181640625, -1.109175205230713, 0.1605788618326187], [-0.6661735773086548, -1.450859785079956, -0.3367665410041809]], [[0.2607964277267456, -0.5064988732337952, -0.4883643686771393], [0.2437380850315094, -0.6215436458587646, -0.10155974328517914], [-0.18406231701374054, -0.2729392945766449, 0.5491579174995422]], [[0.24558287858963013, 0.49929317831993103, -0.18706275522708893], [0.26919832825660706, 0.30463477969169617, -0.3583728075027466], [0.2199820876121521, -0.45593923330307007, -1.4378161430358887]], [[-1.666587471961975, -0.6956096291542053, -0.08631982654333115], [0.3931490182876587, 0.159403458237648, 0.6443672776222229], [1.1077953577041626, 0.6294000148773193, -0.5322635769844055]], [[-0.11673310399055481, -0.2215750515460968, 1.0397467613220215], [-1.7124009132385254, -2.3518927097320557, -0.06382957100868225], [-0.744531512260437, -0.7100239992141724, 0.5993685722351074]], [[-0.3737742304801941, 0.10432448983192444, 1.3293529748916626], [-0.945875883102417, -1.4770501852035522, 0.716119647026062], [-1.7537331581115723, -2.1000800132751465, -0.7607223391532898]], [[0.13933508098125458, 0.22950813174247742, -0.13057009875774384], [-0.0789378210902214, 0.14894963800907135, -0.04071412608027458], [-0.21001307666301727, 0.11419518291950226, -0.5990930199623108]], [[-1.2708196640014648, -0.5043352246284485, 0.811410129070282], [-0.4010377824306488, -0.019112588837742805, 0.43952444195747375], [0.09357146918773651, 0.3756910562515259, -0.11453747004270554]], [[-0.032543547451496124, 0.8385674953460693, 0.5742514729499817], [-0.36567360162734985, 0.09276774525642395, 0.9315201640129089], [-0.6572073698043823, 0.5285865068435669, -0.2370760142803192]], [[0.9171931147575378, 0.47175753116607666, -0.467355340719223], [0.7739763855934143, 1.342119574546814, -1.0670592784881592], [1.2704784870147705, 1.8356261253356934, -0.6195610761642456]], [[-1.4565439224243164, -0.2049829363822937, 0.584045946598053], [-0.29179662466049194, -0.027355387806892395, 0.8491166830062866], [-0.22458148002624512, 0.7823398113250732, 0.09269259870052338]], [[-0.36429959535598755, -0.33344119787216187, -0.22781197726726532], [-0.009511557407677174, -0.3552533984184265, -0.7019883394241333], [0.21942321956157684, -0.0071228970773518085, 0.3923795223236084]], [[0.4654836058616638, 0.2089284062385559, 0.1828826516866684], [-0.2329576164484024, -0.4448523223400116, 0.279354989528656], [-0.23726491630077362, -0.3142455518245697, 0.250166118144989]], [[0.1252312958240509, 0.4404379427433014, 1.0251373052597046], [-0.6279540061950684, -0.5451477766036987, -0.08805403858423233], [-0.21487374603748322, 0.25515317916870117, -0.19309167563915253]], [[1.056111454963684, 0.41508322954177856, -0.4160509407520294], [0.3161220848560333, 0.36776530742645264, -0.2221471071243286], [-0.41926339268684387, -0.01053670048713684, 0.268524169921875]], [[-0.16004996001720428, -0.23662956058979034, 0.44517382979393005], [0.20945021510124207, 0.04893185943365097, 0.3006877899169922], [-0.10979101806879044, 0.27058297395706177, -0.5531718134880066]], [[0.6305388808250427, -0.014993101358413696, 0.15852414071559906], [0.5337764024734497, 0.5995923280715942, -0.04062173143029213], [0.3942917585372925, 0.8035258650779724, 0.24319201707839966]], [[0.6666613221168518, 0.6069276928901672, -0.012993983924388885], [-0.16376684606075287, 0.14685674011707306, 0.25949984788894653], [-0.5321505069732666, 0.3201710879802704, 0.5525380373001099]], [[0.3144685626029968, 0.15807123482227325, 0.6482104063034058], [-0.812460720539093, -1.4533108472824097, -1.112802267074585], [-0.2787282168865204, -0.40594667196273804, -0.37117916345596313]], [[-0.8223840594291687, -1.1362669467926025, -1.748760461807251], [0.11412043124437332, 0.17475825548171997, 0.09780475497245789], [0.7282895445823669, 0.8733847737312317, 1.22810959815979]], [[-0.3575911819934845, -0.018780766054987907, 1.1158297061920166], [-0.958740770816803, -1.3888883590698242, 0.462164044380188], [-1.1531227827072144, -1.154340147972107, -0.18146160244941711]], [[0.047888725996017456, 0.01844337023794651, 1.1051068305969238], [-1.209019660949707, -2.039485454559326, -0.9713167548179626], [0.18730366230010986, -0.8096762895584106, -0.9117676615715027]], [[0.9748777747154236, -0.3690880835056305, -0.07396046817302704], [-0.2696051597595215, 0.10489477217197418, -0.4479270279407501], [0.24945709109306335, 0.7728996872901917, -0.8278382420539856]], [[-0.31835615634918213, -0.9073578715324402, -2.0656685829162598], [0.4514332413673401, 0.29144537448883057, -0.3702518045902252], [0.7697632312774658, 1.1939269304275513, 0.6963335871696472]], [[-0.17710508406162262, -0.06689239293336868, 1.0494564771652222], [-1.3466215133666992, -2.020612955093384, -1.2228761911392212], [0.021626314148306847, -0.7075974345207214, -1.1414271593093872]], [[0.36338189244270325, 0.5683611631393433, 0.8392841815948486], [-0.25425219535827637, -0.799587607383728, -0.9430909156799316], [0.06993689388036728, -0.3049098253250122, -0.5455809831619263]], [[-1.2973748445510864, -1.0412389039993286, 1.3457590341567993], [-0.2325461208820343, -0.5377844572067261, 0.5459558367729187], [0.4401622712612152, 0.44797325134277344, 0.007550061214715242]], [[-0.4408440589904785, -0.26445236802101135, 0.38550975918769836], [-0.1959272027015686, -0.038772642612457275, 0.013252435252070427], [-0.21204286813735962, -0.1719924509525299, -0.14674031734466553]], [[0.6374632120132446, -1.062304973602295, -1.3245306015014648], [-0.18630661070346832, -0.1653442233800888, -0.681723415851593], [0.022879505529999733, 0.9482808113098145, -0.2366684079170227]]], [[[0.03228346258401871, 0.4133453965187073, 0.42079055309295654], [-0.20742663741111755, 0.10039389133453369, -0.06688476353883743], [0.18248359858989716, -0.5837202668190002, -0.42034614086151123]], [[-0.1780579835176468, 0.09358818084001541, 0.37328410148620605], [-0.10245125740766525, -0.08282091468572617, -0.4055028259754181], [0.8831189274787903, -0.5735102891921997, -0.5353307127952576]], [[-0.2592511773109436, 0.8959140181541443, 0.051517289131879807], [-0.17091573774814606, 1.4270579814910889, -0.20968589186668396], [-0.44761916995048523, -0.05956585332751274, -0.7297071218490601]], [[-0.40772464871406555, 0.19585241377353668, -0.48522236943244934], [-0.6755247116088867, -0.2474081963300705, -1.159899353981018], [-0.27927765250205994, 0.15162044763565063, -0.47611939907073975]], [[0.5441315174102783, -0.4785866141319275, -0.12523925304412842], [0.5091515779495239, -1.4796006679534912, 0.13848261535167694], [0.3736467957496643, 0.30931204557418823, 0.34194397926330566]], [[-0.58881014585495, 0.6374407410621643, 0.6362531185150146], [-0.5340743064880371, 1.8107022047042847, 1.0749058723449707], [-0.3243545889854431, 1.3165817260742188, 1.3813902139663696]], [[-0.1235913634300232, -0.8115473985671997, -0.32342496514320374], [0.24523082375526428, -0.35621780157089233, 0.40478515625], [0.11991596966981888, -0.5714184045791626, -0.6179744005203247]], [[-1.1204805374145508, 0.12351684272289276, 0.47599855065345764], [-1.4295121431350708, 0.5156205892562866, 1.9107680320739746], [-0.9875866770744324, 0.2626999318599701, 1.1449785232543945]], [[-0.46608880162239075, -0.5560028553009033, 0.06549658626317978], [-0.7212246060371399, -1.3017959594726562, 0.7740854024887085], [-0.01959138922393322, -0.19722811877727509, 0.5822963714599609]], [[-1.2855273485183716, -0.48083239793777466, -0.011700676754117012], [-1.569074273109436, 0.025282923132181168, 1.3865317106246948], [-0.9967325925827026, 0.2524875998497009, 1.3481338024139404]], [[-0.8041937947273254, -1.4116591215133667, -0.17886345088481903], [-0.414855033159256, -0.6985316872596741, 1.015540599822998], [-0.3575206696987152, -0.9001550674438477, -0.4457252323627472]], [[-0.3254116177558899, -0.4319499135017395, -0.8985187411308289], [-0.21538671851158142, -0.6731805205345154, -0.5358836650848389], [-0.41789543628692627, 0.13760142028331757, -0.053998369723558426]], [[-1.1654751300811768, 0.002301586791872978, -0.32938748598098755], [-1.0943090915679932, 0.824631929397583, 0.10131045430898666], [-2.103924512863159, -0.21757090091705322, -0.4814373254776001]], [[-0.8916961550712585, 0.2020128220319748, -0.5836008191108704], [-0.7181277871131897, 0.43925759196281433, 0.3436110019683838], [-0.41996288299560547, 0.406431645154953, 0.004902636166661978]], [[0.3626846373081207, 0.37914085388183594, -0.1323252171278], [0.04457695037126541, 0.6534749269485474, -0.46381711959838867], [0.14254717528820038, -0.25683093070983887, -0.5191633105278015]], [[-0.22483207285404205, 0.06740104407072067, 0.6586024165153503], [-0.4296276867389679, -0.12491577118635178, 0.3557543456554413], [-0.6520663499832153, -0.6036245226860046, -0.08840055018663406]], [[-0.5393134951591492, -0.49344635009765625, -0.6040441393852234], [-0.3390320837497711, 0.20690713822841644, 0.12360252439975739], [-0.5891737937927246, 0.42556047439575195, 0.37519070506095886]], [[-0.839015007019043, -0.32767102122306824, -0.6863262057304382], [-1.0114632844924927, -0.5219070911407471, 0.3358747363090515], [-1.6083300113677979, -0.8662840723991394, -0.030892495065927505]], [[-0.6394986510276794, 0.3382401168346405, 0.6081123948097229], [-0.9103859066963196, 0.22875268757343292, 0.27461135387420654], [-0.5079566240310669, -0.4544713795185089, 0.11873989552259445]], [[-1.054551362991333, 0.18967698514461517, 0.6152728796005249], [-1.2285038232803345, 0.9768131375312805, 1.3090994358062744], [-1.5045106410980225, 0.2003970742225647, 1.4460804462432861]], [[-0.19133828580379486, -1.2531251907348633, -0.6863967776298523], [0.8560229539871216, -0.8609286546707153, 0.2599482834339142], [0.36502325534820557, 0.7145519256591797, 0.8026877045631409]], [[0.4057866036891937, -0.46113690733909607, -0.04675178974866867], [0.4617370665073395, -1.5316859483718872, -0.225393608212471], [-0.36875930428504944, -0.5648630857467651, -0.3371298909187317]], [[-0.7222204804420471, 0.28683313727378845, 0.14935696125030518], [-0.7134018540382385, -1.0373560190200806, -1.0177315473556519], [0.3201446235179901, 0.8760133981704712, 0.05782479792833328]], [[-0.578238308429718, -0.175417959690094, 0.29109838604927063], [-0.7688766121864319, -0.11200223118066788, 0.5060440897941589], [-0.8663811087608337, -0.7747669816017151, 0.4002209007740021]], [[-1.4178557395935059, -0.38536176085472107, -0.15475767850875854], [-1.229695200920105, -0.21429036557674408, -0.9223936200141907], [-0.2809143364429474, 1.162549614906311, -1.4636847972869873]], [[-2.5442896003369242e-05, -0.13946059346199036, 1.1354854106903076], [-0.24856357276439667, -1.516417384147644, 0.053537748754024506], [0.6656999588012695, -1.2969478368759155, -0.6789893507957458]], [[-1.0444153547286987, 0.7042807936668396, 0.841074526309967], [-1.0972039699554443, 0.32705822587013245, 0.10440005362033844], [-1.4028388261795044, 0.3809637427330017, -0.5223790407180786]], [[0.09415663033723831, 0.7885414958000183, -0.3605845868587494], [-0.35172122716903687, -0.005652011837810278, -1.1142491102218628], [-1.1039901971817017, -0.5520297288894653, -0.29046428203582764]], [[-0.6314799189567566, -0.15922793745994568, -0.21435366570949554], [-0.23626311123371124, -0.13591483235359192, 0.6889716386795044], [0.07929820567369461, 0.3024969696998596, 0.556430995464325]], [[-0.604986310005188, -1.150943636894226, -0.07935043424367905], [-0.008586027659475803, -0.9855778217315674, 0.7174599766731262], [-0.3663100302219391, -1.2688610553741455, -0.35304269194602966]], [[-0.13171228766441345, -0.1047513410449028, 0.1348046213388443], [-0.878484308719635, -0.4525569975376129, -0.44725513458251953], [0.09992212802171707, 0.12304806709289551, -0.5234379172325134]], [[-0.4706132411956787, 0.48278912901878357, 0.5283136963844299], [-0.4699305593967438, -0.7159831523895264, -0.898667573928833], [0.2300626039505005, 0.7458162903785706, 0.5403879284858704]], [[-1.130434274673462, 0.5085501670837402, -0.028622593730688095], [-1.1251091957092285, -0.5092592239379883, -1.3534489870071411], [-1.1851829290390015, -0.09057105332612991, 0.9123655557632446]], [[-0.4613674581050873, -0.8351300954818726, -0.583984911441803], [-0.27795273065567017, -0.766211986541748, -0.4286986291408539], [0.4268607199192047, -0.2684415876865387, -0.9258745312690735]], [[0.293843537569046, -0.5109571218490601, 0.09031187742948532], [0.7698344588279724, -0.3855329751968384, 0.42021459341049194], [0.5220153331756592, -0.32974669337272644, -0.28088194131851196]], [[-0.9794013500213623, 0.00562291732057929, 0.3821728229522705], [-1.1517421007156372, 0.18192526698112488, 1.5028984546661377], [-0.8672327995300293, 0.24067288637161255, 1.2836650609970093]], [[0.7605264186859131, -0.07977864891290665, -0.24648934602737427], [0.6817858219146729, -1.3398752212524414, -0.47044846415519714], [0.08316581696271896, -0.10381390899419785, 0.18399183452129364]], [[0.3965071141719818, -0.603814423084259, -0.7025318741798401], [1.0426437854766846, -0.13093027472496033, -0.08378304541110992], [0.6712656021118164, 1.0941717624664307, 0.6377082467079163]], [[-0.608974277973175, -1.072762131690979, 0.14972108602523804], [-0.4832041561603546, -0.37991535663604736, 0.9979795217514038], [-1.072818398475647, -0.6009247303009033, 0.998026967048645]], [[-1.2612042427062988, -0.3438056707382202, 0.5349199771881104], [-1.6090284585952759, -0.21095308661460876, 1.700663447380066], [-1.1303091049194336, -0.259803831577301, 1.2848812341690063]], [[0.6918452382087708, -0.46125465631484985, -0.06344848871231079], [1.0665946006774902, -0.49202418327331543, 0.21885135769844055], [0.9927862882614136, 1.24919593334198, 0.8479058146476746]], [[-0.10918416827917099, -0.47770923376083374, -0.38938942551612854], [0.17236000299453735, 0.4933808445930481, 0.0990557074546814], [0.004682441242039204, -0.6805712580680847, -0.7801358699798584]], [[-0.6670231223106384, -0.07734949141740799, 0.32482191920280457], [-0.8114880919456482, 0.06182098016142845, 0.6665865778923035], [-0.9209762215614319, -0.15367846190929413, 0.4966402053833008]], [[-0.40203559398651123, 0.5076906681060791, -0.08445752412080765], [-0.06871074438095093, 0.43881911039352417, -0.5609540939331055], [-0.48930755257606506, 0.24804575741291046, 0.8456650972366333]], [[-1.3795373439788818, -0.9201275706291199, 0.2205040007829666], [-1.6308884620666504, -1.0152097940444946, 0.7968931198120117], [-1.3038008213043213, -0.012835732661187649, 1.9229816198349]]], [[[-0.02254905179142952, -0.049674659967422485, -0.04294426366686821], [0.008986328728497028, 0.008858139626681805, 0.001567643485032022], [-0.011648092418909073, -0.01440772507339716, 0.0020068406593054533]], [[-0.002934475429356098, -0.023220689967274666, -0.014470146968960762], [0.004490712191909552, -0.03421052172780037, -0.05445733293890953], [-0.08190755546092987, -0.006569782271981239, 0.012876144610345364]], [[0.00552178593352437, -0.02025623619556427, 0.012235227040946484], [-0.09393809735774994, -0.07986051589250565, -0.10560523718595505], [0.03976903855800629, -0.03617631644010544, -0.044006846845149994]], [[-0.028197620064020157, -0.05607971176505089, -0.04397875815629959], [-0.020166346803307533, -0.031086424365639687, -0.0654190182685852], [-0.07771668583154678, -0.007592285983264446, 0.011159613728523254]], [[-0.04438460245728493, -0.05954907834529877, -0.00884962547570467], [-0.03475432097911835, -0.05533357337117195, -0.06576289981603622], [-0.03744036331772804, 0.019259611144661903, -0.03728323057293892]], [[-0.009007864631712437, -0.05110422894358635, 0.012267270125448704], [0.007577518932521343, -0.02329646609723568, -0.016272615641355515], [0.017298216000199318, -0.05450248345732689, -0.009602224454283714]], [[-0.02753235213458538, -0.03167121112346649, 0.038979604840278625], [-0.050072457641363144, -0.07309161871671677, -0.054093122482299805], [-0.09049684554338455, 0.013642252422869205, -0.05248046666383743]], [[-0.10514570772647858, -0.022372176870703697, -0.0762072280049324], [-0.08221404999494553, -0.025129137560725212, -0.09298598021268845], [0.0022549452260136604, 0.011487862095236778, -0.035984210669994354]], [[-0.03370262682437897, -0.04455304890871048, -0.007535912096500397], [0.005929324775934219, -0.013083672150969505, -0.0158862117677927], [-0.08675691485404968, -0.018539542332291603, -0.02348262444138527]], [[-0.08862856775522232, 0.013100269250571728, -0.054997120052576065], [-0.04314042255282402, -0.04210861772298813, -0.02066189981997013], [-0.07913316041231155, -0.024070728570222855, -0.009017902426421642]], [[0.04164661839604378, 0.019267186522483826, -0.031207192689180374], [-0.040246687829494476, 0.027051445096731186, -0.03369855508208275], [0.004693681839853525, 0.007272035349160433, 0.0074010733515024185]], [[-0.08047032356262207, 0.0033282963559031487, -0.03447640314698219], [-0.04856371134519577, -0.02868969924747944, -0.036906130611896515], [-0.03636263310909271, 0.020870346575975418, -0.05494975671172142]], [[-0.008366594091057777, -0.050552863627672195, -0.0486932136118412], [-0.029732149094343185, -0.021976089105010033, -0.013972651213407516], [-0.03183850273489952, -0.03311381861567497, -0.03298097848892212]], [[-0.06774827837944031, 0.012776152230799198, -0.011746062897145748], [-0.08841651678085327, 0.03482011333107948, -0.03874034062027931], [-0.05733427405357361, -0.024737408384680748, -0.03925531357526779]], [[-0.036688342690467834, -0.05540325492620468, -0.05758029222488403], [-0.06650907546281815, -0.05102885514497757, 0.010015697218477726], [-0.009500090032815933, -0.06803864985704422, -0.03124096430838108]], [[-0.059863150119781494, -0.04807909205555916, -0.044509049504995346], [-0.051927462220191956, -0.004616584628820419, -0.0680118203163147], [0.011858667246997356, -0.05242396891117096, -0.03954682871699333]], [[-0.0028298546094447374, -0.06497866660356522, -0.016062472015619278], [0.00992071907967329, -0.01999056711792946, -0.05387547239661217], [-0.07616843283176422, -0.04786203056573868, -0.042671605944633484]], [[-0.025080321356654167, -0.04527691751718521, 0.007808868307620287], [-0.06600268185138702, -0.040800321847200394, -0.0182693749666214], [-0.014406653121113777, 0.026808669790625572, -0.02369651012122631]], [[-0.03588079288601875, -0.04238325357437134, 0.015141460113227367], [-0.07142601907253265, -0.057176001369953156, -0.06940606236457825], [-0.09192416071891785, -0.011586346663534641, -0.025957096368074417]], [[0.019092584028840065, 0.05618717521429062, 0.013896523974835873], [-0.006870511919260025, -0.01762380823493004, -0.003524604020640254], [0.005711640231311321, -0.011872725561261177, -0.014164862222969532]], [[-0.024508200585842133, 0.0066254641860723495, -0.07631303369998932], [-0.01941954530775547, -0.0700952485203743, -0.009285137988626957], [-0.024672430008649826, -0.018664345145225525, -0.025348765775561333]], [[0.02759520709514618, -0.040140796452760696, 0.034736212342977524], [-0.020519200712442398, 0.01746232993900776, -0.003923451993614435], [-0.020040180534124374, 0.018144845962524414, -0.013148531317710876]], [[-0.026412026956677437, -0.0661412924528122, -0.02329625003039837], [-0.03129781782627106, -0.02990485541522503, -0.04718833044171333], [-0.09141915291547775, -0.04151653125882149, -0.00831289030611515]], [[0.005659651942551136, -0.05812947079539299, -0.01171241793781519], [-0.08865510672330856, -0.08135445415973663, -0.09115021675825119], [-0.01944122649729252, -0.012097225524485111, -0.05599323660135269]], [[-0.006200007628649473, 0.014757689088582993, -0.00908950436860323], [-0.0010781727032735944, -0.06470531225204468, -0.044471126049757004], [-0.05300645902752876, -0.02703142911195755, -0.05679928511381149]], [[-0.071871317923069, 0.011404376477003098, -0.007409519981592894], [0.030311642214655876, -0.04635076969861984, -0.025789067149162292], [-0.019491497427225113, 0.014657160267233849, -0.011918540112674236]], [[-0.017621658742427826, -0.009402901865541935, 0.009356866590678692], [-0.08131535351276398, -0.10441537201404572, -0.05670877918601036], [-0.11158804595470428, -0.05413910001516342, -0.019482914358377457]], [[0.0030146550852805376, -0.056198690086603165, -0.0545276440680027], [-0.03777465969324112, -0.018014926463365555, -0.010922887362539768], [-0.029358210042119026, 0.018554067239165306, -0.043895743787288666]], [[-0.06009889766573906, -0.025039067491889, -0.011501528322696686], [-0.06480434536933899, -0.027481570839881897, -0.06749896705150604], [-0.06150680035352707, -0.04537670686841011, 0.015163462609052658]], [[-0.06271176785230637, -0.039601705968379974, -0.07929343730211258], [-0.02752682939171791, -0.06931813061237335, -0.0249770637601614], [-0.037306878715753555, -0.06250201165676117, -0.047434695065021515]], [[-0.03301973268389702, 0.02990368939936161, 0.03252880647778511], [-0.042900677770376205, -0.08687954396009445, -0.05034995824098587], [-0.06224653497338295, -0.040238190442323685, -0.012510743923485279]], [[-0.024632049724459648, 0.01023835875093937, -0.025883425027132034], [-0.057808004319667816, -0.03146833926439285, -0.03674423322081566], [-0.02129637449979782, -0.02973216027021408, -0.0336063988506794]], [[-0.05975208058953285, 0.02447120100259781, -0.008610568009316921], [-0.0867433249950409, -0.0006990649271756411, -0.036886900663375854], [-0.016168262809515, 0.044149305671453476, -0.019976122304797173]], [[-0.029459817335009575, -0.008495323359966278, 0.024762045592069626], [-0.053145818412303925, -0.06465005874633789, -0.03377959132194519], [-0.005879559554159641, -0.028100889176130295, 0.00703594321385026]], [[0.01641768589615822, 0.032140765339136124, 0.020764624699950218], [-0.025001652538776398, -0.06876896321773529, -0.060953591018915176], [-0.025569021701812744, 2.3091986804502085e-05, 0.0060570514760911465]], [[-0.008372188545763493, 0.026967691257596016, -0.018156567588448524], [-0.06299753487110138, -0.04848412424325943, -0.07868105918169022], [-0.034601230174303055, -0.03442998230457306, -0.03911253809928894]], [[-0.03944533318281174, 0.001451902324333787, -0.017028484493494034], [-0.00378244835883379, -0.009651053696870804, -0.09523636847734451], [-0.035736333578825, -0.01774795912206173, 0.01716543734073639]], [[-0.056988559663295746, -0.035385385155677795, -0.06874874234199524], [-0.004622466862201691, -0.04665815830230713, -0.06625276803970337], [0.030896181240677834, 0.02962881326675415, -0.0141696035861969]], [[-0.07401834428310394, 0.03648793324828148, -0.054921772330999374], [-0.05017969012260437, -0.0637972354888916, -0.07496413588523865], [-0.04469461739063263, -0.05063793435692787, -0.06619355827569962]], [[-0.03704660013318062, 0.018274394795298576, -0.07035325467586517], [-0.03914475813508034, -0.04484120011329651, -0.022657396271824837], [0.02203953266143799, -0.025126267224550247, -0.047305475920438766]], [[-0.056140679866075516, -0.03585721179842949, 0.005239855032414198], [-0.047093212604522705, -0.02067062072455883, -0.04461684450507164], [-0.02018718607723713, -0.0684090107679367, -0.014883036725223064]], [[0.012219483032822609, -0.05838611721992493, -0.029998809099197388], [-0.001882507000118494, -0.04319750517606735, -0.03514224663376808], [-0.01531679555773735, -0.0344751812517643, -0.025913342833518982]], [[-0.09291988611221313, -0.01978815346956253, -0.052750855684280396], [-0.0764104425907135, -0.06830821931362152, -0.06232093274593353], [-0.014266992919147015, -0.10878384113311768, -0.09496806561946869]], [[-0.011811483651399612, -0.052604593336582184, 0.025546850636601448], [-0.07437693327665329, -0.010605666786432266, -0.06751273572444916], [-0.037687014788389206, 0.016444263979792595, -0.01983685977756977]], [[-0.04492613300681114, 0.019355177879333496, -0.0737554281949997], [-0.06671912223100662, -0.06324821710586548, -0.07182427495718002], [0.003641263348981738, -0.04824092611670494, -0.005462989676743746]]], [[[0.47344011068344116, 0.322380930185318, -0.24134598672389984], [0.056172385811805725, -0.03567259758710861, 0.06365970522165298], [0.41282641887664795, -0.28550752997398376, -0.3912724256515503]], [[0.44283708930015564, 0.6169978380203247, 0.17604395747184753], [0.03459077328443527, 0.7890179753303528, -0.02664116397500038], [-0.2021402269601822, -0.42392539978027344, -0.5084890127182007]], [[1.008786916732788, 0.505094587802887, -0.4597944915294647], [-0.6294822096824646, -0.730603039264679, -1.3250230550765991], [0.0902070701122284, -0.5127207636833191, -0.7365679740905762]], [[0.017955096438527107, 0.4279758036136627, 0.4181389808654785], [-0.05010980740189552, 0.8225587606430054, 1.0826289653778076], [-0.9853100180625916, -0.7529837489128113, 0.054853715002536774]], [[-0.10248035192489624, 0.6083280444145203, -0.23968149721622467], [0.15377046167850494, 0.6613048911094666, 0.46561768651008606], [0.6910830736160278, -0.21428459882736206, -0.5117304921150208]], [[0.4484547972679138, 0.7886179685592651, -1.4840754270553589], [-0.9861714243888855, 0.10832192748785019, -1.626293420791626], [-1.854678750038147, -2.127894401550293, -2.8234803676605225]], [[0.18131352961063385, -0.47891807556152344, -1.1462643146514893], [0.20738261938095093, 0.9468671083450317, 0.815407395362854], [0.3305380642414093, -0.5802407264709473, -0.5669490694999695]], [[1.0102459192276, 0.380079984664917, 0.5113595128059387], [0.6727465987205505, 0.17465676367282867, -0.03361165523529053], [0.11556853353977203, -1.044966220855713, 0.039671897888183594]], [[0.26533058285713196, 0.4664366841316223, -0.09711844474077225], [-0.06380234658718109, 0.01884888857603073, -0.007673872634768486], [-0.010352054610848427, -1.5468074083328247, -1.454239010810852]], [[0.7940145134925842, -0.10623624175786972, -0.8077391386032104], [0.6479130983352661, -0.24803003668785095, -1.213432788848877], [-0.09664832800626755, -1.0539264678955078, -1.06069016456604]], [[0.7398285269737244, -0.15411072969436646, -0.778786838054657], [0.5356786847114563, 1.1965022087097168, 0.8452231287956238], [0.255177766084671, -1.0335077047348022, -0.7614692449569702]], [[-0.24084092676639557, 0.91315096616745, 0.23392699658870697], [-0.3650473356246948, 0.9967297315597534, 0.9561344385147095], [-1.276750087738037, -1.2251992225646973, -0.7939620018005371]], [[-0.5972941517829895, -0.38450711965560913, -2.1164438724517822], [-0.6892826557159424, -0.7039023637771606, -1.218788743019104], [0.30899283289909363, -0.37901678681373596, -0.7432230710983276]], [[0.10852066427469254, 0.207251638174057, 0.3561321794986725], [-0.08952365815639496, 0.5094406008720398, 0.48841139674186707], [-0.8068473935127258, -1.1396541595458984, 0.07529662549495697]], [[-0.05967088043689728, 0.5273529291152954, -0.08183665573596954], [-0.03728596493601799, 0.7038792967796326, 0.5389281511306763], [-0.03536410257220268, -0.3498578369617462, 0.05897808447480202]], [[0.161863312125206, 0.05394110828638077, -0.5883294939994812], [-1.442086935043335, -1.4007991552352905, -1.2799245119094849], [-0.8761085867881775, -1.1846957206726074, -2.3320162296295166]], [[-0.37074363231658936, 0.7216464281082153, 0.1852576583623886], [-0.6871743202209473, 0.5346637964248657, 0.6945655941963196], [-1.3115462064743042, -1.1420671939849854, -0.7890246510505676]], [[0.3811410963535309, 0.08645063638687134, -0.6214250922203064], [0.3956446349620819, 0.7660843133926392, -0.15464958548545837], [-0.640307605266571, -1.1779882907867432, -1.6107966899871826]], [[0.5273969769477844, 0.8226579427719116, 0.02088341861963272], [-0.6893734931945801, 0.39295563101768494, -0.23871326446533203], [-0.5812557935714722, -0.4593782424926758, -0.36727362871170044]], [[0.03347938507795334, -0.3678736388683319, -2.732893466949463], [-0.6645833253860474, -1.0183831453323364, -2.2963597774505615], [-0.014262647368013859, -0.6652431488037109, -2.7789101600646973]], [[-0.11704394221305847, 0.7194128036499023, 0.25694140791893005], [0.21380916237831116, 0.12731121480464935, 0.654023289680481], [0.310097336769104, -0.9669144153594971, -1.5200039148330688]], [[-0.6507651209831238, -0.044194161891937256, -0.8682629466056824], [-0.1268312931060791, 0.35775241255760193, 0.39544689655303955], [-0.2596972584724426, -1.3054733276367188, -2.053600788116455]], [[0.7997940182685852, 0.04722793400287628, 0.648232638835907], [0.5473124980926514, 0.389216810464859, 0.7821276187896729], [-0.6650006175041199, -0.8885117173194885, -0.16283567249774933]], [[-0.16123683750629425, -0.8631935715675354, -0.48616111278533936], [-0.7833360433578491, -1.2750558853149414, 0.18601927161216736], [-0.21898582577705383, -1.1224045753479004, -1.5314974784851074]], [[1.338199257850647, 1.0120494365692139, 0.8695634007453918], [1.3009446859359741, 1.6156424283981323, 1.595520257949829], [0.7522134780883789, -0.34262871742248535, 0.26286780834198]], [[0.7189508080482483, 0.6960669159889221, 0.328050434589386], [0.6199457049369812, 1.2941747903823853, -0.4195834696292877], [0.7487117052078247, 1.1500468254089355, 0.538543701171875]], [[0.23670856654644012, -0.7736263871192932, -1.7189123630523682], [-0.9566066861152649, -1.6465766429901123, -1.086881160736084], [-0.859359085559845, -1.4284250736236572, -1.9503352642059326]], [[1.137739658355713, 0.8188579082489014, 0.5605355501174927], [0.839008092880249, 0.8371595740318298, 0.6415340304374695], [0.1924683004617691, 0.05916500464081764, 0.11369123309850693]], [[-0.4636436700820923, 0.1701328009366989, -0.6591682434082031], [-0.26158061623573303, 0.34318310022354126, 0.31384703516960144], [0.2138490080833435, -0.1324414610862732, -0.0903467908501625]], [[-0.00717339338734746, -0.8142825961112976, -1.4421252012252808], [0.07513348013162613, 0.5665369629859924, 0.32275357842445374], [0.1161150187253952, -0.7192244529724121, -0.8801420331001282]], [[0.10898257046937943, -0.2549828588962555, 0.06820309162139893], [0.2951958179473877, 1.083432674407959, 0.2557368576526642], [-0.19011922180652618, 0.13156674802303314, 0.7010395526885986]], [[0.7688557505607605, 0.09029237180948257, 0.08976881951093674], [1.079681634902954, 0.6227735280990601, 1.259499430656433], [-0.16834984719753265, -0.26755255460739136, -0.09536625444889069]], [[1.3921846151351929, 0.8811960816383362, 0.5738927125930786], [1.162078619003296, 0.813075840473175, 0.978633463382721], [0.11498921364545822, -0.02803257666528225, -0.11054802685976028]], [[0.5708134174346924, 0.12117907404899597, -0.21476459503173828], [0.44635269045829773, 1.0491578578948975, 0.7858865857124329], [0.054212536662817, -0.10225595533847809, 0.53268963098526]], [[0.010812935419380665, -0.6417321562767029, -1.0504884719848633], [0.14641442894935608, 0.567766010761261, 0.5579419732093811], [0.49148786067962646, -0.8382195234298706, -1.100699782371521]], [[0.1665055900812149, 0.5167301893234253, -0.11850160360336304], [0.2012755274772644, 0.1321977972984314, -0.7591741681098938], [0.3066730201244354, -0.304164320230484, -0.06770848482847214]], [[-0.39436036348342896, 0.31182071566581726, -0.20907075703144073], [-0.22269320487976074, 0.20625226199626923, 0.5850276947021484], [0.41020238399505615, -0.204180046916008, -0.6201902031898499]], [[0.13924138247966766, 0.4483955204486847, 0.32648053765296936], [-0.040251296013593674, -0.8409929275512695, 0.16439202427864075], [1.300652265548706, 0.2398902177810669, -0.7245319485664368]], [[0.4563053846359253, -0.43063119053840637, -0.5109209418296814], [0.5099367499351501, -0.08739622682332993, -0.22246786952018738], [0.6853500604629517, 0.9013532400131226, 0.529487669467926]], [[0.4022153615951538, 0.48946624994277954, -0.4723167419433594], [0.39993801712989807, 0.6410253643989563, -0.9736746549606323], [0.32070478796958923, 0.14702042937278748, 0.058987755328416824]], [[0.2587769329547882, 0.2485031932592392, 0.20633253455162048], [0.4127379357814789, -0.4173714220523834, 0.25673332810401917], [1.4057893753051758, 0.2675763666629791, -1.0534086227416992]], [[-0.3018479645252228, -0.3823995888233185, -1.0231027603149414], [-0.6004961133003235, 0.2115863859653473, -0.2832760214805603], [-0.1402924805879593, -0.7995018362998962, -0.8935275673866272]], [[-1.3757939338684082, -1.5902985334396362, -2.7848196029663086], [-0.608441948890686, -0.36320066452026367, -0.5133240818977356], [-0.8156158924102783, -0.08351127058267593, -1.683294415473938]], [[0.5889195203781128, 0.3348943591117859, -0.12526918947696686], [0.04575444012880325, 0.08992276340723038, 0.29882949590682983], [-0.41101837158203125, -0.6551097631454468, -0.48013514280319214]], [[0.546112060546875, -0.38944023847579956, -0.47087520360946655], [0.852328360080719, 0.5142381191253662, -0.10191279649734497], [-0.09702547639608383, 0.37363705039024353, 0.1766839176416397]]], [[[1.2748796939849854, 0.01643279194831848, -0.7363600730895996], [0.6123775839805603, -0.3656926453113556, 0.29084721207618713], [-0.5231806635856628, -0.3752277195453644, 0.14016003906726837]], [[1.6984121799468994, 0.08447813242673874, -0.7473505139350891], [-0.0912594124674797, -0.5755443572998047, -0.08535141497850418], [-1.491373896598816, -0.11350202560424805, 0.659359335899353]], [[1.8075447082519531, 0.8917122483253479, -0.012617938220500946], [0.025776632130146027, -0.4108397662639618, -0.1262398362159729], [-1.2802156209945679, -0.31757164001464844, 0.15358276665210724]], [[0.7062585949897766, -0.4093547463417053, -0.6649357080459595], [-0.40789496898651123, 0.3689326345920563, 0.6358055472373962], [-0.6178576946258545, -0.16250081360340118, 0.2894715666770935]], [[-1.5553593635559082, 0.4661141633987427, 0.4837285578250885], [-0.3930789530277252, -0.08890388906002045, -0.0301628690212965], [0.2795711159706116, -1.4170554876327515, -0.708328127861023]], [[2.014869451522827, 1.7847626209259033, 0.513546347618103], [-0.17677302658557892, 0.13560712337493896, 0.21709385514259338], [-1.361268162727356, -0.5775544047355652, -0.5729147791862488]], [[-0.3841525912284851, -0.7337188124656677, -0.4147474765777588], [-0.014717294834554195, 0.5075241327285767, 1.5590153932571411], [-0.02127000503242016, -0.797286868095398, -0.09630963951349258]], [[0.8964115381240845, 1.2207286357879639, 0.8745306134223938], [0.8018288612365723, 1.0485038757324219, -0.29185575246810913], [0.026740022003650665, -0.145145446062088, -0.6507734060287476]], [[-0.945577085018158, 0.9577544927597046, 0.788068950176239], [0.292785108089447, 0.4249727427959442, -0.1794717162847519], [0.759508490562439, -0.950628936290741, -1.3019194602966309]], [[-0.2110750675201416, 0.3640497922897339, 0.2228507399559021], [0.7169150710105896, 1.121550440788269, -0.24075259268283844], [0.3060712218284607, 0.1320837140083313, -0.7217649221420288]], [[-0.39257198572158813, -0.507697582244873, -0.5350199937820435], [0.06221378222107887, 0.7085151076316833, 0.36966806650161743], [0.27947714924812317, -0.25833219289779663, -0.255774587392807]], [[-2.127012014389038, -1.2675762176513672, -0.5470597147941589], [-1.8696913719177246, -0.8103106021881104, 0.5807852149009705], [-0.7944630980491638, -1.0137962102890015, -0.0879187136888504]], [[0.706169068813324, -0.0894029513001442, -0.6650258302688599], [1.0541861057281494, -0.2846832871437073, -0.5955318212509155], [0.41410282254219055, -0.6832614541053772, -0.29606306552886963]], [[-0.15399380028247833, 0.12854015827178955, 0.4250485301017761], [-0.11335756629705429, 0.6513749957084656, 0.18976065516471863], [-0.4785134494304657, -0.40812912583351135, -0.13321025669574738]], [[0.8904244303703308, 0.059106696397066116, -0.2507023215293884], [0.3682406544685364, -0.19443073868751526, 0.6331273913383484], [-0.4040861427783966, -0.084724061191082, 0.35991379618644714]], [[1.7539132833480835, 0.6793816685676575, -0.024556268006563187], [0.9862903952598572, -0.5929790139198303, -1.118778109550476], [0.1588113158941269, -0.5781146287918091, 0.3067585229873657]], [[-1.3567572832107544, -0.8224557042121887, -0.2099187970161438], [-1.8067092895507812, -1.075545310974121, 0.48195880651474], [-1.335851788520813, -0.834510862827301, -0.09230203926563263]], [[-1.008480429649353, -0.23299221694469452, 0.2535412907600403], [0.5126072764396667, 0.8431921005249023, 0.17408637702465057], [0.6302602291107178, -0.35786980390548706, -0.6390967965126038]], [[2.161215305328369, 0.6558435559272766, -0.05197710916399956], [0.10408052057027817, -0.49865496158599854, 0.5226507186889648], [-1.8761731386184692, -0.8988083004951477, 0.36145415902137756]], [[0.3628143072128296, 0.27519163489341736, 0.033315788954496384], [-0.417960524559021, -0.534160852432251, -0.36011576652526855], [-1.225817322731018, -0.7820997834205627, -0.9392353296279907]], [[-2.0059452056884766, 0.3101811707019806, 0.4505580961704254], [-0.5706421732902527, -0.5744912624359131, 0.09643770009279251], [0.43376755714416504, -0.5665258765220642, -0.04713418334722519]], [[-1.9718945026397705, -0.2169467806816101, 0.2069406360387802], [-0.5688026547431946, 0.25361475348472595, 0.38367700576782227], [0.4611496925354004, -1.2011480331420898, -1.4116384983062744]], [[1.0926260948181152, 0.39557912945747375, 0.3516328036785126], [0.3140597343444824, -0.22484616935253143, -0.24229572713375092], [-0.37798255681991577, -0.41389748454093933, 0.5007817149162292]], [[0.5924774408340454, 0.0686662346124649, -0.6418991088867188], [0.5885499119758606, -0.04018934443593025, -0.4669727385044098], [0.09340322017669678, -0.16898298263549805, -0.07621850818395615]], [[2.6325836181640625, 1.2035704851150513, 0.5842760801315308], [0.7567147612571716, -0.4194200038909912, 0.2976706027984619], [-0.64313143491745, -2.259469509124756, 0.47926628589630127]], [[0.03520144894719124, -1.5228593349456787, -2.044536590576172], [-1.5306285619735718, -1.7146915197372437, -1.2756470441818237], [-2.3176190853118896, -0.7190433144569397, 0.6147251129150391]], [[1.87188720703125, 1.1575047969818115, 0.15197166800498962], [0.8184186220169067, -0.7472810745239258, -1.1103054285049438], [0.3831034004688263, -1.4111820459365845, -0.06365905702114105]], [[0.37403759360313416, -0.11139854788780212, 0.49630531668663025], [0.9280277490615845, -0.19642280042171478, 0.16821953654289246], [0.2563650906085968, -0.37581318616867065, -0.003181752050295472]], [[-0.9603391885757446, -0.42270272970199585, -0.22370049357414246], [0.06047912687063217, -0.3943495452404022, -0.07181656360626221], [0.546389102935791, -0.5810211300849915, -0.24632027745246887]], [[-0.05910869687795639, -0.32756921648979187, -0.38972800970077515], [0.4440171420574188, 0.6494517922401428, 0.6086996793746948], [0.43399012088775635, -0.4304625689983368, -0.5885035395622253]], [[-0.5072610974311829, -1.709648609161377, -1.5131385326385498], [-1.2783451080322266, -0.5039904117584229, -0.2616627812385559], [-1.7122466564178467, -0.004132410045713186, 0.5730449557304382]], [[0.004958844278007746, 0.3917086124420166, -0.13332314789295197], [-0.367148220539093, -0.8414127230644226, -0.04886699095368385], [-0.2455318570137024, 0.23747225105762482, 0.41621682047843933]], [[0.4862785339355469, 0.3614267110824585, 0.40433183312416077], [0.5037885308265686, -1.0431371927261353, 0.0719766691327095], [-0.623555600643158, -0.5073767900466919, -0.19411836564540863]], [[0.1737777143716812, -1.0106672048568726, -0.6022466421127319], [-0.07632745057344437, -0.05098666250705719, 0.6102661490440369], [-0.16007448732852936, -0.32821646332740784, 0.6077272891998291]], [[-0.15338993072509766, -0.3807866871356964, -0.3333432078361511], [0.15681302547454834, 0.7568277716636658, 1.3003671169281006], [-0.3078712522983551, -1.0807158946990967, -0.4256632328033447]], [[0.30186572670936584, 0.3662709891796112, 0.17099809646606445], [0.6819143295288086, 0.3938148617744446, -0.6242963671684265], [0.2101842164993286, -0.4469648003578186, -0.8960440158843994]], [[-2.2284364700317383, -0.02538047917187214, 0.5027233362197876], [-0.6309370994567871, -0.1906258463859558, 0.24150450527668], [0.4595222771167755, -1.1073435544967651, -1.0581051111221313]], [[-0.6434931755065918, 0.2668164372444153, -0.13012154400348663], [-0.15534181892871857, -0.9801512360572815, -0.7016332149505615], [-0.25926777720451355, -0.3721286654472351, -0.19765588641166687]], [[0.18876945972442627, 0.052775122225284576, -0.5747126936912537], [0.3312903940677643, -0.45586487650871277, -0.7872075438499451], [-0.1619366705417633, 0.43431660532951355, 0.17793391644954681]], [[0.24787397682666779, 0.08571314066648483, -0.28363898396492004], [0.9077442288398743, 0.4956406056880951, -0.6776431202888489], [0.49240612983703613, -0.11893623322248459, -0.3973904550075531]], [[-0.41812193393707275, 0.5537364482879639, 0.2107446938753128], [-0.26522648334503174, -1.4579744338989258, -0.9866716265678406], [-0.6122622489929199, -0.829152524471283, 0.14119404554367065]], [[0.7377315759658813, -0.27009275555610657, -0.7949451804161072], [-0.028028244152665138, -0.10102835297584534, 0.9224705696105957], [-0.49729374051094055, -0.1335195004940033, 0.12183914333581924]], [[0.2956680655479431, 0.4384155869483948, -0.03224586322903633], [0.8810880184173584, -0.1768513172864914, -0.20634683966636658], [1.1692947149276733, 0.13215692341327667, -0.016401974484324455]], [[0.5463158488273621, 0.13869905471801758, -0.1040988564491272], [0.5642181038856506, -0.637816309928894, -0.08543671667575836], [-0.008087271824479103, -0.09039577096700668, 0.07160300761461258]], [[-0.4917539060115814, 0.3617567718029022, -0.4052408039569855], [-0.15527008473873138, -0.6864176392555237, -0.8834943771362305], [-0.2722098231315613, 0.6132510900497437, -0.08522962778806686]]], [[[-0.34632745385169983, 0.13629408180713654, 0.8204758763313293], [0.46191680431365967, -0.22258757054805756, -0.02475259266793728], [-0.11919940263032913, -0.8448917269706726, -0.6732099652290344]], [[-0.7528401017189026, -0.19699706137180328, 0.26507389545440674], [-0.11255841702222824, -1.3161187171936035, -1.0043338537216187], [-0.24530494213104248, -1.255681037902832, -1.2768375873565674]], [[-0.2234455645084381, 0.5321387052536011, 0.6835530996322632], [-0.15198832750320435, 0.6677244305610657, -0.09572094678878784], [-0.1443488746881485, -0.24944300949573517, -1.246054768562317]], [[0.6922450065612793, -0.8280448317527771, 0.013996206223964691], [0.8798030018806458, -0.9630603790283203, -0.49684205651283264], [1.1418296098709106, -0.6131927371025085, 0.004759182222187519]], [[-1.0431151390075684, -1.3762586116790771, -0.8993324637413025], [-0.45651644468307495, -0.7983368039131165, 0.7998157143592834], [-0.6271826028823853, -0.34096983075141907, 0.3973638713359833]], [[0.7197529673576355, 0.6115901470184326, 0.28430721163749695], [0.5380927920341492, 1.6987524032592773, 0.31382596492767334], [0.38540318608283997, 1.5591014623641968, 0.08127890527248383]], [[-0.46814829111099243, -0.4547097682952881, 0.11460115015506744], [0.4925973415374756, -1.3718724250793457, 0.42029884457588196], [-0.15031698346138, -1.6675437688827515, 0.25894322991371155]], [[0.3467957079410553, 0.39304253458976746, -0.2801855206489563], [0.17505618929862976, 0.2831612527370453, -0.04174569994211197], [-0.13817088305950165, 0.22858838737010956, -0.2604283392429352]], [[-0.5123670697212219, -1.3610763549804688, -0.9552182555198669], [-0.1074056327342987, -1.0032551288604736, 0.791795015335083], [-0.1544421762228012, -0.849301815032959, -0.019245026633143425]], [[0.1914486140012741, -0.46075767278671265, -0.45618247985839844], [0.22226174175739288, -0.29364773631095886, 0.2008897066116333], [0.022427290678024292, -0.5472086071968079, -0.37083375453948975]], [[-0.28992852568626404, 0.33054104447364807, -0.06554335355758667], [0.09459341317415237, 0.2595486342906952, 0.9049848318099976], [-0.6053298115730286, -0.34155064821243286, 0.6632241010665894]], [[0.3507622480392456, -0.897706151008606, -0.8645073771476746], [0.7412263751029968, -0.6958479285240173, -0.40521615743637085], [0.697995126247406, -0.17889267206192017, -0.06974043697118759]], [[-0.6250077486038208, 0.16105712950229645, 0.3083929419517517], [-0.10344187915325165, 0.8869912624359131, 0.8743050694465637], [-0.5425940752029419, -0.11466457694768906, -0.21759383380413055]], [[0.3045578598976135, -1.5679277181625366, -0.941309928894043], [0.5406103134155273, -1.344019889831543, -0.13561289012432098], [0.1687527298927307, -1.171934962272644, -0.42013323307037354]], [[0.34025511145591736, -0.021469464525580406, 0.09272845834493637], [0.4616638123989105, 0.13703735172748566, -0.09543316066265106], [0.4710787236690521, -0.28543633222579956, -0.40399420261383057]], [[-0.41518521308898926, 0.3878958821296692, 1.2078049182891846], [-0.37105998396873474, 0.1240272969007492, 0.7902427315711975], [-0.5070894360542297, -0.352464497089386, -0.43831419944763184]], [[0.6138643622398376, -0.7147070169448853, -0.5500766634941101], [0.7622295022010803, -0.30592647194862366, -0.420083224773407], [0.950560450553894, 0.17723314464092255, -0.1836310774087906]], [[0.2823534309864044, -0.6467885375022888, -0.4892013967037201], [0.08907368034124374, -0.5021002888679504, 0.9839954972267151], [-0.280595600605011, -0.9490617513656616, -0.11843326687812805]], [[0.03940996900200844, -0.056877318769693375, 0.35988426208496094], [0.08046788722276688, 0.1352863907814026, -0.5382151007652283], [0.3628618121147156, -0.19652631878852844, -1.0949163436889648]], [[0.6100937128067017, 0.512580156326294, 0.2606050670146942], [1.0403532981872559, 2.0825724601745605, 0.7975295186042786], [0.6555812358856201, 1.4868335723876953, 0.09360736608505249]], [[-0.8941624760627747, -1.8505799770355225, -1.3410879373550415], [-0.3590050935745239, -1.856021523475647, 0.11682453006505966], [-0.1616813838481903, -0.4376000165939331, 0.2869761288166046]], [[-0.38311707973480225, -0.6907044649124146, -0.36721518635749817], [-0.3407517671585083, -0.17347781360149384, 0.5011139512062073], [-0.5173433423042297, -0.8405184745788574, 0.052574481815099716]], [[0.3056427240371704, 0.42736709117889404, 1.198804259300232], [0.3969859182834625, -1.6370307207107544, 0.568462073802948], [-0.12597060203552246, -1.4292173385620117, 0.6692394614219666]], [[-0.584090530872345, 0.3309635818004608, 1.1625226736068726], [-0.4792793095111847, 0.3903304636478424, 0.7826442122459412], [-0.3417253792285919, -0.1264379918575287, 0.19266833364963531]], [[-0.5758051872253418, -0.22409206628799438, 0.5295317769050598], [-0.5177972316741943, 0.272352010011673, 0.5242326259613037], [-0.9480388760566711, 0.6758822798728943, 0.5414040684700012]], [[-0.960499107837677, 0.20914018154144287, 0.5828086137771606], [-1.6516941785812378, -2.147582769393921, -1.396206021308899], [-1.8507789373397827, -1.8845767974853516, -1.843241810798645]], [[-0.3108767569065094, 0.7811516523361206, 1.5114706754684448], [-0.2975921928882599, 0.014264186844229698, 0.7939333319664001], [-0.8001805543899536, 0.448928564786911, -0.18670600652694702]], [[0.36428356170654297, 0.6003984212875366, -0.15124160051345825], [0.13651534914970398, -0.03839601203799248, 0.1483173370361328], [0.28819358348846436, -0.5772044658660889, -0.42860034108161926]], [[-0.14589588344097137, -0.8651860356330872, -0.41164523363113403], [0.04532056674361229, -0.3076935112476349, 0.7573928236961365], [0.23765859007835388, -0.43182459473609924, 0.007132118102163076]], [[-0.43160590529441833, 0.015080331824719906, -0.027824966236948967], [0.11418205499649048, -0.31825682520866394, 0.7214579582214355], [-0.2225531041622162, -0.6868916153907776, 0.6555261015892029]], [[0.0396057553589344, -0.6337074041366577, -0.20126411318778992], [0.6260148286819458, -1.414764642715454, -0.7077128291130066], [0.13243381679058075, -1.592221736907959, -0.6364457011222839]], [[0.4531557261943817, 0.5996447801589966, 1.1461855173110962], [0.24077413976192474, -0.532413125038147, 0.4733625650405884], [0.12353812903165817, -1.2329607009887695, 0.4826713800430298]], [[0.4893133342266083, 1.300087809562683, 0.28745174407958984], [-0.30867308378219604, -0.015614871867001057, -0.03244636580348015], [-0.21646805107593536, -0.5294556617736816, 0.0830015316605568]], [[-0.028766101226210594, 0.3515147566795349, 0.469611793756485], [0.4127154052257538, 0.3574896454811096, 0.5078324675559998], [0.0697624534368515, 0.1671784520149231, 0.82853102684021]], [[-0.2108960598707199, -0.5507107973098755, 0.3781512379646301], [0.677860677242279, -3.29754900932312, 0.14135737717151642], [0.03596590459346771, -3.4012813568115234, 0.030041804537177086]], [[-0.3281281888484955, 0.39423373341560364, -0.26432809233665466], [-0.4142158031463623, 0.5898109078407288, 0.27379515767097473], [-0.1381099820137024, 0.691511332988739, 0.05188996344804764]], [[-0.7798970341682434, -1.3601306676864624, -1.1371079683303833], [-0.3633437156677246, -0.5663195252418518, 0.38188618421554565], [-0.04546152055263519, -0.6121135950088501, 0.15744343400001526]], [[-0.5394502878189087, -0.2603609561920166, 0.17344805598258972], [0.4619217813014984, -1.427680253982544, 0.8232399821281433], [0.47709065675735474, -1.6817982196807861, -0.073477603495121]], [[-0.13244600594043732, 0.7033376693725586, 0.7807942032814026], [0.13379429280757904, -0.00712623680010438, 0.24004460871219635], [-0.16326715052127838, -0.855087161064148, -0.3531172573566437]], [[-0.34018680453300476, 0.4466923475265503, 0.21974608302116394], [-0.5206624269485474, 0.1740957647562027, 0.49086451530456543], [-0.5323432087898254, 0.0007323549943976104, 0.09290415048599243]], [[0.01189819909632206, 0.04935446009039879, 1.120415449142456], [0.8242483139038086, -2.6635916233062744, 1.4235161542892456], [0.39353474974632263, -2.731156349182129, -0.1096014678478241]], [[-0.13285458087921143, 0.044241439551115036, 0.06883900612592697], [0.3365360200405121, 0.023010428994894028, -0.0463656447827816], [0.2605688273906708, -0.11183446645736694, -0.5081920623779297]], [[-0.470304936170578, 0.5255383253097534, 1.1344834566116333], [-0.7667234539985657, 0.6091355085372925, 1.3686240911483765], [-0.9260531067848206, -0.015153725631535053, 0.652854323387146]], [[-0.1732141673564911, 0.19114035367965698, 0.08598314225673676], [-0.42890027165412903, -0.1835341453552246, -0.04837571084499359], [0.04363783076405525, -0.28627651929855347, -0.10298576205968857]], [[0.28624144196510315, 0.7195820212364197, 0.4943760633468628], [0.06160072609782219, -0.19293861091136932, 0.07429013401269913], [-0.07700487971305847, -0.688543975353241, -0.013113846071064472]]], [[[-0.01009735744446516, -0.039194557815790176, 0.003035076195374131], [0.009290355257689953, -0.009917719289660454, -0.0736747458577156], [-0.0165452491492033, 0.023506879806518555, -0.05528229475021362]], [[0.006747669540345669, 0.02984919585287571, -0.037065841257572174], [-0.053819917142391205, -0.07636610418558121, -0.009143481031060219], [0.03862728178501129, 0.006591747514903545, -0.09302078187465668]], [[-0.06510511785745621, -0.03359251096844673, 0.050315745174884796], [-0.03471662476658821, -0.058297596871852875, -0.047795336693525314], [0.008378003723919392, -0.013373331166803837, -0.049832772463560104]], [[-0.03261150047183037, -0.00847682822495699, -0.014847921207547188], [-0.04967270419001579, -0.03652859479188919, -0.03872506693005562], [-0.05417550355195999, -0.049630679190158844, -0.08240141719579697]], [[-0.03977242484688759, -0.022150330245494843, -0.05218914523720741], [-0.033456914126873016, -0.051480796188116074, 0.006288163363933563], [-0.006066476460546255, 0.07188644260168076, -0.07138574123382568]], [[-0.0733245462179184, -0.017615629360079765, -0.05809164419770241], [0.0317547507584095, -0.053393661975860596, 0.0658976286649704], [0.04069867730140686, -0.026238558813929558, -0.00026751565746963024]], [[0.02956564351916313, 0.015855100005865097, -0.06849704682826996], [-0.02415354736149311, -0.08016050606966019, 0.007928920909762383], [-0.013718250207602978, 0.002922713989391923, -0.07369434088468552]], [[-0.05204673483967781, -0.026839107275009155, 0.007467825431376696], [-0.02411169745028019, -0.03705354407429695, 0.031660959124565125], [0.07338597625494003, -0.03942868113517761, 0.023306457325816154]], [[-0.0020294133573770523, 0.01317781861871481, -0.030028540641069412], [-0.09216529130935669, -0.06184064596891403, -0.03002822771668434], [0.061214011162519455, -0.05945833399891853, 0.010930926539003849]], [[-0.0021667052060365677, 0.004872675519436598, 0.019349608570337296], [-0.03216181695461273, -0.050986453890800476, -0.007434813771396875], [0.013655007816851139, -0.02405896596610546, -0.06382013112306595]], [[-0.004154013004153967, 0.007214800920337439, -0.029131105169653893], [-0.07646626979112625, -0.10025493055582047, -0.042696624994277954], [0.059494584798812866, -0.01970897987484932, -0.014417009428143501]], [[-0.051358964294195175, 0.02065318264067173, -0.038557056337594986], [-0.038282766938209534, -0.08503106981515884, -0.07973236590623856], [-0.025339189916849136, 0.013908720575273037, 0.004704227205365896]], [[-0.05016602575778961, -0.01874370127916336, -0.034940190613269806], [0.04066569730639458, -0.07112448662519455, -0.009038107469677925], [0.05290086194872856, 0.02453777752816677, -0.03813439980149269]], [[0.002371300244703889, -0.03601850941777229, -0.015486638993024826], [-0.06244531273841858, -0.09002223610877991, -0.0765146017074585], [-0.011092166416347027, -0.0006929574883542955, -0.02414642833173275]], [[-0.03342694789171219, 0.02060754783451557, -0.020380549132823944], [-0.04553423449397087, -0.0006470804801210761, -0.06950279325246811], [-0.015637777745723724, -0.02164909429848194, -0.017022067680954933]], [[-0.031131939962506294, -0.035837724804878235, 0.009660666808485985], [-0.009641050361096859, -0.03545777499675751, -0.007112591061741114], [0.04522361978888512, 0.005005054175853729, -0.01079560350626707]], [[-0.04276301711797714, 0.03506717458367348, 0.008469579741358757], [-0.03104703314602375, -0.012118922546505928, 0.00822429545223713], [-0.03559037297964096, -0.01414172351360321, -0.0712139829993248]], [[0.054528117179870605, 0.02287035621702671, -0.035571347922086716], [-0.02217109501361847, -0.025154273957014084, -0.035125646740198135], [0.05109335109591484, 0.01682337559759617, -0.08449714630842209]], [[-0.063327357172966, 0.003711441997438669, -0.017974575981497765], [-0.003265263745561242, -0.03727281466126442, 0.017015211284160614], [-0.046093232929706573, 0.01444702222943306, 0.0037426655180752277]], [[-0.0004008446994703263, -0.03432147949934006, 0.020386580377817154], [-0.07994715124368668, -0.01253517996519804, 0.008619674481451511], [-0.07909157127141953, -0.08043430000543594, 0.0590057335793972]], [[-0.04205891117453575, -0.057962626218795776, -0.021692579612135887], [-0.10141444206237793, 0.011723010800778866, 0.014034070074558258], [0.003937507979571819, 0.01909472793340683, 0.0014477800577878952]], [[-0.013775378465652466, -0.05619947984814644, 0.016836723312735558], [-0.04849039763212204, 0.0058997999876737595, -0.043867550790309906], [-0.01859908737242222, 0.06129233166575432, -0.012443678453564644]], [[-0.03239583969116211, -0.031900398433208466, 0.013632030226290226], [0.013714337721467018, -0.05252132564783096, -0.054112814366817474], [0.0025640788953751326, 0.02562294714152813, -0.031918883323669434]], [[-0.03649083897471428, -0.06484182178974152, 0.008919880725443363], [-0.08047541230916977, -0.08211388438940048, 0.0055992817506194115], [0.027835896238684654, -0.008327145129442215, -0.003093961626291275]], [[-0.06175430864095688, 0.010527391918003559, -0.03645513951778412], [-0.053740449249744415, -0.06896330416202545, -0.012680561281740665], [-0.1062762662768364, -0.02117433026432991, -0.020977098494768143]], [[-0.06207809969782829, -0.04998089000582695, -0.03311414644122124], [-0.007583355996757746, -0.007598404306918383, -0.06575432419776917], [-0.00894661620259285, -0.054654501378536224, -0.04847335070371628]], [[-0.04670369252562523, -0.05173312872648239, -0.03202512115240097], [-0.05233338475227356, -0.014577989466488361, 0.02694340981543064], [0.04500110447406769, -0.04848263040184975, 0.008463844656944275]], [[-0.004542170558124781, 0.04470221325755119, -0.07371672987937927], [-0.07267121225595474, -0.0821327418088913, -0.07740028202533722], [0.016410507261753082, -0.006169096101075411, -0.026957940310239792]], [[-0.01274649053812027, -0.003078060457482934, -0.04259669408202171], [-0.05800279974937439, -0.08187060058116913, -0.0090074073523283], [-0.03169817849993706, -0.009292414411902428, -0.018091797828674316]], [[-0.04485705494880676, -0.04603245481848717, -0.06837300956249237], [-0.03836749866604805, -0.008976672776043415, 0.011773062869906425], [0.047877781093120575, -0.02774340845644474, -0.018714725971221924]], [[-0.010370586067438126, 0.01753832958638668, -0.03341479226946831], [-0.052555013447999954, -0.04480911046266556, -0.02591836079955101], [-0.05368784815073013, -0.012671226635575294, -0.007760784588754177]], [[0.005827838089317083, 0.018838733434677124, -0.019502796232700348], [-0.01734885200858116, -0.046378243714571, -0.036510709673166275], [0.0205463208258152, -0.039462026208639145, 0.01547602005302906]], [[0.03851432725787163, 0.013397513888776302, -0.029768971726298332], [-0.07073342800140381, -0.03995411470532417, -0.002561237895861268], [-0.045637913048267365, -0.08628877252340317, -0.08551445603370667]], [[0.026473144069314003, -0.025386465713381767, -0.06044881418347359], [-0.056361641734838486, 0.012606351636350155, -0.04319382458925247], [-0.0322093665599823, -0.05242691934108734, -0.011849485337734222]], [[-0.03938138112425804, -0.0239346232265234, -0.019763030111789703], [-0.01935713365674019, -0.006104576401412487, -0.013942597433924675], [-0.028632178902626038, -0.008754267357289791, -0.051741987466812134]], [[-0.002817533677443862, 0.021170413121581078, -0.06551086157560349], [-0.025530124083161354, -0.10300986468791962, -0.03514650836586952], [-0.017837315797805786, -0.013820086605846882, 0.02018221840262413]], [[-0.0014656311832368374, -0.006740413140505552, -0.023305170238018036], [-0.09953828901052475, -0.05556632950901985, -0.011117881163954735], [-0.06520416587591171, -0.010691778734326363, -0.03958888724446297]], [[0.01641031727194786, -0.0693565234541893, -0.07867436856031418], [0.04796592891216278, -0.07607894390821457, 0.02461628057062626], [0.031729597598314285, -0.07681408524513245, 0.024885768070816994]], [[-0.03631768375635147, -0.052778616547584534, -0.07168388366699219], [-0.0577087365090847, -0.02410588413476944, -0.07397531718015671], [0.041435301303863525, -0.043742552399635315, -0.004534715786576271]], [[-0.03653627261519432, -0.015981510281562805, -0.035657718777656555], [0.003318019676953554, -0.06244557350873947, -0.01939317025244236], [0.035447973757982254, -0.06251102685928345, -0.052562519907951355]], [[-0.01723729819059372, 0.002155154477804899, -0.04829845950007439], [0.017569759860634804, 0.005537593271583319, -0.014337540604174137], [-0.0029689378570765257, -0.0195050947368145, -0.07870326191186905]], [[-0.03721048682928085, -0.022430088371038437, -0.05245297774672508], [-0.011892673559486866, -0.04389243200421333, -0.051382698118686676], [0.005269262939691544, -0.00920115690678358, 0.018764100968837738]], [[0.0007542999228462577, 0.013390641659498215, -0.044632233679294586], [0.012766900472342968, -0.03205526992678642, -0.001965179108083248], [0.021982615813612938, -0.06410939246416092, -0.0335036925971508]], [[-0.04436592012643814, -0.07180582731962204, -0.026028644293546677], [-0.0208432637155056, -0.04076848179101944, -0.0040892004035413265], [-0.012933488935232162, 0.006198977120220661, -0.026953285560011864]], [[-0.051638711243867874, -0.03850318491458893, -0.06453055888414383], [-0.03295333683490753, -0.036790646612644196, -0.0323496051132679], [-0.018523219972848892, -0.004890976939350367, 0.023264514282345772]]], [[[-0.06798604875802994, -0.03127991780638695, -0.094427689909935], [-0.09377052634954453, -0.03775133192539215, -0.09691736102104187], [-0.13173305988311768, -0.04888123273849487, -0.10611886531114578]], [[-0.05701853334903717, -0.076619952917099, -0.016449103131890297], [-0.08273433148860931, -0.05097309872508049, -0.04219607263803482], [-0.10187473148107529, -0.07837293297052383, -0.11096218228340149]], [[0.013816136866807938, -0.09067858010530472, 0.020619451999664307], [-0.02665354125201702, -0.015576958656311035, -0.062423259019851685], [-0.04331629350781441, -0.03879455104470253, -0.044900208711624146]], [[-0.04326736927032471, 0.003715917468070984, -0.1039460301399231], [-0.07284677773714066, -0.024743715301156044, -0.043525777757167816], [-0.02040243335068226, -0.06566048413515091, -0.06509019434452057]], [[-0.12909463047981262, -0.07926016300916672, -0.08110715448856354], [-0.05329364538192749, -0.057498905807733536, -0.062344420701265335], [-0.09436289966106415, -0.07828184217214584, -0.06807521730661392]], [[-0.022999923676252365, -0.06642008572816849, -0.004646377172321081], [-0.03280361741781235, -0.06894315779209137, 0.02907739207148552], [-0.038722388446331024, -0.05469281226396561, -0.08785103261470795]], [[-0.0912499949336052, -0.004906746558845043, -0.0904771238565445], [-0.10189809650182724, -0.07279396057128906, -0.03961793705821037], [-0.09897410124540329, -0.021863071247935295, -0.038496024906635284]], [[-0.06911145895719528, -0.00042488242615945637, -0.02579069696366787], [0.025380631908774376, -0.012981405481696129, -0.06361652165651321], [-0.02904273383319378, -0.02594502456486225, -0.05717337876558304]], [[-0.05807451531291008, -0.09386323392391205, -0.05295100808143616], [-0.02047470398247242, 0.006639381870627403, -0.03246735781431198], [-0.10571808367967606, -0.09463778138160706, -0.09156733006238937]], [[-0.0876484215259552, 0.007529774680733681, -0.05257148668169975], [-0.07348897308111191, 0.036948759108781815, -0.03356844559311867], [-0.08155553787946701, -0.03221340849995613, -0.05851248279213905]], [[-0.08748248964548111, -0.03087223321199417, -0.042606793344020844], [-0.06734542548656464, -0.04887562245130539, -0.05948352813720703], [-0.09238837659358978, -0.012267264537513256, -0.040729641914367676]], [[-0.08389046043157578, -0.05341004952788353, -0.04714502766728401], [-0.10355718433856964, -0.035345062613487244, -0.10516505688428879], [-0.040079355239868164, -0.03768156096339226, -0.07372250407934189]], [[-0.051508110016584396, -0.08022674918174744, -0.05446472018957138], [-0.07992903888225555, -0.06244084611535072, -0.04252130165696144], [-0.12530066072940826, -0.08833051472902298, -0.01912982575595379]], [[-0.10094589740037918, -0.01792234554886818, -0.04711230471730232], [-0.12144311517477036, -0.04138490557670593, -0.09595224261283875], [-0.07538915425539017, -0.07915003597736359, -0.0921352356672287]], [[-0.04589926078915596, -0.08228763937950134, -0.08213311433792114], [-0.03922861069440842, -0.05091504007577896, -0.09206557273864746], [-0.07112940400838852, -0.05891422927379608, -0.09955734014511108]], [[-0.05926937237381935, 0.003846400883048773, -0.018080946058034897], [0.024047905579209328, -0.06419914215803146, -0.0409739725291729], [-0.03656827285885811, -0.06818584352731705, -0.022606519982218742]], [[-0.009115757420659065, 0.026841551065444946, -0.10221981257200241], [-0.03231550008058548, -0.009274371899664402, -0.0885104089975357], [-0.06069425120949745, -0.027413440868258476, -0.038749776780605316]], [[-0.1120334193110466, 0.039614442735910416, -0.09447437524795532], [-0.055553849786520004, -0.039228543639183044, -0.11735624074935913], [-0.10231659561395645, 0.01755347289144993, -0.09001282602548599]], [[-0.007619703188538551, -0.02186577394604683, -0.02147524431347847], [-0.08707016706466675, -0.06282618641853333, -0.07786732912063599], [-0.09609329700469971, -0.0071410308592021465, -0.08417807519435883]], [[-0.05885492265224457, -0.10898422449827194, -0.045318301767110825], [-0.08008763939142227, -0.05259840562939644, -0.021165521815419197], [-0.06448329240083694, -0.014022106304764748, -0.07072833180427551]], [[-0.10285289585590363, -0.11184320598840714, -0.011160713620483875], [-0.07491081953048706, -0.03761756420135498, -0.03327290341258049], [-0.029380252584815025, -0.09484364837408066, 0.00014961915439926088]], [[-0.1249183788895607, -0.1278732866048813, -0.005257096607238054], [-0.08805922418832779, -0.11277852207422256, -0.0688743144273758], [-0.11922828108072281, -0.15092988312244415, -0.06990338861942291]], [[-0.0012610666453838348, 0.0064243050292134285, -0.056624457240104675], [-0.08566881716251373, 0.022811973467469215, -0.07088959217071533], [-0.055900875478982925, -0.048681288957595825, -0.0694008395075798]], [[-0.003292386420071125, -0.0016805276973173022, 0.01673305034637451], [-0.013447347097098827, -0.021470945328474045, -0.049821726977825165], [0.003179070772603154, -0.02962692268192768, -0.0010543649550527334]], [[-0.06904951483011246, -0.08183576166629791, -0.029169773682951927], [-0.041295770555734634, -0.02287106215953827, -0.018229085952043533], [-0.05147235095500946, -0.007975127547979355, -0.062197279185056686]], [[0.0015201204223558307, -0.06618769466876984, -0.02483631856739521], [-0.043328698724508286, -0.14145611226558685, -0.056871239095926285], [-0.02868613228201866, -0.1563168615102768, -0.07565806806087494]], [[-0.0642138123512268, -0.0649874359369278, -0.0279329102486372], [-0.028229571878910065, -0.08255162835121155, -0.08622634410858154], [-0.025015082210302353, -0.018643010407686234, -0.06073932722210884]], [[-0.006420720834285021, 0.031986650079488754, -0.08526068925857544], [-0.0599580854177475, 0.007868777960538864, -0.08884335309267044], [-0.08071497082710266, -0.02915356308221817, -0.1070815697312355]], [[-0.025559743866324425, -0.03477653115987778, -0.09835698455572128], [-0.012185408733785152, -0.01728191040456295, -0.030144497752189636], [-0.016137253493070602, -0.04410748928785324, -0.05237733945250511]], [[0.03357138857245445, -0.046963684260845184, -0.024075036868453026], [-0.007824101485311985, -0.02676417864859104, -0.001414184458553791], [0.0010503340745344758, -0.04676423594355583, -0.04745796322822571]], [[0.011789095588028431, -0.04233924299478531, -0.09922097623348236], [-0.11280865222215652, 0.01005934551358223, -0.11688350141048431], [-0.09710296988487244, -0.01624753512442112, -0.10591165721416473]], [[0.020780453458428383, -0.08224207162857056, -0.054761480540037155], [-0.05274238437414169, -0.056311801075935364, -0.04147901013493538], [-0.025825822725892067, -0.09644969552755356, -0.05357882380485535]], [[-0.027527987957000732, -0.043143074959516525, -0.09850969165563583], [-0.08188042789697647, -0.027761735022068024, -0.13942724466323853], [-0.13831710815429688, -0.12370356917381287, -0.07951188832521439]], [[-0.05042567476630211, -0.027787329629063606, -0.025135017931461334], [-0.08602076023817062, -0.07818611711263657, -0.06782754510641098], [-0.09940900653600693, -0.07114076614379883, -0.054125331342220306]], [[-0.030147626996040344, -0.1021239310503006, 0.017602425068616867], [-0.029564671218395233, -0.1333148330450058, -0.03704766556620598], [-0.014146838337182999, -0.09988342970609665, -0.08246820420026779]], [[-0.14086616039276123, -0.02788848616182804, -0.07372143119573593], [-0.04911093786358833, -0.049164485186338425, -0.035734254866838455], [-0.08699791878461838, -0.07774654030799866, -0.058476805686950684]], [[-0.017731565982103348, -0.06764012575149536, -0.02076869085431099], [-0.059997666627168655, -0.11095856130123138, 0.003985153045505285], [-0.06232448294758797, -0.06155988946557045, -0.06422065198421478]], [[-0.019466470927000046, -0.06965266168117523, -0.033170994371175766], [0.021862363442778587, -0.06868050247430801, 0.010492784902453423], [-0.07506190985441208, -0.02668485976755619, -0.10270339995622635]], [[-0.0779712125658989, -0.06267760694026947, -0.04233929142355919], [-0.0287981778383255, -0.061693694442510605, -0.009232133626937866], [-0.02150764875113964, 0.0041316598653793335, 0.0010436014272272587]], [[0.005780953913927078, -0.04297307878732681, -0.020410893484950066], [0.01701393537223339, -0.006060990504920483, -0.027645982801914215], [0.0006340124527923763, -0.07951678335666656, 0.010285872966051102]], [[-0.010725573636591434, -0.08214130252599716, -0.10353759676218033], [-0.05110979825258255, -0.02628525346517563, -0.08894555270671844], [-0.11993896961212158, -0.05396825447678566, -0.06516885757446289]], [[-0.04786364361643791, -0.02298637479543686, -0.018578335642814636], [-0.07948562502861023, -0.05773771554231644, -0.10703982412815094], [-0.11875809729099274, -0.07892119884490967, -0.07214461266994476]], [[-0.023087339475750923, 0.0007615581271238625, 0.004470671061426401], [-0.06529227644205093, -0.00830158032476902, -0.01735161803662777], [-0.06413408368825912, -0.028031257912516594, -0.06265585869550705]], [[-0.1031356155872345, -0.09672512859106064, 0.008936372585594654], [-0.09971178323030472, -0.03634234890341759, -0.01072179526090622], [-0.09142779558897018, -0.10147877782583237, -0.09938812255859375]], [[-0.016531623899936676, -0.04524089768528938, -0.01526839379221201], [-0.01606576144695282, -0.03929857164621353, 0.014726073481142521], [-0.04996279999613762, -0.05520806834101677, -0.08780363202095032]]], [[[-0.27944454550743103, -0.6493344902992249, 0.40277671813964844], [0.804734468460083, 1.2637109756469727, 1.2148598432540894], [1.4025930166244507, 1.2717933654785156, 1.0590720176696777]], [[-1.058971643447876, -0.41849493980407715, 0.7043564319610596], [0.127794086933136, 0.6497657895088196, 0.9847232103347778], [1.1496776342391968, 0.6488407850265503, 0.19344525039196014]], [[-0.03045451082289219, -0.8859277963638306, 0.35854074358940125], [-0.1674579381942749, 0.2623558044433594, 0.8748645186424255], [1.7109910249710083, 1.0358022451400757, 0.857589602470398]], [[0.16443569958209991, 0.45934221148490906, 0.6978487372398376], [0.34704500436782837, 0.2780066430568695, -0.038260508328676224], [-0.227446511387825, 0.05063270777463913, -0.39520901441574097]], [[0.3787159323692322, -0.9225174784660339, -0.67563796043396], [0.06610226631164551, -0.25586333870887756, -1.2443139553070068], [0.017504587769508362, 0.14152808487415314, -0.24423065781593323]], [[0.935809314250946, -1.0315170288085938, -0.5391042232513428], [0.9106130003929138, -0.4261994957923889, -0.3330199122428894], [0.8741269111633301, 0.2517736554145813, 0.31903254985809326]], [[0.33104178309440613, -0.4905373156070709, 0.07366278022527695], [0.9089611172676086, 0.3327120244503021, 0.6308693885803223], [0.1607578694820404, 0.3018004298210144, 0.0663081556558609]], [[-0.19616813957691193, 0.40004783868789673, -0.36324089765548706], [-0.23118022084236145, -0.931183397769928, -1.2828154563903809], [-0.047603558748960495, -0.045449208468198776, 0.3754565715789795]], [[-0.8111369609832764, -0.5582160353660583, -0.6545001268386841], [0.006556889973580837, -0.49455007910728455, -1.448485016822815], [0.3914833664894104, -0.8598241806030273, -0.2427036613225937]], [[-0.4247317314147949, 0.190429225564003, -0.5177606344223022], [0.2848432660102844, -0.9464714527130127, -1.3263626098632812], [0.19584569334983826, -0.635146975517273, 0.270734041929245]], [[0.7044339179992676, -0.8995180130004883, -0.6022884845733643], [0.3017665445804596, -0.6863957643508911, 0.39714470505714417], [-0.28635290265083313, 0.3125024437904358, 0.17528578639030457]], [[1.007686972618103, -0.1064448431134224, -0.2003711313009262], [0.7067176103591919, -0.357128769159317, -0.9192867279052734], [-0.4871958792209625, -0.4713587462902069, -1.4688875675201416]], [[-0.7356799244880676, -1.6441677808761597, -0.9036019444465637], [-0.6878442764282227, -0.32711198925971985, 0.6513631343841553], [0.7310047149658203, 1.3909616470336914, 1.9763931035995483]], [[0.4104337990283966, 1.074750542640686, 0.2590094804763794], [0.6065031886100769, -0.12403573840856552, -1.0543996095657349], [-0.1879315972328186, -0.6142966747283936, -0.705755352973938]], [[-0.5702758431434631, 0.06671857833862305, 0.36144012212753296], [0.49168291687965393, 0.532772958278656, 0.005398779176175594], [0.6604272127151489, 0.02405892312526703, -0.06179780885577202]], [[0.4288161098957062, -0.09819866716861725, -0.7976343631744385], [0.5595793724060059, 0.5348815321922302, -0.32217302918434143], [0.669326663017273, 0.5445040464401245, 0.9465561509132385]], [[1.0418213605880737, -0.04840180650353432, -0.019149111583828926], [0.95814448595047, -0.5296724438667297, -0.7894350290298462], [-0.20642127096652985, -0.664538562297821, -1.46079683303833]], [[-0.6515575051307678, 0.41750431060791016, -0.16876710951328278], [0.664344072341919, -0.10677765309810638, -0.823508620262146], [0.42680853605270386, -0.6332340836524963, -0.03977787494659424]], [[-0.6875326037406921, -0.4115479290485382, 0.30427294969558716], [0.29272931814193726, 0.26993492245674133, 0.27389368414878845], [1.1028621196746826, 0.5913916230201721, 0.11535481363534927]], [[0.46467119455337524, -1.3753856420516968, -0.9173296093940735], [-0.21716748178005219, -0.28042662143707275, -0.546779990196228], [0.4221317172050476, 0.9358946084976196, 0.81461101770401]], [[-0.13764257729053497, -1.4921700954437256, -0.8600747585296631], [-0.6040382981300354, -0.7404147386550903, -1.5224416255950928], [-0.7658174633979797, -0.9874634742736816, -1.1918668746948242]], [[-0.08274686336517334, -1.364101767539978, -0.9882326126098633], [0.10058658570051193, -0.3123578727245331, -0.5442942976951599], [-0.5596832633018494, -0.2874557077884674, -0.20406951010227203]], [[0.0008235721616074443, -1.4959354400634766, 0.46309661865234375], [-0.3310742676258087, 0.5594331622123718, 1.0210094451904297], [0.3388192653656006, 0.9864760637283325, 0.9778810739517212]], [[-0.31820493936538696, -0.8469813466072083, -0.6862778067588806], [-0.375261515378952, -0.6709204316139221, -0.020864278078079224], [0.07116682082414627, 0.7107976078987122, 0.8988783955574036]], [[0.8602523803710938, -0.26793360710144043, -0.12936009466648102], [1.0421658754348755, 0.4878842830657959, 0.3433302938938141], [1.3815077543258667, 1.49344003200531, 2.1660234928131104]], [[-1.076064109802246, -0.14912086725234985, 0.7685551643371582], [-0.3312976658344269, 0.7178405523300171, 1.2245830297470093], [2.0933563709259033, 2.198415517807007, 1.3217031955718994]], [[-0.33832821249961853, -0.13178594410419464, -0.24858340620994568], [0.17967304587364197, 1.1049396991729736, 0.676713228225708], [0.8094526529312134, 1.6672905683517456, 2.3998584747314453]], [[-0.8208351135253906, 0.2693515419960022, -0.044667840003967285], [-0.0031327938195317984, 0.351074755191803, -0.8178267478942871], [0.5952487587928772, 0.06834878772497177, -0.3531637489795685]], [[-0.4755875766277313, 0.2700973451137543, -0.2907508313655853], [-0.10562006384134293, -0.5048295855522156, -1.2910817861557007], [0.014189205132424831, -0.05229877680540085, -0.5474434494972229]], [[0.20644772052764893, -0.7005666494369507, -0.15727032721042633], [0.3761647045612335, 0.12908996641635895, 0.46058139204978943], [-0.0064263432286679745, 0.11895198374986649, 0.3461673855781555]], [[0.08769001811742783, 0.1957223266363144, 0.15159939229488373], [0.27954646944999695, -0.020449938252568245, -0.10831335932016373], [0.447160929441452, 0.2407429814338684, -0.38487008213996887]], [[-0.22941333055496216, -1.1603481769561768, 0.44658467173576355], [0.16576778888702393, 0.3687608242034912, 0.8846456408500671], [0.4264463484287262, 0.7824376821517944, 1.3673977851867676]], [[-0.382513165473938, 0.38035640120506287, 0.45040345191955566], [-0.20051275193691254, 0.4359690248966217, -0.19492748379707336], [0.44855278730392456, 0.9254120588302612, 0.5730094313621521]], [[0.16372816264629364, -0.005111259873956442, -0.2944132685661316], [0.3868957459926605, 0.08218204975128174, 0.030220720916986465], [0.1690797060728073, 0.7153691649436951, 0.02478521317243576]], [[-0.655034065246582, -1.2346265316009521, -0.28935033082962036], [0.03862915560603142, 0.31965699791908264, 0.634819746017456], [-0.2164575606584549, 0.23847532272338867, 0.24745552241802216]], [[-0.8185506463050842, 0.08573661744594574, -0.5931688547134399], [-0.3851723074913025, -0.4765133857727051, -1.0373339653015137], [0.4955293536186218, -0.13480167090892792, 0.016696900129318237]], [[0.19257159531116486, -1.0785125494003296, -0.8809747099876404], [-0.04317210242152214, -0.5525119304656982, -1.022292137145996], [-0.29991039633750916, -0.28143832087516785, -0.2256903201341629]], [[-0.5082982778549194, -1.7441848516464233, -0.2682506740093231], [-0.496404767036438, -0.13940688967704773, -0.4068028926849365], [0.4734334647655487, 0.1353178322315216, 0.11620675772428513]], [[0.21978431940078735, -1.929182767868042, -0.45599889755249023], [-0.9326381683349609, -1.363178014755249, 0.12961256504058838], [0.30464527010917664, 1.0469378232955933, 1.1035456657409668]], [[-0.49820464849472046, 0.4216476380825043, -0.8290033340454102], [-0.2727801501750946, -0.5843784809112549, -1.0708599090576172], [0.34894877672195435, 0.36949077248573303, 0.42973092198371887]], [[-0.7669260501861572, -1.8053958415985107, -0.7042414546012878], [-0.7575920224189758, -0.1386927366256714, -0.8019710779190063], [0.5352342128753662, 0.1607457399368286, 0.11273703724145889]], [[-0.507466733455658, -0.18947790563106537, 0.14549951255321503], [1.1137645244598389, 0.8096011877059937, 0.5651925206184387], [0.796451985836029, 0.07726367563009262, 0.1318708211183548]], [[0.13304457068443298, -1.3230730295181274, -0.9465848803520203], [0.12245991826057434, -0.5698306560516357, -0.05025223270058632], [0.3122214376926422, 