weights['MEYDA'] = {"conv0.weight": [[[[0.8123973608016968, 1.4621275663375854, 0.04036886990070343], [-1.6702898740768433, -0.8852603435516357, -0.5382018685340881], [-0.12111606448888779, 0.9384247660636902, 0.04840157553553581]]], [[[-0.9004713892936707, -1.6879634857177734, -1.7828408479690552], [-0.7898931503295898, -1.0358660221099854, -0.4033465087413788], [2.1322641372680664, 2.5606160163879395, 2.6473114490509033]]], [[[-2.7671544551849365, -0.2797069847583771, 2.168379783630371], [-2.354372024536133, 0.32091400027275085, 2.9170966148376465], [-1.9534375667572021, 0.9216046333312988, 2.3752143383026123]]], [[[-0.6912917494773865, 0.732681930065155, 0.11902229487895966], [-0.37086671590805054, 1.0513577461242676, -0.35250335931777954], [-0.13788966834545135, 0.49881213903427124, -0.5517588257789612]]], [[[0.8487392663955688, 1.734818935394287, 1.8049514293670654], [0.47885292768478394, 0.43190374970436096, 0.1682194471359253], [-1.0928597450256348, -2.094025135040283, -1.9529258012771606]]], [[[-2.5796403884887695, 0.5542380809783936, 1.910451889038086], [-0.39074209332466125, -0.1879037618637085, 0.3823058009147644], [3.1457412242889404, -0.4184457063674927, -2.552919626235962]]], [[[0.9978936910629272, 0.757350742816925, 1.2326866388320923], [-1.589443325996399, -1.9840341806411743, -1.4651074409484863], [0.9836404323577881, 0.548378586769104, 0.34449177980422974]]], [[[0.3914412558078766, 0.4375825822353363, -2.099858045578003], [1.607648491859436, 0.6726086735725403, -1.9768182039260864], [1.71321439743042, 0.4672386646270752, -1.567589282989502]]], [[[1.1328444480895996, 1.5761619806289673, 0.21665968000888824], [0.8446326851844788, 0.6680619716644287, -1.3730353116989136], [-0.9768386483192444, -1.3090932369232178, -2.9797732830047607]]], [[[1.8037418127059937, 1.104888916015625, -2.548948049545288], [1.8414669036865234, 0.9478682279586792, -2.5025482177734375], [1.3466016054153442, 1.2865264415740967, -2.0101191997528076]]], [[[-0.9590740203857422, -0.11070161312818527, 1.162015676498413], [1.0764269828796387, -0.4195834994316101, -0.47659802436828613], [1.6594016551971436, 0.094255231320858, -1.3948783874511719]]], [[[-0.06763989478349686, 1.4154889583587646, 2.083613634109497], [-1.0393013954162598, -0.25889837741851807, 0.928656280040741], [-1.0682536363601685, -1.4338815212249756, -0.1882617026567459]]], [[[0.8667383193969727, -1.5419498682022095, 0.8946347236633301], [1.361760139465332, -2.577939033508301, 1.4563523530960083], [1.1053122282028198, -2.3121237754821777, 1.277857780456543]]], [[[0.4721052050590515, 0.058907777070999146, 0.08006341010332108], [0.6336814761161804, 0.362575501203537, -0.4239724278450012], [0.19560979306697845, -0.5419850945472717, -1.386842131614685]]], [[[1.1782594919204712, -0.7428947687149048, 0.49655911326408386], [-0.4409608244895935, -1.842164397239685, 0.12772570550441742], [0.3012832999229431, -0.048668272793293, 1.2442823648452759]]], [[[-1.5374577045440674, -0.7774670720100403, 1.6133990287780762], [-0.5903345346450806, 0.6674317717552185, 0.6278784275054932], [2.072361707687378, 0.43702560663223267, -2.439333200454712]]], [[[-0.9763874411582947, -0.835643470287323, 1.0137633085250854], [-1.7325665950775146, -2.142777681350708, -0.7465639114379883], [-0.3054712414741516, -0.8924892544746399, 0.7340866923332214]]], [[[0.49698618054389954, 0.07953836023807526, 0.6224682331085205], [-0.4381209909915924, -1.7879592180252075, -1.0310072898864746], [0.9621193408966064, -0.13867302238941193, 0.28018254041671753]]], [[[-1.5002405643463135, -1.3262449502944946, -0.023289097473025322], [-0.7549709677696228, -0.2289796769618988, 1.5331376791000366], [-0.3907856345176697, 0.5511918067932129, 1.8109550476074219]]], [[[-1.3407164812088013, 1.8106639385223389, 1.3273159265518188], [-2.2224018573760986, 1.2413939237594604, 0.9062246680259705], [-2.2306342124938965, 0.9263238310813904, 0.5782849192619324]]], [[[0.18182922899723053, 0.368282675743103, 0.6070851683616638], [1.3302948474884033, 1.4966046810150146, 1.147514820098877], [-1.4078861474990845, -1.7299295663833618, -1.7827754020690918]]], [[[1.9800528287887573, 2.1311821937561035, 1.8175723552703857], [-0.5135760307312012, -0.540581226348877, -0.5846130847930908], [-1.3272802829742432, -1.7729310989379883, -1.2621185779571533]]], [[[-1.510398030281067, 0.08623197674751282, 1.4962263107299805], [2.8427786827087402, -1.0196164846420288, -1.8471763134002686], [-1.141579031944275, 0.8185809850692749, 0.4361269772052765]]], [[[0.6680136322975159, 0.10796598345041275, -0.4422800540924072], [0.45915430784225464, -0.18420590460300446, -0.4409427046775818], [-0.05319717153906822, -0.2121259570121765, 0.01850944012403488]]], [[[-2.131283760070801, -0.10290946066379547, 2.2529804706573486], [-0.8363483548164368, -0.03455869480967522, 0.694685161113739], [3.1805436611175537, 0.13436608016490936, -3.122912645339966]]], [[[-2.465989112854004, -2.6887378692626953, -2.331049919128418], [-0.1666783094406128, 0.17092162370681763, 0.31379443407058716], [2.4981508255004883, 2.5886945724487305, 2.712956428527832]]], [[[1.2674345970153809, -2.2232539653778076, 0.8922613859176636], [-1.4340513944625854, 0.0049852789379656315, 1.398476481437683], [0.06850206106901169, 2.2015371322631836, -1.9802939891815186]]], [[[1.0360618829727173, 0.20175449550151825, -0.18348811566829681], [-0.06788352131843567, -2.1459686756134033, -0.36451953649520874], [-0.10305500775575638, -0.5507514476776123, 1.8045350313186646]]], [[[0.40953072905540466, -0.9254852533340454, 1.4762743711471558], [0.39933979511260986, -1.132717251777649, 1.4982719421386719], [-0.260532021522522, -2.4798123836517334, -0.3189390003681183]]], [[[-0.9375802874565125, 0.9109742045402527, 0.21542184054851532], [-0.8270864486694336, 1.1176728010177612, -0.2322450876235962], [-0.4246538281440735, 1.228698968887329, -0.711656391620636]]], [[[0.3266335129737854, -1.5094196796417236, -1.4347913265228271], [1.6328378915786743, -0.39592990279197693, -0.8401910066604614], [1.7209025621414185, -0.0969972014427185, -0.36370760202407837]]], [[[1.7156764268875122, 0.009093970991671085, -1.547461748123169], [-2.6038174629211426, 1.1175711154937744, 1.5370579957962036], [0.9694933295249939, -1.1238352060317993, 0.010657311417162418]]], [[[2.3044025897979736, 0.30175119638442993, -2.660193920135498], [0.29371631145477295, 0.2742897868156433, -0.3441339433193207], [-2.442595958709717, -0.7755028605461121, 3.0436723232269287]]], [[[-0.5417691469192505, 0.0030981728341430426, 0.593664824962616], [-0.05315147340297699, 0.012866513803601265, 0.26310306787490845], [0.46705949306488037, 0.05749191343784332, -0.37021562457084656]]], [[[1.0505226850509644, 1.1331700086593628, 1.374895691871643], [-1.7169151306152344, -2.307293653488159, -1.553863525390625], [0.997678279876709, 0.6169437170028687, 0.9287288188934326]]], [[[1.9954230785369873, -0.6367471218109131, -1.1038854122161865], [1.9251301288604736, -0.7622373104095459, -1.2870351076126099], [1.1577610969543457, -0.6120519638061523, -0.5802489519119263]]], [[[1.6869523525238037, 1.4151108264923096, 0.8292513489723206], [0.14621785283088684, 0.04759236425161362, -0.296424925327301], [-1.4735621213912964, -1.692419409751892, -0.7026745676994324]]], [[[-0.4527948498725891, -0.8614102602005005, -0.26770836114883423], [1.6864759922027588, 1.6948431730270386, 1.8757476806640625], [-0.36417731642723083, -1.2650210857391357, -1.1177340745925903]]], [[[1.8412941694259644, 1.0673248767852783, 0.04473251476883888], [2.663742780685425, 2.117772340774536, 1.3309032917022705], [0.21578925848007202, 0.3655450642108917, 0.05172491818666458]]], [[[1.5391043424606323, 0.09658488631248474, -0.9221966862678528], [1.2081910371780396, -0.10667210072278976, -1.1585075855255127], [0.6458286643028259, -0.22595089673995972, -0.2624194622039795]]], [[[-1.2601284980773926, -1.3900970220565796, -0.7727032899856567], [2.437852144241333, 2.744812250137329, 2.7199041843414307], [-0.4159218668937683, -1.342684268951416, -1.4594570398330688]]], [[[0.5961323976516724, 0.8147505521774292, 0.4608496129512787], [-1.8689018487930298, -1.7808688879013062, -2.01228666305542], [0.4304782450199127, 1.2801084518432617, 1.142446517944336]]], [[[0.8250120282173157, 1.493091344833374, 2.6127450466156006], [-0.10677635669708252, 0.27025628089904785, 1.2566696405410767], [-1.0590521097183228, -0.6982331871986389, -0.10857431590557098]]], [[[0.5879655480384827, 0.2428729236125946, -0.233822301030159], [0.5937369465827942, -0.6580345630645752, -0.5306326746940613], [-0.4774899482727051, -0.6255308389663696, 1.1017004251480103]]], [[[2.9235055446624756, -0.9626211524009705, -2.156802177429199], [0.23581500351428986, -0.02354608289897442, -0.0756734311580658], [-3.1213674545288086, 0.8093469738960266, 2.263967275619507]]]], "bn1.running_mean": [2.2440640926361084, 4.935524940490723, 0.2812146544456482, 5.605193857299268e-45, 5.843145847320557, 3.4588210582733154, 5.605193857299268e-45, 5.605193857299268e-45, 5.605193857299268e-45, 8.365256309509277, 6.077733039855957, 41.745086669921875, 168.99493408203125, 13.583988189697266, 5.605193857299268e-45, 6.745228290557861, 20.3331356048584, 8.602508544921875, 11.503156661987305, 61.757572174072266, 4.476993560791016, 10.48080825805664, 3.1068122386932373, 3.2242326736450195, 1.2378216981887817, 10.880304336547852, 7.088034152984619, 3.980071783065796, 5.605193857299268e-45, 5.605193857299268e-45, 41.350399017333984, 4.066466331481934, 1.7290312051773071, 5.7268195152282715, 81.46475219726562, 0.9254505038261414, 2.093607187271118, 2.7084238529205322, 7.25459623336792, 5.605193857299268e-45, 1.0431822538375854, 5.605193857299268e-45, 5.605193857299268e-45, 0.6464226841926575, 4.443160057067871], "bn1.running_var": [103.92350006103516, 276.6148376464844, 10.263955116271973, 5.605193857299268e-45, 378.92376708984375, 345.9856262207031, 5.605193857299268e-45, 5.605193857299268e-45, 5.605193857299268e-45, 414.9415283203125, 511.3561096191406, 1208.1190185546875, 6923.83642578125, 1113.8028564453125, 5.605193857299268e-45, 537.4249267578125, 1246.642822265625, 696.3560180664062, 543.11328125, 3238.637939453125, 293.918212890625, 667.16943359375, 142.45591735839844, 223.5999298095703, 78.20515441894531, 594.2275390625, 436.331787109375, 192.53079223632812, 5.605193857299268e-45, 5.605193857299268e-45, 2686.89013671875, 203.9095458984375, 115.35884857177734, 346.71734619140625, 2234.093994140625, 24.78346824645996, 90.18187713623047, 176.19151306152344, 758.9842529296875, 5.605193857299268e-45, 55.84947967529297, 5.605193857299268e-45, 5.605193857299268e-45, 35.20189666748047, 414.74420166015625], "bn1.num_batches_tracked": 440548, "conv1.weight": [[[[0.2866254448890686, -0.04467511177062988, 0.5908536314964294], [1.100196123123169, -0.8976812362670898, -0.2372204065322876], [0.8761721849441528, -1.2984955310821533, -1.5313434600830078]], [[-0.5337503552436829, 1.715237021446228, 0.5191601514816284], [2.2147750854492188, 1.4721864461898804, 0.0045037842355668545], [-0.30966717004776, 1.6446433067321777, -0.32753267884254456]], [[0.48664385080337524, 1.439278244972229, -1.2626147270202637], [1.9382190704345703, 0.08067400008440018, -0.6634542942047119], [-0.7815185189247131, 0.22561247646808624, 0.09761296957731247]], [[0.5779326558113098, -1.0002726316452026, -0.1607915610074997], [-0.0038906182162463665, 0.04532576724886894, -1.836682915687561], [1.1961113214492798, -0.7563409805297852, 0.5796086192131042]], [[1.5697576999664307, -0.7384803891181946, 0.4400527775287628], [1.1421799659729004, -0.09212282299995422, -2.2304446697235107], [0.9663553237915039, -1.150883436203003, -3.172147512435913]], [[1.467414379119873, 0.2043168991804123, 0.19957803189754486], [2.6707141399383545, 1.6631190776824951, -1.0129847526550293], [2.5894458293914795, -3.7813215255737305, -0.2712450921535492]], [[0.05412660911679268, 1.7723318338394165, 1.280126690864563], [1.1965436935424805, -0.9085994958877563, -0.8675066232681274], [1.3099416494369507, -1.5080807209014893, -0.6367489099502563]], [[0.611296534538269, -0.2914871275424957, -0.8181017637252808], [-0.8479604125022888, 1.0825700759887695, -4.013467788696289], [-0.21963155269622803, -0.8778362274169922, -3.0172629356384277]], [[0.27494096755981445, -0.41946086287498474, -1.021742820739746], [-1.4440371990203857, -1.4483261108398438, -3.9408442974090576], [0.17390677332878113, -1.199640154838562, -3.995565414428711]], [[0.43878600001335144, -0.8868616223335266, -1.748077630996704], [-0.6004998087882996, 0.24296416342258453, -5.892837047576904], [0.38748589158058167, -1.0725812911987305, -3.4188804626464844]], [[0.24602170288562775, -0.8973039388656616, -1.427614450454712], [0.2393862009048462, 1.1956734657287598, -1.9386411905288696], [0.6690630912780762, -2.613072395324707, -1.6026372909545898]], [[1.2479561567306519, -0.2624129056930542, -1.5865181684494019], [-1.700127363204956, -0.27879810333251953, -0.9657744765281677], [0.8751786351203918, -0.8045991659164429, -2.5115513801574707]], [[0.05740053579211235, 0.2762596011161804, -1.242058277130127], [0.34843385219573975, -1.316681981086731, -0.6867300271987915], [0.7368569374084473, -1.4444606304168701, -1.1235839128494263]], [[0.6003546118736267, -0.09253895282745361, -2.231048107147217], [-0.9153144359588623, -0.5395991206169128, -4.593963623046875], [0.16332881152629852, -0.6714487075805664, -2.8153867721557617]], [[-0.2242499440908432, 1.518340826034546, 0.6473268866539001], [0.23471450805664062, -1.118778109550476, -1.2229366302490234], [0.3427685797214508, -0.9680294990539551, -0.8942592740058899]], [[0.25878509879112244, 0.5173218846321106, -0.32067498564720154], [3.133483409881592, 1.2987265586853027, -1.3135367631912231], [2.1287994384765625, -1.4582326412200928, -0.25458550453186035]], [[0.8782617449760437, 0.983839750289917, -2.0900940895080566], [0.29926761984825134, 0.35072124004364014, -2.628098726272583], [0.12722136080265045, -0.10266213119029999, -1.4321755170822144]], [[0.45464378595352173, 1.0657316446304321, -0.1048978716135025], [-0.3299851417541504, -0.708094596862793, -3.825171947479248], [0.3064384460449219, -0.27078092098236084, -1.7122961282730103]], [[0.038415972143411636, 1.9251186847686768, -0.2604144513607025], [1.7866761684417725, -0.1727662831544876, -0.5929426550865173], [-2.1741628646850586, 0.2717789113521576, -0.05447777360677719]], [[2.0220208168029785, -0.6812163591384888, -2.5970916748046875], [0.4447023868560791, -1.0405712127685547, -1.6132758855819702], [0.23906788229942322, -0.5411267280578613, -0.6724807024002075]], [[1.8526923656463623, 0.003974643535912037, 1.6408305168151855], [1.4410845041275024, -0.38448330760002136, -2.9949798583984375], [0.19913454353809357, -1.31292724609375, -2.7285313606262207]], [[2.247828483581543, -0.7597247362136841, 0.8688731789588928], [0.9854768514633179, -0.35856854915618896, 0.018439266830682755], [2.4978268146514893, -0.8650606274604797, -4.045022964477539]], [[1.8899221420288086, 1.1940699815750122, 1.386305570602417], [2.596281051635742, 1.5903785228729248, -0.5601136684417725], [2.2072131633758545, -1.594794750213623, 0.16845926642417908]], [[0.9255394339561462, 0.10784760862588882, -0.22154542803764343], [0.005253758747130632, 0.18840140104293823, -3.1516733169555664], [1.3020777702331543, -0.8278886675834656, -2.746077537536621]], [[1.148805856704712, 0.2307714819908142, -0.1595974564552307], [3.3216679096221924, 1.6137362718582153, -1.1779885292053223], [2.8477210998535156, -3.606313467025757, 0.4005216956138611]], [[-1.4715003967285156, 0.5777174234390259, 0.7287744283676147], [2.064957857131958, 1.0146729946136475, -0.03288665786385536], [-0.1964045912027359, 1.1455109119415283, -0.6124748587608337]], [[0.6981727480888367, 0.9850266575813293, -0.7192107439041138], [3.15376877784729, 0.9764782190322876, -0.9851629137992859], [1.501286506652832, -2.342771291732788, -0.7469133734703064]], [[0.005042182747274637, 1.1745742559432983, 0.5774691104888916], [1.0928484201431274, -1.5171864032745361, -1.7281962633132935], [0.8704752922058105, -1.0566045045852661, -1.4353593587875366]], [[0.1959797441959381, 0.8501679301261902, -1.5924006700515747], [-1.8662775754928589, -0.14930781722068787, -3.7207491397857666], [-0.06694633513689041, -0.33637627959251404, -1.4115183353424072]], [[0.3526484966278076, -3.050649881362915, -1.097909927368164], [0.1898115873336792, -1.6747032403945923, -0.7119442820549011], [-0.5373070240020752, -2.4815165996551514, -0.6152588725090027]], [[-0.3172687292098999, 1.2649028301239014, 0.2878091037273407], [0.8299620151519775, 1.0414031744003296, -1.1153242588043213], [-0.28397801518440247, -0.11329048871994019, -2.2679052352905273]], [[1.8463391065597534, 0.9073489904403687, 2.2570669651031494], [3.757270574569702, 0.20467449724674225, 0.18923750519752502], [1.230284571647644, -1.5341941118240356, 0.32666778564453125]], [[2.5918867588043213, 0.7662713527679443, 2.917680501937866], [4.418121814727783, -1.059785008430481, 0.27738142013549805], [3.6187829971313477, 0.18376845121383667, -1.0214636325836182]], [[-0.9844970107078552, -0.45608267188072205, -0.6664824485778809], [-1.414172649383545, 0.3083614110946655, 0.06563858687877655], [-1.465606451034546, -1.7642580270767212, 0.29787003993988037]], [[-0.17841953039169312, 1.9770163297653198, 1.3660537004470825], [2.0230226516723633, -0.3771354854106903, -0.8138970136642456], [1.2582547664642334, -1.7574576139450073, -1.0398675203323364]], [[2.0129575729370117, -0.029081642627716064, -0.7884905338287354], [0.37402477860450745, -0.27621880173683167, -4.160740375518799], [0.7492122650146484, -1.0181095600128174, -3.0105111598968506]], [[2.1421737670898438, -1.089150071144104, 0.6434125900268555], [1.1990240812301636, -0.7275388836860657, -1.0622092485427856], [2.2296087741851807, -0.3776403069496155, -3.8085672855377197]], [[-0.6868165135383606, 0.6323993802070618, 2.0596277713775635], [0.9266640543937683, -0.6046769618988037, -2.811798095703125], [-0.7383288145065308, -2.5706756114959717, -2.4571428298950195]], [[-1.394912600517273, -0.289972722530365, 0.37404105067253113], [-0.8832273483276367, 1.2186167240142822, -0.6403469443321228], [-1.8976539373397827, -0.024939976632595062, -2.544449806213379]], [[0.8948145508766174, 0.20289668440818787, -0.43118739128112793], [-0.7262246608734131, 0.17660139501094818, -4.375893592834473], [0.5953823328018188, -0.3059656620025635, -3.0163440704345703]], [[-2.829223394393921, 0.02831611968576908, 2.8234715461730957], [2.013731002807617, 0.36416178941726685, -2.020169973373413], [-0.6078755855560303, -2.0052621364593506, -0.8742229342460632]], [[0.16946914792060852, 1.9082223176956177, 0.7792424559593201], [1.124004602432251, -1.0016567707061768, -1.878954529762268], [-0.07551447302103043, -1.2357628345489502, -0.6018136739730835]], [[0.04899569973349571, 0.41075655817985535, -0.8694230914115906], [-0.7705224752426147, 2.1690452098846436, 0.5984593629837036], [-1.485033631324768, -1.311449408531189, -1.6559213399887085]], [[-0.5623472929000854, -0.7841816544532776, 0.44940391182899475], [0.30783724784851074, -1.8991014957427979, -0.5687621235847473], [2.304858446121216, -1.1047215461730957, -0.4800475835800171]], [[2.2701761722564697, 1.5423424243927002, 2.1707770824432373], [4.202178955078125, -1.1247196197509766, -0.08940569311380386], [3.398719549179077, 0.6790276765823364, -1.1719257831573486]]], [[[-0.40666019916534424, -0.5078338980674744, 2.1862905025482178], [0.8588095307350159, -1.4392378330230713, 0.6387220025062561], [1.0230937004089355, -1.8057000637054443, -2.1721067428588867]], [[0.19772374629974365, 0.8028672933578491, -0.28509920835494995], [1.0266062021255493, 1.2518999576568604, -1.9599573612213135], [-0.0783836618065834, 1.0544276237487793, 1.2511452436447144]], [[-2.1704280376434326, 0.6785392165184021, -0.20931299030780792], [0.9390204548835754, 0.8628523349761963, -1.8996998071670532], [0.9790180921554565, 1.4194166660308838, -1.2015855312347412]], [[0.6426758766174316, -1.4206366539001465, 0.3997960090637207], [0.4732402563095093, -1.2350343465805054, 1.1566108465194702], [0.7119600772857666, -0.7380698323249817, 0.5768240690231323]], [[-1.8123805522918701, -1.0239759683609009, 1.676429271697998], [1.889661192893982, -6.885811805725098, -6.207189559936523], [0.1621844321489334, -3.547990083694458, -5.480077266693115]], [[-1.5465216636657715, 0.25385910272598267, 0.7798145413398743], [1.5015028715133667, 2.741331100463867, 2.4557414054870605], [-1.4286324977874756, -0.6099739670753479, -2.766723155975342]], [[-0.4997085928916931, 0.11218232661485672, 1.2042417526245117], [-0.5065231323242188, -0.8928902745246887, 0.15725001692771912], [0.8914589881896973, -1.7061604261398315, -2.4095375537872314]], [[-0.07353363931179047, -0.48022323846817017, -1.8134890794754028], [-0.0725686326622963, 2.8124947547912598, 1.94883394241333], [-0.9558543562889099, 1.2295764684677124, 1.3407671451568604]], [[-0.04500401020050049, -1.0734548568725586, 1.8412302732467651], [-2.5199193954467773, -4.101107120513916, 0.739940345287323], [0.7058853507041931, -1.4229940176010132, 0.17939907312393188]], [[0.18995575606822968, -0.8512500524520874, -1.436016321182251], [0.2789517641067505, 3.5479536056518555, 3.6393518447875977], [-0.2624647319316864, 1.5650578737258911, 2.4368598461151123]], [[-0.30642935633659363, -0.20270167291164398, -0.28679755330085754], [1.5419607162475586, 2.6193652153015137, 2.3886148929595947], [-1.111101746559143, -0.22821325063705444, -1.1090426445007324]], [[-2.315885305404663, 0.7616102695465088, 3.2498178482055664], [-1.0987032651901245, -3.53316068649292, 0.6112436652183533], [0.682785153388977, -1.361029863357544, -1.979918360710144]], [[-0.4374464750289917, -0.36676862835884094, -0.16709505021572113], [0.9440461993217468, -0.17862597107887268, 1.0734031200408936], [1.5399693250656128, 0.05419477820396423, 1.2098400592803955]], [[0.24812893569469452, -0.3092697262763977, 1.0660032033920288], [-1.369101881980896, -1.7900944948196411, 1.7845509052276611], [0.40471479296684265, -1.3024028539657593, 0.3835656940937042]], [[-0.03946389630436897, 0.1932075172662735, -0.3910064995288849], [0.3375711739063263, -1.1880412101745605, -1.0815112590789795], [1.9986999034881592, -1.1778532266616821, -0.714970052242279]], [[-0.6340681314468384, 0.5103619694709778, 0.8437311053276062], [1.1419684886932373, 0.9830065965652466, -1.1176245212554932], [-0.859413743019104, 0.1051541343331337, -1.7590560913085938]], [[0.10427512973546982, 0.44291508197784424, 0.475507527589798], [-0.37208178639411926, -0.8241579532623291, 1.405454158782959], [0.8323531150817871, -2.095463752746582, -0.061348021030426025]], [[-0.22884976863861084, -0.5846365094184875, 0.18929626047611237], [-0.8542073369026184, -1.0630035400390625, 2.2115981578826904], [0.48930177092552185, -2.3534927368164062, 0.4613388180732727]], [[-0.20621323585510254, 1.5078259706497192, 0.5221801996231079], [0.322389155626297, -0.7286714911460876, -2.5258309841156006], [0.21359534561634064, -0.4669268727302551, -1.065101981163025]], [[-1.6932772397994995, -0.12614154815673828, 1.401991844177246], [1.541010856628418, -0.44811877608299255, 1.211033821105957], [1.86296808719635, -0.049684762954711914, -1.6206259727478027]], [[-0.8713629245758057, -1.2528891563415527, 1.9580013751983643], [0.32194748520851135, -7.408761978149414, -8.767217636108398], [0.476598858833313, -1.7998323440551758, -3.3280320167541504]], [[-0.6833937764167786, -0.39239126443862915, 2.285646677017212], [2.145308017730713, -5.448432922363281, -3.642559289932251], [-0.2129467874765396, -5.282699108123779, -7.5177998542785645]], [[0.7228067517280579, -2.00435733795166, -2.214038372039795], [1.9017516374588013, 2.566150426864624, 0.6390752792358398], [-0.4024190902709961, 0.7777299880981445, -1.8875435590744019]], [[0.17527540028095245, -0.3444503843784332, -1.5153425931930542], [0.15381522476673126, 0.9866390228271484, 0.506219208240509], [-0.6475359797477722, 0.8391602635383606, 0.14295077323913574]], [[-1.5846171379089355, 0.6976946592330933, 0.7659188508987427], [1.7208404541015625, 3.4359488487243652, 2.2725462913513184], [-1.7589774131774902, -0.5337016582489014, -2.7429511547088623]], [[0.7085281014442444, 1.2824348211288452, -0.1397714763879776], [1.3401952981948853, 1.93310546875, -2.2930541038513184], [-0.31597211956977844, 1.5131055116653442, 1.066169023513794]], [[0.07744351029396057, -1.2032208442687988, -0.9026823043823242], [2.1604411602020264, 1.8683754205703735, 0.7455350160598755], [-0.6027748584747314, 0.5955407619476318, -1.9826922416687012]], [[0.07031401991844177, -0.12284795939922333, 0.7067080736160278], [0.08627421408891678, -1.0466485023498535, -0.1080024391412735], [1.6120795011520386, -1.7542169094085693, -0.15955524146556854]], [[-0.06782899051904678, 0.24602429568767548, 1.6625128984451294], [-1.6941266059875488, -2.963066816329956, 0.559752345085144], [1.3888152837753296, -1.9960639476776123, 0.05711865425109863]], [[-0.8572703003883362, -2.084398031234741, -0.3505096435546875], [1.1395049095153809, -0.5103145241737366, 1.5110061168670654], [1.2243608236312866, 0.04042917490005493, -0.34892985224723816]], [[0.566888689994812, 0.5036582350730896, 0.14638176560401917], [0.25093674659729004, 0.8538879156112671, 0.31131017208099365], [-0.8787192702293396, -0.22650031745433807, 1.843988060951233]], [[0.26362353563308716, -3.419478416442871, -2.8391621112823486], [1.8582910299301147, 1.5232794284820557, -1.0111411809921265], [0.6605414748191833, 1.7938169240951538, -0.638569176197052]], [[0.4269978106021881, -0.6625247597694397, -1.688383936882019], [2.460352659225464, 3.138364791870117, -1.137617826461792], [-0.7127755284309387, 0.8818082809448242, -0.09661535173654556]], [[0.030321426689624786, -0.4141978919506073, -0.6891629695892334], [0.4089202284812927, -0.26458269357681274, -1.2358351945877075], [-0.12895196676254272, 0.9311171174049377, 0.2712741494178772]], [[-1.184883713722229, -0.3097650408744812, 1.4103114604949951], [-0.6479559540748596, -1.8817942142486572, -1.3830978870391846], [1.710814356803894, -1.13540518283844, -2.886415481567383]], [[-0.12450092285871506, -0.7931351065635681, -1.8004827499389648], [0.4201946556568146, 1.993294358253479, 1.8187185525894165], [0.375736266374588, 1.0231143236160278, 0.8400518298149109]], [[-0.6404130458831787, -0.5997106432914734, 2.1746838092803955], [1.971834659576416, -4.802785396575928, -4.320868492126465], [0.4957543611526489, -2.844261884689331, -4.885730743408203]], [[1.5953948497772217, -0.3240598738193512, 1.4249612092971802], [-0.3042474091053009, -4.4216179847717285, -7.520381927490234], [0.7983486652374268, 0.9038218855857849, 0.2515263855457306]], [[0.46723106503486633, -1.1148933172225952, -1.3728978633880615], [0.9207081198692322, 0.4955587387084961, -1.1133044958114624], [-0.014413898810744286, 1.4517983198165894, 0.22993208467960358]], [[-0.052346475422382355, -0.35659274458885193, -1.6694939136505127], [-0.2231038212776184, 2.1331772804260254, 0.9853672981262207], [-0.12081320583820343, 1.2524582147598267, 0.6564238667488098]], [[0.6626272797584534, -1.0476154088974, -0.5180507898330688], [-0.25538286566734314, -3.509549617767334, -7.611989974975586], [-0.020515765994787216, 0.25466346740722656, -0.7750664353370667]], [[-0.5032918453216553, -0.20715640485286713, 0.8967054486274719], [-0.17104274034500122, -1.359997034072876, -1.1302825212478638], [1.096153974533081, -1.4259642362594604, -1.3045101165771484]], [[-1.9816099405288696, -2.397359609603882, 0.5508823394775391], [0.9625431895256042, -0.4729498326778412, 0.01781706139445305], [-0.014834932051599026, 0.46654635667800903, -0.35838082432746887]], [[0.35211965441703796, -0.25607770681381226, 0.7648351788520813], [0.7974686622619629, -0.331478089094162, 0.7472835183143616], [0.08770336955785751, -1.0419063568115234, -0.4019032120704651]], [[0.08093263953924179, -0.8623045086860657, -0.8689283728599548], [1.888777494430542, 3.054652214050293, -0.7971696853637695], [-0.8761410117149353, 1.1211405992507935, 0.14798052608966827]]], [[[-0.8713275194168091, -0.20434889197349548, -0.8043127059936523], [-0.31840646266937256, 0.23936967551708221, -1.0708338022232056], [0.71150803565979, 0.6324812173843384, -0.32335084676742554]], [[2.643620252609253, -0.25383707880973816, -0.7781288623809814], [0.4661944508552551, -0.11624430865049362, -3.1280298233032227], [-0.617877185344696, -0.873919665813446, -0.35793161392211914]], [[0.7840766906738281, -1.7189480066299438, 0.9476048350334167], [0.1796712428331375, -0.5747039914131165, -1.2059121131896973], [-1.649915099143982, -0.4267181158065796, 0.632123589515686]], [[-1.614876389503479, -0.9822635054588318, 0.12187114357948303], [0.6855378150939941, 0.9069814682006836, -0.5523042678833008], [-1.1691006422042847, 0.4111637473106384, -1.0353230237960815]], [[0.29431816935539246, -0.3814500570297241, 0.17747728526592255], [1.2852632999420166, -4.553335189819336, -4.20669412612915], [1.3677480220794678, -0.3255840837955475, -0.40127065777778625]], [[0.7421299815177917, 2.308809280395508, 0.7357818484306335], [2.420586109161377, 1.5541929006576538, -0.8773601055145264], [0.47383564710617065, -0.7513852715492249, -2.131012439727783]], [[-0.5278394818305969, -0.20680338144302368, -1.661293625831604], [-1.1562724113464355, -0.20079395174980164, -1.2919399738311768], [2.562746047973633, -0.22147530317306519, 0.21897397935390472]], [[0.1647525578737259, -1.3740861415863037, -0.9891679286956787], [0.5747133493423462, 1.32148277759552, -1.0881420373916626], [-1.2144380807876587, -0.765164315700531, 0.9110558032989502]], [[-2.091548442840576, -1.008193016052246, -0.08861738443374634], [-0.48675817251205444, -0.6358703970909119, -0.47100576758384705], [-0.3241816461086273, -1.3239076137542725, -0.38238126039505005]], [[-0.2446897029876709, -1.299450397491455, -0.3393913507461548], [0.44605162739753723, 1.5075390338897705, -1.1789062023162842], [-1.6414642333984375, -0.33459725975990295, 0.5610750317573547]], [[0.4374869465827942, -0.38349324464797974, -0.4965144991874695], [1.1644877195358276, 1.0469424724578857, -0.31480687856674194], [0.37809839844703674, -1.6837568283081055, 1.6725631952285767]], [[-1.3458298444747925, -0.3724069893360138, 1.0192148685455322], [0.044428300112485886, -1.7097645998001099, -0.5755079388618469], [0.4845879077911377, -0.38980841636657715, -0.5601761341094971]], [[-1.5021251440048218, 3.473803758621216, 3.7115285396575928], [-0.4045298099517822, 4.470357894897461, 2.211319923400879], [-0.1647290289402008, 1.3398590087890625, 2.011291027069092]], [[-2.4008243083953857, -1.174695372581482, -0.7761459350585938], [-1.0962551832199097, -0.6533193588256836, -0.4399877190589905], [-0.677012026309967, -0.9920722842216492, -0.08023588359355927]], [[-0.9865872859954834, -0.4301137328147888, -0.20860567688941956], [-2.025308847427368, 2.743685245513916, 1.4225136041641235], [0.1252993792295456, 0.8114146590232849, 1.0559756755828857]], [[1.0681272745132446, 1.09048330783844, 0.6446276903152466], [1.9251607656478882, 2.0900025367736816, -0.6218864321708679], [-0.9303240776062012, -0.4172573685646057, -2.0346474647521973]], [[0.2280135452747345, -1.6919206380844116, -1.7805325984954834], [-0.9207105040550232, -1.1071083545684814, -1.9134169816970825], [0.021333007141947746, -0.9809030890464783, -1.8773471117019653]], [[-0.8465669751167297, -2.070913553237915, -1.0138822793960571], [-1.36665940284729, -0.4926126301288605, 0.10353779792785645], [1.1976888179779053, -0.4506703317165375, 0.2814503312110901]], [[1.6618467569351196, -0.7842068672180176, 0.36145076155662537], [-1.457040786743164, -1.1933999061584473, -1.7000772953033447], [-0.45942223072052, -0.15020321309566498, 1.0587315559387207]], [[-0.1422722339630127, 0.5739132761955261, 1.0552302598953247], [1.4178423881530762, 0.6594538688659668, -0.5536670684814453], [0.39026162028312683, 0.008660445921123028, -1.2810686826705933]], [[0.8769870400428772, -0.4154803156852722, -0.4924904406070709], [1.5038412809371948, -4.4021501541137695, -4.943434238433838], [0.5100612044334412, 0.09250854700803757, 0.40391263365745544]], [[0.44031789898872375, 0.3596764802932739, -0.02729211002588272], [1.407204270362854, -2.6915454864501953, -3.4234886169433594], [1.907738447189331, -0.14488239586353302, -0.8579395413398743]], [[1.3736207485198975, 0.8916195034980774, 0.11091755330562592], [1.729880452156067, 3.5113701820373535, -3.0947654247283936], [-0.062449861317873, -0.39222779870033264, -1.1258515119552612]], [[0.4427303671836853, -1.5366809368133545, -1.1128754615783691], [1.2318063974380493, 0.4321267604827881, -0.24966402351856232], [-0.11774838715791702, -0.4825661778450012, 0.9341254234313965]], [[1.853384256362915, 3.474472761154175, 0.3841927945613861], [2.857792377471924, 2.8072502613067627, -1.170335054397583], [0.708993673324585, -0.22171232104301453, -2.026710033416748]], [[2.241631269454956, -0.570837140083313, -0.1504209339618683], [0.577116072177887, -0.8451087474822998, -2.8780972957611084], [-1.1497364044189453, -1.4250893592834473, -1.2509130239486694]], [[2.0004091262817383, 2.0436434745788574, 0.47070831060409546], [1.7559154033660889, 4.098498344421387, -1.5546029806137085], [-0.5237168669700623, 0.0020653624087572098, -3.1139676570892334]], [[-0.9555636048316956, -0.14539657533168793, 0.22477257251739502], [-1.2551257610321045, 2.060744524002075, 1.2344719171524048], [-0.2495817244052887, -0.19558414816856384, 0.321935772895813]], [[-2.4484455585479736, 0.6658260822296143, 0.8207467198371887], [-1.512536883354187, 1.3478736877441406, 0.8749989867210388], [-0.8113753795623779, 0.3966459035873413, -0.6522430181503296]], [[-0.13304445147514343, 0.3378089666366577, 2.4639647006988525], [1.0869477987289429, 0.26298633217811584, 0.19969213008880615], [-0.6483502388000488, 1.020029902458191, -0.45594167709350586]], [[0.8926308155059814, -0.9364656805992126, -0.5496467351913452], [0.08479256182909012, 0.7565593123435974, -0.7666618227958679], [-1.7826838493347168, -1.0085153579711914, 0.663219153881073]], [[0.4696967601776123, 2.2698702812194824, 0.21323823928833008], [1.6986827850341797, 2.0058770179748535, -2.807103157043457], [0.3856780529022217, 0.900762677192688, -1.5141862630844116]], [[0.9532046914100647, 1.5975303649902344, -1.731529951095581], [1.9901241064071655, 2.344663619995117, -2.9150075912475586], [0.17247885465621948, 0.9239007234573364, -1.946363091468811]], [[0.7270991206169128, 0.3370630145072937, 0.21664007008075714], [1.2834993600845337, -1.0984948873519897, -2.3905038833618164], [-0.33133625984191895, -0.9243836998939514, -2.0170700550079346]], [[-0.5860938429832458, 0.02041461504995823, -1.4200353622436523], [-0.6719808578491211, -0.7119406461715698, -3.571748971939087], [2.0963406562805176, -0.7385119795799255, -0.003998942673206329]], [[0.3478512465953827, -1.0173282623291016, 0.1845676600933075], [1.2573429346084595, 1.7090816497802734, -0.8221429586410522], [-0.40676379203796387, -0.7781398296356201, 0.8441817164421082]], [[0.222861185669899, 0.5128285884857178, -0.004490336403250694], [0.9044495224952698, -2.4661526679992676, -3.199082851409912], [1.3732773065567017, 0.12446751445531845, -0.5645939111709595]], [[-0.8244264721870422, -1.22592031955719, -0.15616554021835327], [0.35024675726890564, -1.5028125047683716, -2.7540175914764404], [-1.5198925733566284, 0.8070063591003418, 1.2698554992675781]], [[1.069594144821167, -2.5816452503204346, -3.5200514793395996], [1.8751108646392822, -1.078839898109436, -3.2649431228637695], [0.270752489566803, 0.05055728927254677, -1.0926483869552612]], [[0.14523367583751678, -1.4857137203216553, -0.562365710735321], [1.2432224750518799, 1.055975079536438, -0.7274614572525024], [-0.2907249331474304, -0.8526461720466614, 0.7952578067779541]], [[0.715481162071228, -1.6785396337509155, -0.2922316789627075], [1.5076082944869995, -2.5801079273223877, -8.252958297729492], [-0.45378172397613525, 0.7534578442573547, -0.06400907039642334]], [[0.7927714586257935, -0.9259193539619446, -1.9711580276489258], [-0.7001593112945557, 0.6001052260398865, -1.65652334690094], [2.7025389671325684, 0.5457100868225098, 1.0466560125350952]], [[0.2812802195549011, -1.9901390075683594, -1.5172231197357178], [1.3707576990127563, -2.580167531967163, -2.9285736083984375], [0.8428676724433899, 0.6490358710289001, -1.8477808237075806]], [[-1.1332885026931763, 0.09957488626241684, 0.610069215297699], [0.25979098677635193, 0.9896738529205322, -0.5933940410614014], [-0.5981988310813904, -0.6530765295028687, -0.886132538318634]], [[2.24379301071167, 1.7466917037963867, -1.6856099367141724], [1.8564351797103882, 3.666679859161377, -2.3497469425201416], [0.10123908519744873, 1.9997984170913696, -1.7564058303833008]]], [[[-0.022350020706653595, -0.04927888885140419, -0.04258183389902115], [0.009243691340088844, 0.009003352373838425, 0.0017388011328876019], [-0.01158519834280014, -0.014484047889709473, 0.0017648562788963318]], [[-0.0029952474869787693, -0.022832032293081284, -0.014209983870387077], [0.004548841621726751, -0.033830005675554276, -0.05411005765199661], [-0.08146128058433533, -0.00666749756783247, 0.01262498740106821]], [[0.014644116163253784, -0.015045654028654099, 0.015417002141475677], [-0.08933006227016449, -0.07620757818222046, -0.10052681714296341], [0.04121861606836319, -0.03278512507677078, -0.040252022445201874]], [[-0.02813616208732128, -0.055640339851379395, -0.04349368065595627], [-0.020038248971104622, -0.030922621488571167, -0.06491228938102722], [-0.0772869810461998, -0.007619088981300592, 0.010999010875821114]], [[-0.040977343916893005, -0.05787643417716026, -0.008275757543742657], [-0.03402061015367508, -0.055178288370370865, -0.06537191569805145], [-0.036440152674913406, 0.019464930519461632, -0.03679487481713295]], [[-0.005430878605693579, -0.05064544081687927, 0.012148331850767136], [0.008334058336913586, -0.023584110662341118, -0.01644120179116726], [0.017119966447353363, -0.05471733585000038, -0.009753088466823101]], [[-0.027441155165433884, -0.031159130856394768, 0.039032213389873505], [-0.04978060722351074, -0.07257950305938721, -0.05384553223848343], [-0.090079165995121, 0.013517690822482109, -0.05242946743965149]], [[-0.07692015171051025, -0.013220488093793392, -0.06745241582393646], [-0.07128240913152695, -0.013662670738995075, -0.08399156481027603], [0.011968035250902176, 0.021277321502566338, -0.020934199914336205]], [[0.012160558253526688, -0.022253435105085373, 0.006600256077945232], [0.02514761872589588, -0.00036644216743297875, -0.008815036155283451], [-0.06754709780216217, -0.009766105562448502, -0.011305293068289757]], [[-0.08785439282655716, 0.013404586352407932, -0.05447565019130707], [-0.04296351224184036, -0.0419081449508667, -0.020638326182961464], [-0.07878155261278152, -0.024039223790168762, -0.009087281301617622]], [[0.05921943485736847, 0.029889686033129692, -0.025672322139143944], [-0.03703901171684265, 0.028187286108732224, -0.0321701318025589], [0.015483269467949867, 0.011708072386682034, 0.011660055257380009]], [[-0.08003111183643341, 0.0036583011969923973, -0.033866360783576965], [-0.048315126448869705, -0.0285982396453619, -0.03674745559692383], [-0.036184657365083694, 0.02073129639029503, -0.05482334643602371]], [[0.025686057284474373, -0.02551719732582569, -0.02531897835433483], [0.0018711114535108209, 0.007923039607703686, 0.006701400503516197], [0.005111737176775932, -0.006500455550849438, -0.01089410949498415]], [[-0.06725525110960007, 0.012965916655957699, -0.011398465372622013], [-0.08801688998937607, 0.03452138230204582, -0.03867414966225624], [-0.05711832642555237, -0.024694448336958885, -0.03912771865725517]], [[-0.03647041320800781, -0.054998673498630524, -0.057155217975378036], [-0.06591368466615677, -0.05064086616039276, 0.010130208916962147], [-0.009430181235074997, -0.06770236790180206, -0.031206399202346802]], [[-0.05511048436164856, -0.04643382504582405, -0.04312256723642349], [-0.05031578987836838, -0.003103906288743019, -0.06585824489593506], [0.012663465924561024, -0.05105654150247574, -0.035379961133003235]], [[-0.0028735531959682703, -0.06427385658025742, -0.015642890706658363], [0.009896628558635712, -0.019823040813207626, -0.05362342670559883], [-0.0757516399025917, -0.04768870770931244, -0.04255751892924309]], [[-0.024936867877840996, -0.04472959414124489, 0.008050357922911644], [-0.06550093740224838, -0.040499247610569, -0.018150262534618378], [-0.014411600306630135, 0.026627277955412865, -0.023700160905718803]], [[-0.03566920757293701, -0.04200368747115135, 0.015244322828948498], [-0.07088864594697952, -0.056790754199028015, -0.06876584887504578], [-0.09147745370864868, -0.011634128168225288, -0.025986436754465103]], [[0.02504667639732361, 0.0565761998295784, 0.014230072498321533], [-0.0035057354252785444, -0.017678938806056976, -0.0037958931643515825], [0.005860382225364447, -0.011917767114937305, -0.014114158228039742]], [[-0.020227743312716484, 0.007352412212640047, -0.07399306446313858], [-0.017394913360476494, -0.06910458207130432, -0.00855699647217989], [-0.01956060715019703, -0.015553631819784641, -0.02191011793911457]], [[0.051277969032526016, -0.018942493945360184, 0.04964861646294594], [-0.00091030407929793, 0.031107835471630096, 0.0034659728407859802], [8.329535921802744e-05, 0.03181697800755501, 0.0008527297177352011]], [[-0.025816189125180244, -0.06523196399211884, -0.022901296615600586], [-0.03111944906413555, -0.029704466462135315, -0.046875566244125366], [-0.09081221371889114, -0.041393641382455826, -0.008404755964875221]], [[0.018643945455551147, -0.05164342001080513, -0.009635268710553646], [-0.08834613114595413, -0.08151111751794815, -0.09071468561887741], [-0.01927804946899414, -0.011569136753678322, -0.05440406873822212]], [[-0.0053553045727312565, 0.014772319234907627, -0.008903047069907188], [-0.0003938243316952139, -0.06420707702636719, -0.044237203896045685], [-0.052807535976171494, -0.026980804279446602, -0.05665663629770279]], [[-0.071293406188488, 0.011107915081083775, -0.007616874761879444], [0.030520759522914886, -0.045789752155542374, -0.02504429966211319], [-0.018408389762043953, 0.015139820985496044, -0.01222072821110487]], [[0.05503007024526596, 0.061528343707323074, 0.08014856278896332], [-0.00790501944720745, -0.03155742958188057, 0.0163104347884655], [-0.03929494693875313, 0.018675372004508972, 0.05321906507015228]], [[0.0030220788903534412, -0.055670659989118576, -0.054019443690776825], [-0.037477295845746994, -0.01778501085937023, -0.010779891163110733], [-0.02928115986287594, 0.018366750329732895, -0.04379028454422951]], [[-0.059919919818639755, -0.024651965126395226, -0.011149844154715538], [-0.06433114409446716, -0.027312835678458214, -0.06705328077077866], [-0.061310429126024246, -0.04517965391278267, 0.01500205509364605]], [[-0.060655396431684494, -0.03842444345355034, -0.07871047407388687], [-0.027686038985848427, -0.06932012736797333, -0.025226596742868423], [-0.03716171532869339, -0.06244351342320442, -0.04725208133459091]], [[-0.03282184526324272, 0.03006584383547306, 0.03254641965031624], [-0.04264672473073006, -0.08630251884460449, -0.04997663572430611], [-0.062055591493844986, -0.040125343948602676, -0.012620531022548676]], [[-0.0240920502692461, 0.009801477193832397, -0.025964152067899704], [-0.057370442897081375, -0.031097739934921265, -0.03585504740476608], [-0.02097996510565281, -0.029676424339413643, -0.0337284617125988]], [[-0.05950654670596123, 0.024523690342903137, -0.008602752350270748], [-0.08637513220310211, -0.0005381291266530752, -0.0363512746989727], [-0.016082128509879112, 0.0438835471868515, -0.019915735349059105]], [[-0.029399029910564423, -0.008180622011423111, 0.02494269609451294], [-0.05287594720721245, -0.06412447243928909, -0.03348267450928688], [-0.005867694038897753, -0.028074825182557106, 0.006856161635369062]], [[0.024310575798153877, 0.03813082352280617, 0.02169334702193737], [-0.024044329300522804, -0.06854338198900223, -0.06108029559254646], [-0.02251882292330265, 0.0016309517668560147, 0.0059697735123336315]], [[-0.008105023764073849, 0.027108224108815193, -0.017965564504265785], [-0.06257591396570206, -0.048255544155836105, -0.07836682349443436], [-0.03420916199684143, -0.03418321534991264, -0.039001476019620895]], [[-0.021546905860304832, 0.008568421006202698, -0.012317672371864319], [-0.0016281824791803956, -0.0087133115157485, -0.09364637732505798], [-0.03135709837079048, -0.014354444108903408, 0.02203976921737194]], [[-0.0568605400621891, -0.035301096737384796, -0.06864945590496063], [-0.005054132547229528, -0.046824004501104355, -0.06603719294071198], [0.030676070600748062, 0.029182584956288338, -0.014207269996404648]], [[-0.07363470643758774, 0.036350131034851074, -0.05484071746468544], [-0.050433024764060974, -0.06393250077962875, -0.07475530356168747], [-0.04462647810578346, -0.050616003572940826, -0.0658542662858963]], [[-0.036811817437410355, 0.01828501746058464, -0.06989022344350815], [-0.03936672583222389, -0.04525257274508476, -0.02299126237630844], [0.021750429645180702, -0.025304477661848068, -0.047191668301820755]], [[-0.04814424365758896, -0.029905615374445915, 0.009357895702123642], [-0.04038000851869583, -0.013962793163955212, -0.039179787039756775], [-0.012777647003531456, -0.061893779784440994, -0.011813159100711346]], [[0.012209698557853699, -0.05791639909148216, -0.029728921130299568], [-0.001591637497767806, -0.04285220056772232, -0.03481575846672058], [-0.015200423076748848, -0.034355103969573975, -0.02599886804819107]], [[-0.0334048755466938, 0.019797910004854202, -0.006981803569942713], [-0.027883896604180336, -0.024858901277184486, -0.017686227336525917], [0.02893892303109169, -0.050588350743055344, -0.026025839149951935]], [[-0.010671735741198063, -0.051109254360198975, 0.025807833299040794], [-0.0740131288766861, -0.010636896826326847, -0.06722870469093323], [-0.037568945437669754, 0.016352012753486633, -0.019816027954220772]], [[-0.04483798146247864, 0.019116172567009926, -0.07356582581996918], [-0.06661313027143478, -0.06330302357673645, -0.07151389122009277], [0.003543171100318432, -0.0485132671892643, -0.005463115405291319]]], [[[-0.1260010302066803, -0.29102763533592224, -0.07367637008428574], [0.03451705724000931, -2.80472993850708, 0.20134882628917694], [1.499879240989685, -1.3738255500793457, -1.4785710573196411]], [[1.743302345275879, 0.027021558955311775, -0.657474935054779], [-2.653672695159912, 1.7211061716079712, 2.740664482116699], [-3.3797008991241455, -3.8630783557891846, 0.3394473195075989]], [[2.436927556991577, -1.294630765914917, -2.711545705795288], [1.8862006664276123, -1.7656501531600952, -0.4030964970588684], [2.250149726867676, 1.6668602228164673, 3.796250104904175]], [[-0.6849093437194824, -0.39206212759017944, 0.7832952737808228], [-0.37984761595726013, -1.4922642707824707, 0.8458232283592224], [-1.517014503479004, -1.0086482763290405, 1.255913496017456]], [[-0.5149897336959839, 1.0678168535232544, 1.726327896118164], [2.409311532974243, -0.8849183320999146, -1.63261079788208], [0.6047009825706482, -0.33769315481185913, -0.8694825768470764]], [[2.0161855220794678, 1.4738236665725708, -0.6625406742095947], [-1.8888065814971924, 1.52114737033844, -0.531341016292572], [-1.6469227075576782, 1.553410291671753, 0.46175363659858704]], [[0.515352725982666, 1.134108066558838, -0.12731049954891205], [-1.3964091539382935, -0.4443034827709198, 0.05378410965204239], [1.3532590866088867, -1.8379590511322021, -2.1785054206848145]], [[1.6517876386642456, -1.3401800394058228, -1.3099610805511475], [0.6763527989387512, -0.2815077006816864, 0.25500282645225525], [-1.4019451141357422, -0.35153064131736755, 1.4277230501174927]], [[-0.4419548213481903, 0.37442782521247864, 2.0747575759887695], [0.1713116466999054, -2.0583324432373047, -1.5147277116775513], [1.7344081401824951, -1.9065059423446655, -1.835261344909668]], [[2.000873565673828, -1.3229492902755737, -0.6544767618179321], [2.2192022800445557, 0.059961795806884766, -0.2721993923187256], [-0.03238924220204353, 0.6274230480194092, 1.3027737140655518]], [[1.1993978023529053, -1.4398183822631836, -1.586768627166748], [-1.0211344957351685, 1.2874430418014526, 0.491237074136734], [-2.849654197692871, 0.6088844537734985, 0.9974457621574402]], [[0.10062091052532196, 0.4907417595386505, 0.13673420250415802], [1.496489405632019, -1.9534584283828735, -1.4914010763168335], [2.1469969749450684, 0.7898856401443481, 0.09943727403879166]], [[-1.9345030784606934, -1.8833988904953003, -0.7828890681266785], [-1.3645577430725098, -1.8701701164245605, 0.31928372383117676], [-2.4455032348632812, -0.9701463580131531, 2.6257364749908447]], [[-1.366428256034851, -0.7611231207847595, 0.12432227283716202], [-0.5809794664382935, -0.5370762348175049, -0.9579612612724304], [0.8184766173362732, -0.8809167742729187, -1.3305903673171997]], [[0.818464994430542, 0.4291641414165497, 0.0228567011654377], [-1.232308268547058, -1.6690202951431274, 0.6576133370399475], [-0.10146249830722809, -2.1591684818267822, 0.02596602775156498]], [[1.8416327238082886, 0.5796647071838379, -2.1738827228546143], [-1.681186318397522, 0.7590065002441406, 0.39514660835266113], [-1.895419716835022, -0.1385916918516159, 1.0176128149032593]], [[-1.2316486835479736, -0.31117570400238037, 0.2974424362182617], [-0.6623268127441406, -0.9261930584907532, 0.9118335843086243], [1.3486361503601074, -1.5487768650054932, -1.1097286939620972]], [[0.10615123808383942, 0.668175995349884, 1.0529069900512695], [-0.45986002683639526, -0.2646867036819458, 1.0819876194000244], [1.2089499235153198, -1.0637493133544922, -1.3173996210098267]], [[1.4552991390228271, -1.348271131515503, -1.6795587539672852], [-0.7282711267471313, -1.0481996536254883, 1.3221619129180908], [1.4718626737594604, -1.4989843368530273, 2.173384666442871]], [[1.0367016792297363, -0.9926832318305969, -2.0326287746429443], [1.8551921844482422, -1.5058637857437134, -1.220178484916687], [2.1878116130828857, 2.6808831691741943, 2.079639434814453]], [[-0.20297574996948242, 0.78774094581604, 1.9632256031036377], [2.7745189666748047, -0.18271318078041077, -0.659706175327301], [-0.5959134697914124, -0.6940023899078369, -0.5137192010879517]], [[0.2904680669307709, 1.2917572259902954, 2.184727430343628], [1.8450249433517456, -0.5533267855644226, -1.242002248764038], [1.6591525077819824, -0.9014084339141846, -1.6536309719085693]], [[1.2819525003433228, 1.783136248588562, 0.814775824546814], [0.3618689775466919, 2.1096577644348145, 0.2416558861732483], [-0.6908726096153259, -0.5334562063217163, -0.9033999443054199]], [[0.4878849685192108, -1.2562474012374878, -0.6064863801002502], [1.122944712638855, -0.5816802382469177, -0.19368723034858704], [-1.2469120025634766, -0.10549338161945343, 1.5693142414093018]], [[2.0323524475097656, 2.1968626976013184, -0.9373762607574463], [-2.2840359210968018, 1.6029601097106934, -0.815190851688385], [-2.195237159729004, 1.7264750003814697, 0.4996814429759979]], [[1.8107085227966309, -0.4352739751338959, -0.8236849308013916], [-2.4247801303863525, 2.2815277576446533, 2.5559616088867188], [-4.1938557624816895, -2.891733407974243, 0.8402314782142639]], [[0.6436614394187927, 0.6450330018997192, 0.37896496057510376], [-1.7510532140731812, 0.376886248588562, 1.060886025428772], [-1.0136077404022217, 0.5843668580055237, 1.2776440382003784]], [[-0.7531517744064331, -0.8630564212799072, -0.24027827382087708], [-0.694840669631958, -1.3966573476791382, 0.8045545816421509], [0.5205575227737427, -1.0920155048370361, -0.7449682950973511]], [[-1.2330193519592285, -0.11185208708047867, 0.708696186542511], [0.35751771926879883, -1.9474155902862549, -0.9376156330108643], [1.588058590888977, -0.9444035887718201, -0.7739946842193604]], [[1.519304633140564, -0.13325342535972595, 0.9927135109901428], [0.8524916172027588, -1.2254154682159424, 0.723798930644989], [-1.419817566871643, -0.6797664761543274, 1.719444751739502]], [[1.6841870546340942, -1.3561465740203857, -1.7142977714538574], [-1.6017683744430542, 1.315850853919983, 1.0904649496078491], [-3.6152000427246094, -1.018036127090454, 0.355226993560791]], [[0.4369855225086212, 0.45035532116889954, 1.3195496797561646], [1.723547101020813, 1.4119102954864502, -0.6388065814971924], [0.005317748058587313, 0.5663885474205017, -1.040967583656311]], [[0.13929633796215057, -0.9235556721687317, -0.5171695351600647], [2.695864677429199, 3.3042619228363037, -0.6732075810432434], [-2.2513725757598877, 2.16545033454895, 2.146050453186035]], [[1.2706574201583862, 0.1718672811985016, 0.12227308005094528], [0.09034024924039841, 1.1509560346603394, 0.13588348031044006], [-0.5890750288963318, 1.9050465822219849, 1.6774077415466309]], [[0.5579732656478882, 1.207161545753479, -0.5028542280197144], [-1.4378166198730469, -0.8636735677719116, 0.038051947951316833], [2.066555976867676, -1.568267583847046, -2.045220375061035]], [[1.512523889541626, -1.2638099193572998, -1.2849676609039307], [1.6084942817687988, -0.7294856905937195, -1.3928433656692505], [-0.41336193680763245, 0.3208651542663574, 1.9176158905029297]], [[-0.11841610819101334, 1.284170150756836, 2.1353671550750732], [1.8186711072921753, -1.066159963607788, -1.7228658199310303], [1.4988067150115967, -0.9790545701980591, -1.152600646018982]], [[-1.3311904668807983, -1.4854538440704346, -0.6127558350563049], [1.73502516746521, 0.3866720497608185, 0.5349494814872742], [-1.9291050434112549, -0.733138382434845, 0.9447960257530212]], [[-1.2483322620391846, -2.3232672214508057, -1.2439149618148804], [0.19713950157165527, 1.472381591796875, 0.13150489330291748], [-2.2642176151275635, 1.6436526775360107, 1.7515116930007935]], [[1.1897729635238647, -1.4052493572235107, -0.15575943887233734], [1.3570127487182617, -1.094369649887085, -0.802377462387085], [-0.3957293927669525, -0.1860554963350296, 1.6834172010421753]], [[-1.3478724956512451, -1.7900564670562744, -2.2956013679504395], [0.6634722948074341, 0.2560470700263977, 0.14812394976615906], [-4.233604907989502, -1.0736359357833862, 1.3612170219421387]], [[0.9709570407867432, 0.7975690960884094, 0.4867739975452423], [-1.2429405450820923, -0.6955322027206421, 1.1636141538619995], [1.9054663181304932, -2.7107017040252686, -2.741985559463501]], [[-1.1069484949111938, -1.5911064147949219, -1.4930297136306763], [0.480429083108902, 0.13769014179706573, -1.1717580556869507], [-1.206339955329895, 1.7988348007202148, 1.7516417503356934]], [[-0.6998449563980103, 0.37296169996261597, -0.19656190276145935], [-0.03666139021515846, -1.079543113708496, -0.6732086539268494], [0.2644802927970886, -0.3289875388145447, 1.385850191116333]], [[-0.0786270722746849, -1.198486328125, -0.5853132605552673], [1.6795262098312378, 3.6024811267852783, -0.10666341334581375], [-2.6651031970977783, 2.153823137283325, 2.5825467109680176]]], [[[-4.152242183685303, -2.509963274002075, -4.048577308654785], [1.4617201089859009, 2.216684103012085, 0.8330395221710205], [-1.301742434501648, -0.4933020770549774, -1.5778782367706299]], [[-2.347031354904175, -2.191192865371704, -2.6013917922973633], [-0.7238875031471252, -1.9731725454330444, -1.280781626701355], [-1.8427270650863647, -0.4420560896396637, 0.3383392095565796]], [[-5.990219593048096, -0.7268162965774536, -0.4367693066596985], [-0.4761090874671936, 1.862951397895813, 2.8330090045928955], [-1.2027947902679443, 1.681426763534546, 2.178030490875244]], [[-0.45401304960250854, -1.3349952697753906, -1.4713977575302124], [-1.157421588897705, -0.03096640110015869, 0.11770619451999664], [-0.16713400185108185, 0.661880373954773, 0.4098355770111084]], [[-1.736868143081665, -1.9563758373260498, -2.6791648864746094], [-1.0442180633544922, 0.530073881149292, -0.14815421402454376], [1.066393256187439, 1.305902123451233, 2.473918914794922]], [[-6.040969371795654, -4.483299255371094, -3.6573426723480225], [2.915060043334961, 3.557554006576538, 2.5221476554870605], [1.0287652015686035, 1.2909982204437256, 2.0671374797821045]], [[-4.604706287384033, -2.676628589630127, -4.552682876586914], [1.5375028848648071, 2.3074212074279785, 0.6411721110343933], [-0.5480854511260986, 0.16792981326580048, -0.023539122194051743]], [[-4.853213310241699, -4.341219425201416, -1.5539895296096802], [1.072574496269226, -0.4623434543609619, 0.605124294757843], [2.0048561096191406, -0.039596498012542725, -0.5879681706428528]], [[-1.2875070571899414, -1.3896464109420776, -1.3205552101135254], [-0.1782386302947998, 0.5461527705192566, 0.7547816038131714], [-0.9656598567962646, -0.47846221923828125, 0.34685656428337097]], [[-4.37946081161499, -4.443957328796387, -1.0535207986831665], [1.1252080202102661, -1.260558009147644, 1.19644296169281], [3.2163898944854736, 0.9887532591819763, 1.2421475648880005]], [[-4.442723751068115, -3.0708889961242676, -2.705838441848755], [1.9117573499679565, 1.2659724950790405, -0.5709173083305359], [0.6955371499061584, -0.082108274102211, -0.44605427980422974]], [[-2.1003148555755615, -2.164243221282959, -1.507346749305725], [0.535819411277771, 1.6651653051376343, 1.0948740243911743], [-0.7513264417648315, -0.4418941140174866, 0.708914041519165]], [[-5.032097816467285, 0.11700819432735443, -0.35084232687950134], [-1.5301045179367065, 1.9831088781356812, 2.2974369525909424], [-0.9479332566261292, 1.8997511863708496, 1.7533233165740967]], [[-1.0031720399856567, -1.4059807062149048, -0.8699901700019836], [0.08646151423454285, 0.5186757445335388, 0.2014516294002533], [-0.7402651906013489, -0.18372303247451782, -0.05353882908821106]], [[-2.73000431060791, -0.6833045482635498, -1.3367737531661987], [-0.23360075056552887, 0.7406564354896545, 1.3684149980545044], [-1.507225751876831, 1.182265281677246, 0.8143498301506042]], [[-3.890042304992676, -2.410618543624878, -1.920108437538147], [1.2611613273620605, 0.774142861366272, 1.3488695621490479], [-0.6393062472343445, 0.6421318054199219, 0.5874300003051758]], [[-0.590462863445282, -1.23304283618927, -0.7991321086883545], [0.4101022779941559, 1.0548101663589478, 0.3362289369106293], [-1.2555280923843384, 0.10777948796749115, -0.1060117706656456]], [[-2.0468978881835938, -1.2218751907348633, -0.6825540065765381], [0.00020689475059043616, 0.5483022928237915, 0.32380232214927673], [-1.570415735244751, 0.21101173758506775, 0.06263236701488495]], [[-1.5248498916625977, 0.036852460354566574, 0.08956266194581985], [-1.0003864765167236, -0.24147500097751617, 0.1437487155199051], [-1.4912439584732056, 0.6354248523712158, 1.143332600593567]], [[-2.4642438888549805, -0.11022881418466568, -1.1449793577194214], [0.4748484492301941, 2.659111261367798, 1.2564786672592163], [-1.226070761680603, 0.6555066704750061, -0.6006017923355103]], [[-0.32859283685684204, -0.5986108183860779, -1.626789927482605], [-1.7293668985366821, -0.45743605494499207, 0.06359150260686874], [1.6530652046203613, 1.4662485122680664, 1.7892377376556396]], [[-2.6172261238098145, -2.5997588634490967, -3.012345552444458], [0.5245243906974792, 1.9475139379501343, 0.9929983019828796], [-0.3303285837173462, -0.41027265787124634, 1.0587718486785889]], [[-5.181294918060303, -4.407474994659424, -3.4086215496063232], [0.560767650604248, 1.1296385526657104, 0.5200051665306091], [-0.8572584390640259, 0.4253558814525604, 2.0177268981933594]], [[-3.879826068878174, -3.4887027740478516, -2.8965797424316406], [-0.21047469973564148, -0.14226314425468445, 0.005311568733304739], [1.024366855621338, -0.3613130748271942, -1.0318453311920166]], [[-6.316813945770264, -5.493168354034424, -4.310386657714844], [2.2596991062164307, 2.089855909347534, 2.5817341804504395], [0.2311173677444458, 0.6854602098464966, 1.6312193870544434]], [[-2.506340265274048, -3.7328274250030518, -2.903843879699707], [-0.3288002610206604, -1.4660563468933105, -0.9296810626983643], [-2.834183931350708, -1.3280565738677979, -0.5032473802566528]], [[-6.102682590484619, -4.677347660064697, -2.968806028366089], [-0.7573288679122925, -0.4899657070636749, 1.9583539962768555], [-0.6766151189804077, 1.4232838153839111, 2.2331326007843018]], [[-2.1419565677642822, -0.785292387008667, -0.8510891795158386], [-0.09366511553525925, 1.0221171379089355, 1.868901252746582], [-0.9742048978805542, 1.4108140468597412, 0.9085100293159485]], [[-0.9315768480300903, -1.1888139247894287, -0.3695739209651947], [-0.013404043391346931, 0.8364669680595398, 0.7372146844863892], [-1.06040620803833, -0.050907284021377563, 0.5788826942443848]], [[-4.290667533874512, -1.275075912475586, -1.5417671203613281], [0.02894679643213749, 1.6169397830963135, 0.5177937150001526], [-0.15818585455417633, 0.913446307182312, 0.229895681142807]], [[-2.886241912841797, -2.1547675132751465, -0.8188447952270508], [0.426318496465683, -1.2789546251296997, -0.46008506417274475], [-0.6353101134300232, -0.3566471338272095, -0.1287577748298645]], [[-5.387183666229248, -4.046570777893066, -3.8495194911956787], [2.631537437438965, 3.407020092010498, 4.11322021484375], [-0.1659906953573227, 1.5254619121551514, 2.318634033203125]], [[-5.315952777862549, -4.240018367767334, -4.986878871917725], [1.6038872003555298, 2.6839070320129395, 5.206601619720459], [-0.7079700231552124, 1.4076937437057495, 0.6187101006507874]], [[-6.085113525390625, -4.933518886566162, -3.841867208480835], [0.04487031325697899, 0.6332236528396606, -0.08994694799184799], [-0.11565353721380234, -0.1913735270500183, -0.2662164866924286]], [[-5.018007755279541, -3.378502130508423, -4.984758377075195], [1.9447921514511108, 2.66878604888916, 0.9685326814651489], [-0.1560259610414505, 0.24901601672172546, 0.12482647597789764]], [[-4.963294506072998, -1.5613943338394165, -1.5782231092453003], [-0.7876125574111938, 0.37585848569869995, 0.825088620185852], [3.1474931240081787, 2.4243829250335693, 0.7528157830238342]], [[-1.9233616590499878, -2.0171103477478027, -2.8337392807006836], [-0.4185015559196472, 0.6990522742271423, 0.05265654996037483], [0.2774922847747803, -0.19435377418994904, 1.2088427543640137]], [[-0.25245821475982666, 0.262558251619339, -1.758209228515625], [-0.20305083692073822, 1.0184458494186401, 0.9893130660057068], [0.55143803358078, 0.8571808934211731, -0.1721937358379364]], [[-4.572749614715576, -5.7290825843811035, -4.0490546226501465], [0.8873603940010071, 0.8921149969100952, 0.8350791931152344], [1.2355481386184692, 0.52511066198349, 0.7449032664299011]], [[-5.130192756652832, -2.8491764068603516, -2.3318893909454346], [-0.304619163274765, -0.3741602301597595, -0.339851975440979], [2.506537914276123, 1.06718111038208, -0.49632757902145386]], [[-1.5186429023742676, -1.1252602338790894, -3.084855794906616], [0.6766207814216614, 1.1351416110992432, 1.6951448917388916], [0.2908114790916443, 0.6227291822433472, -0.08853336423635483]], [[-2.4359047412872314, -1.2758870124816895, -2.844850540161133], [1.3300861120224, 1.533172607421875, 1.0435726642608643], [-0.47662991285324097, 0.6318362951278687, -0.23182527720928192]], [[-5.302778244018555, -4.39376163482666, -2.930046319961548], [-0.48333775997161865, 0.21740512549877167, -0.2074669748544693], [0.564903199672699, 0.18521764874458313, 0.12664473056793213]], [[-3.3259942531585693, -0.3396967947483063, -2.962669849395752], [-1.6373637914657593, 2.0986268520355225, 0.4354446828365326], [-1.4203459024429321, 0.98126220703125, 0.2998712658882141]], [[-5.716268062591553, -4.277660846710205, -5.35524845123291], [1.641714096069336, 2.4485325813293457, 4.384011745452881], [-0.8447078466415405, 1.6917755603790283, 1.001132607460022]]], [[[-0.0388684906065464, -0.5211042165756226, -0.34985634684562683], [-0.32241880893707275, -0.9505290985107422, -0.6721821427345276], [0.17518144845962524, 0.12931160628795624, 0.06435950845479965]], [[-0.30639970302581787, -0.9584488272666931, -0.26164430379867554], [-0.5383091568946838, -0.8414231538772583, 0.2461819350719452], [-0.16608920693397522, 0.11949184536933899, 0.29446837306022644]], [[0.12700143456459045, -0.43742942810058594, -0.31039729714393616], [-0.03787631541490555, -0.258350133895874, 0.4522646963596344], [-0.2509903311729431, 0.6081095337867737, 0.24632738530635834]], [[-0.05857401713728905, 0.036485277116298676, -0.3215201795101166], [-0.24948109686374664, -0.21658849716186523, 0.1431184560060501], [-0.3098146617412567, -0.06117440387606621, -0.1277850717306137]], [[-0.07392669469118118, -0.3279086947441101, -0.21559901535511017], [-0.44011253118515015, -1.8408907651901245, -0.5640305280685425], [-0.0935194343328476, -0.14737050235271454, 0.11323420703411102]], [[-0.32120364904403687, -0.2252351939678192, -0.15180647373199463], [-0.18198435008525848, -0.9286758899688721, 0.08866012841463089], [-0.02201850712299347, 0.6396770477294922, -0.45231497287750244]], [[-0.36748141050338745, 0.021870367228984833, 0.5052576661109924], [-0.5428127646446228, -1.0411837100982666, -0.5985499024391174], [-0.13965697586536407, -0.7049434781074524, -0.088768869638443]], [[-0.14906169474124908, -0.5979345440864563, -0.5044312477111816], [-0.10042420774698257, -0.2989705204963684, -0.20388685166835785], [0.21256482601165771, 0.28275829553604126, 0.10702327638864517]], [[-0.3429388105869293, -0.630129337310791, -1.0293500423431396], [-0.7059485912322998, -1.1045184135437012, -0.19774273037910461], [-0.3844924569129944, -0.019598709419369698, 0.5586592555046082]], [[-0.17612986266613007, -0.23371699452400208, 0.2186935544013977], [-0.18347495794296265, -0.2959289848804474, -0.06590649485588074], [0.30942490696907043, 0.019462140277028084, 0.278366357088089]], [[-0.3474577069282532, -0.1936531960964203, -0.18320421874523163], [0.0003117590385954827, -0.33292895555496216, -0.8347606062889099], [-0.04391147196292877, -0.4223681390285492, -0.3188488483428955]], [[-0.2605065107345581, 0.03899657726287842, 0.27799615263938904], [0.06999983638525009, -0.33523109555244446, -0.5685134530067444], [0.27711546421051025, -0.29273372888565063, -0.4620511531829834]], [[-0.10167693346738815, -0.7466936111450195, 0.247794970870018], [-0.021943964064121246, -0.4499106705188751, 0.30964285135269165], [0.14475232362747192, 0.5693196058273315, 0.29077672958374023]], [[-0.2605874538421631, -0.2777610421180725, -0.5471658706665039], [-0.06914041936397552, -0.08262193202972412, -0.05720588192343712], [0.21100890636444092, -0.021279077976942062, 0.1568932831287384]], [[-0.1729143112897873, -0.614295244216919, -0.4331306517124176], [-0.5395257472991943, -0.6066399812698364, -0.05608683079481125], [-0.16238941252231598, 0.046555422246456146, -0.2595054507255554]], [[-0.05922066047787666, -0.419234037399292, -0.9277231097221375], [-0.17689263820648193, -0.5690176486968994, 0.1281963735818863], [-0.4557935297489166, 0.6122097969055176, 0.22614826261997223]], [[-0.2604078948497772, -0.23954977095127106, -0.0292262714356184], [-0.18309757113456726, -0.2503873407840729, -0.06665381044149399], [0.24874591827392578, 0.1306760460138321, 0.05498501658439636]], [[-0.1537572145462036, -0.1384526640176773, -0.43730083107948303], [-0.354839950799942, -0.21505483984947205, -0.38027074933052063], [0.0237872414290905, -0.07920859754085541, 0.2305154949426651]], [[-0.061065539717674255, -0.34795087575912476, -0.2290932834148407], [-0.22510600090026855, -0.19013184309005737, 0.2628624141216278], [-0.12877818942070007, 0.2035178691148758, -0.18245840072631836]], [[-0.3043965697288513, -0.30302149057388306, -0.14504781365394592], [-0.09719160199165344, -0.2979929447174072, -0.45140770077705383], [0.23995625972747803, 0.4313699007034302, -0.6796812415122986]], [[-0.29435980319976807, -0.796749472618103, -0.7868601083755493], [-0.43520039319992065, -1.7951819896697998, 0.1514446884393692], [-0.10954845696687698, -0.13509123027324677, 0.13088566064834595]], [[-0.09631885588169098, -0.13374391198158264, 0.3903665244579315], [-0.44477763772010803, -1.3470425605773926, -1.2803916931152344], [0.08574564009904861, -0.2833360433578491, 0.06482850760221481]], [[-0.24775496125221252, -0.6922909617424011, -0.3024246096611023], [-0.19783632457256317, -1.8292226791381836, -0.5638647079467773], [-0.19136804342269897, 0.21894609928131104, 0.5624878406524658]], [[-0.019298478960990906, -0.1951628476381302, 0.056340258568525314], [0.05867848917841911, -0.07463815063238144, -0.09538420289754868], [0.19104892015457153, 0.15862764418125153, -0.08493803441524506]], [[-0.30754923820495605, -0.9683849215507507, -0.14681492745876312], [-0.27821892499923706, -1.4247912168502808, 0.3399638533592224], [-0.1566346436738968, 1.0015184879302979, -0.05665509030222893]], [[-1.0915755033493042, -1.3262420892715454, -0.466300904750824], [-0.6773605346679688, -1.0600221157073975, -0.05787113681435585], [-0.5817446112632751, -0.03653516620397568, 0.17623059451580048]], [[-0.5704033374786377, -1.7180900573730469, 0.02479925937950611], [-0.7615029811859131, -1.3716973066329956, 1.079412579536438], [0.2316007912158966, 1.429661512374878, 0.7386312484741211]], [[-0.08886682987213135, -0.5603669285774231, 0.23294420540332794], [-0.5950331687927246, -0.4242068827152252, 0.2680242359638214], [-0.06235489249229431, 0.5669649243354797, 0.03357267007231712]], [[-0.25867289304733276, -0.19683222472667694, -0.21831774711608887], [-0.09823334962129593, -0.09257420152425766, 0.1280994862318039], [0.027681175619363785, -0.33466610312461853, 0.11272092163562775]], [[-0.09124089032411575, -0.050590816885232925, -0.14547064900398254], [0.08996710181236267, -0.4539267122745514, -0.4673592448234558], [0.0959354043006897, -0.0049712276086211205, -0.00517228851094842]], [[-0.06592173874378204, 0.06858313828706741, 0.29834190011024475], [0.16148698329925537, -0.06520502269268036, -0.711901068687439], [0.013573355972766876, -0.4682954251766205, -0.6981479525566101]], [[-0.26370278000831604, -1.275722622871399, 0.012905770912766457], [-0.22606247663497925, -1.6513534784317017, -0.17393122613430023], [-0.20000101625919342, 0.32293954491615295, 0.5731278657913208]], [[-0.4675564169883728, -1.6390091180801392, 0.5608924627304077], [-0.49535658955574036, -0.793840765953064, 0.3668215274810791], [0.08367640525102615, 0.4419374465942383, -0.41918817162513733]], [[-0.14306806027889252, -0.17253044247627258, -0.21678172051906586], [0.2773333787918091, 0.128818079829216, 0.23723860085010529], [-0.0002936558157671243, 0.05909872427582741, -0.07354064285755157]], [[-0.5258116126060486, -0.3503905236721039, 0.3657277226448059], [-0.7891358137130737, -1.4552216529846191, -0.5846359133720398], [-0.11773911118507385, -0.45538005232810974, -0.24349090456962585]], [[0.06160910055041313, 0.16640497744083405, -0.22876055538654327], [-0.056902460753917694, 0.14987844228744507, 0.13805219531059265], [0.2442888766527176, 0.5707930326461792, 0.42678385972976685]], [[-0.14867772161960602, -0.13652756810188293, 0.15672676265239716], [-0.36473309993743896, -1.094143271446228, -1.187207818031311], [-0.005288357380777597, -0.29695215821266174, 0.012680251151323318]], [[-0.16579097509384155, -0.4292276203632355, -0.6043691635131836], [0.12650883197784424, -0.9910115003585815, -0.13467662036418915], [-0.45672404766082764, -0.3662908971309662, 0.14254532754421234]], [[-0.36246615648269653, -0.6325852274894714, 0.0690058022737503], [0.420436829328537, -0.4030528962612152, -0.8431985974311829], [0.21952584385871887, -0.4811677038669586, -0.2497386932373047]], [[0.014138353057205677, -0.08950518816709518, -0.3626226782798767], [-0.1009482741355896, -0.21388407051563263, -0.6082082390785217], [0.1435318887233734, 0.1358039677143097, 0.25405871868133545]], [[-0.7634726166725159, -1.3840937614440918, -1.4171186685562134], [-0.2963576018810272, -1.8746323585510254, -0.3424678444862366], [-0.724453866481781, -0.35334742069244385, 0.5240636467933655]], [[-0.25755786895751953, -0.3850765824317932, -0.03139141574501991], [-0.8077850937843323, -0.7215846180915833, 0.23737327754497528], [-0.08221887797117233, 0.3244037330150604, 0.22174306213855743]], [[-0.29162028431892395, -0.35679325461387634, -0.3255295157432556], [-0.05431293696165085, -0.0388864204287529, -0.20669050514698029], [0.10115144401788712, 0.2813914716243744, 0.39521536231040955]], [[-0.0022365525364875793, -0.29829543828964233, 0.18543651700019836], [-0.275084525346756, -0.37707483768463135, -0.04792270064353943], [0.08825831115245819, 0.32024675607681274, -0.002357770223170519]], [[-0.5263561010360718, -1.3278193473815918, 0.303246408700943], [-0.66273432970047, -0.7244464755058289, -0.06257649511098862], [-0.0029113602358847857, 0.6317499279975891, -0.259670615196228]]], [[[-0.013435397297143936, -0.04132344573736191, 0.0030870889313519], [0.009193654172122478, -0.010302483104169369, -0.07318327575922012], [-0.010743350721895695, 0.026299946010112762, -0.05283065512776375]], [[0.005696539301425219, 0.02861582301557064, -0.03685387969017029], [-0.05322837829589844, -0.07584679871797562, -0.009108396247029305], [0.029735246673226357, 0.004080347251147032, -0.09191988408565521]], [[-0.06748855859041214, -0.0346064567565918, 0.050049539655447006], [-0.042484648525714874, -0.05977217108011246, -0.04866933077573776], [0.0027297253254801035, -0.01387493684887886, -0.04889301955699921]], [[-0.028822576627135277, -0.010207406245172024, -0.014752198942005634], [-0.04765894263982773, -0.03613037243485451, -0.03856019303202629], [-0.055916037410497665, -0.05710833892226219, -0.08273296803236008]], [[-0.04106217995285988, -0.021595444530248642, -0.05198536440730095], [-0.035356078296899796, -0.05248420685529709, 0.005738743115216494], [-0.01180856954306364, 0.0624740868806839, -0.07260841131210327]], [[-0.07456569373607635, -0.017974920570850372, -0.05765308439731598], [0.026542602106928825, -0.05602122098207474, 0.06216147541999817], [0.034205399453639984, -0.02715160883963108, 0.0007422795752063394]], [[0.025764862075448036, 0.013924303464591503, -0.06805357336997986], [-0.02347678691148758, -0.0800730362534523, 0.007846292108297348], [-0.019624073058366776, -0.0039538368582725525, -0.0732395201921463]], [[-0.0557924322783947, -0.026862312108278275, 0.007440491579473019], [-0.029061485081911087, -0.04004646837711334, 0.027220578864216805], [0.06910679489374161, -0.040879987180233, 0.023280328139662743]], [[-0.005346963647753, 0.013003348372876644, -0.02992815338075161], [-0.0948958620429039, -0.06275942176580429, -0.03109733946621418], [0.05644629895687103, -0.07205279171466827, 0.01025566179305315]], [[-0.006071382202208042, 0.0034099691547453403, 0.0192443635314703], [-0.03644023835659027, -0.05240169167518616, -0.007426747586578131], [0.009542171843349934, -0.030965685844421387, -0.06337706744670868]], [[-0.00998616125434637, 0.006701166741549969, -0.029046114534139633], [-0.07925204187631607, -0.10049473494291306, -0.04270235076546669], [0.05632363632321358, -0.02850792370736599, -0.014876279048621655]], [[-0.050172846764326096, 0.021026765927672386, -0.038334280252456665], [-0.03751125931739807, -0.08404950797557831, -0.07931525260210037], [-0.028454409912228584, 0.005196545273065567, 0.00397370895370841]], [[-0.058163825422525406, -0.020216288045048714, -0.03449377417564392], [0.030544463545084, -0.07379671931266785, -0.009462612681090832], [0.04677350074052811, 0.015222808346152306, -0.03750111162662506]], [[-0.005494157318025827, -0.036682602018117905, -0.015425183810293674], [-0.06503014266490936, -0.09033998847007751, -0.07606080919504166], [-0.01697184331715107, -0.008401572704315186, -0.024323757737874985]], [[-0.03419135883450508, 0.018048567697405815, -0.020232966169714928], [-0.04511944204568863, -0.00022451132826972753, -0.06903614848852158], [-0.017327256500720978, -0.0206273403018713, -0.017498834058642387]], [[-0.03372587636113167, -0.036046627908945084, 0.009997725486755371], [-0.014738161116838455, -0.03711286559700966, -0.008092235773801804], [0.039462100714445114, 0.004206949844956398, -0.0102315042167902]], [[-0.04102487862110138, 0.03387133404612541, 0.008432568982243538], [-0.029411956667900085, -0.011582563631236553, 0.00804335717111826], [-0.03799903392791748, -0.02163833938539028, -0.0721176341176033]], [[0.05087531358003616, 0.02088775299489498, -0.035327646881341934], [-0.02117130160331726, -0.025716600939631462, -0.035012226551771164], [0.04588112607598305, 0.009731350466609001, -0.08419446647167206]], [[-0.0659308135509491, 0.0004647033929359168, -0.01783663034439087], [-0.0029879536014050245, -0.03684699535369873, 0.016899889335036278], [-0.049477238208055496, 0.013344828970730305, 0.002843619091436267]], [[-0.002345101907849312, -0.03520292788743973, 0.020269088447093964], [-0.08472463488578796, -0.0134899215772748, 0.008539712056517601], [-0.09476069360971451, -0.09252151101827621, 0.05979494750499725]], [[-0.04230920597910881, -0.05759856477379799, -0.02161964401602745], [-0.10502120107412338, 0.009992166422307491, 0.01215597428381443], [-0.0037609017454087734, 0.01321769692003727, 0.0001865171070676297]], [[-0.014464599080383778, -0.055537786334753036, 0.016640687361359596], [-0.05072325840592384, 0.00574518321081996, -0.04449634253978729], [-0.023245448246598244, 0.05212545394897461, -0.013855988159775734]], [[-0.03185891732573509, -0.034123729914426804, 0.013647232204675674], [0.015455354936420918, -0.05248485878109932, -0.05390692502260208], [0.004660470876842737, 0.019032955169677734, -0.03189040347933769]], [[-0.036804039031267166, -0.06430108845233917, 0.008758255280554295], [-0.08582179248332977, -0.08286941796541214, 0.003010783577337861], [0.019621333107352257, -0.011252368800342083, -0.003351824590936303]], [[-0.06759617477655411, 0.006886441260576248, -0.036292750388383865], [-0.056509457528591156, -0.06897163391113281, -0.012614624574780464], [-0.1223965734243393, -0.022176023572683334, -0.01908637210726738]], [[-0.06668231636285782, -0.05130842700600624, -0.03156362473964691], [-0.009172947145998478, -0.008348852396011353, -0.0651954859495163], [-0.011155915446579456, -0.05486740544438362, -0.046883292496204376]], [[-0.04861226677894592, -0.052506860345602036, -0.03157682344317436], [-0.06103111058473587, -0.0164512749761343, 0.025992969051003456], [0.03782246634364128, -0.050297658890485764, 0.01104034949094057]], [[-0.008553939871490002, 0.04291674867272377, -0.07320570945739746], [-0.07219626754522324, -0.08173069357872009, -0.07699183374643326], [0.017522577196359634, -0.008400946855545044, -0.02684144675731659]], [[-0.01019280031323433, -0.004081835970282555, -0.042362064123153687], [-0.057132381945848465, -0.08133803308010101, -0.009046132676303387], [-0.035126734524965286, -0.01565520651638508, -0.018822452053427696]], [[-0.04589521512389183, -0.045970212668180466, -0.06797648221254349], [-0.0422482006251812, -0.01117295678704977, 0.009142185561358929], [0.04247318208217621, -0.028600750491023064, -0.018421629443764687]], [[-0.015661336481571198, 0.014269627630710602, -0.033139970153570175], [-0.05157184228301048, -0.04486130177974701, -0.02583697810769081], [-0.05832290276885033, -0.01352706179022789, -0.0077911424450576305]], [[0.0004854356520809233, 0.01764334924519062, -0.018425019457936287], [-0.017795706167817116, -0.04699857160449028, -0.036185890436172485], [0.020973123610019684, -0.03978985920548439, 0.016096875071525574]], [[0.03553213179111481, 0.012627018615603447, -0.02950911782681942], [-0.07163695245981216, -0.039497725665569305, -0.002376699820160866], [-0.03322019428014755, -0.07878543436527252, -0.08299345523118973]], [[0.03005748987197876, -0.026674799621105194, -0.060153402388095856], [-0.05410370975732803, 0.012741411104798317, -0.04300738871097565], [-0.03224785998463631, -0.05738845467567444, -0.012232242152094841]], [[-0.04072348028421402, -0.024306273087859154, -0.019734451547265053], [-0.020698314532637596, -0.006250457838177681, -0.014218279160559177], [-0.03511076420545578, -0.018398385494947433, -0.05275335535407066]], [[-0.010544625110924244, 0.020023029297590256, -0.06501946598291397], [-0.038042228668928146, -0.10319145023822784, -0.03609876334667206], [-0.022633396089076996, -0.01865958794951439, 0.019563104957342148]], [[-0.0019125567050650716, -0.006474181544035673, -0.023277461528778076], [-0.10208062827587128, -0.05559686943888664, -0.012182965874671936], [-0.07304993271827698, -0.013355063274502754, -0.04024539515376091]], [[0.014522576704621315, -0.06907829642295837, -0.07818827778100967], [0.04260885715484619, -0.07804322242736816, 0.02243739739060402], [0.02610512636601925, -0.07762289047241211, 0.02495177462697029]], [[-0.04022487998008728, -0.052671756595373154, -0.07123995572328568], [-0.06404206901788712, -0.026621755212545395, -0.07619538903236389], [0.03567476198077202, -0.0459965281188488, -0.0044649867340922356]], [[-0.04009926691651344, -0.01604049652814865, -0.035477522760629654], [-0.003887143451720476, -0.06640208512544632, -0.023674100637435913], [0.02832104079425335, -0.06458654254674911, -0.0522037148475647]], [[-0.03422367572784424, -0.001333332504145801, -0.04780442640185356], [0.015172183513641357, 0.005160339176654816, -0.01439328957349062], [0.0046337018720805645, -0.018851706758141518, -0.07737918943166733]], [[-0.040769193321466446, -0.02335181087255478, -0.05225536227226257], [-0.011463470757007599, -0.04381859675049782, -0.05116540938615799], [-0.0029897952917963266, -0.00899615790694952, 0.02041160874068737]], [[-0.00015053743845783174, 0.013085666112601757, -0.04438045620918274], [0.008093731477856636, -0.03417585417628288, -0.003677613567560911], [0.017184384167194366, -0.06444492936134338, -0.032678913325071335]], [[-0.04635053500533104, -0.07156767696142197, -0.025970283895730972], [-0.023393847048282623, -0.041386958211660385, -0.004478481598198414], [-0.018325088545680046, 0.00047873170115053654, -0.028041675686836243]], [[-0.056360866874456406, -0.03865034505724907, -0.06401656568050385], [-0.039422955363988876, -0.03909541666507721, -0.033419977873563766], [-0.024097643792629242, -0.006093756295740604, 0.023341869935393333]]], [[[-0.08069761842489243, -0.017240723595023155, -0.10647834837436676], [-0.08978239446878433, -0.019074464216828346, -0.11280476301908493], [-0.11808928102254868, -0.011489135213196278, -0.11084415018558502]], [[-0.06239600107073784, -0.07736357301473618, -0.017002113163471222], [-0.07295301556587219, -0.04639343172311783, -0.04504585638642311], [-0.09190092980861664, -0.06266627460718155, -0.10643023252487183]], [[0.027928533032536507, -0.08282727003097534, 0.01029569748789072], [-0.022070979699492455, -0.008692851290106773, -0.06727275997400284], [-0.030850648880004883, -0.025591228157281876, -0.04708987846970558]], [[-0.05145089328289032, 0.002641211962327361, -0.10601982474327087], [-0.07670847326517105, -0.020229095593094826, -0.04499334469437599], [-0.02177632600069046, -0.05070962384343147, -0.0644994005560875]], [[-0.12154249846935272, -0.04277860373258591, -0.08327873051166534], [-0.04584655538201332, -0.04823611304163933, -0.06638035923242569], [-0.08603694289922714, -0.06782618910074234, -0.06535408645868301]], [[-0.010585547424852848, -0.06409323960542679, -0.01941727288067341], [-0.026217060163617134, -0.06813395768404007, 0.021875597536563873], [-0.021666722372174263, -0.053326308727264404, -0.09139782190322876]], [[-0.10498634725809097, 0.0016887282254174352, -0.0857204869389534], [-0.10092863440513611, -0.062310751527547836, -0.0399295873939991], [-0.09335827082395554, 0.00016971028526313603, -0.03651013225317001]], [[-0.06451870501041412, 0.018184587359428406, -0.03124372847378254], [0.027522947639226913, -0.002982111182063818, -0.06510934978723526], [-0.018766755238175392, -0.007271682843565941, -0.05677729472517967]], [[-0.054842863231897354, -0.058653686195611954, -0.05095363408327103], [-0.011955926194787025, 0.030522070825099945, -0.034875623881816864], [-0.09662588685750961, -0.06481599807739258, -0.08713414520025253]], [[-0.09086518734693527, 0.047549519687891006, -0.04353011026978493], [-0.06740967184305191, 0.07090409845113754, -0.032260507345199585], [-0.07328533381223679, 0.006745959632098675, -0.05509407818317413]], [[-0.08852249383926392, 0.0005054019275121391, -0.034685634076595306], [-0.06364122033119202, -0.029702680185437202, -0.05968686193227768], [-0.08320046961307526, 0.01723848097026348, -0.037134647369384766]], [[-0.09098383784294128, -0.05180496349930763, -0.048511676490306854], [-0.10188322514295578, -0.02888408675789833, -0.10763128846883774], [-0.04079895094037056, -0.0218877661973238, -0.07364062964916229]], [[-0.05242536589503288, -0.046155739575624466, -0.055295221507549286], [-0.08330349624156952, -0.03840557485818863, -0.04252983257174492], [-0.1258912980556488, -0.049237240105867386, -0.014770956709980965]], [[-0.10176117718219757, 0.011206980794668198, -0.03890158236026764], [-0.11948774755001068, -0.02089136838912964, -0.09369958192110062], [-0.06697499752044678, -0.04668602719902992, -0.0873359963297844]], [[-0.04782124236226082, -0.08425864577293396, -0.0861150398850441], [-0.03644687682390213, -0.046301111578941345, -0.0959063246846199], [-0.06993851065635681, -0.04504750296473503, -0.09808537364006042]], [[-0.04856277257204056, 0.007001710589975119, -0.027711618691682816], [0.02954557165503502, -0.062182191759347916, -0.04501881077885628], [-0.020964857190847397, -0.06391728669404984, -0.024445699527859688]], [[-0.017455797642469406, 0.023564960807561874, -0.10561616718769073], [-0.03473464399576187, -0.007000583223998547, -0.09059381484985352], [-0.06223069876432419, -0.015301343984901905, -0.039095133543014526]], [[-0.12354054301977158, 0.0500369556248188, -0.0870797336101532], [-0.06086774915456772, -0.028754087164998055, -0.11326396465301514], [-0.09908074885606766, 0.03845160827040672, -0.08567094802856445]], [[-0.01060765516012907, -0.025891179218888283, -0.025642771273851395], [-0.0864492803812027, -0.06042543426156044, -0.0820205882191658], [-0.09525672346353531, 0.005301831290125847, -0.0833713561296463]], [[-0.05759478360414505, -0.09846165776252747, -0.053702980279922485], [-0.07855799049139023, -0.04677461460232735, -0.026857461780309677], [-0.06069359555840492, -0.0008929976029321551, -0.07128740847110748]], [[-0.09199929237365723, -0.09752855449914932, -0.019100334495306015], [-0.07274626940488815, -0.033108144998550415, -0.039205845445394516], [-0.027759050950407982, -0.08982358872890472, 0.001719474676065147]], [[-0.1160731241106987, -0.11097028851509094, -0.010943287052214146], [-0.07465282082557678, -0.10730808973312378, -0.07652382552623749], [-0.11266591399908066, -0.1432180404663086, -0.07237736880779266]], [[-0.013615122996270657, 0.0015686312690377235, -0.05481027439236641], [-0.08889470994472504, 0.021865995600819588, -0.06953753530979156], [-0.05325460806488991, -0.03803001344203949, -0.06908803433179855]], [[0.0010681780986487865, 0.008268176577985287, 0.007865309715270996], [-0.01004167553037405, -0.01818585954606533, -0.054930850863456726], [0.008964559063315392, -0.02571680396795273, -0.002991224406287074]], [[-0.055738504976034164, -0.07920494675636292, -0.03466144576668739], [-0.03622432053089142, -0.017587414011359215, -0.021765580400824547], [-0.04903816059231758, 0.008484282530844212, -0.062241874635219574]], [[-0.00021795059728901833, -0.062129877507686615, -0.021294428035616875], [-0.036343708634376526, -0.13213670253753662, -0.053140781819820404], [-0.024681387469172478, -0.12557606399059296, -0.06889127939939499]], [[-0.04709846153855324, -0.06323910504579544, -0.03632662445306778], [-0.01567731611430645, -0.08249770104885101, -0.08886363357305527], [-0.003976812586188316, -0.017530376091599464, -0.05974426865577698]], [[-0.01982547715306282, 0.042044658213853836, -0.08004637062549591], [-0.06757669895887375, 0.01619787886738777, -0.08448698371648788], [-0.0793432667851448, -0.009259991347789764, -0.102971151471138]], [[-0.03517274931073189, -0.03150283545255661, -0.09624209254980087], [-0.01717652566730976, -0.010418484918773174, -0.02947690710425377], [-0.019847329705953598, -0.027024034410715103, -0.05092722550034523]], [[0.04157326743006706, -0.042494844645261765, -0.03474882245063782], [-0.0014233647380024195, -0.024514736607670784, -0.006648867391049862], [0.017430515959858894, -0.04335329309105873, -0.050356145948171616]], [[-0.002755248686298728, -0.03836352005600929, -0.09632513672113419], [-0.1161782294511795, 0.01757665164768696, -0.1146344318985939], [-0.09460271894931793, 0.003348504425957799, -0.10523660480976105]], [[0.014824187383055687, -0.05744538828730583, -0.053619157522916794], [-0.047753941267728806, -0.03418099135160446, -0.04101067781448364], [-0.010842980816960335, -0.056687723845243454, -0.053032249212265015]], [[-0.021087946370244026, -0.04291078820824623, -0.09961313009262085], [-0.07590696960687637, -0.02570045180618763, -0.1431470811367035], [-0.1255197823047638, -0.11244616657495499, -0.07922106236219406]], [[-0.061015911400318146, -0.02891618199646473, -0.026735516265034676], [-0.08648445457220078, -0.072268545627594, -0.0687471404671669], [-0.09531145542860031, -0.05397959426045418, -0.05377400293946266]], [[-0.02954646572470665, -0.0716702938079834, 0.0014042695984244347], [-0.025290988385677338, -0.10306371748447418, -0.051331646740436554], [0.002357587916776538, -0.0646308958530426, -0.09055181592702866]], [[-0.1421581357717514, 0.0035743401385843754, -0.07236914336681366], [-0.05782827362418175, -0.025130027905106544, -0.03785840794444084], [-0.08426237106323242, -0.04507477581501007, -0.05525371432304382]], [[-0.01187198981642723, -0.05508599802851677, -0.022628245875239372], [-0.05343344062566757, -0.10222166776657104, -0.0008403882384300232], [-0.06381037831306458, -0.04770849272608757, -0.06293968856334686]], [[-0.011330675333738327, -0.06365123391151428, -0.044613417237997055], [0.02499145083129406, -0.06551909446716309, 0.004660475999116898], [-0.06242310628294945, -0.021688353270292282, -0.10544972121715546]], [[-0.07015909254550934, -0.0519290491938591, -0.053201403468847275], [-0.024944577366113663, -0.05739404261112213, -0.015456029213964939], [-0.00767369894310832, 0.008962639607489109, -0.0023216460831463337]], [[0.012809070758521557, -0.03236597031354904, -0.03143491595983505], [0.020513979718089104, -0.0027168525848537683, -0.031830791383981705], [0.01409757137298584, -0.07172302156686783, 0.007365318015217781]], [[-0.006004523020237684, -0.060983482748270035, -0.1012207642197609], [-0.04932481050491333, -0.009104659780859947, -0.0875667855143547], [-0.11368922889232635, -0.023067252710461617, -0.06183943524956703]], [[-0.04907630756497383, -0.022342680022120476, -0.023326881229877472], [-0.07070408761501312, -0.05458221584558487, -0.11364772915840149], [-0.10811500996351242, -0.0631522387266159, -0.06854347884654999]], [[-0.01325761154294014, 0.0038571341428905725, -0.009858109056949615], [-0.0588311068713665, -0.00713311554864049, -0.024436410516500473], [-0.04673468694090843, -0.02619117870926857, -0.06717726588249207]], [[-0.10013895481824875, -0.0837334394454956, 0.007769014220684767], [-0.09763212502002716, -0.02981552667915821, -0.01558777317404747], [-0.09042291343212128, -0.08926251530647278, -0.10059020668268204]], [[-0.009230704978108406, -0.03800889104604721, -0.02391834184527397], [-0.012653650715947151, -0.03591875359416008, 0.01093441341072321], [-0.035436972975730896, -0.049111150205135345, -0.08987414091825485]]], [[[-0.3938434422016144, 0.7360982894897461, 0.6877499222755432], [0.04336914047598839, 1.917364478111267, 0.9190484285354614], [-1.059425711631775, 0.3414783179759979, -0.006821310147643089]], [[-1.0892252922058105, -0.5457746386528015, 2.479435920715332], [-0.3249412775039673, -0.3716161847114563, 2.7184791564941406], [0.48090919852256775, 0.012232448905706406, 0.26034048199653625]], [[-1.3244538307189941, 1.7694021463394165, 0.4985421299934387], [-0.4561365842819214, -0.30345362424850464, 1.472487211227417], [-0.04470190033316612, -0.901532769203186, 0.32586050033569336]], [[0.912337064743042, 2.0701236724853516, -0.5848567485809326], [1.2596193552017212, 0.49339792132377625, -2.327767848968506], [-0.5859828591346741, -0.31338250637054443, -0.9565308094024658]], [[-1.0942245721817017, 1.0934252738952637, 2.3868024349212646], [0.3083741366863251, 0.48466676473617554, 1.2493871450424194], [-1.2047996520996094, -1.0904440879821777, 2.1670589447021484]], [[1.0454497337341309, 1.4497919082641602, -0.03737505525350571], [0.24451054632663727, 1.9644497632980347, 0.5093154311180115], [0.9015016555786133, 1.2535837888717651, 1.2066723108291626]], [[-0.12954740226268768, 0.20947960019111633, 1.103808879852295], [-0.29865550994873047, 1.2126662731170654, 1.5408880710601807], [-1.0051287412643433, 0.07673682272434235, 0.15922097861766815]], [[-1.327362060546875, -2.028935670852661, 2.3790223598480225], [-3.4013569355010986, -4.2407546043396, -2.703040838241577], [-2.8867886066436768, -3.7356090545654297, -2.879394292831421]], [[-0.6880576014518738, -1.7952529191970825, -0.06849582493305206], [0.4533841907978058, -2.184624433517456, -1.7101554870605469], [0.6146826148033142, -1.077351450920105, 1.380087971687317]], [[-0.9857958555221558, -4.660621166229248, 2.157207489013672], [-2.7031335830688477, -7.14380407333374, -1.8323686122894287], [-2.341381788253784, -6.436061859130859, -1.71420156955719]], [[0.12881463766098022, 0.36564353108406067, 0.37152230739593506], [-0.3491779565811157, 1.296884298324585, -1.2598719596862793], [0.4497818648815155, 1.928737998008728, -0.6561880111694336]], [[-0.5262024998664856, 1.8550039529800415, -0.6535884737968445], [0.2066727876663208, 1.298074722290039, -0.9658958911895752], [-0.925400972366333, 0.4226749539375305, 0.5507568120956421]], [[-0.9477671980857849, 0.7074744701385498, -2.038609266281128], [-2.226961612701416, 0.9451671242713928, -3.5913660526275635], [-1.7061299085617065, 1.678807020187378, -4.043936729431152]], [[0.14449378848075867, -0.3956294059753418, 0.2706000506877899], [0.686165988445282, -1.2545467615127563, -2.046903133392334], [0.7949944734573364, -0.33260577917099, 0.5583045482635498]], [[0.821530818939209, -0.06677939742803574, -0.176789790391922], [0.5832952260971069, 0.7948528528213501, -0.09103081375360489], [-0.46749016642570496, 0.5216859579086304, -1.7580186128616333]], [[-0.45795851945877075, 0.16313497722148895, -0.36456194519996643], [0.4468025267124176, 1.3683656454086304, 0.4580059349536896], [1.0010521411895752, 1.5872626304626465, 0.19396601617336273]], [[0.5938476324081421, 0.031647201627492905, -0.6928241848945618], [0.7886044979095459, 0.21699213981628418, -1.6993916034698486], [0.11317598074674606, 0.20480744540691376, -1.3110356330871582]], [[-0.04887507110834122, 0.11352609097957611, 0.15615126490592957], [0.31979209184646606, -0.09836447983980179, -0.8277493119239807], [0.08537554740905762, -0.39497795701026917, -0.6045390367507935]], [[-0.9328973293304443, -0.009381514973938465, -0.4298449158668518], [0.12308369576931, -0.25669270753860474, 0.5600094795227051], [0.23530150949954987, -0.08138352632522583, -1.3136539459228516]], [[-0.4047863781452179, 4.147731304168701, -2.4107742309570312], [-0.5704732537269592, 3.300330877304077, -2.173386573791504], [-1.6693440675735474, 2.348341464996338, -1.1667990684509277]], [[-1.2288131713867188, 0.9057201743125916, 2.3365318775177], [0.5360051989555359, 0.5587526559829712, 1.4492751359939575], [-0.7782294154167175, -0.5815970301628113, 2.4262912273406982]], [[-1.1387782096862793, 0.5687950849533081, 1.575772762298584], [0.4190947711467743, 1.1089138984680176, 1.252734899520874], [-0.8050346374511719, -0.11523627489805222, 2.666055679321289]], [[0.8306444883346558, -0.236774742603302, 1.0766968727111816], [0.2662145793437958, 1.3023877143859863, 2.86863374710083], [0.3571012318134308, 1.513126254081726, 2.879451274871826]], [[-0.9408770203590393, -1.0431623458862305, 1.7660807371139526], [-1.4133933782577515, -0.6222074627876282, 0.08054925501346588], [-0.47532328963279724, -0.8171507120132446, -0.37847766280174255]], [[0.944463312625885, 2.136354446411133, 1.6098442077636719], [0.8184040784835815, 3.3216001987457275, 2.3656039237976074], [1.390023946762085, 2.533353805541992, 2.7310564517974854]], [[-1.3424866199493408, -1.3098828792572021, 1.9064546823501587], [-0.11747311800718307, -0.8078922629356384, 2.558295965194702], [1.3611828088760376, 0.3084578514099121, 0.5107136964797974]], [[-0.14798445999622345, 1.2689497470855713, 1.7870161533355713], [-1.9258370399475098, 0.20557239651679993, 2.6815240383148193], [-1.3680602312088013, 0.700571596622467, 1.9327055215835571]], [[-0.16664929687976837, -0.00434042327105999, 0.45067229866981506], [-0.24250304698944092, 1.3827495574951172, 0.8063643574714661], [0.03144022822380066, 1.369604468345642, 0.1267911195755005]], [[-0.5002442598342896, -0.01203390397131443, -1.1860828399658203], [-0.08147834241390228, 0.14290238916873932, -2.5559492111206055], [0.26281028985977173, 1.231274962425232, 0.1962243616580963]], [[0.21175506711006165, 2.5155704021453857, -1.3292837142944336], [0.514432430267334, -0.0667012482881546, -1.7687277793884277], [-0.5984927415847778, -1.2648221254348755, -1.43790864944458]], [[-1.4728111028671265, -0.8785570859909058, 1.125724196434021], [-0.9669427871704102, -0.5877194404602051, -0.48228538036346436], [0.4799728989601135, 0.2163434624671936, -3.127228021621704]], [[-0.568696141242981, -0.5753572583198547, 0.8460915088653564], [-0.11840950697660446, 0.8860889673233032, 3.560002088546753], [1.0232445001602173, 1.8936611413955688, 2.884730339050293]], [[0.5271466970443726, -0.17581981420516968, 3.0750792026519775], [1.2517801523208618, 2.6009275913238525, 4.601137161254883], [0.4405626058578491, 1.9606348276138306, 3.8898825645446777]], [[-0.3838146924972534, 0.5439854860305786, 0.2855015993118286], [-0.017894145101308823, -0.8179495334625244, -0.5890987515449524], [-0.542373538017273, -1.0784727334976196, -0.4552951753139496]], [[-0.26124516129493713, 0.17230106890201569, 1.3374272584915161], [-0.13414067029953003, 1.9326043128967285, 2.666295051574707], [-1.0042543411254883, 0.31697094440460205, 0.5911674499511719]], [[-1.8518261909484863, 1.098670244216919, 1.4208084344863892], [-2.1661908626556396, 1.2286080121994019, -1.9678601026535034], [-1.7452999353408813, 1.5257790088653564, -2.63960337638855]], [[-1.186020016670227, 0.3481433689594269, 1.8675613403320312], [0.4032959043979645, 0.5844895243644714, 0.9645506739616394], [-0.6386587619781494, -0.268892377614975, 2.7554986476898193]], [[-0.424409955739975, 0.28909415006637573, 1.4079804420471191], [0.1083146184682846, 0.19463321566581726, 0.3333319425582886], [0.1257706582546234, 0.6139236688613892, 0.6012428402900696]], [[-0.05870017781853676, 0.23460109531879425, 2.458423137664795], [-1.2593331336975098, -2.2958593368530273, 0.13684122264385223], [-2.4995105266571045, -4.854518413543701, -2.4673280715942383]], [[-0.563736081123352, 0.14121833443641663, 2.631129503250122], [-1.5590304136276245, -0.6691507697105408, -1.1200305223464966], [-1.7426977157592773, -0.2156624048948288, -1.7323356866836548]], [[-0.9404464960098267, -0.2956015169620514, 1.4410079717636108], [0.3590248227119446, -0.006269359029829502, 1.9058752059936523], [0.9854760766029358, 0.8272392153739929, 1.3883075714111328]], [[-0.16472341120243073, 0.08962288498878479, 0.8401724696159363], [-0.22154423594474792, 0.9153836965560913, 1.4132564067840576], [-0.7397922277450562, 0.004525504540652037, -0.24753423035144806]], [[-0.7725368738174438, 1.2827998399734497, 1.892261028289795], [-1.2835623025894165, -0.6924749612808228, 0.38998308777809143], [-3.9736828804016113, -5.30726957321167, -3.1113545894622803]], [[0.148881733417511, 0.22425265610218048, 1.312252402305603], [0.02963559702038765, 1.4597854614257812, 0.4162255525588989], [-1.4842596054077148, -0.2645524740219116, -1.0845240354537964]], [[0.2512023150920868, -0.5152429938316345, 2.8798251152038574], [0.7211978435516357, 1.7455134391784668, 4.845846176147461], [0.1793731302022934, 1.307987928390503, 4.234733581542969]]], [[[-0.575235903263092, 1.536742091178894, -0.9697340130805969], [0.41994601488113403, 0.9833604097366333, -2.328812837600708], [0.6595490574836731, -0.20164096355438232, -0.6627791523933411]], [[-3.605569839477539, -1.1647297143936157, 0.8204214572906494], [-2.5139379501342773, 