weights['RES8'] = {
"conv0.weight": [[[[0.36925068497657776, -0.008981883525848389, -0.35431745648384094], [-0.19074992835521698, -0.7997244000434875, 0.343736469745636], [-0.14175385236740112, 0.36463695764541626, 0.569138765335083]]], [[[0.20038345456123352, -0.27146992087364197, -0.11634419858455658], [-0.8120779991149902, -0.9762497544288635, -0.5569306015968323], [0.600678026676178, 1.044002890586853, 0.8403490781784058]]], [[[-0.7056282162666321, -0.056386418640613556, 1.2338051795959473], [-1.0678119659423828, -0.41323986649513245, 1.2997490167617798], [-1.0682779550552368, -0.24268700182437897, 1.1267411708831787]]], [[[-0.14084361493587494, -0.201213538646698, -0.20472268760204315], [-0.16208255290985107, 0.17447030544281006, -0.1431342512369156], [-0.07803723961114883, -0.0596260167658329, -0.16674217581748962]]], [[[-0.950846791267395, 0.9117054343223572, 0.3828536868095398], [0.8669896721839905, 1.2941455841064453, -0.632621705532074], [0.5425269603729248, -0.4570644199848175, -0.9665716290473938]]], [[[-1.4813159704208374, 0.2651680111885071, 1.0937258005142212], [-0.46947306394577026, 0.06982266157865524, 0.5484477877616882], [1.6669447422027588, 0.04334965720772743, -1.4572962522506714]]], [[[0.1749853640794754, -0.5471984148025513, -0.024303358048200607], [0.46527981758117676, -0.03830987587571144, -1.1347625255584717], [0.2477489560842514, 1.2676767110824585, -0.47698989510536194]]], [[[-0.28486213088035583, 0.7779151797294617, -0.7895312309265137], [-1.1838515996932983, 0.05057511478662491, 1.070099949836731], [1.6065726280212402, -0.9066696166992188, -0.5658367276191711]]], [[[0.96094810962677, 1.2398874759674072, 0.4900815486907959], [0.7989696860313416, 0.24825230240821838, -0.8472456932067871], [-0.32596880197525024, -1.1612753868103027, -1.2426563501358032]]], [[[0.3388373851776123, 0.8056183457374573, -1.0699094533920288], [0.260529100894928, 0.7317199110984802, -1.0070711374282837], [-0.017729971557855606, 1.073179006576538, -0.5883344411849976]]], [[[-0.2748252749443054, -0.07183650881052017, 0.7199318408966064], [-0.2445857971906662, -0.6904051899909973, 0.0586911179125309], [0.6021043658256531, 0.4619396924972534, -0.15382511913776398]]], [[[-0.5482166409492493, 0.31515952944755554, 0.6740941405296326], [-0.8356015086174011, -0.6741049885749817, 0.2341555953025818], [0.9176688194274902, -0.3362876772880554, 0.48100486397743225]]], [[[0.13260331749916077, -0.713545560836792, 0.23157785832881927], [0.6549252867698669, -1.6852684020996094, 0.711148738861084], [0.7258564829826355, -1.4547066688537598, 0.48561999201774597]]], [[[-0.4125857949256897, 0.6473490595817566, 0.2935069501399994], [0.5235140919685364, 0.7865967154502869, -0.495386004447937], [0.2756440043449402, -0.4655018746852875, -0.4525991976261139]]], [[[-0.5939086675643921, 0.14017754793167114, 0.9194155335426331], [-1.473606824874878, -0.006089137401431799, 1.2990868091583252], [-1.34656822681427, -0.07800498604774475, 1.2163549661636353]]], [[[-1.0256484746932983, -1.1164180040359497, -0.5755664110183716], [0.35548436641693115, 0.6207810640335083, 0.7713821530342102], [0.3895464837551117, 0.6549813151359558, 0.07815346121788025]]], [[[-0.3450797498226166, 0.1193002313375473, 0.33634936809539795], [-0.244369775056839, 0.19190986454486847, 0.3416967988014221], [-0.26558539271354675, 0.13059288263320923, 0.2693186402320862]]], [[[0.938844621181488, 0.29915833473205566, -1.132757306098938], [1.0789852142333984, -0.11410517990589142, -0.9702353477478027], [0.3180689811706543, 0.07621236145496368, -0.3573000133037567]]], [[[-0.2543572783470154, -1.2045387029647827, -0.17454268038272858], [-0.5402249097824097, -0.5474278926849365, 0.8566023707389832], [-0.1630961298942566, 0.5298371911048889, 1.1681885719299316]]], [[[-0.6250172853469849, 1.170264482498169, -0.7894735336303711], [-0.9280496835708618, 1.6261688470840454, -0.9402821660041809], [-0.8567498326301575, 1.598182201385498, -0.9363878965377808]]], [[[0.3280939757823944, 0.41489773988723755, 0.6702749729156494], [0.258204847574234, 0.3959416449069977, 0.547059178352356], [-0.9008560180664062, -1.2740254402160645, -1.0843397378921509]]], [[[0.4037214517593384, 0.4203658998012543, 0.4308568239212036], [-0.5094383955001831, -0.016596676781773567, -0.4191747307777405], [-0.42886558175086975, -0.3627309501171112, -0.004622902721166611]]], [[[-0.28197598457336426, -0.7386217713356018, 1.2351562976837158], [0.7143042087554932, -1.4971297979354858, -0.3502533733844757], [0.6932739615440369, 0.5778120756149292, -0.36656028032302856]]], [[[0.16238729655742645, 0.2906927168369293, 0.41481032967567444], [-0.5276020765304565, -0.4423558712005615, 0.17786097526550293], [0.2236708551645279, -0.38422125577926636, 0.07105791568756104]]], [[[-0.7765529751777649, -0.14252535998821259, 1.1010551452636719], [-0.6037764549255371, -0.1804233193397522, 0.8425841927528381], [0.550377607345581, -0.07527383416891098, -0.28744667768478394]]], [[[0.045885372906923294, -0.6285236477851868, -0.2814611792564392], [-0.17899063229560852, -0.11948978900909424, 0.21822400391101837], [0.36702844500541687, 0.5323883295059204, 1.022192358970642]]], [[[0.9586817622184753, -1.2827553749084473, 0.4104417562484741], [-0.8080637454986572, -0.0764857679605484, 1.0254793167114258], [0.010390163399279118, 1.5477169752120972, -1.4640309810638428]]], [[[0.8463795781135559, 0.2873515784740448, -1.024154782295227], [1.1439176797866821, -0.2811313569545746, -0.932951033115387], [0.5621855854988098, -0.13409052789211273, -0.30890217423439026]]], [[[1.1627174615859985, 0.20881491899490356, -0.46093496680259705], [0.3137417733669281, -1.3389068841934204, -0.0012964213965460658], [-0.12139160186052322, -0.22052669525146484, 1.1177464723587036]]], [[[0.3037746250629425, 0.9279623031616211, 0.24983428418636322], [-1.114322304725647, -1.0705231428146362, -1.4191248416900635], [0.17736151814460754, 0.9446072578430176, 0.3544437885284424]]], [[[0.051609281450510025, -0.6310281753540039, -0.7528094053268433], [0.5579185485839844, -0.06963559240102768, -0.979519248008728], [1.2839218378067017, 0.6864755153656006, 0.03325941786170006]]], [[[-0.11100843548774719, -0.3865654468536377, -0.7552628517150879], [-0.1758730113506317, 0.25007590651512146, -0.00967826135456562], [0.12057175487279892, -0.17284639179706573, 0.3215550482273102]]], [[[0.9160974621772766, 0.7718021273612976, -1.1923160552978516], [0.3988214135169983, 0.5227059721946716, -0.02957027219235897], [-0.8591105341911316, -0.09999122470617294, 2.0610501766204834]]], [[[0.5178914070129395, 0.7104034423828125, 0.31137004494667053], [0.22541119158267975, 0.3276520073413849, -0.6759694218635559], [0.15628015995025635, -0.17214225232601166, -0.9315794110298157]]], [[[0.43157970905303955, 0.4536574184894562, 0.09070263057947159], [-0.6779753565788269, -1.253285527229309, -0.781493604183197], [0.4592958092689514, 0.04443719983100891, 0.7398395538330078]]], [[[0.6760839819908142, -1.1072272062301636, 0.6331820487976074], [0.8060736060142517, -1.2207516431808472, 0.6929578185081482], [0.8316947221755981, -1.1848227977752686, 0.680580735206604]]], [[[0.07799772173166275, 0.8307170867919922, 0.4860715866088867], [-0.5424786806106567, 0.48497244715690613, 0.5012177228927612], [-0.792398989200592, -0.5970057249069214, 0.4131987690925598]]], [[[-0.007189285941421986, -0.4098436236381531, -0.4203982949256897], [0.5562188029289246, 0.4931393563747406, -0.32131871581077576], [0.8958296775817871, 0.49283719062805176, -0.44288718700408936]]], [[[-0.1952691227197647, -0.4212380647659302, -0.9498711824417114], [0.9527137875556946, 1.0744107961654663, 1.132514238357544], [-0.8770602345466614, -0.445578396320343, -0.5355696678161621]]], [[[-0.0024438148830085993, -0.12244879454374313, 0.06417714804410934], [0.33684760332107544, 0.08310355991125107, 0.09865429252386093], [0.30824828147888184, -0.7366451025009155, 0.032673273235559464]]], [[[-0.5488508343696594, -1.0345337390899658, -1.2424299716949463], [1.1497570276260376, 0.9392850995063782, 0.6759008765220642], [0.2976301610469818, -0.01623476669192314, -0.1941705197095871]]], [[[0.7761364579200745, -0.49575406312942505, -0.10466398298740387], [-0.28050002455711365, -0.7322033643722534, 0.3869694471359253], [-0.1688126027584076, 0.24943378567695618, 0.8412922620773315]]], [[[-0.6116011142730713, -0.30955424904823303, 0.2552121877670288], [-0.5098578929901123, 0.7026923894882202, 0.5256410837173462], [0.052571963518857956, 0.6634822487831116, -0.6371604800224304]]], [[[1.0099581480026245, 0.41908884048461914, -0.2328437864780426], [0.5750556588172913, -0.9471932649612427, -0.7210939526557922], [-0.2798503339290619, -0.6704899072647095, 1.19785737991333]]], [[[1.5635639429092407, -0.3965776860713959, -1.2144546508789062], [0.2468724250793457, 0.24091680347919464, -0.4612254798412323], [-1.8152823448181152, 0.5754485130310059, 1.3581000566482544]]]], 
"bn1.running_mean": [5.605193857299268e-45, 1.7820547819137573, 0.4255317151546478, 43.58622741699219, 15.42547607421875, 1.114762544631958, 5.605193857299268e-45, 5.605193857299268e-45, 14.767507553100586, 45.80117416381836, 3.2254977226257324, 5.605193857299268e-45, 25.63273811340332, 0.527103066444397, 4.691647336585447e-05, 5.605193857299268e-45, 8.155208587646484, 10.773472785949707, 7.6082987785339355, 13.650272369384766, 0.9529414772987366, 1.836889386177063, 2.459230661392212, 29.3536376953125, 5.605193857299268e-45, 5.605193857299268e-45, 5.605193857299268e-45, 5.605193857299268e-45, 4.686572551727295, 5.605193857299268e-45, 5.605193857299268e-45, 3.0011401176452637, 11.65962028503418, 0.29917970299720764, 3.7923362255096436, 6.349102973937988, 5.605193857299268e-45, 1.6464444398880005, 12.097480773925781, 2.507939100265503, 5.605193857299268e-45, 2.4714467525482178, 5.605193857299268e-45, 5.605193857299268e-45, 1.5217952728271484], 
"bn1.running_var": [5.605193857299268e-45, 32.92164993286133, 14.399358749389648, 936.9398193359375, 296.9359436035156, 20.378711700439453, 5.605193857299268e-45, 5.605193857299268e-45, 234.59019470214844, 966.9192504882812, 30.12812614440918, 5.605193857299268e-45, 890.3862915039062, 8.759444236755371, 0.00020350926206447184, 5.605193857299268e-45, 236.7939453125, 112.13821411132812, 135.04246520996094, 347.65728759765625, 24.9013729095459, 29.457990646362305, 43.178077697753906, 546.2208251953125, 5.605193857299268e-45, 5.605193857299268e-45, 5.605193857299268e-45, 5.605193857299268e-45, 65.88383483886719, 5.605193857299268e-45, 5.605193857299268e-45, 50.246543884277344, 382.514892578125, 3.391339063644409, 64.16221618652344, 149.19308471679688, 5.605193857299268e-45, 38.614871978759766, 222.4346466064453, 46.05978775024414, 5.605193857299268e-45, 61.87282943725586, 5.605193857299268e-45, 5.605193857299268e-45, 42.49853515625], 
"bn1.num_batches_tracked": 47989, 
"conv1.weight": [[[[-0.28297457098960876, -0.08405434340238571, -0.14932429790496826], [-0.07080712914466858, 0.039780523627996445, -0.10890796035528183], [-0.17478875815868378, -0.12352441251277924, -0.18835681676864624]], [[-0.1416342407464981, -0.08833682537078857, -0.08437050879001617], [-0.024960827082395554, 0.0023122860584408045, 0.054389599710702896], [0.036622434854507446, 0.10729403048753738, 0.02026672102510929]], [[-0.11682235449552536, -0.06526684015989304, -0.03440861031413078], [-0.09982772916555405, -0.16225524246692657, 0.024450231343507767], [-0.1082720011472702, -0.43330395221710205, -0.103329136967659]], [[-0.079144187271595, -0.07494080066680908, -0.17503021657466888], [-0.09620047360658646, -0.05580767244100571, -0.14648032188415527], [-0.1547764539718628, -0.2242891937494278, -0.13971596956253052]], [[-0.23256579041481018, -0.27973276376724243, -0.18837954103946686], [-0.378632128238678, -0.4776932895183563, -0.35300520062446594], [-0.0167718306183815, -0.0960683599114418, 0.020899780094623566]], [[-0.0025486864615231752, 0.042589221149683, 0.07842720299959183], [0.030193457379937172, -0.010938686318695545, 0.0991804227232933], [-0.033745285123586655, -0.08118842542171478, -0.040460553020238876]], [[-0.09284646064043045, -0.14063285291194916, -0.15565451979637146], [-0.04808557406067848, -0.1132902055978775, -0.08097159117460251], [-0.1707410216331482, -0.21517027914524078, -0.13421037793159485]], [[-0.01981639675796032, -0.016194170340895653, 0.020182140171527863], [0.015361141413450241, -0.03333241865038872, -0.09865573048591614], [0.039388928562402725, -0.08463344722986221, -0.0639655590057373]], [[-0.03700006753206253, -0.1122700497508049, -0.0162564255297184], [-0.3077869415283203, -0.1831657886505127, -0.17922534048557281], [0.0223127081990242, -0.06147042289376259, 0.0935678482055664]], [[-0.04374026134610176, -0.1290474683046341, -0.11149527132511139], [-0.13117541372776031, -0.14187335968017578, -0.16704465448856354], [0.07800225913524628, 0.025982016697525978, 0.10003344714641571]], [[-0.05993015319108963, -0.18974877893924713, -0.11445962637662888], [-0.07242587208747864, -0.028917282819747925, -0.12559179961681366], [-0.1772993505001068, -0.08786649256944656, 0.044181667268276215]], [[-0.11467605084180832, -0.11926202476024628, -0.13101842999458313], [-0.1030476838350296, -0.09862400591373444, -0.12657514214515686], [-0.19655627012252808, -0.12407823652029037, -0.14119140803813934]], [[0.03448506072163582, 0.02552640438079834, 0.004770978819578886], [-0.0029678281862288713, -0.05925925821065903, 0.14063328504562378], [-0.07013539969921112, -0.10176067054271698, 0.011907183565199375]], [[-0.008879167959094048, -0.1747131198644638, -0.1510745882987976], [-0.07620663940906525, -0.18909256160259247, -0.1910906285047531], [-0.0635165423154831, -0.09906560927629471, 0.12740090489387512]], [[-0.22921563684940338, -0.15887053310871124, -0.2083502560853958], [-0.21905533969402313, -0.09703530371189117, -0.1601637303829193], [-0.2473292201757431, -0.40573927760124207, -0.34891727566719055]], [[-0.1240997165441513, -0.058913879096508026, -0.08732566982507706], [-0.07026584446430206, -0.12702205777168274, -0.008593322709202766], [-0.04604141414165497, -0.09018217027187347, -0.051568832248449326]], [[-0.09658771008253098, -0.1314140260219574, -0.20217403769493103], [-0.045520395040512085, -0.10769569128751755, -0.12271866947412491], [-0.1975560188293457, -0.18415091931819916, -0.156068354845047]], [[-0.07899188995361328, -0.19283564388751984, -0.21041342616081238], [-0.11145853996276855, -0.38961926102638245, -0.08305966854095459], [-0.225220188498497, -0.15502488613128662, -0.07355675846338272]], [[-0.2512126564979553, -0.0672299787402153, -0.0906933918595314], [-0.10231084376573563, -0.05261560156941414, -0.10240713506937027], [-0.20601749420166016, -0.35786205530166626, -0.31854021549224854]], [[-0.0613553524017334, -0.14903515577316284, -0.010871589183807373], [0.16415026783943176, -0.12062878906726837, 0.0365305133163929], [0.00957984197884798, -0.11551742255687714, -0.029532229527831078]], [[-0.11936036497354507, -0.10918465256690979, -0.07675229758024216], [-0.2194928526878357, -0.14144597947597504, -0.1892472356557846], [0.0026576663367450237, 0.0008754243026487529, 0.14300864934921265]], [[-0.11102694272994995, -0.08696801960468292, -0.15977005660533905], [-0.19715650379657745, -0.1418522149324417, -0.16785265505313873], [-0.10034073889255524, -0.12215489149093628, -0.08699572086334229]], [[-0.09929412603378296, -0.13636723160743713, -0.20932890474796295], [-0.06349262595176697, -0.1004219725728035, -0.1372072547674179], [-0.26425522565841675, -0.31174251437187195, -0.18928582966327667]], [[0.03394361212849617, -0.036448702216148376, -0.013118600472807884], [-0.09491059929132462, -0.08276824653148651, -0.14724436402320862], [0.003662998555228114, -0.055495936423540115, -0.07126667350530624]], [[-0.23119857907295227, -0.1184840053319931, -0.25829067826271057], [-0.19601969420909882, -0.13122816383838654, -0.0877627357840538], [-0.16340552270412445, -0.23953409492969513, -0.30546361207962036]], [[-0.05730044096708298, -0.17602603137493134, -0.12914523482322693], [0.13740533590316772, 0.012283203192055225, 0.024628911167383194], [-0.04515688121318817, -0.21517182886600494, -0.0892682746052742]], [[-0.0658569186925888, -0.18485642969608307, -0.0577397383749485], [0.07024652510881424, 0.00591418007388711, 0.08229556679725647], [0.16491082310676575, 0.04005402699112892, 0.09465888142585754]], [[-0.05876689776778221, -0.09740650653839111, -0.13239075243473053], [-0.02368876524269581, -0.12139632552862167, -0.15885277092456818], [-0.04997220262885094, -0.15489806234836578, -0.04649622365832329]], [[-0.054759275168180466, -0.11341474950313568, -0.15085378289222717], [-0.07431354373693466, -0.11510174721479416, -0.10027088969945908], [-0.1983412206172943, -0.15065644681453705, -0.0346619077026844]], [[0.05020816624164581, 0.10414041578769684, 0.04905359447002411], [0.09450016915798187, 0.02457001805305481, 0.052922338247299194], [-0.05562755465507507, -0.03292414918541908, 0.0016849179519340396]], [[-0.08486489206552505, -0.13198824226856232, -0.21711497008800507], [-0.05006154999136925, -0.12354782968759537, -0.08952534943819046], [-0.2460174262523651, -0.3729868531227112, -0.16452105343341827]], [[-0.011876984499394894, 0.015478643588721752, -0.0182939525693655], [0.022466666996479034, 0.029295727610588074, 0.08008257299661636], [0.08315423876047134, 0.04185173660516739, 0.1131725087761879]], [[-0.06310229748487473, -0.07608307152986526, -0.21249374747276306], [-0.0033602286130189896, -0.0824345052242279, -0.017724089324474335], [-0.1202416867017746, -0.21904356777668, -0.1296750009059906]], [[-0.2043789178133011, -0.11997200548648834, -0.216981902718544], [-0.10519800335168839, -0.09711992740631104, -0.06312369555234909], [-0.2803705036640167, -0.30120745301246643, -0.12667205929756165]], [[0.03823908790946007, -0.20522718131542206, -0.10812059789896011], [0.10733845829963684, -0.02339780703186989, 0.09041700512170792], [-0.015159333124756813, -0.09990013390779495, -0.07768934965133667]], [[0.27010220289230347, 0.09198883175849915, 0.18809367716312408], [0.15830600261688232, 0.02223944664001465, 0.23267287015914917], [0.1879531741142273, 0.03331773728132248, 0.23048247396945953]], [[-0.03863178566098213, -0.021489975973963737, 0.039422404021024704], [-0.1354554444551468, -0.19075898826122284, -0.10231079906225204], [0.002608697162941098, -0.1243586391210556, -0.0693683922290802]], [[-0.050939444452524185, -0.12703685462474823, -0.12882308661937714], [-0.09696180373430252, -0.15918400883674622, -0.13614200055599213], [0.06315579265356064, 0.08261838555335999, 0.06762769818305969]], [[-0.02338024601340294, -0.021487878635525703, -0.025941604748368263], [-0.08703935146331787, -0.13423849642276764, -0.01979721710085869], [0.09286510944366455, -0.04500045254826546, 0.08926079422235489]], [[0.01085565984249115, 0.01473078690469265, -0.10725123435258865], [-0.04096749797463417, -0.11478676646947861, -0.13915787637233734], [-0.06882520020008087, -0.10022059082984924, -0.13455592095851898]], [[-0.06557513028383255, -0.06630639731884003, -0.1070231944322586], [-0.030365530401468277, -0.11053729057312012, -0.05322297662496567], [-0.041215930134058, 0.09288471937179565, 0.11460305750370026]], [[-0.22217698395252228, -0.1486779749393463, -0.12088824808597565], [-0.15934188663959503, -0.0016236079391092062, -0.2086629420518875], [-0.26139122247695923, -0.22073955833911896, -0.31088516116142273]], [[-0.07335438579320908, -0.07685209065675735, -0.06818053871393204], [-0.10855443775653839, -0.2022867202758789, -0.043023813515901566], [-0.08584107458591461, -0.17168402671813965, -0.007845967076718807]], [[0.05450047552585602, -0.050070635974407196, -0.1134590432047844], [-0.03292559087276459, -0.16835641860961914, -0.217891663312912], [-0.01166082639247179, -0.06112665683031082, -0.004483179654926062]], [[-0.06291399151086807, -0.0070662288926541805, -0.08715031296014786], [-0.03434440866112709, -0.10459819436073303, 0.030217578634619713], [-0.10736418515443802, -0.19743725657463074, -0.056224796921014786]]], [[[0.757093071937561, -1.1128556728363037, -0.1746746152639389], [-0.5703381896018982, -0.2547081708908081, 0.6152639389038086], [-1.4062081575393677, -0.318088173866272, 0.05175461992621422]], [[1.2293117046356201, -0.8092073202133179, -0.7598056793212891], [0.7018664479255676, -1.4962937831878662, -0.5750505328178406], [0.6926943063735962, -0.06702007353305817, -0.09001460671424866]], [[0.8548517823219299, 0.905763566493988, 0.06376253813505173], [-1.0740360021591187, -0.032727036625146866, 1.1003702878952026], [-0.7555434703826904, -0.5966635346412659, 1.2248449325561523]], [[-0.32732924818992615, -0.45384731888771057, 0.26026928424835205], [-2.3285279273986816, -0.08157702535390854, -0.04286053031682968], [-1.1203330755233765, 0.44490835070610046, 0.4576513469219208]], [[1.497658371925354, -0.0019658079836517572, -0.48976388573646545], [1.170179009437561, -0.1922251135110855, -0.1558508723974228], [0.39504101872444153, -0.8354470133781433, -0.3442293107509613]], [[2.8104796409606934, 0.36496952176094055, 0.33532124757766724], [0.7683649659156799, 0.0007548346184194088, -0.24890932440757751], [0.36930152773857117, -1.1666600704193115, -0.2778264880180359]], [[-0.2292574942111969, 0.8076075315475464, 0.7222774624824524], [0.3490203619003296, 0.30209457874298096, -1.040680170059204], [1.2335313558578491, -0.29267776012420654, -0.38169828057289124]], [[0.8703504204750061, 0.7533011436462402, 0.08219235390424728], [-0.9912002086639404, -0.20049169659614563, -0.8354295492172241], [0.046652209013700485, -1.2065980434417725, 0.07323313504457474]], [[1.4934210777282715, 0.06992693245410919, -0.5202631950378418], [1.5801218748092651, 0.48659616708755493, -0.09625396132469177], [1.3151814937591553, -0.08679146319627762, 0.022776871919631958]], [[-0.46544525027275085, 0.3268933892250061, 0.24343962967395782], [0.3909440338611603, 1.0504155158996582, -0.6690182089805603], [0.6381184458732605, 0.5245101451873779, -0.10613105446100235]], [[0.6570576429367065, -0.3409002721309662, 0.16290947794914246], [0.26317885518074036, -0.4068046510219574, -0.6442078351974487], [0.5224023461341858, -1.2578833103179932, 0.30628830194473267]], [[0.2064363658428192, -0.36621883511543274, 0.8961774706840515], [-0.8023437261581421, -0.13249938189983368, -0.200219064950943], [-0.6454258561134338, -1.1950758695602417, -0.4250068962574005]], [[-0.8091852068901062, -0.4336656928062439, 0.18994641304016113], [-1.9667001962661743, -0.7698310613632202, -0.7443207502365112], [-0.6969403624534607, -0.9432635307312012, 0.19697391986846924]], [[1.3162531852722168, -0.6908957362174988, -0.781133770942688], [0.9539598226547241, -0.31082648038864136, -0.6260272860527039], [0.8204865455627441, -0.5041198134422302, -0.16368959844112396]], [[0.7005195617675781, 0.8767710328102112, 0.9507158994674683], [-1.2930039167404175, -0.2954816222190857, 1.404288649559021], [-0.8142075538635254, -0.8584644794464111, 1.0288753509521484]], [[1.6555871963500977, 0.04007361829280853, -0.435973197221756], [1.3804951906204224, -1.718275547027588, -0.932140052318573], [0.9431385397911072, -0.681019127368927, -0.410427063703537]], [[0.8660796880722046, -1.0761719942092896, 0.17645227909088135], [-1.2024263143539429, -0.6685375571250916, 0.12589885294437408], [-0.8527843356132507, -0.5095535516738892, 0.015786392614245415]], [[0.197242870926857, 0.7613023519515991, 0.6716408729553223], [1.2684234380722046, 1.2464171648025513, 0.1979314386844635], [1.32848060131073, 0.12230230122804642, -0.04285985603928566]], [[1.5914499759674072, -0.036685455590486526, -0.7442786693572998], [-0.9548962116241455, -1.2524000406265259, 0.27112963795661926], [-1.0762019157409668, -0.639086127281189, 0.27373772859573364]], [[-2.1422312259674072, 0.06405565142631531, -1.698124647140503], [-1.9610064029693604, -1.5392898321151733, -1.8173258304595947], [-1.5579930543899536, -1.2266546487808228, -0.45315420627593994]], [[0.18461444973945618, 0.4612877666950226, 0.020842138677835464], [-0.17887623608112335, 0.7553938627243042, 0.3789304792881012], [0.34135398268699646, -0.6266631484031677, 0.18177714943885803]], [[-1.4452673196792603, -1.1994115114212036, -0.9845818281173706], [-1.6058448553085327, -0.06732919067144394, -0.12119361013174057], [-0.03615798056125641, 0.2315293550491333, 0.2974452078342438]], [[0.40802764892578125, 0.4111219048500061, 0.7454865574836731], [0.4024222791194916, 0.8123132586479187, -0.192196324467659], [0.5824300050735474, -0.8686099648475647, -0.4887595772743225]], [[-0.3667390048503876, 0.2768024206161499, -0.10613010078668594], [-0.2937421202659607, 0.9758332967758179, 0.5399482250213623], [-0.022241486236453056, -0.6742122769355774, -0.031864408403635025]], [[1.014701247215271, -0.49873781204223633, -1.1716804504394531], [-0.18381306529045105, -0.2175889015197754, -0.10719376802444458], [-0.4741208851337433, -1.6060516834259033, -0.812673032283783]], [[1.5622369050979614, -0.8973420262336731, -0.7354263067245483], [0.9755219221115112, -1.7003997564315796, -0.7843745350837708], [0.6291718482971191, -0.6708162426948547, -0.5705956816673279]], [[2.4286160469055176, -0.8606791496276855, -0.6190020442008972], [0.0932876393198967, -0.7172381281852722, -1.082792043685913], [-0.10825683176517487, -0.8562979102134705, -0.7544061541557312]], [[-0.31024810671806335, 0.5358044505119324, 1.1714222431182861], [0.7489748001098633, 1.0534075498580933, 0.4451853334903717], [1.6050735712051392, 0.34772878885269165, 0.27762261033058167]], [[0.8196296095848083, -0.6914231777191162, -0.10160042345523834], [-0.37532585859298706, 0.052905842661857605, 0.32775768637657166], [-0.34930339455604553, -0.4957272410392761, 0.45138105750083923]], [[0.25330543518066406, -1.3077293634414673, -1.070765733718872], [0.5735105872154236, -1.9761848449707031, -1.5330158472061157], [0.3218673765659332, -1.1567741632461548, -1.0998859405517578]], [[1.082624077796936, 0.49034813046455383, 0.6669812202453613], [0.7405387759208679, 0.46662434935569763, -0.7610928416252136], [0.44738131761550903, -1.3436915874481201, -0.8351674675941467]], [[-0.14140254259109497, -0.4510943293571472, -0.20400017499923706], [-0.13893117010593414, -1.351837158203125, -0.06704453378915787], [-0.038109857589006424, -0.2192801535129547, 0.34823817014694214]], [[2.982605218887329, -0.0317651741206646, 0.5143331289291382], [1.240278959274292, 0.15533562004566193, -0.46985480189323425], [0.5210138559341431, -0.8564796447753906, -0.4545433521270752]], [[0.8152199387550354, -0.6571576595306396, -1.3031259775161743], [0.691951334476471, -0.4122161865234375, -1.7887227535247803], [0.9359322190284729, -0.7412660121917725, -0.6251764893531799]], [[0.8654159903526306, -1.6820193529129028, -0.8822885155677795], [0.5451894402503967, -0.9356855750083923, -0.4888920187950134], [0.9934852123260498, -0.1769278198480606, 0.027099991217255592]], [[-0.3341742753982544, -0.7767564058303833, -0.13938187062740326], [-1.0832560062408447, -0.7768726944923401, -0.7404484152793884], [-0.585866391658783, -1.338573694229126, -0.5918407440185547]], [[-0.29986363649368286, 0.037422459572553635, 0.008338628336787224], [-0.04833102971315384, 0.28815701603889465, 0.35446274280548096], [0.20547649264335632, -1.5471112728118896, -0.8441817164421082]], [[0.2729877531528473, 1.1141437292099, 0.7545909881591797], [0.599941611289978, -0.43851661682128906, -0.24955551326274872], [1.0458126068115234, 0.298770010471344, 0.12423934042453766]], [[0.5891340970993042, -0.1484038382768631, -0.7463276386260986], [-0.0771767720580101, -1.7751538753509521, -1.697214126586914], [1.3685903549194336, -0.6813995242118835, -1.071416974067688]], [[0.4757758677005768, -0.5745678544044495, -0.4743173122406006], [0.1279108077287674, -0.9458333849906921, -0.6390838027000427], [0.9444096088409424, -0.5683888792991638, -0.5951579809188843]], [[0.19215402007102966, -0.4114193022251129, -0.4176482558250427], [1.50222647190094, -1.653961420059204, -1.3293945789337158], [1.5222183465957642, -1.1543391942977905, -1.7338354587554932]], [[0.566444456577301, -1.086258053779602, -0.05924331769347191], [-0.9319892525672913, -0.6064855456352234, 0.730035662651062], [-1.1875782012939453, -0.42653897404670715, 0.1551888883113861]], [[0.3184451758861542, 0.47656747698783875, 0.04946218430995941], [-0.5398789644241333, -1.2156037092208862, 0.4725441336631775], [-0.24832692742347717, -0.38651350140571594, 0.7109482288360596]], [[1.337160587310791, -0.42322322726249695, -0.7988603711128235], [-0.1627475768327713, -0.1245364397764206, 0.005924518220126629], [0.02140057645738125, -0.28830650448799133, 0.32203584909439087]], [[1.8435055017471313, 1.1958703994750977, 0.6595773696899414], [1.1397123336791992, 0.5188265442848206, 0.033309582620859146], [1.0920805931091309, -0.7313693761825562, -0.5381355881690979]]], [[[-0.7881394624710083, 0.5897963047027588, -0.3345501124858856], [-1.0883207321166992, -0.3646463453769684, -0.44646337628364563], [-0.44972267746925354, -0.27216604351997375, -0.6297662258148193]], [[0.8529024124145508, 0.12412504851818085, -0.31442973017692566], [-0.46656960248947144, -0.6411160826683044, -0.8776775598526001], [-0.4866606295108795, -0.5286637544631958, -0.7765935063362122]], [[-0.46954724192619324, -0.813561737537384, -2.268401861190796], [-0.022603346034884453, -0.8205394148826599, -2.305392026901245], [-0.9038867354393005, 0.13944536447525024, -0.596784770488739]], [[-0.22848716378211975, -0.11630266159772873, -0.6000524163246155], [0.3258727788925171, 0.2935855984687805, -0.4902995526790619], [0.6677922606468201, 0.23121610283851624, -0.7333728671073914]], [[0.9629750847816467, 0.5894466042518616, -1.8226399421691895], [-1.356514811515808, -1.9628697633743286, -2.0211403369903564], [-1.7695330381393433, -1.3534860610961914, -1.3557509183883667]], [[2.011671781539917, 0.13556496798992157, -2.167367935180664], [2.047746419906616, 0.4867384135723114, -1.9932162761688232], [0.511052668094635, 0.9991625547409058, -0.23967204988002777]], [[-0.09925281256437302, -0.12007042020559311, 0.06982457637786865], [1.408456563949585, 1.1008049249649048, -0.0052106487564742565], [0.6687699556350708, 1.2702332735061646, 0.4669560492038727]], [[2.0804035663604736, 0.20469865202903748, -1.3770660161972046], [2.9935171604156494, 2.2015321254730225, -1.1757549047470093], [1.548181414604187, 2.369950532913208, 1.3228881359100342]], [[0.13931655883789062, 0.31351351737976074, -0.6154354810714722], [-1.2830567359924316, -1.9143425226211548, -1.3270599842071533], [-1.7834125757217407, -1.790664792060852, -1.1461968421936035]], [[1.5460262298583984, 0.7796267867088318, 0.19534380733966827], [2.131734848022461, 0.5665797591209412, -1.179504632949829], [1.1128044128417969, 0.9005807638168335, 0.47440358996391296]], [[0.08385062962770462, 0.13646741211414337, -0.10081242024898529], [0.7143662571907043, 0.22755497694015503, -0.6018534302711487], [-0.6659793853759766, -0.34784722328186035, -0.7792274951934814]], [[-0.6603313684463501, -0.0387939028441906, -0.015930868685245514], [1.010717511177063, 1.0359426736831665, -0.025837505236268044], [0.12926803529262543, 0.596946656703949, -0.5572676658630371]], [[0.1498771458864212, -0.40673136711120605, -2.463855266571045], [0.6832224726676941, -0.11360447853803635, -2.330476999282837], [0.028064610436558723, 0.8395686745643616, 0.1215890645980835]], [[0.5615927577018738, 0.7270877361297607, -0.5579453706741333], [-0.8808789253234863, -1.0488245487213135, -0.5063222050666809], [-0.9290910959243774, -1.2110822200775146, -0.5996946692466736]], [[-0.9868409037590027, -0.5961686968803406, -1.9876031875610352], [-0.2850992977619171, -0.47796788811683655, -2.1972033977508545], [-0.9975771903991699, 0.12474391609430313, -0.330205500125885]], [[0.7711695432662964, 0.40208661556243896, -0.2689330279827118], [-0.011410895735025406, -0.09973873198032379, -0.3219115138053894], [-0.6898899674415588, -0.671698808670044, -0.7518017292022705]], [[-0.49417468905448914, 0.10474035888910294, -0.3573724627494812], [-0.4135770797729492, 0.14572374522686005, -0.3975332975387573], [-0.12124194204807281, -0.008113164454698563, -0.8833131194114685]], [[-0.19310472905635834, 0.5861770510673523, -0.28104302287101746], [0.6845479607582092, -0.0913596823811531, -1.4598511457443237], [0.1518278419971466, 0.1807163655757904, -0.24408172070980072]], [[-0.14083941280841827, -0.13310319185256958, -0.9129905700683594], [-1.664904236793518, -2.144824981689453, -0.7726266384124756], [-1.9197893142700195, -1.6144558191299438, -0.6617288589477539]], [[0.19408434629440308, 0.5769494771957397, -2.583132743835449], [0.24769172072410583, -0.06049324572086334, -3.8286144733428955], [-0.6749510169029236, 0.5847867131233215, 0.8286773562431335]], [[0.7255795001983643, 0.6537522077560425, -0.5354932546615601], [1.0749638080596924, 0.7312405705451965, -0.7797910571098328], [0.6414391994476318, 1.2271283864974976, -0.19103844463825226]], [[-0.5201939344406128, -0.06915311515331268, -0.6831515431404114], [0.518549919128418, 0.5593810677528381, -0.8242524266242981], [0.5602420568466187, 0.8577705025672913, -0.4998980462551117]], [[-0.199623242020607, -0.20703428983688354, 0.15005049109458923], [1.4587851762771606, 1.1897448301315308, 0.09828855842351913], [0.578301727771759, 1.5764660835266113, 0.5795581340789795]], [[0.27429258823394775, 0.7772365808486938, 0.4140346348285675], [0.9142463207244873, 0.9630021452903748, -0.32840535044670105], [0.41809919476509094, 1.249145746231079, 0.1853150725364685]], [[-0.03155684098601341, 1.0146474838256836, -0.012451753951609135], [0.21583978831768036, 0.18504886329174042, -0.7197696566581726], [-0.5059601664543152, 0.7173159718513489, -0.24482038617134094]], [[0.5022686123847961, 0.44625064730644226, -0.07355212420225143], [-0.4855949878692627, 0.2044876366853714, 0.09583418816328049], [-0.44081947207450867, 0.18479935824871063, -0.37959185242652893]], [[1.3305202722549438, -1.6778112649917603, -3.4878294467926025], [1.5704489946365356, -2.903191566467285, -3.364403009414673], [-0.025708043947815895, -1.1540648937225342, 0.1312236785888672]], [[0.03176070749759674, 1.0859946012496948, 0.135834738612175], [0.693044900894165, 0.33690568804740906, -1.0648300647735596], [0.17498083412647247, 0.3982774317264557, -0.12827500700950623]], [[-1.3140403032302856, 0.6464785933494568, -0.21421369910240173], [-1.6781338453292847, -1.1263518333435059, -0.47560277581214905], [-1.2617110013961792, -1.1499311923980713, -0.738864541053772]], [[0.8597415089607239, -0.06531696766614914, -0.8871075510978699], [0.5574337840080261, -0.024073923006653786, -1.063002109527588], [-0.4929807484149933, -0.04232902452349663, -0.14446696639060974]], [[-1.1299327611923218, 0.06647278368473053, 0.44171950221061707], [0.2044377624988556, 1.016449213027954, 0.4311870336532593], [0.30662381649017334, 0.8249065279960632, -0.040512558072805405]], [[0.8321239948272705, 0.40973547101020813, -0.004466544836759567], [0.4651118218898773, 0.5645256638526917, -0.14651356637477875], [0.557965874671936, 0.6568356156349182, -0.18058359622955322]], [[0.6961910724639893, -1.1595594882965088, -1.6874581575393677], [1.9178649187088013, -0.44663727283477783, -2.6426093578338623], [0.05121764913201332, 0.4566038250923157, 0.24967102706432343]], [[0.21054092049598694, 0.4819706082344055, -0.37887078523635864], [-0.23957468569278717, 0.006752224173396826, -0.25284650921821594], [-0.4561609625816345, -0.6427229642868042, -0.5592698454856873]], [[0.10120660811662674, -0.4085615873336792, -0.8745185732841492], [-0.04854971542954445, -0.18960215151309967, -0.7968984246253967], [-0.97361820936203, -0.28676271438598633, -0.5256628394126892]], [[-0.22055183351039886, -0.5366493463516235, -2.095914602279663], [0.07644941657781601, -0.8967651724815369, -2.781327247619629], [-0.32444730401039124, 0.4983036518096924, -0.0009055056725628674]], [[-0.3098200857639313, 0.3266442120075226, -0.4243060350418091], [0.8747195601463318, 1.4153766632080078, -0.12536151707172394], [0.02886730618774891, 1.3671168088912964, 0.21483521163463593]], [[-0.03243733197450638, 0.10403168946504593, -0.2247547209262848], [-0.47092634439468384, -0.6302446722984314, -0.4961555302143097], [-0.2354835420846939, -0.41880959272384644, -0.9933061599731445]], [[0.02633741684257984, -0.840921938419342, -1.3861945867538452], [0.8013842701911926, 1.0016950368881226, -0.44642865657806396], [-0.539025068283081, 0.2526978850364685, -0.018652338534593582]], [[-0.4376772344112396, 0.3562326729297638, -0.5494151711463928], [-0.6900925636291504, -0.425429105758667, -0.43225544691085815], [-0.9452261924743652, -0.6395853161811829, -0.45164623856544495]], [[-0.3031160235404968, -0.46802064776420593, -0.5133290886878967], [1.155472755432129, 0.8918973803520203, -0.0034085954539477825], [-0.05496392771601677, -0.13081401586532593, -0.7733249664306641]], [[-0.36558997631073, 0.41160857677459717, -0.29897043108940125], [-1.3772944211959839, -0.8256952166557312, -0.137430801987648], [-0.9692874550819397, -0.13867206871509552, -0.3411169946193695]], [[-0.6788226366043091, 0.41369980573654175, -1.0552897453308105], [-1.8278754949569702, -0.9475017786026001, -0.8734270930290222], [-1.6413992643356323, -1.4675415754318237, 0.09703632444143295]], [[-0.6398369073867798, 0.4626631438732147, -0.16225838661193848], [-1.1135388612747192, -1.1142195463180542, -1.0785092115402222], [-1.72970449924469, -1.558140754699707, -1.1686691045761108]], [[1.8131674528121948, -0.5041773915290833, -2.38519024848938], [3.2698163986206055, 0.9590846300125122, -2.860459327697754], [0.9052848815917969, 0.9579488635063171, 0.609230637550354]]], [[[0.6831951141357422, -0.09745030850172043, -0.15059132874011993], [0.15595652163028717, -0.19593164324760437, -0.458559513092041], [0.2317827045917511, -0.05581922084093094, -0.025936469435691833]], [[-0.207079216837883, -0.8972800374031067, -1.1351174116134644], [0.22090020775794983, -0.7256990075111389, -1.2582976818084717], [1.0520573854446411, 0.39058253169059753, -0.08253862708806992]], [[0.5676025152206421, 1.231227993965149, 1.911034345626831], [-0.1284145712852478, 1.8133338689804077, 1.8192745447158813], [-0.19331058859825134, 1.3510886430740356, 0.9429855942726135]], [[0.14905785024166107, -0.015406403690576553, 0.26297470927238464], [0.8159005641937256, 0.9520294070243835, 1.121472954750061], [0.9247415661811829, 1.1593010425567627, 1.2790873050689697]], [[1.58622407913208, 0.26162680983543396, 0.1281064748764038], [0.7790507078170776, -0.03548811003565788, -0.1326802521944046], [0.5408138632774353, -0.41364967823028564, -0.7691478133201599]], [[0.49185124039649963, -0.142486572265625, -0.6162155866622925], [-0.11509702354669571, -0.2915274202823639, -1.3261631727218628], [0.6940862536430359, 0.751043975353241, -0.619454562664032]], [[0.40005677938461304, -0.6670297980308533, -0.5704017877578735], [0.8310355544090271, 0.2184922844171524, -0.02721104398369789], [1.1689369678497314, 0.5030273795127869, 0.2740940749645233]], [[-1.252637505531311, -1.610088586807251, -1.2407997846603394], [-1.1254215240478516, -1.0031421184539795, -1.2017128467559814], [0.6090152263641357, 0.776095449924469, 0.1773802936077118]], [[1.0982686281204224, -0.2529333829879761, -0.12890122830867767], [0.772836446762085, -0.4905487298965454, -0.136262446641922], [0.47162243723869324, -0.9213783144950867, -0.8466281890869141]], [[0.8527268171310425, -0.27717125415802, -0.7930352687835693], [1.423180103302002, 1.3570162057876587, 0.24854974448680878], [1.644305944442749, 1.580202579498291, 0.44840162992477417]], [[0.12319913506507874, -0.3838751018047333, 0.14038695394992828], [0.3141406774520874, -0.027413882315158844, 0.2932860851287842], [0.7824919819831848, 0.22998104989528656, 0.04448481276631355]], [[0.4402332007884979, 0.14769628643989563, 0.4025977551937103], [0.6125150322914124, 0.3550918400287628, 0.18246915936470032], [0.8117445111274719, 0.7092121839523315, -0.06873512268066406]], [[-0.7620171308517456, -0.7614538073539734, -0.2882954478263855], [0.014568457379937172, 1.4529285430908203, 1.2565231323242188], [0.8865591287612915, 1.439038634300232, 0.5068457722663879]], [[1.2282264232635498, -0.22735905647277832, 0.20633861422538757], [0.5929930806159973, -0.12251295894384384, 0.29605206847190857], [0.3591867685317993, -0.7444465160369873, -0.6170276999473572]], [[0.6739044189453125, 1.126166820526123, 1.808361291885376], [-0.05974864587187767, 1.4193191528320312, 1.9019267559051514], [-0.3600418269634247, 0.5618512630462646, 0.5406174659729004]], [[-0.1989143192768097, -1.2460662126541138, -1.6482398509979248], [0.045207928866147995, -1.1676678657531738, -1.9907149076461792], [0.5582425594329834, -0.5847482085227966, -1.1303375959396362]], [[0.16340339183807373, -0.4629955291748047, -0.4636542797088623], [-0.05316489562392235, -0.4218003451824188, -0.6064602136611938], [-0.01638006791472435, -0.08570457994937897, -0.3677498996257782]], [[1.6634881496429443, 0.16111576557159424, 0.34914952516555786], [0.8892813324928284, 0.7767080068588257, 0.9904665350914001], [1.2703005075454712, 0.793911337852478, 0.9604299068450928]], [[-0.7780823707580566, -1.1077919006347656, -0.5398778319358826], [-0.5567693710327148, -0.06447600573301315, 0.5774378180503845], [-0.39972811937332153, 0.2764611542224884, 1.2695945501327515]], [[-0.6466214060783386, -0.6797196269035339, -0.5533725023269653], [-0.12048076093196869, 1.4649156332015991, 1.3435735702514648], [0.5931195020675659, 1.4519561529159546, 0.65961092710495]], [[0.10831034928560257, -0.16492559015750885, -0.23909065127372742], [0.7778327465057373, 0.00122436776291579, -0.24877846240997314], [1.0852760076522827, 0.2816765308380127, -0.2705380618572235]], [[0.3356904685497284, 0.2243196666240692, 0.33063021302223206], [0.857885479927063, 0.7998961210250854, 0.815955400466919], [0.7576010227203369, 0.736632227897644, 0.6088219881057739]], [[-0.06351640820503235, -0.555579662322998, -0.05286363884806633], [0.0688992515206337, -0.18396656215190887, 0.03469518572092056], [1.3461352586746216, 0.7961564660072327, 0.3818731904029846]], [[0.21165120601654053, -0.39193037152290344, -0.6590316295623779], [0.8017167448997498, 0.07755178213119507, -0.5296704769134521], [1.3926987648010254, 0.791293740272522, -0.02194676175713539]], [[0.9377789497375488, 0.7658770680427551, 0.8996981978416443], [-0.32083263993263245, 0.1133522167801857, -0.3060915768146515], [-0.3977285623550415, 0.26855719089508057, -0.5919985771179199]], [[-0.032189954072237015, -1.047220230102539, -1.4732847213745117], [0.4269088804721832, -0.8293211460113525, -1.5627943277359009], [0.9637470245361328, -0.22260716557502747, -0.9142052531242371]], [[0.38111135363578796, -0.3080250024795532, -1.435851812362671], [0.040997229516506195, -0.4657710790634155, -2.7722840309143066], [0.7688468098640442, 0.5223420262336731, -2.364959716796875]], [[1.5774025917053223, -0.13766533136367798, 0.21970370411872864], [1.058804988861084, 0.7580590844154358, 1.2230544090270996], [1.4397474527359009, 1.0501456260681152, 1.2832022905349731]], [[0.9930324554443359, 0.07656265050172806, 0.4179396629333496], [0.4661470353603363, 0.10127004981040955, 0.5214205980300903], [0.5372395515441895, -0.1917634904384613, 0.8520342111587524]], [[0.560504138469696, -0.38915860652923584, -0.24777525663375854], [0.9210660457611084, 0.0030765661504119635, 0.02734202705323696], [1.8710105419158936, 1.3295352458953857, 1.0471210479736328]], [[0.1832560896873474, -1.2094124555587769, -1.2432736158370972], [1.3376187086105347, 0.09528356045484543, -0.12152427434921265], [2.1946935653686523, 0.9506511092185974, 0.8763645887374878]], [[-0.38061439990997314, -0.9917095303535461, -1.1464486122131348], [0.6100170612335205, -0.31684330105781555, -0.8491390943527222], [1.6939852237701416, 0.8619450926780701, 0.16817134618759155]], [[0.17981185019016266, -0.7691132426261902, -2.0254878997802734], [-0.43983161449432373, -0.797157883644104, -2.8605129718780518], [0.742206871509552, 0.5079426765441895, -1.485270380973816]], [[0.8347555994987488, -0.49907293915748596, -0.24379834532737732], [0.2446904182434082, -0.534032940864563, -0.1652660071849823], [0.2251465767621994, -0.7131316661834717, -0.4802566468715668]], [[0.9787569046020508, 0.024510381743311882, 0.17493394017219543], [0.9507846832275391, 0.06117749214172363, 0.021190334111452103], [1.651637077331543, 1.2186987400054932, 0.9944114089012146]], [[-0.3941499590873718, -0.45698297023773193, -0.3725239336490631], [-0.37256187200546265, 1.0662089586257935, 0.6470017433166504], [0.07847026735544205, 0.8536128401756287, -0.010675922967493534]], [[0.5443600416183472, -0.3522208034992218, -0.28015565872192383], [0.5641304850578308, -0.4766903817653656, -0.6931832432746887], [0.5964552164077759, -0.12928344309329987, -0.6436601281166077]], [[1.1196836233139038, -0.007953713648021221, -0.12298233062028885], [0.7397382855415344, -0.28342172503471375, -0.6056573987007141], [1.171128749847412, 0.4260398745536804, 0.09069684892892838]], [[1.770655870437622, 0.7722558975219727, 0.82362300157547], [1.7464512586593628, 1.0325087308883667, 0.9465348720550537], [1.83445405960083, 1.4704840183258057, 1.1976031064987183]], [[0.7099342942237854, -0.4940263628959656, -0.14033618569374084], [0.20876501500606537, -0.4476334750652313, -0.24841395020484924], [0.4737488031387329, -0.45601892471313477, -0.4693545699119568]], [[0.39468392729759216, -1.1954550743103027, -1.2553519010543823], [0.9881064891815186, -0.8114060759544373, -1.1627436876296997], [1.5884102582931519, 0.39668774604797363, 0.22774510085582733]], [[0.4989129304885864, -0.22316747903823853, -0.1397126317024231], [-0.01262335479259491, -0.07112737745046616, -0.44115597009658813], [0.009661524556577206, -0.19786761701107025, -0.1368553340435028]], [[0.07474974542856216, -0.5700706839561462, 0.1204800233244896], [-0.24562662839889526, -0.44095221161842346, 0.10151509195566177], [-0.1667437106370926, -0.5029104351997375, -0.0988483726978302]], [[1.5140740871429443, 0.5463812947273254, 0.6998633146286011], [0.8275738954544067, 0.2905115783214569, 0.5564060807228088], [0.7357735633850098, 0.1292078047990799, 0.7556659579277039]], [[0.20450450479984283, -0.29567283391952515, -1.4650951623916626], [-0.49906638264656067, -0.5615236759185791, -1.8426374197006226], [0.38414865732192993, 0.4188598692417145, -0.5089030861854553]]], [[[0.6227346062660217, -0.14843396842479706, -0.5534217357635498], [0.49527508020401, 0.1722424030303955, -0.28815072774887085], [-1.0162160396575928, -0.6551203727722168, -0.5224695801734924]], [[-0.1264444887638092, -0.17762857675552368, 0.21357619762420654], [0.18569859862327576, 0.8468995690345764, 1.0401710271835327], [-1.803520679473877, -1.195449948310852, -0.875058114528656]], [[1.340764045715332, 1.1187646389007568, -0.6581608653068542], [0.44051167368888855, 1.0743805170059204, 0.0391697883605957], [-1.084776759147644, -0.2591384947299957, -0.3198148012161255]], [[0.4186360239982605, 0.13327465951442719, -0.3092983067035675], [1.3177111148834229, 1.5527092218399048, 0.45057177543640137], [0.38378894329071045, 0.7159356474876404, -0.19737564027309418]], [[-0.10202837735414505, 0.4486810863018036, 0.5535194277763367], [0.28954365849494934, 0.4336594343185425, 0.616283118724823], [-0.6963228583335876, -0.6826396584510803, -0.2629905939102173]], [[0.6063003540039062, 1.432865858078003, 1.1598628759384155], [1.3304494619369507, 1.6293728351593018, 1.2619915008544922], [-1.0823495388031006, -1.4078527688980103, -1.1055102348327637]], [[-1.465341567993164, -0.5746051669120789, -0.25849923491477966], [0.02775821089744568, -0.03018655814230442, -0.7029750347137451], [0.5313379168510437, -0.35218915343284607, -1.0575588941574097]], [[-0.8702419996261597, -0.5046905279159546, -0.09666086733341217], [0.21377037465572357, 0.5630038380622864, 0.4627053439617157], [-1.8502439260482788, -2.1245620250701904, -1.9888960123062134]], [[-0.2959132194519043, 0.644917368888855, 1.1365658044815063], [1.036821961402893, 2.5617618560791016, 2.472250461578369], [0.01278406847268343, 0.9207468032836914, 1.1665250062942505]], [[-1.729295015335083, -0.26254594326019287, 0.0680052861571312], [-0.16758951544761658, 0.0996730849146843, 0.10109446197748184], [0.3153798282146454, -0.5502732396125793, -0.4239007830619812]], [[-0.8349044919013977, -0.6202455163002014, -0.81593918800354], [1.3872004747390747, 1.9425909519195557, 0.3389686048030853], [-0.8647046089172363, -0.533979594707489, -1.3021255731582642]], [[-0.08361440896987915, 0.08140000700950623, -0.5319138765335083], [0.8087169528007507, 1.9735785722732544, 0.19848361611366272], [-1.1191779375076294, -0.048009566962718964, -1.0326420068740845]], [[-1.014497995376587, -0.5902480483055115, -0.6029635667800903], [0.12391140311956406, 0.20456452667713165, -0.40212830901145935], [0.3426467478275299, 0.7387006878852844, -0.3439142107963562]], [[-0.013273748569190502, 0.47793471813201904, 0.3889614939689636], [0.35186144709587097, 0.7098255753517151, 0.512289822101593], [-1.0376405715942383, -0.9665876030921936, -0.43154752254486084]], [[1.3377774953842163, 1.0927836894989014, -0.3951452374458313], [0.4788881242275238, 1.0066173076629639, 0.22544795274734497], [-1.2404857873916626, -0.39417481422424316, -0.37521782517433167]], [[0.6028009057044983, 0.1677800416946411, 0.024124111980199814], [-0.08704535663127899, 0.1318051517009735, 0.5769531726837158], [-1.4381529092788696, -1.006887435913086, -0.5175079107284546]], [[0.9330295920372009, 0.4779707193374634, -0.41173672676086426], [0.14629365503787994, 0.4880393445491791, -0.5537911057472229], [-1.0342921018600464, -0.42975321412086487, -0.8732215166091919]], [[-1.6609054803848267, -0.3288836181163788, 0.42289474606513977], [-0.560237467288971, 0.2051314413547516, 0.16886791586875916], [-0.09173358231782913, -0.6887712478637695, -0.7310600876808167]], [[0.6207301616668701, -0.2091284692287445, -0.9470999240875244], [0.4809776842594147, 0.7642426490783691, 0.6225196123123169], [-1.445858359336853, -0.4992302656173706, -0.26656147837638855]], [[-2.753474712371826, -0.6935820579528809, -0.5769661068916321], [-0.6238781213760376, -0.11842523515224457, 0.14518149197101593], [0.9230044484138489, 0.22894501686096191, 0.7646217346191406]], [[-0.15978899598121643, 0.08639121055603027, -0.12795303761959076], [0.8467764258384705, 2.053103446960449, 1.1815659999847412], [0.7595310807228088, 1.6064711809158325, 0.856224000453949]], [[-0.09863654524087906, -0.28452378511428833, -0.8900534510612488], [1.2322778701782227, 3.1208701133728027, 1.0665491819381714], [-0.04374409094452858, 0.7325709462165833, 0.0795462504029274]], [[-0.10132838040590286, 0.32191038131713867, 0.028680523857474327], [0.47206351161003113, 0.6461079716682434, -0.07584894448518753], [0.4575565755367279, 0.40347641706466675, -0.3866592347621918]], [[-0.8524050116539001, -0.6890458464622498, -0.5824737548828125], [0.5703980922698975, 1.5802464485168457, 1.049454689025879], [-0.4119948744773865, 0.41486889123916626, -0.18408218026161194]], [[0.9839258193969727, 0.8507842421531677, -0.15087515115737915], [0.22030314803123474, 0.44766682386398315, 0.11680711805820465], [-0.8001973032951355, -0.6890000104904175, -0.6674016118049622]], [[0.35516488552093506, 0.11570251733064651, 0.030511777848005295], [0.27379992604255676, 0.4749588370323181, 0.19171138107776642], [-0.5224133133888245, -0.11910901963710785, -0.33707696199417114]], [[-0.6131343841552734, 0.2896032929420471, 0.4703270196914673], [0.1279323846101761, 0.2506808340549469, 0.3291340470314026], [-2.2926859855651855, -2.5717549324035645, -1.830069661140442]], [[-1.2897298336029053, -0.11320959031581879, 0.7065573930740356], [-0.13882490992546082, 0.5374212861061096, 0.6301907896995544], [0.17837092280387878, -0.26351770758628845, -0.23586918413639069]], [[0.02181502804160118, -0.010947422124445438, 0.21436119079589844], [0.6211153268814087, 0.8370544910430908, 0.6388534903526306], [-0.9842306971549988, -0.39810872077941895, -0.17462609708309174]], [[-1.267298936843872, -0.9663668870925903, -0.48484933376312256], [1.564786672592163, 2.8475170135498047, 2.938523769378662], [-1.6306709051132202, -1.0394952297210693, -0.7770435214042664]], [[-0.8590098023414612, -0.5887464880943298, -0.525443971157074], [1.2797502279281616, 0.8241063356399536, -0.5264245867729187], [1.0305160284042358, 0.15784978866577148, -1.3955024480819702]], [[-0.06240449845790863, -0.3476499021053314, -0.12805286049842834], [-0.065853551030159, 0.36046114563941956, 0.0018373791826888919], [0.07937474548816681, 0.6364149451255798, -0.14233137667179108]], [[0.43386709690093994, 0.7249293327331543, 0.7606282234191895], [0.6109389066696167, 1.1548389196395874, 1.2310112714767456], [-2.1137490272521973, -1.6508876085281372, -0.9178725481033325]], [[0.515064001083374, 0.663618803024292, 0.3132712244987488], [0.9564772248268127, 0.6728978753089905, -0.302693635225296], [0.02351018786430359, -0.4839590787887573, -0.9391775131225586]], [[-0.7902657389640808, -0.8648232817649841, -0.5476759672164917], [1.1910533905029297, 2.335559844970703, 1.984279990196228], [-1.819096565246582, -0.7753350734710693, -1.17341947555542]], [[-0.6460948586463928, 0.20214860141277313, -0.11993490159511566], [0.09503906965255737, 0.4245295226573944, -0.2743285000324249], [-0.05010620877146721, 0.5344012975692749, -0.5985440015792847]], [[-0.17863419651985168, 0.3919956386089325, -0.6636667847633362], [0.6117956042289734, 1.9666582345962524, 0.6634545922279358], [-0.836799681186676, 0.1300765573978424, -0.601029634475708]], [[1.1692166328430176, 1.2554532289505005, 1.0208958387374878], [-1.0805644989013672, -1.356102466583252, -1.074340581893921], [-0.6760938167572021, -1.3341914415359497, -0.9516529440879822]], [[-0.23169320821762085, -0.01448746770620346, -0.1433858573436737], [-0.7499077320098877, 0.3730663061141968, 0.20991286635398865], [-1.1862002611160278, -0.6270880699157715, -0.6612204909324646]], [[0.41075125336647034, 0.3370903730392456, 0.1997787207365036], [0.3046112358570099, 0.0037423381581902504, -0.5484920740127563], [-0.40738844871520996, -0.34320035576820374, -0.7301635146141052]], [[-0.841340184211731, -1.0783904790878296, -0.7594808340072632], [0.2584811747074127, 0.39556077122688293, -0.03174018859863281], [-0.062489621341228485, -0.05070369690656662, -0.8918057680130005]], [[0.8063555359840393, 0.14196006953716278, -0.14353978633880615], [0.8318006992340088, 0.7053140997886658, 0.37304767966270447], [-0.6844110488891602, -0.06125348061323166, -0.004613542463630438]], [[1.3581668138504028, 0.6794127821922302, 0.036663129925727844], [0.5093234777450562, -0.05970169976353645, 0.10203085839748383], [-0.45299863815307617, -0.767598032951355, -0.05658918619155884]], [[-0.6055330038070679, -0.3927266299724579, -0.08412841707468033], [0.7930355072021484, 1.8987478017807007, 1.7020554542541504], [-1.6535897254943848, -0.5648647546768188, 0.07197260111570358]], [[-0.011900040321052074, 0.2527095377445221, 0.5690731406211853], [0.6455351710319519, 1.1621513366699219, 1.1593858003616333], [-1.2955970764160156, -1.2984057664871216, -0.9895896911621094]]], [[[-0.12005937099456787, -0.40580809116363525, -0.22060905396938324], [-0.7707522511482239, 0.5706135630607605, 0.6203761696815491], [-0.8552544713020325, -0.08906875550746918, 0.6821303963661194]], [[-0.9271899461746216, -1.1104927062988281, -0.6810581088066101], [-0.8746616244316101, 0.606773316860199, 1.0288352966308594], [-1.5182020664215088, -1.2223001718521118, -0.6010934114456177]], [[-1.4595539569854736, 0.11039040982723236, -0.03853423148393631], [-1.3204487562179565, -0.2427358329296112, 0.7634190320968628], [0.39754626154899597, -0.7151830196380615, 0.2374831587076187]], [[-1.0343631505966187, 0.38941720128059387, 0.601229727268219], [-0.8724334836006165, 1.2315486669540405, 1.0354692935943604], [-1.3911057710647583, -0.14247314631938934, -0.4709300398826599]], [[0.8027291893959045, -0.16095620393753052, 0.9936742186546326], [-1.7130495309829712, -0.37920188903808594, 0.11996779590845108], [-1.0125374794006348, -0.7206931710243225, 1.292303204536438]], [[-1.432071328163147, 0.78818678855896, 1.4449055194854736], [-1.0313527584075928, 1.2208129167556763, 2.1197290420532227], [-1.274923324584961, -0.38624197244644165, 1.14521324634552]], [[0.6879492402076721, -0.17725412547588348, 0.01629636436700821], [-0.7126182317733765, 0.40601855516433716, 0.29340314865112305], [-0.6728076338768005, -0.2782662808895111, -0.7675953507423401]], [[-1.61823308467865, 0.048454709351062775, 0.30517104268074036], [-1.509922981262207, 0.6588725447654724, 1.0722050666809082], [-1.5653668642044067, -0.7469278573989868, -0.31275856494903564]], [[0.7674781680107117, -0.30591440200805664, 0.7117782831192017], [-0.9633208513259888, 0.08641427755355835, -0.2040424644947052], [-1.7897942066192627, -0.49999600648880005, 0.9189713597297668]], [[1.1141468286514282, -1.2318472862243652, -0.3975318372249603], [0.1709686666727066, -0.24423748254776, 0.10001102834939957], [-1.643279790878296, -1.0709667205810547, -0.5680084228515625]], [[-1.3314000368118286, -0.12764613330364227, 0.5292909145355225], [-0.8053815960884094, 1.8053168058395386, 0.1308595985174179], [-0.41249510645866394, 0.6219935417175293, -0.643042266368866]], [[-1.7616969347000122, -0.49203115701675415, 0.775318443775177], [-1.1367216110229492, 0.9873901009559631, 0.9145296812057495], [-0.2268325388431549, 0.2753908932209015, 0.37491434812545776]], [[0.5121350884437561, 0.9975837469100952, -0.14468780159950256], [-1.9130901098251343, 0.4997997283935547, -0.0942331925034523], [0.015768740326166153, 0.46818438172340393, -0.8815960884094238]], [[0.8361414074897766, -0.32258570194244385, 0.9835042953491211], [-0.5424219369888306, 0.6914476752281189, 0.34784889221191406], [-1.0603673458099365, -0.6355452537536621, 0.7178569436073303]], [[-1.2707792520523071, 0.2891901135444641, 0.49230581521987915], [-1.433829426765442, -0.31296202540397644, 1.1289805173873901], [0.2305823266506195, -0.6632353067398071, 0.4100898802280426]], [[-0.324400395154953, 0.24710650742053986, 0.2999846339225769], [-0.8695094585418701, 0.653677225112915, 1.4214646816253662], [-1.3884754180908203, -0.45977383852005005, 0.9598351716995239]], [[-1.1804001331329346, -0.2107432633638382, 0.6065573692321777], [-0.9555519819259644, 0.8572097420692444, 0.6295080780982971], [-0.8328123092651367, 0.34189024567604065, 0.8101161122322083]], [[1.3738799095153809, -0.37430912256240845, -0.4919620156288147], [-0.05157923325896263, 0.40267932415008545, 0.33254367113113403], [-1.879976749420166, -0.9707423448562622, -0.43833738565444946]], [[-0.6138814091682434, 0.5523160696029663, 0.08173429220914841], [-1.0400919914245605, 0.64175945520401, 1.2707767486572266], [-0.6736772060394287, -0.31588214635849, 0.8717322945594788]], [[0.18826718628406525, -0.471636027097702, -0.06899312883615494], [-0.8122813701629639, -1.0730785131454468, 0.3073173761367798], [-0.14216119050979614, -1.4466328620910645, -1.0093523263931274]], [[-0.4130530059337616, -0.02466948889195919, 0.3615097403526306], [-1.4737575054168701, -0.4390720725059509, -0.8402533531188965], [-0.3477696478366852, 0.0776047632098198, 0.2955697774887085]], [[-1.1145519018173218, 0.26137444376945496, 0.3967714309692383], [-1.005074143409729, 0.8061740398406982, 0.8959646821022034], [-0.7976651787757874, -0.773591935634613, -0.2845691442489624]], [[-1.155989646911621, 0.03430326282978058, -0.24858854711055756], [-0.7686712741851807, 1.1345278024673462, -0.010039541870355606], [0.2909407615661621, 1.4460067749023438, -0.40260621905326843]], [[-0.32672613859176636, 0.29166972637176514, 0.8722816705703735], [-1.195563793182373, -0.25788217782974243, -0.07003775238990784], [0.18490533530712128, 0.13598603010177612, 0.0975228101015091]], [[-0.7534988522529602, -0.11737173795700073, 0.6765143871307373], [-0.6442250609397888, 0.3599967062473297, 1.7868210077285767], [0.6393914818763733, -0.3700256049633026, 1.2710436582565308]], [[-0.12127671390771866, -0.3829543888568878, -0.31889790296554565], [-0.38615477085113525, 1.5790390968322754, 1.6177594661712646], [-0.8818161487579346, 0.3876800537109375, 0.9547474980354309]], [[-0.14051453769207, 0.7931243777275085, 1.4418773651123047], [0.05504275858402252, 1.0505174398422241, 2.414524555206299], [-0.5817504525184631, 0.10708750039339066, 1.601212501525879]], [[1.2277072668075562, -0.42084068059921265, -0.5835842490196228], [-0.19983360171318054, 0.17276142537593842, -0.013274000026285648], [-1.7136149406433105, -0.9820688962936401, -0.9008833765983582]], [[0.9431197643280029, 0.2863721549510956, -0.9556164741516113], [-0.6077145338058472, 0.5489281415939331, -0.1046125516295433], [-0.663226306438446, -0.42355063557624817, -0.03897883743047714]], [[-1.0403110980987549, -1.5847749710083008, -0.48522114753723145], [-0.5858566761016846, -0.24673950672149658, 0.01826700195670128], [-1.007075309753418, -1.6640125513076782, -2.3595616817474365]], [[0.4647979438304901, 0.3050675392150879, 0.28224143385887146], [-0.9893407821655273, 1.2902895212173462, 0.6990070343017578], [-1.3884825706481934, 0.17943696677684784, -0.4882166087627411]], [[-0.5683358907699585, -0.2431541532278061, -0.06176874414086342], [-0.3385753631591797, 0.7610904574394226, 0.6235839128494263], [-0.8962666988372803, -0.05444774031639099, -0.5468762516975403]], [[-0.4165305197238922, -0.11826598644256592, 0.5542155504226685], [0.18196433782577515, 0.992249071598053, 2.4739432334899902], [-1.7558748722076416, 0.07900319248437881, 2.1277832984924316]], [[0.4991382956504822, -0.18975400924682617, 0.8557947278022766], [-0.25765880942344666, 1.033441424369812, 0.5072698593139648], [-1.5649124383926392, -0.247848242521286, 0.14633189141750336]], [[-0.5926645398139954, -0.22185267508029938, -0.38302332162857056], [-0.7466769814491272, 0.9344519376754761, 0.17832602560520172], [-0.9996584057807922, -1.0841401815414429, -1.8337454795837402]], [[0.7546287775039673, 0.9712235331535339, -0.5303698182106018], [-1.1703758239746094, 1.18206787109375, 0.1396133005619049], [0.036651961505413055, 0.9459143280982971, -0.347089558839798]], [[-1.1684398651123047, -0.12546251714229584, 1.19917631149292], [-1.3092275857925415, -0.07136241346597672, 0.7130936980247498], [0.9744382500648499, 0.9956602454185486, 1.669144630432129]], [[-0.5322169065475464, -1.2830687761306763, -0.07339196652173996], [-1.7000724077224731, -1.0257279872894287, 0.4485046863555908], [-0.7962151765823364, -0.2848396897315979, 1.4207974672317505]], [[-0.047684624791145325, -0.6528281569480896, -0.21874375641345978], [-1.500081181526184, -1.1861916780471802, -0.7599114775657654], [-1.167899489402771, -0.6641504764556885, -0.7986658215522766]], [[0.6770191788673401, 0.462639182806015, 0.016266340389847755], [-1.1145899295806885, 0.6174660325050354, -0.07662636786699295], [0.02890760824084282, 1.242344856262207, 0.21530374884605408]], [[0.4803120791912079, -0.4799957871437073, -1.0187536478042603], [-0.6480228304862976, 0.45335593819618225, 0.12377854436635971], [-1.9587252140045166, -0.5554236769676208, -0.6984468698501587]], [[0.47413989901542664, -0.24372464418411255, -0.40015512704849243], [-0.7122884392738342, 0.20690633356571198, 0.6034725904464722], [-0.7106552124023438, -0.5873860120773315, 0.747746467590332]], [[-0.4166817367076874, 0.5753105878829956, 0.16631685197353363], [-1.2467767000198364, -0.19827139377593994, 0.3298238217830658], [0.1527353823184967, -0.5636919140815735, -0.6252397298812866]], [[0.4304603636264801, 0.32010161876678467, -0.2955188453197479], [-0.48386457562446594, 0.9197906255722046, 0.8642037510871887], [-1.1944652795791626, -0.8064886927604675, 0.017426960170269012]], [[-0.3905836343765259, -0.11222672462463379, 0.19969093799591064], [0.28423383831977844, 0.5992746949195862, 2.0980136394500732], [-1.3392114639282227, -0.11629675328731537, 1.4072068929672241]]], [[[-0.17718863487243652, -0.09291689097881317, -0.06959635764360428], [-0.1818820685148239, -0.17283420264720917, -0.16664674878120422], [-0.15692734718322754, -0.15807382762432098, -0.20969493687152863]], [[-0.16723336279392242, -0.23664456605911255, -0.07392822206020355], [-0.2590356767177582, -0.36895987391471863, -0.18892915546894073], [-0.13312789797782898, -0.1795729696750641, -0.19869092106819153]], [[-0.1243932694196701, -0.05528471618890762, -0.03924361988902092], [0.015899090096354485, -0.05190569534897804, 0.023238984867930412], [-0.08404670655727386, -0.09478422999382019, -0.18345482647418976]], [[-0.09459824860095978, -0.0852583646774292, -0.0787767693400383], [-0.07025545090436935, -0.05133774131536484, -0.10183023661375046], [-0.05078509449958801, -0.11073243618011475, -0.1429104208946228]], [[-0.45049574971199036, -0.4107349216938019, -0.3118031620979309], [-0.299509197473526, -0.45926445722579956, -0.3557734191417694], [-0.3525259494781494, -0.28413864970207214, -0.12778164446353912]], [[-0.020530711859464645, 0.01829470507800579, 0.01118774525821209], [-0.02658158726990223, -0.01511405035853386, 0.012823991477489471], [-0.034282535314559937, 0.0489811971783638, -0.10068801790475845]], [[-0.13662296533584595, -0.17634163796901703, -0.025004971772432327], [-0.1290896087884903, -0.1960451751947403, -0.1553587168455124], [-0.12156134843826294, -0.17287585139274597, -0.1508672535419464]], [[0.02527502551674843, 0.019189318642020226, 0.02264312468469143], [0.058979377150535583, 0.03820011392235756, 0.02149350941181183], [-0.017189469188451767, -0.010155250318348408, 0.04104594141244888]], [[-0.18504206836223602, -0.08160006999969482, -0.09101824462413788], [-0.13086915016174316, -0.29046615958213806, -0.14495164155960083], [-0.1859373301267624, -0.10695409774780273, 0.014506276696920395]], [[-0.0966528132557869, 0.01494037639349699, -0.10653465241193771], [-0.026941334828734398, -0.0850115567445755, -0.16491234302520752], [0.07511122524738312, -0.035982679575681686, -0.008128651417791843]], [[-0.3022138774394989, -0.2139599472284317, -0.11790136247873306], [-0.13990065455436707, -0.28946930170059204, -0.24316063523292542], [-0.2848387658596039, -0.16445405781269073, -0.0765746533870697]], [[-0.13818684220314026, -0.1607900708913803, -0.07757747918367386], [-0.04112071171402931, -0.06918469071388245, -0.10641022771596909], [-0.13677769899368286, -0.09459269791841507, -0.14450079202651978]], [[-0.11524525284767151, -0.1553819626569748, -0.09060671180486679], [-0.096328966319561, -0.12967373430728912, -0.085300013422966], [-0.16761615872383118, -0.14556705951690674, -0.008574829436838627]], [[-0.33188334107398987, -0.3663250505924225, -0.1972108781337738], [-0.18549244105815887, -0.34530264139175415, -0.34317025542259216], [-0.26148509979248047, -0.25151363015174866, -0.020261317491531372]], [[-0.27944907546043396, -0.11033695936203003, -0.1448579877614975], [-0.131031334400177, -0.14017486572265625, -0.010743683204054832], [-0.13993853330612183, -0.10528890788555145, 0.06443783640861511]], [[-0.020857051014900208, -0.03594076633453369, -0.13587026298046112], [0.07857155799865723, 0.010500227101147175, -0.02319907397031784], [0.10382702201604843, 0.07814729958772659, -0.06324402987957001]], [[-0.08572778850793839, -0.0816468670964241, -0.07792530208826065], [-0.0649104043841362, -0.12781208753585815, -0.09829545766115189], [-0.03333831578493118, -0.09068608283996582, -0.09159593284130096]], [[-0.11118590831756592, -0.08255882561206818, 0.07106873393058777], [-0.20772600173950195, -0.2970985770225525, -0.2021423876285553], [-0.27602970600128174, -0.3019949495792389, -0.04578764736652374]], [[-0.23724102973937988, -0.1349957138299942, -0.0512259341776371], [-0.15548433363437653, -0.140022873878479, -0.01853254623711109], [-0.08247427642345428, -0.07089850306510925, 0.023797856643795967]], [[-0.3023902177810669, -0.1329287588596344, -0.03576986491680145], [-0.24289727210998535, -0.1673973798751831, -0.13861693441867828], [-0.2222834974527359, -0.10850946605205536, -0.13037808239459991]], [[-0.04961764067411423, -0.048198264092206955, -0.11090055108070374], [-0.04309338331222534, -0.1182350218296051, -0.10991774499416351], [0.04578644782304764, 0.007138403132557869, 3.20102003570355e-06]], [[-0.2257779985666275, -0.2555522620677948, -0.18970967829227448], [-0.1785125881433487, -0.11864293366670609, -0.20525695383548737], [-0.09232056885957718, -0.2014494240283966, -0.13549643754959106]], [[-0.08009986579418182, -0.13086402416229248, -0.04121135547757149], [-0.09364642202854156, -0.14936339855194092, -0.0722045749425888], [-0.06602554768323898, -0.11437996476888657, -0.1538408249616623]], [[-0.0258294939994812, -0.03156900778412819, -0.04691995307803154], [-0.0062291789799928665, 0.014822161756455898, -0.062191225588321686], [-0.02877306379377842, -0.056225426495075226, -0.12083687633275986]], [[-0.1883392035961151, -0.0882956013083458, -0.032870836555957794], [-0.13281701505184174, -0.11664637923240662, -0.04334177449345589], [-0.08939710259437561, -0.11435025185346603, -0.031044600531458855]], [[-0.06110737845301628, -0.14322739839553833, -0.06874421238899231], [-0.15875479578971863, -0.18826095759868622, -0.11318393051624298], [-0.0824267715215683, -0.16175109148025513, -0.1769239753484726]], [[-0.13952745497226715, -0.1606328785419464, -0.061312127858400345], [-0.12250010669231415, -0.13325262069702148, -0.1469452977180481], [-0.11129036545753479, -0.05288855731487274, -0.13445226848125458]], [[-0.0671183168888092, -0.12102707475423813, 0.024239184334874153], [-0.049406133592128754, -0.1111549586057663, -0.024919116869568825], [-0.11624466627836227, -0.09940400719642639, 0.01017554011195898]], [[-0.11034684628248215, -0.15593992173671722, 0.004985450301319361], [-0.05928805097937584, -0.060438305139541626, -0.03777820244431496], [-0.050637874752283096, -0.12798993289470673, -0.05756277218461037]], [[-0.011733108200132847, 0.030508683994412422, -0.023653477430343628], [0.08933144062757492, -0.00497520761564374, -0.03396332263946533], [0.03192327171564102, 0.055366210639476776, -0.024172155186533928]], [[-0.043228879570961, -0.13935387134552002, 0.022422129288315773], [-0.05721146613359451, -0.10118880867958069, -0.12155415862798691], [-0.06635536998510361, -0.09488240629434586, -0.08715687692165375]], [[-0.0496608167886734, -0.04958881810307503, -0.06334955990314484], [0.02912510745227337, 0.10120700299739838, -0.034906867891550064], [0.0365128219127655, -0.02483845315873623, -0.11975634098052979]], [[-0.1207173615694046, -0.03574560582637787, 0.022620443254709244], [0.0014884554548189044, -0.046012070029973984, 0.1339569389820099], [-0.1337246298789978, -0.19598187506198883, -0.09310605376958847]], [[-0.07289885729551315, -0.15237516164779663, -0.013013274408876896], [-0.028733404353260994, -0.08962476253509521, -0.0944616049528122], [-0.08101430535316467, -0.07674780488014221, -0.17402350902557373]], [[-0.06276091933250427, -0.04731692373752594, -0.009147081524133682], [-0.18858122825622559, -0.2055930197238922, -0.17577674984931946], [-0.07060583680868149, -0.23349493741989136, -0.1952345222234726]], [[-0.3282226622104645, -0.2663525342941284, -0.30075085163116455], [-0.3673584759235382, -0.21527382731437683, -0.2156084179878235], [-0.0802699625492096, -0.09232548624277115, -0.03630056232213974]], [[-0.13715587556362152, -0.02472364343702793, -0.06003868952393532], [-0.07653094828128815, -0.08105744421482086, -0.13705027103424072], [0.017204662784934044, -0.05969936400651932, -0.09650391340255737]], [[-0.08014170825481415, -0.0554783008992672, -0.1558169722557068], [0.03779631108045578, -0.024248197674751282, -0.07974830269813538], [0.05685580149292946, -0.0005397382192313671, -0.019335912540555]], [[0.010885100811719894, 0.06060653179883957, -0.026298481971025467], [0.10126340389251709, 0.1087072342634201, 0.018699806183576584], [0.06179754436016083, 0.08800297230482101, 0.10916399210691452]], [[-0.09462004899978638, -0.07384178787469864, -0.1514989584684372], [-0.10826808214187622, -0.08089359849691391, -0.20686234533786774], [-0.13057154417037964, -0.10934189707040787, -0.089385025203228]], [[-0.06350034475326538, -0.12972086668014526, -0.07834623754024506], [-0.0016756652621552348, -0.00926376786082983, 0.015227044932544231], [-0.0941983163356781, -0.08935968577861786, -0.162105992436409]], [[-0.19937972724437714, -0.09150594472885132, -0.05532495677471161], [-0.20173919200897217, -0.13584423065185547, -0.07133739441633224], [-0.05581549555063248, -0.09404288977384567, -0.16621309518814087]], [[-0.07676688581705093, -0.10501303523778915, -0.07769902795553207], [0.0021752517204731703, -0.03444434702396393, -0.03806408867239952], [-0.004929156508296728, -0.04456007853150368, -0.11189983785152435]], [[-0.20023027062416077, -0.24183005094528198, -0.2369207739830017], [-0.1984420269727707, -0.2517944276332855, -0.1636291891336441], [-0.14864307641983032, -0.2059248983860016, -0.07935190945863724]], [[-0.05474771186709404, 0.019236883148550987, -0.032787010073661804], [0.09099030494689941, 0.044122811406850815, 0.07811197638511658], [0.008224563673138618, 0.04131418466567993, -0.058844856917858124]]], [[[-0.06739189475774765, -0.10926804691553116, -0.024137437343597412], [-0.030604403465986252, -0.04890773445367813, -0.10401404649019241], [-0.04831790551543236, 0.026427067816257477, -0.04603857174515724]], [[-0.09605066478252411, 0.02349764294922352, -0.012092809192836285], [-0.09205666929483414, -0.1093943789601326, -0.03481651097536087], [0.016551131382584572, 0.03665849193930626, 0.025493118911981583]], [[0.03009800799190998, -0.07929522544145584, -0.025620773434638977], [-0.05885406956076622, -0.09476640075445175, -0.08993139117956161], [-0.02047574520111084, -0.04518777132034302, -0.09882495552301407]], [[-0.09175305813550949, -0.11622271686792374, 0.08463796228170395], [-0.08225657790899277, -0.0661005973815918, -0.05889461189508438], [-0.08484094589948654, -0.048026274889707565, 0.04100295901298523]], [[-0.10686123371124268, 0.026690732687711716, 0.010008323937654495], [-0.06469336152076721, -0.0837273821234703, -0.002073014620691538], [-0.0995229184627533, -0.04406388849020004, -0.09051806479692459]], [[-0.019314702600240707, -0.07167243957519531, -0.08312658220529556], [0.06435360014438629, -0.09634745866060257, -0.01963043585419655], [-0.02090497501194477, -0.06588349491357803, -0.050236836075782776]], [[-0.030144957825541496, 0.0035336152650415897, 0.03656197711825371], [-0.06345298141241074, -0.11361431330442429, -0.017309371381998062], [-0.008582971058785915, 0.003486580913886428, -0.06363049894571304]], [[-0.03566158935427666, 0.020375162363052368, -0.014870509505271912], [0.024436505511403084, 0.03432951867580414, -0.009713569656014442], [-0.01841537281870842, -0.07770553231239319, -0.014421236701309681]], [[-0.07326249778270721, 0.06868771463632584, -0.041658274829387665], [0.009898475371301174, -0.009593185037374496, -0.030346931889653206], [-0.03473115712404251, -0.12532645463943481, -0.020800791680812836]], [[-0.09731215238571167, -0.08724500983953476, 0.0014548361068591475], [0.021762851625680923, -0.09639687836170197, -0.020400531589984894], [-0.06416424363851547, -0.13880103826522827, -0.09516320377588272]], [[-0.07397246360778809, 0.0705137774348259, -0.03777974471449852], [-0.087531179189682, -0.09136033803224564, -0.064995177090168], [0.061174776405096054, -0.13923516869544983, -0.04466112330555916]], [[-0.10973883420228958, 0.073246069252491, 0.06577078998088837], [-0.07265147566795349, -0.11042056232690811, -0.09480223059654236], [-0.09490332007408142, -0.07542069256305695, 0.09173338115215302]], [[-0.005381000693887472, 0.034233491867780685, -0.06304492056369781], [0.023259134963154793, -0.02573389746248722, -0.042194828391075134], [-0.036053214222192764, -0.05487919971346855, -0.07707470655441284]], [[-0.11857467144727707, -0.0040779514238238335, 0.0010139381047338247], [-0.09582837671041489, -0.12978287041187286, -0.0892522782087326], [-0.09569627791643143, -0.10311134904623032, -0.04522654786705971]], [[0.027595842257142067, -0.10149520635604858, -0.02959321066737175], [-0.0780295804142952, -0.03232353925704956, -0.08653615415096283], [-0.07235807180404663, 0.021136146038770676, 0.08995410054922104]], [[0.03204546868801117, -0.09708373248577118, -0.012132294476032257], [0.00717880018055439, -0.07316616922616959, -0.045437704771757126], [-0.023517055436968803, -0.030747197568416595, -0.0554593950510025]], [[-0.08929219096899033, -0.057753805071115494, 0.1090775802731514], [-0.06335801631212234, -0.03848760947585106, -0.0076392353512346745], [-0.07142650336027145, -0.026704365387558937, 0.03514304757118225]], [[-0.08702568709850311, -0.04546952247619629, -0.021659424528479576], [-0.05931287258863449, -0.0628136545419693, -0.049901243299245834], [0.014576924033463001, -0.0713466927409172, -0.09943193197250366]], [[0.005632655695080757, -0.12104462832212448, -0.04308860003948212], [-0.03495663404464722, -0.06926038861274719, -0.0012470957590267062], [-0.10535886138677597, 0.0683014914393425, 0.1277218759059906]], [[0.07295038551092148, -0.07833922654390335, -0.0053670359775424], [0.026020972058176994, -0.06099434942007065, -0.02512190118432045], [-0.13208554685115814, -0.14849281311035156, -0.04223228618502617]], [[-0.05822872370481491, -0.05376167222857475, -0.012463998980820179], [-0.027674630284309387, 0.03422160819172859, 0.07323841750621796], [-0.1034107580780983, -0.03940758854150772, -0.04726318642497063]], [[0.003329387865960598, -0.02517547644674778, 0.11953090876340866], [-0.085377037525177, -0.027163684368133545, -0.049640726298093796], [-0.08823448419570923, -0.05856747180223465, -0.08716167509555817]], [[-0.0984622985124588, -0.1081850603222847, 0.11775579303503036], [-0.019338436424732208, -0.08534013479948044, -0.07632435858249664], [-0.04199223965406418, 0.02660425379872322, 0.0381808765232563]], [[-0.029038740321993828, -0.0360209159553051, 0.07495218515396118], [0.010290421545505524, -0.0674135833978653, -0.07513212412595749], [-0.05553554743528366, -0.052316728979349136, -0.041461389511823654]], [[0.0245937742292881, -0.08715782314538956, -0.07298242300748825], [-0.0873497799038887, -0.11211130023002625, -0.039417486637830734], [-0.08601481467485428, -0.11038098484277725, 0.032197244465351105]], [[0.027370857074856758, -0.021964680403470993, -0.08753632754087448], [-0.06933612376451492, -0.04473090171813965, -0.09816150367259979], [-0.06756728887557983, -0.08328565210103989, -0.08505933731794357]], [[0.03557918593287468, -0.09675147384405136, -0.04939086362719536], [-0.09011425822973251, -0.05727988854050636, -0.01301087997853756], [-0.021564526483416557, -0.09641285985708237, -0.04506378620862961]], [[-0.12977439165115356, -0.054794792085886, -0.06403294950723648], [-0.1138942688703537, -0.12135335057973862, -0.09435871243476868], [0.02139587514102459, -0.0811089351773262, -0.037001900374889374]], [[-0.07236535847187042, -0.09582081437110901, 0.060229554772377014], [-0.09228327870368958, -0.1114906370639801, -0.024697165936231613], [-0.07019495218992233, -0.05205363780260086, 0.008761174976825714]], [[0.025102585554122925, -0.019397610798478127, -0.08226960152387619], [0.020588716492056847, -0.014217527583241463, -0.07315359264612198], [-0.027590574696660042, -0.061757225543260574, -0.060490913689136505]], [[-0.11298514157533646, -0.04702693969011307, 0.06644845753908157], [-0.08987447619438171, -0.08029241859912872, -0.05025783181190491], [-0.07842478901147842, -0.022258924320340157, 0.0334189236164093]], [[0.016249407082796097, -0.06452187150716782, -0.03807870298624039], [-0.11099260300397873, -0.08737388998270035, -0.06904737651348114], [-0.05404670163989067, -0.079833984375, -0.022101180627942085]], [[0.003149388125166297, -0.10916858166456223, -0.03356107324361801], [-0.10464856773614883, -0.07946937531232834, -0.02294989675283432], [-0.09204918146133423, -0.005543156992644072, 0.030610911548137665]], [[-0.046280667185783386, -0.10637624561786652, 0.04560009390115738], [-0.09140779823064804, -0.020437372848391533, -0.06840352714061737], [-0.046103980392217636, -0.128138467669487, 0.014009947888553143]], [[-0.07199229300022125, -0.031464800238609314, -0.029902281239628792], [-0.03998878598213196, -0.042842622846364975, -0.054623864591121674], [-0.061894435435533524, -0.07972166687250137, -0.0979754850268364]], [[-0.0634685605764389, 0.07856599241495132, -0.08373728394508362], [0.02620927058160305, -0.004290138371288776, -0.04996092617511749], [-0.1089160144329071, -0.10903941839933395, -0.012719952501356602]], [[0.04412240907549858, -0.07316672801971436, 0.06801234930753708], [0.01364885363727808, -0.0826866552233696, -0.09467580169439316], [-0.09661675244569778, -0.048615116626024246, -0.07269954681396484]], [[0.05011724308133125, -0.05316586047410965, -0.09575530886650085], [0.07144895941019058, -0.09902134537696838, -0.014051556587219238], [-0.05400052294135094, -0.11683841049671173, -0.01848597265779972]], [[0.0034665644634515047, -0.02726895920932293, -0.09664122015237808], [0.010642558336257935, 0.024085048586130142, -0.10455986112356186], [-0.03957996144890785, -0.08160560578107834, -0.0427570566534996]], [[-0.023677196353673935, 0.049848832190036774, -0.04970329627394676], [0.07820732891559601, 0.022008970379829407, -0.08927326649427414], [-0.05101998150348663, -0.09939554333686829, -0.09081245213747025]], [[-0.14567126333713531, -0.023269087076187134, -0.06727274507284164], [-0.024049941450357437, -0.03649746999144554, -0.04176334664225578], [-0.03196203336119652, -0.03772636130452156, -0.07123873382806778]], [[0.02251318097114563, -0.09918142110109329, -0.06096450239419937], [-0.04949170723557472, -0.07887420803308487, -0.07657022774219513], [-0.0407772958278656, -0.004792287480086088, 0.12167678773403168]], [[0.05424101650714874, -0.03993372619152069, -0.04737447574734688], [0.06514587998390198, -0.06829872727394104, -0.09979335963726044], [-0.043521422892808914, -0.10232816636562347, -0.07855170965194702]], [[-0.08703628927469254, -0.10405553132295609, 0.017929257825016975], [-0.058361396193504333, -0.07406985759735107, -0.014719263650476933], [-0.052675724029541016, -0.11800393462181091, -0.07764298468828201]], [[0.0074735223315656185, -0.07785400748252869, -0.09079867601394653], [-0.03194069489836693, -0.07252825051546097, -0.06680212914943695], [-0.09053557366132736, -0.039544861763715744, -0.01855853572487831]]], [[[-1.0335146188735962, 0.4868868589401245, 0.9100810885429382], [0.2228645533323288, -0.5457363724708557, 0.6458845138549805], [1.0484570264816284, -0.17286361753940582, -0.24883632361888885]], [[-0.45851194858551025, -0.8253535628318787, 0.18778564035892487], [0.26840704679489136, -0.4618779122829437, -0.1974678784608841], [0.00777012063190341, 0.136694073677063, -0.8641663193702698]], [[0.02974001318216324, -1.3804224729537964, -0.3186839818954468], [0.4825078547000885, 0.7073765993118286, -0.25718042254447937], [0.02252791076898575, 0.15525077283382416, 0.2363968789577484]], [[-0.5659278631210327, 1.1692348718643188, 0.2658243775367737], [0.1603274792432785, -0.012927286326885223, 0.25349628925323486], [0.7309261560440063, -0.8649605512619019, -0.07357325404882431]], [[-1.2550510168075562, -1.395264744758606, -0.2727155387401581], [0.6225647330284119, -1.3446098566055298, -0.06252793967723846], [0.7224205136299133, -0.259464293718338, -0.8319023847579956]], [[0.3933134377002716, 1.6437500715255737, -0.7345142364501953], [0.3918047249317169, 2.1736955642700195, -0.4796644449234009], [0.4186531901359558, 0.49006620049476624, 0.06083841994404793]], [[1.0665034055709839, 1.2159367799758911, -0.5471656918525696], [-1.1609086990356445, 0.6432593464851379, 0.31970351934432983], [-0.8343473076820374, -0.5027152299880981, 0.2685629725456238]], [[-1.0885077714920044, 1.1899994611740112, -0.6311771869659424], [0.1533837467432022, 1.9671653509140015, -0.9567336440086365], [1.1484328508377075, 0.18252094089984894, 0.3863973319530487]], [[-1.6329982280731201, -3.337623357772827, -0.4646560251712799], [-0.11319036781787872, -2.956804037094116, -0.8821268081665039], [0.06503812968730927, -0.5254913568496704, -0.8033037185668945]], [[1.2589234113693237, 0.39037346839904785, -0.8907382488250732], [-0.6763205528259277, 0.9776325821876526, -0.1388268619775772], [-0.6408662796020508, 0.38205528259277344, 0.36542725563049316]], [[-0.06750417500734329, 1.1578490734100342, 0.1163383200764656], [0.03079974092543125, -0.4709295630455017, 0.4585426449775696], [0.24126042425632477, -0.9315115809440613, 0.07602158933877945]], [[0.08734577149152756, 1.6049067974090576, 0.3682648241519928], [0.6748613715171814, 0.41705551743507385, -0.029317516833543777], [0.4145328104496002, -1.2483017444610596, -0.7024997472763062]], [[1.1252106428146362, 1.0817804336547852, -1.971286654472351], [0.7657471299171448, 0.6490403413772583, 0.47737759351730347], [0.4802806079387665, 0.4421325623989105, 1.1989340782165527]], [[-0.45033490657806396, -0.43969470262527466, 0.2395268678665161], [0.26609063148498535, -0.8378527760505676, 0.8224863409996033], [0.7586528658866882, 0.21322831511497498, 0.44682809710502625]], [[0.0026720669120550156, -1.0576931238174438, -0.1584700345993042], [0.39282897114753723, 0.5674967169761658, 0.32447999715805054], [-0.11445201933383942, -0.6138202548027039, 0.3842863142490387]], [[-0.25083422660827637, -1.0322703123092651, 0.40725240111351013], [-0.716073215007782, -1.4214037656784058, -1.1615530252456665], [-0.31186848878860474, -0.6338884234428406, -1.5904433727264404]], [[-0.05543477088212967, 1.1863278150558472, 0.38523727655410767], [0.5198609828948975, -0.2192842811346054, 0.10525451600551605], [0.9672300219535828, -0.7211466431617737, -0.32085907459259033]], [[0.6323757171630859, 0.4440343976020813, -1.1393171548843384], [-0.6223740577697754, 0.415755033493042, 0.30040687322616577], [-0.6486862301826477, -0.259497731924057, 0.1511147916316986]], [[-1.4639146327972412, -1.1335904598236084, 1.3860206604003906], [-0.06858021765947342, -2.295762777328491, 0.6036991477012634], [0.549759030342102, 0.08869727700948715, -0.9112555384635925]], [[0.9661099314689636, -0.5749974250793457, -1.854383111000061], [0.4921461045742035, 1.2745225429534912, -0.7094017267227173], [1.0566918849945068, 0.9205144643783569, 1.4478707313537598]], [[1.0885956287384033, -0.3388153612613678, 0.07190157473087311], [1.8580074310302734, 1.1516989469528198, -1.3443609476089478], [0.9555527567863464, 0.44914913177490234, -1.441401720046997]], [[-0.6882656812667847, 0.549221932888031, 1.0340030193328857], [0.9295175075531006, -0.8551848530769348, -0.2310081422328949], [1.5437177419662476, -0.5287367701530457, -0.8982625603675842]], [[1.3483177423477173, 2.1899423599243164, -0.711193859577179], [-0.12041854113340378, 1.038617491722107, -0.014796573668718338], [0.11882035434246063, -0.7006484866142273, 0.004723200108855963]], [[1.1312273740768433, 0.4359448552131653, 0.8772170543670654], [0.8217904567718506, 0.9096536636352539, -0.29463422298431396], [0.3592155873775482, 0.16544464230537415, -0.45968368649482727]], [[0.9184132218360901, -0.2904207110404968, 0.2627086043357849], [0.6664294004440308, 0.7817832231521606, 0.09432873129844666], [-0.49660372734069824, -0.6017560362815857, -0.29299020767211914]], [[-0.4399341344833374, 0.716032087802887, 0.5785941481590271], [-0.29808181524276733, -0.373383104801178, -0.27538052201271057], [0.10463061928749084, -0.46015891432762146, -1.083998203277588]], [[1.2245861291885376, -0.18690553307533264, -1.3985975980758667], [1.5086500644683838, 2.0326156616210938, -0.9631275534629822], [1.5170069932937622, 2.2259681224823, 1.418565034866333]], [[0.7609502673149109, 0.5682440996170044, -0.8364920020103455], [-0.5854565501213074, 0.26011550426483154, 0.44130071997642517], [-0.5056617856025696, -0.1927257776260376, 0.4047466218471527]], [[-1.8347604274749756, -0.2562137544155121, 0.8061080574989319], [-0.21658872067928314, -1.278183102607727, 0.8085461854934692], [0.7456821203231812, -0.09507371485233307, 0.11242330074310303]], [[0.5010443925857544, -0.4713338315486908, 0.04840837046504021], [0.9942175149917603, 0.32285115122795105, 0.1753709316253662], [1.4509985446929932, 1.3960250616073608, 0.5545732378959656]], [[0.6757878661155701, 1.115640640258789, 0.24117140471935272], [-1.2163807153701782, 0.07465220242738724, 0.32348504662513733], [-0.8134914636611938, -1.344126582145691, 0.0012749750167131424]], [[0.3706386685371399, 0.5142577290534973, 0.8918026685714722], [0.04083965718746185, 0.26586630940437317, -0.7403090596199036], [1.0364837646484375, 0.055889565497636795, -0.8623558282852173]], [[1.2219690084457397, 0.5250678658485413, -1.114004373550415], [-0.10066769272089005, 2.042785167694092, -1.130381464958191], [-0.7150388360023499, -0.6059836745262146, -0.6109192967414856]], [[0.11958599835634232, 0.6746653914451599, -0.04460121691226959], [-0.9213964343070984, -0.2055368274450302, 0.8142005801200867], [-0.13382579386234283, -0.5153005719184875, 0.42211487889289856]], [[-1.0509791374206543, -0.3462698757648468, 0.0707385465502739], [0.5008292198181152, -0.4375290870666504, 0.5794742703437805], [0.7624709606170654, 0.8378734588623047, 0.2878580093383789]], [[0.26807987689971924, 0.6858765482902527, -2.0562539100646973], [0.31375929713249207, 0.14846491813659668, 0.4272361993789673], [-0.161916583776474, -0.012302784249186516, 0.6962385773658752]], [[1.278067946434021, 0.44969531893730164, 0.5216043591499329], [1.0560683012008667, 1.1310160160064697, -0.24674583971500397], [0.47363847494125366, -0.7340689301490784, -0.151643306016922]], [[0.5978094935417175, -0.2503369152545929, 0.9554101228713989], [0.5671785473823547, -0.2566603422164917, 0.036994319409132004], [0.6247881650924683, -0.3160673975944519, -1.6601877212524414]], [[0.3164270222187042, -1.4515732526779175, -0.1753624975681305], [0.7156456112861633, 0.7491508722305298, 0.36715462803840637], [0.1310383826494217, -0.13496366143226624, 0.1961584836244583]], [[-0.18067656457424164, 0.015268584713339806, -0.3106369078159332], [0.40580683946609497, -0.5884274244308472, 0.44598740339279175], [0.02619071863591671, -0.5594277381896973, 0.17689211666584015]], [[1.1321431398391724, 0.5130679607391357, -0.1413160115480423], [-0.6617659330368042, 0.7441655397415161, -0.2819783687591553], [-0.6114734411239624, -0.28819113969802856, -0.3150085508823395]], [[-0.9844703078269958, -0.11509660631418228, 1.3821120262145996], [0.2028881013393402, -1.4687113761901855, 0.7848921418190002], [0.49046188592910767, -0.5348631143569946, -0.6472498178482056]], [[-0.24335570633411407, -0.4856598377227783, 0.8156724572181702], [0.7109029293060303, -1.1522136926651, 0.5678128004074097], [1.3571012020111084, -0.604982852935791, 0.8007304072380066]], [[-1.4399802684783936, -1.1011501550674438, 0.7645921111106873], [0.4491986930370331, -0.9660675525665283, 0.5335773229598999], [0.5649860501289368, -0.08673366904258728, -0.3679565191268921]], [[1.2957273721694946, 3.099271059036255, -1.9028393030166626], [-0.05718068778514862, 3.5125837326049805, -0.3306812345981598], [0.32933029532432556, -0.04663488641381264, 0.4743325412273407]]], [[[0.6503121256828308, -0.12243808805942535, -0.13226881623268127], [0.24655964970588684, -0.455598920583725, -0.7426138520240784], [-0.002941679209470749, -0.21050764620304108, -0.17505094408988953]], [[0.6129355430603027, 1.1458616256713867, 0.39738354086875916], [0.2614099085330963, 0.9826715588569641, 0.5078534483909607], [0.2582300007343292, 0.9546070694923401, 0.616856575012207]], [[0.27627983689308167, -0.5423106551170349, -1.2652370929718018], [-0.49166616797447205, -1.9979065656661987, -2.458808183670044], [-0.1497841328382492, -0.33692291378974915, -0.9263583421707153]], [[0.5793836712837219, -0.22310210764408112, 0.45935535430908203], [0.22262154519557953, -0.5231919288635254, 0.11888482421636581], [0.9798246026039124, 0.03441353514790535, 0.3352239727973938]], [[0.6758761405944824, 0.04271813482046127, -0.7916001081466675], [0.21896785497665405, -0.30814996361732483, -1.6651276350021362], [-0.0970885157585144, 0.08830288052558899, -0.5336198210716248]], [[1.083045482635498, 1.3154343366622925, 1.2262988090515137], [0.0007465540547855198, -0.2295587807893753, -0.05134431645274162], [0.043373361229896545, -0.12225240468978882, 0.04318026825785637]], [[0.08462538570165634, -0.1962810456752777, 0.988182008266449], [-0.08166079968214035, 0.010523294098675251, 1.557275652885437], [0.20424838364124298, -0.1175445094704628, 0.5191563367843628]], [[1.1293740272521973, 2.0422580242156982, 2.2245209217071533], [-0.1734219789505005, 0.568684995174408, 0.8508669137954712], [-0.9476039409637451, -0.8248001933097839, -1.0199745893478394]], [[1.251672625541687, 0.8893887996673584, 0.17586125433444977], [0.4467182755470276, -0.06039329990744591, -1.0939689874649048], [1.125805139541626, 0.6996744275093079, -0.16774387657642365]], [[0.7331843376159668, -0.09769928455352783, 0.777353823184967], [-0.080365851521492, -1.0686312913894653, 0.3537488877773285], [0.2198033332824707, -0.55461585521698, 0.22072525322437286]], [[0.27064502239227295, 0.3282061815261841, 0.6246433854103088], [-0.4298940598964691, 0.08064234256744385, 0.40184128284454346], [0.38350507616996765, 0.10847166925668716, -0.2352120578289032]], [[0.22193105518817902, 0.2841779887676239, 0.42854437232017517], [0.08520723134279251, 0.18325623869895935, 0.7535690665245056], [0.8352714776992798, 0.31916704773902893, -0.14544637501239777]], [[0.5163803696632385, -0.25196799635887146, 1.4110658168792725], [1.2857753038406372, 0.5497008562088013, 1.933579683303833], [0.9480570554733276, 0.38130664825439453, 1.1782629489898682]], [[0.9998000264167786, -0.012668083421885967, -0.21936306357383728], [0.32273977994918823, -0.7623374462127686, -1.187658429145813], [0.6237965822219849, 0.13830868899822235, -0.07336058467626572]], [[0.2842440903186798, -0.38085976243019104, -0.9596500396728516], [-0.4203302562236786, -1.8940894603729248, -2.454136371612549], [-0.07060355693101883, -0.011274168267846107, -0.8650608062744141]], [[-0.5522388815879822, -0.2704806327819824, -0.8524060249328613], [0.4515863358974457, 0.9529601335525513, 0.43414461612701416], [0.22013726830482483, 1.1901195049285889, 0.8527218103408813]], [[0.7704214453697205, -0.05306065082550049, 0.1477641761302948], [-0.032402995973825455, -0.8204942345619202, -0.5409624576568604], [0.24966169893741608, -0.4444388747215271, -0.3379196226596832]], [[0.5117702484130859, -0.4101928770542145, 0.6306947469711304], [-0.546782374382019, -1.8529276847839355, -0.40431612730026245], [-0.038047369569540024, -1.1142175197601318, -0.2269824743270874]], [[-0.16763338446617126, -1.5427950620651245, -1.8615658283233643], [0.3593546152114868, -1.4289273023605347, -1.8964600563049316], [0.43376412987709045, 0.34197089076042175, 0.15430164337158203]], [[0.782120943069458, 0.5631726384162903, 0.5321316719055176], [1.684356451034546, 1.3489264249801636, 1.6168570518493652], [1.4281179904937744, 1.7517911195755005, 1.6949412822723389]], [[0.9231972694396973, 2.5213139057159424, 2.5877578258514404], [-0.3713996112346649, 0.9148849248886108, 0.8398537039756775], [0.29311317205429077, 0.5956791639328003, -0.3647988438606262]], [[0.7745523452758789, 0.7988747358322144, 1.0394740104675293], [-0.44670671224594116, -0.11203740537166595, 0.029811514541506767], [0.8410351276397705, 0.46968474984169006, -0.08762546628713608]], [[0.12982457876205444, 0.6022545695304871, 1.619032621383667], [-0.18025179207324982, 0.6168720722198486, 2.214843273162842], [-0.37856295704841614, -0.3885955810546875, 0.44476011395454407]], [[-0.22931255400180817, 0.5439631938934326, 1.0682367086410522], [-0.7802481055259705, 0.34908708930015564, 0.7883210182189941], [0.36451107263565063, 0.6072568297386169, -0.10727918148040771]], [[0.9187214374542236, 0.969034731388092, 1.0923134088516235], [0.2318294197320938, -0.7683603167533875, -0.4996541440486908], [0.33503636717796326, -0.1213310956954956, -0.0878438800573349]], [[-0.10474365949630737, 0.3766353130340576, 0.33777186274528503], [-0.1236225962638855, 0.5341362953186035, 0.43275201320648193], [0.35649383068084717, 1.0165328979492188, 0.8953561186790466]], [[1.8636075258255005, 0.9201933145523071, 1.231001615524292], [1.5167210102081299, -0.12148378789424896, -0.3898448944091797], [-0.33731186389923096, -1.0072424411773682, -0.674688994884491]], [[0.20171727240085602, -0.5952596664428711, 0.4751549959182739], [-0.5666910409927368, -1.6499961614608765, -0.43231871724128723], [-0.003432274330407381, -0.911922812461853, -0.21005447208881378]], [[0.2951032519340515, -0.8500586152076721, -0.6649109125137329], [0.20879313349723816, -0.9256806373596191, -1.230482578277588], [0.09205769002437592, -0.4965241849422455, -0.2921309173107147]], [[-0.4299595057964325, 1.956535816192627, 1.2079520225524902], [0.30578988790512085, 2.74631667137146, 2.3705191612243652], [-0.15956322848796844, 0.9099074602127075, 0.4133646786212921]], [[-0.27367454767227173, -0.5138461589813232, 0.6729896068572998], [-0.19780999422073364, -0.24765437841415405, 1.2624871730804443], [0.6556386351585388, -0.10143489390611649, 0.7233781218528748]], [[-0.8524441719055176, -0.5048896670341492, 0.016035236418247223], [-0.8747323155403137, 0.16117987036705017, 0.9019516110420227], [-0.5104919672012329, 0.20945274829864502, 0.5688318610191345]], [[1.1502046585083008, 0.4445938467979431, 0.6136347651481628], [0.04902653396129608, -0.5247325897216797, -0.1482856720685959], [0.27797359228134155, 0.09076350927352905, 0.06582208722829819]], [[0.5963977575302124, -0.04217894747853279, 0.5469847917556763], [0.013802504166960716, -0.9957590699195862, -0.4725387692451477], [0.8784261345863342, -0.17511695623397827, 0.04045350104570389]], [[-1.242739200592041, 0.012096679769456387, -0.34285208582878113], [-0.4095153212547302, 1.0873252153396606, 0.8583030104637146], [-0.5161946415901184, 0.257331520318985, 0.1955663561820984]], [[0.8457896709442139, 0.04383892938494682, 1.5773634910583496], [1.393654227256775, 0.3646221458911896, 1.5862752199172974], [1.0750584602355957, 0.4757402241230011, 1.3008803129196167]], [[0.3018336296081543, 1.7766050100326538, 1.6966372728347778], [-0.6483980417251587, 0.7335755228996277, 0.5780224204063416], [0.4304986596107483, 0.9044471383094788, -0.15216797590255737]], [[0.4050464928150177, 0.5210139155387878, 0.33758866786956787], [0.2857944667339325, 0.3498336672782898, 0.3419361412525177], [0.023681892082095146, 0.4377748668193817, 0.5699410438537598]], [[-0.16634157299995422, 2.200328826904297, 1.914952278137207], [0.2646808922290802, 2.469187021255493, 2.3405544757843018], [-0.7741286754608154, -0.030406350269913673, -0.42295581102371216]], [[0.1349221169948578, -0.06493877619504929, 0.08604297041893005], [-0.26999786496162415, -0.5485639572143555, -0.5850632190704346], [-0.26092812418937683, -0.21141871809959412, 0.04322558268904686]], [[-0.9598883986473083, -0.3524463474750519, 0.17557330429553986], [0.07219897955656052, 1.5008010864257812, 2.4445667266845703], [0.27233394980430603, 1.3241668939590454, 1.5640058517456055]], [[0.6517004370689392, -0.1793711632490158, -0.316606730222702], [0.4543878436088562, -0.7639449834823608, -1.073104977607727], [0.17807325720787048, -0.1253608912229538, -0.10983168333768845]], [[0.019452128559350967, -0.11296261101961136, -0.976864218711853], [0.10065050423145294, -0.5184541344642639, -1.4857810735702515], [-0.3563125431537628, 0.10591066628694534, -0.04244636744260788]], [[0.46173787117004395, -0.6161213517189026, -0.8332036137580872], [-0.015650155022740364, -0.9355528354644775, -1.4650739431381226], [0.2700716555118561, 0.12255605310201645, -0.054909102618694305]], [[0.7657694220542908, 1.2887860536575317, 1.5564576387405396], [-0.25693032145500183, 0.1678672581911087, 0.7911407351493835], [0.06540440022945404, 0.4230967164039612, 0.5270916223526001]]], [[[0.040692344307899475, 0.1001608595252037, 0.5408996343612671], [-0.5299244523048401, -0.8235706686973572, 0.4886479377746582], [0.38785192370414734, 0.5528516173362732, -0.26214951276779175]], [[-0.710372269153595, -0.906606912612915, 