weights['RES8'] = {"conv0.weight": [[[[0.6538906097412109, 0.0859738141298294, -0.39514073729515076], [-0.5737473368644714, -0.643713116645813, 0.5982376337051392], [-0.10163524001836777, 0.5222408175468445, -0.10027527064085007]]], [[[0.0718095675110817, -0.20582294464111328, -0.1876818835735321], [-0.7470369935035706, -0.5645238757133484, 0.0030314563773572445], [0.0801021084189415, 0.6456091403961182, 0.7528284788131714]]], [[[-0.349791556596756, -0.41559478640556335, 0.139825701713562], [0.15958642959594727, -0.05386222153902054, 0.7169028520584106], [0.10066717118024826, 0.2742457985877991, 0.7453016638755798]]], [[[0.05098125711083412, -0.11087114363908768, -0.00832349993288517], [-0.038283590227365494, 0.09493286907672882, -0.22368592023849487], [-0.04910694807767868, -0.28436940908432007, -0.1901520937681198]]], [[[-0.12799029052257538, 0.5084328055381775, 0.6057190299034119], [0.22575139999389648, 0.14664378762245178, 0.10784313082695007], [-0.05513541400432587, -0.7005757689476013, -0.5386505722999573]]], [[[-0.8197067379951477, 0.09832824021577835, 0.6807115077972412], [-0.7885405421257019, -0.08765901625156403, 0.7864759564399719], [-0.10108678787946701, 0.008227752521634102, 0.32580363750457764]]], [[[0.3603702783584595, 0.2476157397031784, 0.3733191192150116], [-0.8413586616516113, -0.6549156904220581, -0.458109974861145], [0.44403839111328125, 0.3921031951904297, 0.09671929478645325]]], [[[0.43776535987854004, 0.11677754670381546, -0.4848082363605499], [0.5593224167823792, 0.023269623517990112, -0.5528425574302673], [0.8558706045150757, -0.1554267555475235, -0.6860364675521851]]], [[[0.028300095349550247, 0.6563739776611328, 0.24392524361610413], [0.4971373975276947, 0.3905755877494812, -0.4971511662006378], [-0.06044446676969528, -0.41479822993278503, -0.5951550006866455]]], [[[0.21125900745391846, 0.5027742981910706, -0.5857124924659729], [0.1872033178806305, 0.3593423664569855, -0.4483838975429535], [-0.04307469725608826, 0.399129182100296, -0.5668599605560303]]], [[[-0.1261937916278839, 0.03934050723910332, 0.5154174566268921], [0.008560779504477978, -0.827977180480957, -0.38995206356048584], [0.6037024855613708, 0.3734637498855591, -0.21512973308563232]]], [[[-0.08183173090219498, 0.42629194259643555, 0.6273515820503235], [-0.30388110876083374, -0.058905575424432755, 0.05935821682214737], [-0.2627488374710083, -0.5476973056793213, -0.3832869529724121]]], [[[0.16269853711128235, -0.24669280648231506, -0.049342863261699677], [0.6839373707771301, -0.5566633939743042, 0.7788511514663696], [0.40539366006851196, -0.7300214171409607, 0.3067721724510193]]], [[[0.034213896840810776, 0.16184628009796143, -0.07367391884326935], [0.33664146065711975, 0.24859002232551575, -0.34636935591697693], [0.19473513960838318, -0.24047887325286865, -0.44918936491012573]]], [[[0.19473476707935333, -0.1541762351989746, 0.14766114950180054], [-0.30111947655677795, -0.35125985741615295, 0.38308462500572205], [-0.3625810444355011, 0.10876114666461945, 0.419182151556015]]], [[[-0.6726006269454956, -0.2552065849304199, 0.37195590138435364], [-0.4510509967803955, 0.5701794028282166, 0.686902642250061], [0.14764004945755005, 0.37716349959373474, -0.5444267988204956]]], [[[0.026754437014460564, 0.0921873077750206, 0.5769737958908081], [-0.05229402333498001, 0.015430841594934464, 0.1665496677160263], [-0.6326652765274048, -0.5761650800704956, -0.06574129313230515]]], [[[0.25799161195755005, 0.36519500613212585, -0.2659868597984314], [0.33986932039260864, -0.355263352394104, -0.3095206916332245], [-0.10350170731544495, -0.1624978482723236, 0.2266494482755661]]], [[[-0.552693784236908, -0.3823077380657196, -0.0224769227206707], [-0.2885172963142395, -0.02904052473604679, 0.39494049549102783], [-0.24935007095336914, 0.22799712419509888, 0.5952339768409729]]], [[[-0.3727772533893585, 0.6553558707237244, -0.18310585618019104], [-0.7006601691246033, 0.7720860242843628, -0.1524665504693985], [-0.507018506526947, 0.8719512820243835, -0.1621006727218628]]], [[[0.13740640878677368, 0.060129500925540924, 0.19513069093227386], [0.4031159579753876, 0.6154003143310547, 0.5286242365837097], [-0.38912031054496765, -0.6566199660301208, -0.7238276600837708]]], [[[0.6294174790382385, 0.6465474963188171, 0.5571750998497009], [-0.28652146458625793, -0.24541224539279938, -0.22879131138324738], [-0.2836211621761322, -0.6178675889968872, -0.08351901173591614]]], [[[-0.498369038105011, -0.016957415267825127, 0.5433857440948486], [1.221901774406433, -0.5597016215324402, -0.6038848161697388], [-0.6370958089828491, 0.5107190012931824, 0.13544516265392303]]], [[[0.13340172171592712, 0.0364280641078949, -0.0038143133278936148], [0.06180337443947792, -0.01908518746495247, 0.07556292414665222], [-0.08210887014865875, -0.032074082642793655, -0.0955783873796463]]], [[[-0.54127436876297, -0.19492243230342865, 0.653265118598938], [-0.4226049482822418, -0.03847130015492439, 0.4502759873867035], [1.0124822854995728, 0.15339523553848267, -1.069591760635376]]], [[[-0.3418075144290924, -0.8058103322982788, -0.652519941329956], [-0.13242901861667633, 0.006551380269229412, -0.09882041066884995], [0.5728958249092102, 0.7681764960289001, 0.7885951995849609]]], [[[0.5177505612373352, -0.6789632439613342, 0.43686798214912415], [-0.38926243782043457, 0.047724220901727676, 0.624825656414032], [0.13658134639263153, 0.9982690811157227, -0.6983256936073303]]], [[[0.40106621384620667, 0.4316404163837433, -0.49994853138923645], [0.3908061385154724, -0.6629467606544495, -0.029620416462421417], [-0.4827063977718353, -0.3198208212852478, 0.8070018887519836]]], [[[0.3381574749946594, -0.03493237495422363, 0.007707056123763323], [0.14823059737682343, -0.12513265013694763, 0.23020397126674652], [-0.029726432636380196, -0.33278441429138184, -0.3086738586425781]]], [[[-0.2186104953289032, 0.2928815186023712, 0.34494876861572266], [-0.09245823323726654, -0.4049540162086487, -0.4351445138454437], [0.023160438984632492, 0.4013969600200653, -0.010513857938349247]]], [[[-0.19325609505176544, -0.6309627294540405, -0.4285731315612793], [0.436745822429657, -0.2226950228214264, -0.5391328930854797], [0.8552982211112976, 0.26767995953559875, 0.17616216838359833]]], [[[0.5119457840919495, 0.010484187863767147, -0.5198535323143005], [-1.0776270627975464, 0.511064350605011, 0.5619010925292969], [0.5903267860412598, -0.5159191489219666, 0.00865058321505785]]], [[[0.6170074939727783, 0.2687942385673523, -0.8874697685241699], [0.14643047749996185, 0.17858798801898956, -0.22875948250293732], [-0.7630231380462646, -0.38468557596206665, 1.1481492519378662]]], [[[-0.1832592785358429, -0.003543021623045206, 0.4587908685207367], [-0.026261113584041595, -0.6485874056816101, -0.01129561010748148], [0.5254518985748291, -0.04050566628575325, -0.11960000544786453]]], [[[0.1705033928155899, 0.4904802739620209, 0.29298004508018494], [-0.8033277988433838, -0.8946261405944824, -0.7585855722427368], [0.396462082862854, 0.446487158536911, 0.33422502875328064]]], [[[0.57813960313797, -0.3285175561904907, -0.17307330667972565], [0.6812847256660461, -0.257652223110199, -0.24342353641986847], [0.44874879717826843, -0.41393446922302246, -0.1621691882610321]]], [[[0.6312425136566162, 0.5961204767227173, 0.14369513094425201], [0.09746836870908737, 0.1225799173116684, -0.17015565931797028], [-0.6319556832313538, -0.7275697588920593, 0.09253319352865219]]], [[[-0.23644015192985535, -0.5399029850959778, -0.19150635600090027], [0.4479232132434845, 0.9055050611495972, 0.8596110939979553], [-0.2826050817966461, -0.4351442754268646, -0.23434418439865112]]], [[[0.24253420531749725, 0.03972305729985237, -0.9169851541519165], [0.4132041037082672, 0.8044912219047546, -0.08189018815755844], [-0.7022011876106262, 0.4031451344490051, 0.04852034151554108]]], [[[0.42958319187164307, -0.16086453199386597, -0.04153747484087944], [0.3418095111846924, -0.10150033235549927, -0.39832842350006104], [0.3449147343635559, -0.2927096486091614, -0.12344792485237122]]], [[[-0.4552059769630432, -0.4551655352115631, -0.3353787958621979], [0.6279639005661011, 1.0259476900100708, 1.0053832530975342], [-0.2131064534187317, -0.5317496657371521, -0.55433589220047]]], [[[0.18922019004821777, 0.08405690640211105, 0.2747840881347656], [-0.5765324831008911, -0.41023823618888855, -0.15554991364479065], [-0.3023220896720886, 0.42792683839797974, 0.7219750881195068]]], [[[0.492410272359848, 0.5687194466590881, 0.5596957206726074], [-0.06392988562583923, 0.0864175483584404, 0.19506065547466278], [-0.22346055507659912, -0.17061497271060944, -0.3613462448120117]]], [[[0.227203831076622, -0.019032422453165054, -0.13482217490673065], [0.48339176177978516, 0.09445187449455261, -0.5665677189826965], [-0.6444902420043945, -0.10862857848405838, 0.7603362202644348]]], [[[0.6981799006462097, -0.3125525414943695, -0.666077196598053], [0.25267624855041504, 0.6596977710723877, -0.21935316920280457], [-0.9974945783615112, 0.3658786416053772, 0.40069225430488586]]]], "bn1.running_mean": [2.854088068008423, 0.10094636678695679, 3.6574440002441406, 5.605193857299268e-45, 0.49188223481178284, 2.1973605155944824, 0.3551139235496521, 5.605193857299268e-45, 5.605193857299268e-45, 0.42097634077072144, 0.8688694834709167, 0.12187158316373825, 14.926429748535156, 4.736009120941162, 0.2975028455257416, 1.4263570308685303, 1.1509020328521729, 1.0929831266403198, 0.3262145221233368, 1.6706610918045044, 1.2234411239624023, 0.15861943364143372, 1.0121904611587524, 5.605193857299268e-45, 0.6941284537315369, 5.605193857299268e-45, 0.42314016819000244, 1.2351707220077515, 0.0038629071786999702, 0.5411376953125, 0.6431474089622498, 4.200898170471191, 5.605193857299268e-45, 0.29398980736732483, 9.072906494140625, 0.42649051547050476, 1.5353342294692993, 2.165632486343384, 0.2681197226047516, 5.605193857299268e-45, 1.0373355150222778, 5.605193857299268e-45, 5.605193857299268e-45, 0.21658457815647125, 0.638893187046051], "bn1.running_var": [11.462098121643066, 0.40816566348075867, 18.378469467163086, 5.605193857299268e-45, 2.0772433280944824, 9.603025436401367, 1.7678124904632568, 5.605193857299268e-45, 5.605193857299268e-45, 2.3916826248168945, 3.486907958984375, 0.5445189476013184, 30.78238868713379, 23.481054306030273, 1.8249008655548096, 7.097142219543457, 5.943356513977051, 7.405153274536133, 1.4869155883789062, 7.430753231048584, 6.288215160369873, 0.61104816198349, 4.1568403244018555, 5.605193857299268e-45, 5.6990966796875, 5.605193857299268e-45, 2.6765785217285156, 6.77512788772583, 0.010801316238939762, 4.860459804534912, 4.340429306030273, 20.07569122314453, 5.605193857299268e-45, 1.6862342357635498, 42.606292724609375, 2.690847396850586, 7.521930694580078, 10.339917182922363, 1.5344899892807007, 5.605193857299268e-45, 4.903334140777588, 5.605193857299268e-45, 5.605193857299268e-45, 1.5557861328125, 3.8738114833831787], "bn1.num_batches_tracked": 70834, "conv1.weight": [[[[-0.49983876943588257, -0.05931808799505234, -0.07325801253318787], [0.3648323118686676, 0.4040553867816925, -0.5943479537963867], [0.42080795764923096, 0.09222744405269623, -0.3173329532146454]], [[-0.16330768167972565, 0.28003644943237305, 0.3441711664199829], [-0.07185941189527512, 0.06569528579711914, -0.14849096536636353], [-0.22420980036258698, -0.425199419260025, 0.18469861149787903]], [[-0.5204799771308899, -0.2946154773235321, -0.24077476561069489], [0.2532864511013031, 0.5110252499580383, -0.022993093356490135], [-0.09422217309474945, -0.3022126257419586, -0.09562955796718597]], [[0.5511361956596375, 0.6257283091545105, -0.17548415064811707], [0.6358015537261963, 0.5328708291053772, -0.23654481768608093], [0.003521507140249014, -0.2769821584224701, -0.819734513759613]], [[-0.4381246566772461, -0.2279656082391739, 0.13965648412704468], [0.21830244362354279, -0.42438262701034546, -0.16336943209171295], [0.5497278571128845, -0.4362334609031677, 0.16549894213676453]], [[0.3815390169620514, 0.5282357335090637, 0.09688135981559753], [0.49612152576446533, 0.41306230425834656, -0.9461534023284912], [0.4340381324291229, 0.06857333332300186, -0.7556303143501282]], [[-0.6746470332145691, 0.09704043716192245, 0.1822841316461563], [-0.0691741481423378, 0.4283123314380646, 0.4545576870441437], [0.0842347964644432, -0.08412075787782669, -0.21397186815738678]], [[0.8051946759223938, 0.6042805910110474, 0.4179448187351227], [0.8070311546325684, 0.6793817281723022, -0.31034040451049805], [0.5771389603614807, 0.15832853317260742, -0.7954233288764954]], [[-0.7867346405982971, -0.31647616624832153, 0.2641128599643707], [0.06713520735502243, -0.30059289932250977, 0.09218709170818329], [0.2954663932323456, -0.5242404341697693, 0.2523016929626465]], [[0.1007719337940216, -0.2038435935974121, 0.006822335068136454], [0.611016571521759, 0.07101064175367355, -0.08229835331439972], [0.30490005016326904, -0.3464249074459076, -0.38221806287765503]], [[-0.1669529378414154, 0.11143951117992401, -0.16071833670139313], [0.33991438150405884, 0.29129746556282043, 0.09041332453489304], [0.8265067934989929, -0.09311838448047638, -0.36101123690605164]], [[0.04661138355731964, 0.16498620808124542, -0.10215527564287186], [0.36456015706062317, 0.11618120968341827, 0.12997592985630035], [-0.17988920211791992, -0.49978047609329224, -0.34126758575439453]], [[-0.6624861359596252, 0.05740909278392792, -1.2080152034759521], [0.5646250247955322, 0.774279773235321, -1.256548523902893], [0.5873628258705139, 0.28634926676750183, -0.9266055226325989]], [[0.18136417865753174, 0.09753838926553726, -0.20137326419353485], [0.4157961308956146, 0.27210840582847595, -0.19633261859416962], [-0.2332390695810318, -0.4349287152290344, -0.5724146366119385]], [[-0.011502750217914581, 0.40272924304008484, -0.20046575367450714], [0.15778550505638123, 0.6142331957817078, -0.5105242729187012], [0.06476137042045593, -0.03910887613892555, -0.0011741960188373923]], [[0.21522091329097748, 0.09900418668985367, -0.08343783766031265], [0.6869969367980957, 0.4371242821216583, -0.18631429970264435], [0.237727552652359, -0.2549417018890381, -0.551577627658844]], [[0.09915312379598618, 0.2062736302614212, -0.1278352439403534], [0.33615022897720337, 0.2953658998012543, 0.052298374474048615], [-0.2269624024629593, -0.27098751068115234, -0.2633269429206848]], [[0.19134700298309326, 0.11130689084529877, -0.1179162785410881], [0.4305597245693207, 0.46571439504623413, -0.04326330125331879], [-0.17735424637794495, -0.236542746424675, -0.5932036638259888]], [[0.1669214367866516, 0.4502957761287689, 0.101842001080513], [0.1700546145439148, 0.48904407024383545, -0.20256994664669037], [-0.25813108682632446, -0.26784804463386536, -0.3250197768211365]], [[-0.09458232671022415, -0.3458121716976166, -0.7206149101257324], [0.4604440927505493, -0.3129691183567047, -1.244277000427246], [0.49899810552597046, -0.38862791657447815, -1.1357637643814087]], [[-0.25703322887420654, -0.011387646198272705, 0.6101852059364319], [0.5086125135421753, -0.3214489221572876, -0.16408699750900269], [0.3208763301372528, -0.3828260898590088, 0.5830236077308655]], [[-0.5536814332008362, -0.5239725112915039, -0.0614287331700325], [0.12018650025129318, -0.32452628016471863, 0.05489416792988777], [0.5241320729255676, -0.47091564536094666, -0.28237608075141907]], [[0.08645577728748322, 0.5597341656684875, -0.6077391505241394], [1.3510706424713135, 1.3093622922897339, -1.5673933029174805], [1.9217885732650757, 1.0189368724822998, -1.3699787855148315]], [[-0.07201150804758072, -0.30619460344314575, -0.43491289019584656], [0.51137775182724, 0.29437848925590515, -0.03630635514855385], [0.32760611176490784, -0.11670069396495819, -0.3272329270839691]], [[1.1450600624084473, 0.8328983187675476, -0.824730396270752], [1.1329638957977295, 0.6794250011444092, -1.9748916625976562], [1.1124424934387207, 0.24295692145824432, -1.5733107328414917]], [[0.09966588020324707, -0.13169080018997192, 0.1826697587966919], [-0.21724484860897064, -0.3935014605522156, -0.3043321669101715], [-0.24270124733448029, -1.0718772411346436, -0.5256242156028748]], [[0.8546654582023621, 0.26543664932250977, -1.064998745918274], [1.9735231399536133, 0.8451366424560547, -2.0424106121063232], [1.906744360923767, 0.6823141574859619, -1.377092957496643]], [[0.474247545003891, 0.18980519473552704, -0.6487788558006287], [0.9661556482315063, 0.9583117365837097, -1.0159748792648315], [0.677114725112915, 0.11916142702102661, -0.5592685341835022]], [[-0.12421189248561859, 0.17882327735424042, 0.030768046155571938], [0.15415452420711517, 0.21697017550468445, -0.04259723797440529], [-0.3149590790271759, -0.497702956199646, -0.48552456498146057]], [[-0.5527706146240234, 0.20733490586280823, 0.1540978103876114], [0.044793032109737396, 0.08535479009151459, 0.3472873866558075], [0.2813175916671753, -0.32224249839782715, -0.14569897949695587]], [[0.5165927410125732, 0.48275265097618103, 0.36466553807258606], [0.16864393651485443, 0.22009703516960144, 0.041786570101976395], [-0.31946223974227905, -0.37663936614990234, -0.6430666446685791]], [[-0.19607363641262054, 0.7252489328384399, 0.008062353357672691], [0.7697285413742065, 1.117163062095642, -1.1873176097869873], [1.4502307176589966, 0.6999551653862, -0.7931578159332275]], [[1.1407941579818726, 0.49534955620765686, -0.708287239074707], [1.4409748315811157, 0.46038818359375, -1.8235327005386353], [1.2080707550048828, -0.22624994814395905, -1.3490759134292603]], [[0.1892598420381546, 0.4145255982875824, -0.15245270729064941], [0.3102274239063263, 0.4186324179172516, 0.011456059291958809], [0.10471966862678528, -0.01130629237741232, -0.2248997986316681]], [[-0.8861342072486877, 0.12612013518810272, 0.23469388484954834], [0.09365937113761902, 0.41286301612854004, 0.5127269625663757], [0.14648273587226868, -0.22623814642429352, -0.13178753852844238]], [[0.6444219350814819, 0.04336179792881012, -0.6786099672317505], [0.9891268014907837, 0.4979250729084015, -1.0388000011444092], [0.7507830262184143, 0.20106272399425507, -0.9730388522148132]], [[-0.4275657832622528, -0.4984241724014282, 0.05820910632610321], [0.21006566286087036, -0.25851765275001526, -0.19430208206176758], [0.575566828250885, -0.2984636723995209, -0.02815290167927742]], [[-0.8042502403259277, -0.11389206349849701, 0.06413405388593674], [0.5335438847541809, 0.5991584658622742, 0.31032636761665344], [0.037458863109350204, -0.33347299695014954, 0.03475366160273552]], [[-0.1734308898448944, -0.1690790355205536, 0.11751115322113037], [0.37473952770233154, 0.35114437341690063, 0.34609606862068176], [0.4103608727455139, -0.27749964594841003, -0.19028064608573914]], [[0.4598793089389801, 0.02376703917980194, -0.6621018648147583], [0.4758717119693756, 0.33679890632629395, -0.4636244773864746], [0.39518988132476807, 0.058618538081645966, -0.6996429562568665]], [[-0.4567577838897705, 0.09027637541294098, 0.5403300523757935], [0.6941321492195129, 0.8553586602210999, 0.6567618250846863], [0.14981885254383087, -0.21903976798057556, 0.12521667778491974]], [[-0.1935984045267105, 0.4916411340236664, 0.29170992970466614], [-0.09105362743139267, 0.37493571639060974, -0.20629625022411346], [-0.23081710934638977, -0.2531484365463257, -0.11547866463661194]], [[0.20631030201911926, -0.3877832293510437, -0.17218995094299316], [0.43627142906188965, -0.2746216058731079, -0.26925128698349], [0.488033652305603, -0.010859671048820019, 0.07272590696811676]], [[0.34834858775138855, 0.22897541522979736, -0.5374329686164856], [0.8395928144454956, 0.6949210166931152, -1.0177741050720215], [0.6074097752571106, 0.25885462760925293, -0.31566500663757324]], [[0.15317374467849731, 0.3721776306629181, -0.28441905975341797], [0.6031428575515747, 0.7950671315193176, -0.4727143943309784], [0.5006760358810425, 0.23418737947940826, -0.7590627670288086]]], [[[-0.04899068549275398, 0.10348080098628998, 0.08686129003763199], [0.8558153510093689, 0.2559753358364105, -0.5786899328231812], [0.19884467124938965, 0.5564440488815308, -0.402108758687973]], [[-0.0019838365260511637, 0.3180716931819916, -0.29588595032691956], [0.4305279552936554, 0.4705455005168915, -0.8879128098487854], [0.18484842777252197, 0.7484501004219055, 0.050216227769851685]], [[-0.013435660861432552, 0.37569165229797363, 0.08643301576375961], [0.3557843267917633, 0.1324012279510498, -0.09011836349964142], [0.29808279871940613, -0.09125229716300964, -0.5663924217224121]], [[0.4437318444252014, 0.5120120048522949, -0.04521758854389191], [0.2559937834739685, 0.08749604225158691, -0.04231404885649681], [-0.5303385853767395, -0.8622106313705444, -0.13745413720607758]], [[-0.43218994140625, -0.6321541666984558, -0.7124133706092834], [-0.9239543676376343, -1.200748085975647, -1.1287060976028442], [-0.8191053867340088, -0.833572506904602, -0.8935819864273071]], [[0.21247005462646484, 0.5619949102401733, -0.26049211621284485], [1.2712129354476929, 0.6959713697433472, 0.7709553241729736], [0.5852242112159729, 0.08993798494338989, 0.08356177061796188]], [[-0.03779735416173935, -0.18379081785678864, -0.02189488895237446], [0.06132754310965538, -0.4303991496562958, -0.5195390582084656], [-0.2909034192562103, 0.1917734295129776, 0.14571352303028107]], [[0.5299691557884216, 0.5453701019287109, 0.3655260503292084], [0.4138886630535126, 0.8679408431053162, 1.0509426593780518], [0.20637767016887665, -0.09723734110593796, 0.357494592666626]], [[-0.44060951471328735, -0.973353922367096, -0.5840070843696594], [-0.8220342993736267, -1.044480562210083, -0.837152898311615], [-0.2763795256614685, -0.8885223865509033, -0.5742631554603577]], [[0.17769832909107208, -0.40629464387893677, -0.28725993633270264], [-0.25949907302856445, 0.177962526679039, 0.415844589471817], [-0.1516730934381485, -0.4387719929218292, 0.1475522369146347]], [[-0.3057996332645416, -0.23145504295825958, -0.2301078885793686], [-0.0182681642472744, 0.1729721873998642, 0.09951186925172806], [-0.0022562267258763313, 0.254146933555603, 0.22295579314231873]], [[0.43357837200164795, 0.21771016716957092, -0.33982113003730774], [-0.34048599004745483, -0.8230682611465454, -0.6311845779418945], [-0.6801778674125671, -1.5869450569152832, -1.3194210529327393]], [[-0.8734208345413208, 0.5168136954307556, -0.19465583562850952], [-0.3206467926502228, 0.13074234127998352, 0.022506430745124817], [-0.029395567253232002, -0.5459457039833069, -0.1402357816696167]], [[0.37919384241104126, -0.04339059442281723, -0.33482566475868225], [-0.12593357264995575, -0.06099843978881836, 0.327244371175766], [-0.12047777324914932, -0.5121486186981201, 0.1748836785554886]], [[0.17914344370365143, 0.6953594088554382, -0.22787588834762573], [0.17082080245018005, 0.07087568193674088, -0.5240669846534729], [-0.2574828863143921, -0.2929331958293915, -0.28466811776161194]], [[-0.0965234562754631, -0.20593184232711792, -0.6751989722251892], [0.2449457347393036, -0.27756941318511963, -0.5577821135520935], [-0.16899849474430084, 0.1347889006137848, -0.5318118333816528]], [[0.5601692199707031, 0.29092079401016235, -0.46538403630256653], [-0.2791735529899597, -0.777407169342041, -0.8002986907958984], [-0.46105697751045227, -1.3269823789596558, -0.88039231300354]], [[0.2431558519601822, -0.09395141154527664, -0.22099938988685608], [-0.1382472813129425, -0.2324242740869522, 0.01922381855547428], [-0.5519542694091797, -0.7986528873443604, 0.20467185974121094]], [[0.3660297393798828, 0.7024069428443909, -0.18082384765148163], [0.14883925020694733, 0.18551646173000336, -0.598237931728363], [-0.44645264744758606, -0.3630303740501404, -0.7422924041748047]], [[-0.6993736028671265, -0.18613407015800476, -0.46608448028564453], [0.28095343708992004, -0.10268643498420715, 0.5655679702758789], [0.04287372902035713, -0.08519571274518967, -0.13583898544311523]], [[-0.7134426236152649, -1.535965919494629, -1.3031152486801147], [-1.3849332332611084, -1.6876126527786255, -1.6558279991149902], [-0.624114990234375, -0.14712131023406982, -0.151051327586174]], [[0.07390985637903214, 0.18835943937301636, 0.3306627571582794], [-0.6736182570457458, -0.7572294473648071, -0.855274498462677], [-1.3487396240234375, -1.0349079370498657, -1.312520146369934]], [[0.45994478464126587, 0.40441471338272095, -0.1557827740907669], [0.8168103098869324, 0.9688270092010498, 0.30518853664398193], [0.37161505222320557, 0.6625329256057739, 0.01588001661002636]], [[-0.12223024666309357, -0.25365570187568665, 0.06501492112874985], [-0.1908494085073471, -0.19574500620365143, -0.2495848387479782], [-0.15432438254356384, -0.033268336206674576, -0.23394933342933655]], [[0.1032743975520134, 0.6053829193115234, 0.32686948776245117], [0.8168689012527466, 0.6768589615821838, 0.7656275033950806], [-0.021828407421708107, 0.005697951186448336, -0.3756137192249298]], [[0.16662827134132385, 0.4243316948413849, 0.08284594863653183], [0.5380757451057434, 1.1855990886688232, -0.25110316276550293], [0.47436439990997314, 1.3439959287643433, -0.13195738196372986]], [[-0.19322484731674194, -0.1593264639377594, -0.6307443976402283], [0.22245487570762634, -0.3186309337615967, 0.18145033717155457], [-0.6844242215156555, -0.030826693400740623, -0.0547342412173748]], [[0.24973496794700623, 0.1717010736465454, -0.3407914936542511], [0.40487995743751526, 0.09883318841457367, -0.4152795076370239], [-0.39473387598991394, -0.6186012029647827, -0.0011784008238464594]], [[0.3991536498069763, 0.09017359465360641, -0.3289436101913452], [-0.9298003911972046, -1.023891568183899, -0.23242689669132233], [-0.7181217074394226, -0.8373743295669556, -0.14582505822181702]], [[-0.09520871192216873, -0.12404779344797134, -0.04139585793018341], [0.15170186758041382, -0.18941836059093475, -0.3412381112575531], [0.31854432821273804, 0.31242308020591736, -0.06877659261226654]], [[0.38007766008377075, 0.35852086544036865, 0.18150871992111206], [0.07956703752279282, 0.18628354370594025, -0.14539386332035065], [-0.23993992805480957, -0.15902402997016907, -0.41868826746940613]], [[0.33494096994400024, 0.013227347284555435, 0.013457972556352615], [0.8288966417312622, 0.47377294301986694, 0.33648595213890076], [0.07657357305288315, 0.4790060818195343, -0.33036008477211]], [[0.7928316593170166, 0.19097845256328583, 0.18898211419582367], [0.6558908224105835, 0.6078580021858215, 0.43429839611053467], [-0.48489296436309814, 0.15240657329559326, 0.3902137577533722]], [[0.2006169557571411, 0.2931274175643921, -0.24749161303043365], [0.17010720074176788, 0.09025154262781143, -0.1669333577156067], [-0.22918841242790222, -0.1827515810728073, -0.06650488823652267]], [[-0.2846391797065735, -0.21626988053321838, 0.21601876616477966], [0.1371709406375885, -0.5365472435951233, -0.5306774973869324], [-0.14429402351379395, -0.29951372742652893, 0.010870039463043213]], [[-0.6507924199104309, -0.5833993554115295, -0.5240532159805298], [-0.41251644492149353, -0.00603153370320797, 0.1756049394607544], [0.28874915838241577, -0.2408382147550583, 0.25185054540634155]], [[-0.19334648549556732, -0.22225677967071533, -0.25684595108032227], [-0.8209041953086853, -0.7840105891227722, -1.2393420934677124], [-1.5118670463562012, -0.6886274218559265, -1.060477375984192]], [[-0.831272304058075, -0.8694626092910767, -0.7961544394493103], [-0.4398634433746338, -1.2818677425384521, -1.3678733110427856], [0.11471721529960632, -0.33299970626831055, -0.5231295228004456]], [[0.4302733838558197, -0.46314430236816406, -0.2310582995414734], [-0.19555498659610748, -0.07415413111448288, -0.20185913145542145], [-0.08024360239505768, 0.2580930292606354, -0.3580259382724762]], [[0.05699523910880089, 0.09356831759214401, -0.40329715609550476], [0.11432179808616638, 0.2462952435016632, 0.16774700582027435], [0.31713274121284485, -0.16925208270549774, 0.07744412869215012]], [[-0.9286701679229736, -1.2790732383728027, -0.7723028659820557], [-0.577997088432312, -1.2861199378967285, -1.376555323600769], [0.1895904392004013, -0.23240575194358826, -0.6617826819419861]], [[-0.0383409783244133, 0.24787937104701996, -0.2698633372783661], [0.3112945556640625, -0.24610884487628937, -0.889404833316803], [0.025113731622695923, 0.05791576951742172, 0.08689986914396286]], [[0.6327618956565857, -0.31289538741111755, 0.14436393976211548], [0.47977691888809204, -0.6703295707702637, -0.47558847069740295], [0.09060156345367432, -0.3241404592990875, -0.5072461366653442]], [[0.3153540790081024, 0.13311773538589478, 0.10939155519008636], [0.6558924913406372, 0.061911940574645996, -0.11945375800132751], [-0.2587619125843048, -0.3661384880542755, -0.34916481375694275]], [[0.6617456078529358, -0.32899951934814453, -0.456199049949646], [0.16921691596508026, 0.10060730576515198, 0.0860157236456871], [-0.20381511747837067, 0.20808720588684082, -0.12370920181274414]]], [[[0.08737216889858246, 0.44088998436927795, 0.3342134356498718], [-0.20177680253982544, -0.008611617609858513, -0.07737863063812256], [-0.5298457741737366, 0.20166873931884766, -0.37531933188438416]], [[-0.27239295840263367, -0.15717993676662445, 0.1114998534321785], [0.17405754327774048, -0.28217801451683044, -0.6316644549369812], [-0.010449551977217197, 0.13632744550704956, -0.4334757626056671]], [[-0.19698141515254974, 0.8074274659156799, 0.280758261680603], [0.2409910410642624, 1.2884732484817505, -0.23677006363868713], [-1.0646617412567139, 0.17040589451789856, -0.8054234981536865]], [[-0.24277976155281067, 0.1490858644247055, -0.004818107467144728], [-0.13994288444519043, 0.3063105642795563, 0.14910289645195007], [0.3553660213947296, 0.5313703417778015, 0.30113276839256287]], [[0.28002771735191345, -0.31838229298591614, -0.05480467155575752], [0.5448621511459351, -1.1573634147644043, 0.024856867268681526], [0.7783393263816833, 0.26293161511421204, 0.5310297012329102]], [[-0.04783625528216362, 1.0716830492019653, 0.3497427999973297], [0.06431502848863602, 1.7069801092147827, 0.37262144684791565], [-0.7116015553474426, 1.086039423942566, -0.03937683627009392]], [[-0.20326296985149384, 0.02053859457373619, -0.00022544422245118767], [-0.0869554877281189, -0.505237877368927, 0.1670718640089035], [0.17288123071193695, 0.3729132413864136, 0.10456973314285278]], [[0.5715172290802002, 0.4866131842136383, 0.328113317489624], [0.17000631988048553, 0.8203853964805603, 0.7830497622489929], [-0.34838569164276123, -0.20293490588665009, 0.18781791627407074]], [[0.5471370816230774, -0.15576009452342987, 0.41526123881340027], [0.634766697883606, -0.5991339683532715, 0.34208372235298157], [0.5560355186462402, -0.44705724716186523, 0.38410457968711853]], [[0.6503009796142578, -0.13507157564163208, 0.017600402235984802], [0.4901234209537506, 0.3535381853580475, 0.3322203755378723], [0.05159598961472511, -0.25660473108291626, 0.05825098603963852]], [[-0.32319176197052, -0.41076937317848206, -0.17447051405906677], [-0.02429908700287342, 0.01007934845983982, 0.4913537800312042], [-0.012132487259805202, 0.14439040422439575, -0.12515221536159515]], [[-0.40684014558792114, -0.3634865880012512, -0.6801174879074097], [-0.008620227687060833, -0.27988696098327637, 0.1399163156747818], [0.40493249893188477, 0.3844297230243683, 0.41126006841659546]], [[-0.9454184770584106, 0.691443920135498, -0.3532070517539978], [-0.657021164894104, 1.6927413940429688, -0.28496137261390686], [-1.9219377040863037, 0.4527947008609772, -0.836539626121521]], [[-0.05699440836906433, -0.013989642262458801, -0.3771013021469116], [0.0014102421700954437, 0.35226771235466003, 0.037715766578912735], [0.23332791030406952, -0.04623349756002426, -0.11972741782665253]], [[0.5625450015068054, 0.7276094555854797, 0.31218621134757996], [-0.09728430211544037, 0.6147869825363159, -0.19395267963409424], [-0.6238436698913574, -0.038155462592840195, -0.5830461382865906]], [[0.24880021810531616, 0.3255375027656555, 0.7615052461624146], [0.1971537172794342, -0.22758381068706512, -0.10139499604701996], [-0.3974703550338745, -0.302592933177948, -0.6264458298683167]], [[-0.5057287812232971, -0.27309852838516235, -0.6347047686576843], [-0.2065710425376892, 0.42100533843040466, 0.25649818778038025], [-0.038096845149993896, 0.5982584953308105, 0.50828617811203]], [[0.18399184942245483, 0.3938257098197937, -0.2043856382369995], [0.06412932276725769, 0.5914162397384644, 0.08050692826509476], [0.2195267677307129, 0.2565120756626129, 0.05849974602460861]], [[-0.4732251465320587, 0.3711938261985779, 0.5335036516189575], [-0.27666521072387695, 0.40437954664230347, 0.01887463591992855], [-0.6557441353797913, 0.2632558345794678, -0.02791433222591877]], [[-0.2675633728504181, 0.4850430190563202, 0.5642037987709045], [-0.44086095690727234, 0.9442660808563232, 0.7489082217216492], [-1.5071284770965576, 0.16320517659187317, 0.134239062666893]], [[-0.21757960319519043, -0.9417833089828491, 0.004470967222005129], [0.7050029635429382, -0.829224169254303, 0.22973236441612244], [0.8370519876480103, 0.8342215418815613, 1.0109668970108032]], [[0.611024796962738, 0.03811584785580635, 0.10915044695138931], [0.6246774792671204, -1.3146284818649292, -0.09721815586090088], [0.8864586353302002, 0.035910867154598236, 0.3107354938983917]], [[-0.7041653990745544, 0.4001500606536865, 0.18000683188438416], [-0.1446949988603592, -0.7637333273887634, -0.8273162841796875], [0.19070297479629517, 0.9097156524658203, -0.1938180923461914]], [[0.45154252648353577, 0.37300801277160645, 0.6589882969856262], [0.19877907633781433, 0.11947990208864212, 0.6794290542602539], [-0.4518354833126068, -0.3226704001426697, 0.0035999577958136797]], [[-1.1525717973709106, 0.16860389709472656, -0.2876032590866089], [-0.5257847309112549, 0.12486773729324341, -0.6538788080215454], [-0.585112988948822, 0.7463282942771912, -0.8576672673225403]], [[-0.3396854102611542, -0.567495584487915, 0.16270281374454498], [0.06082959845662117, -1.3485848903656006, -0.7489038109779358], [0.007983761839568615, -0.24633078277111053, -0.4215150475502014]], [[-0.38047170639038086, 1.3178247213363647, 1.167465329170227], [-0.47384533286094666, 0.7425913214683533, -0.034464746713638306], [-1.297577977180481, 0.8367729783058167, -1.0628643035888672]], [[0.42292264103889465, 0.9576555490493774, 0.11545075476169586], [-0.010594391264021397, 0.60199373960495, -0.7177490592002869], [-0.7206057906150818, 0.09196905791759491, -0.38858306407928467]], [[-0.6608601808547974, -0.01406325213611126, -0.17534099519252777], [-0.24977248907089233, 0.2338199019432068, -0.00947674922645092], [0.2659095525741577, 0.17789731919765472, 0.03540029749274254]], [[-0.2754044830799103, -0.23999784886837006, 0.015251198783516884], [0.17461271584033966, -0.586603045463562, 0.21450035274028778], [-0.03877929598093033, -0.26478782296180725, -0.28010404109954834]], [[-0.2515294551849365, -0.37946581840515137, -0.3711681663990021], [-0.16205741465091705, 0.07987553626298904, -0.005510763265192509], [-0.41678139567375183, 0.2118910253047943, -0.037656739354133606]], [[-0.817411482334137, 0.38286200165748596, 0.2740805447101593], [-0.2656979560852051, -0.7951719164848328, -1.0429846048355103], [0.22172114253044128, 0.8448963165283203, 0.1468905806541443]], [[-0.5828628540039062, 0.30277007818222046, 0.07603529840707779], [-0.35881173610687256, -0.12676584720611572, -1.2032734155654907], [-0.3802609443664551, 0.5686507821083069, -0.05825693905353546]], [[-0.4373612701892853, -0.18510586023330688, -0.49943193793296814], [0.1958445906639099, 0.034052684903144836, -0.14547613263130188], [0.45711442828178406, 0.5031481981277466, -0.20928050577640533]], [[0.045736782252788544, 0.15152642130851746, -0.02458660863339901], [0.4869942367076874, -0.5343854427337646, 0.03491322696208954], [0.6482576131820679, 0.6409819722175598, 0.2296353429555893]], [[0.07412029802799225, 0.39176061749458313, 0.4902340769767761], [-0.3136758506298065, 0.8366134762763977, 0.7304286360740662], [-0.9637249708175659, 0.005204893182963133, 0.35329508781433105]], [[0.5277086496353149, -0.15547874569892883, -0.059848852455616], [0.7344964146614075, -1.1388120651245117, -0.1966869980096817], [0.8615651726722717, 0.09157627820968628, 0.5010068416595459]], [[-0.039531294256448746, -0.24189287424087524, 0.34320807456970215], [0.46771863102912903, -0.47133004665374756, 0.05757446214556694], [-0.1546674519777298, 0.3861056864261627, 0.13560789823532104]], [[-0.04439267888665199, -1.1164369583129883, -0.3722518980503082], [0.3802652359008789, -0.5612251162528992, -0.34476298093795776], [-0.22942884266376495, 0.020357327535748482, 0.03777901083230972]], [[0.22593221068382263, 0.301488995552063, 0.39156216382980347], [-0.2275804728269577, 0.6234484910964966, 0.6983184218406677], [-0.8343790769577026, -0.2789290249347687, 0.17589056491851807]], [[0.08915064483880997, 0.14012625813484192, 0.7998722791671753], [0.5261210203170776, -0.6440297961235046, 0.14817780256271362], [0.4680247902870178, 0.8618912696838379, 0.4536684453487396]], [[0.10924864560365677, 0.2913095951080322, 0.3470536470413208], [-0.08476126939058304, 0.17948350310325623, 0.12318065762519836], [-0.34246209263801575, 0.020447401329874992, -0.2267906665802002]], [[0.009753357619047165, 0.38708630204200745, 0.4520905911922455], [-0.15350769460201263, 0.37321290373802185, 0.7618331909179688], [-0.16890648007392883, 0.30151131749153137, 0.27701592445373535]], [[-0.20318609476089478, 0.2109411656856537, -0.023137329146265984], [0.11910369247198105, 0.25915586948394775, -0.6535367965698242], [-0.34403297305107117, 0.5648238658905029, 0.2470279037952423]], [[-0.44843077659606934, -0.7781321406364441, -0.019500652328133583], [0.04492663964629173, -0.5245651006698608, -0.20236802101135254], [-0.09339849650859833, 0.41042134165763855, 0.39647749066352844]]], [[[-0.022576792165637016, -0.04973014071583748, -0.0429997444152832], [0.009000198915600777, 0.008872009813785553, 0.0015693772584199905], [-0.011661962606012821, -0.014421595260500908, 0.0020103082060813904]], [[-0.0029379429761320353, -0.023248430341482162, -0.01448401715606451], [0.004497647285461426, -0.03426600247621536, -0.054512813687324524], [-0.08201851695775986, -0.0065767173655331135, 0.012890014797449112]], [[0.005528721027076244, -0.020283976569771767, 0.012249097228050232], [-0.09404905885457993, -0.07997147738933563, -0.10571619868278503], [0.03982451930642128, -0.03623179718852043, -0.04406232759356499]], [[-0.028225360438227654, -0.05613519251346588, -0.044034238904714584], [-0.02019408717751503, -0.031114164739847183, -0.06552997976541519], [-0.07782764732837677, -0.00759922107681632, 0.011173483915627003]], [[-0.04444008320569992, -0.05960455909371376, -0.008863495662808418], [-0.03480980172753334, -0.055389054119586945, -0.06587386131286621], [-0.037495844066143036, 0.0192873515188694, -0.03733871132135391]], [[-0.009021734818816185, -0.05115970969200134, 0.012281140312552452], [0.007584454026073217, -0.023324206471443176, -0.01630035601556301], [0.017325956374406815, -0.05455796420574188, -0.009616094641387463]], [[-0.027560092508792877, -0.031726691871881485, 0.03903508558869362], [-0.05012793838977814, -0.07320258021354675, -0.0541486032307148], [-0.09060780704021454, 0.013656122609972954, -0.052535947412252426]], [[-0.10525666922330856, -0.022399917244911194, -0.07631818950176239], [-0.08232501149177551, -0.02515687793493271, -0.09309694170951843], [0.0022584127727895975, 0.011501732282340527, -0.03603969141840935]], [[-0.03375810757279396, -0.04460852965712547, -0.007542847190052271], [0.0059362598694860935, -0.013097542338073254, -0.0159139521420002], [-0.08686787635087967, -0.0185672827064991, -0.023510364815592766]], [[-0.08873952925205231, 0.013114139437675476, -0.05505260080099106], [-0.043195903301239014, -0.04216409847140312, -0.020689640194177628], [-0.07924412190914154, -0.02409846894443035, -0.00903177261352539]], [[0.04170209914445877, 0.019294926896691322, -0.03123493306338787], [-0.04030216857790947, 0.027079185470938683, -0.03375403583049774], [0.004700616933405399, 0.007278970442712307, 0.007408008445054293]], [[-0.08058128505945206, 0.0033317639026790857, -0.034531883895397186], [-0.048619192093610764, -0.028717439621686935, -0.03696161136031151], [-0.036418113857507706, 0.020898086950182915, -0.055005237460136414]], [[-0.008380464278161526, -0.05060834437608719, -0.048748694360256195], [-0.029759889468550682, -0.02200382947921753, -0.013986521400511265], [-0.031893983483314514, -0.033169299364089966, -0.03303645923733711]], [[-0.0678592398762703, 0.012790022417902946, -0.011759933084249496], [-0.08852747827768326, 0.034875594079494476, -0.038795821368694305], [-0.0573897548019886, -0.024765148758888245, -0.039310794323682785]], [[-0.03674382343888283, -0.055458735674619675, -0.057635772973299026], [-0.06662003695964813, -0.05108433589339256, 0.010029567405581474], [-0.009513960219919682, -0.0681496113538742, -0.031287409365177155]], [[-0.05991863086819649, -0.04813457280397415, -0.04456453025341034], [-0.05198294296860695, -0.0046235197223722935, -0.06812278181314468], [0.011872537434101105, -0.05247944965958595, -0.039602309465408325]], [[-0.0028333221562206745, -0.0650896281003952, -0.016090212389826775], [0.009934589266777039, -0.020018307492136955, -0.05393095314502716], [-0.07627939432859421, -0.04791751131415367, -0.04272708669304848]], [[-0.025108061730861664, -0.045332398265600204, 0.007819106802344322], [-0.06611364334821701, -0.04085580259561539, -0.018297115340828896], [-0.014420523308217525, 0.02683641016483307, -0.023724250495433807]], [[-0.035936273634433746, -0.04243873432278633, 0.015155330300331116], [-0.07153698056936264, -0.05723148211836815, -0.06951702386140823], [-0.09203512221574783, -0.01160021685063839, -0.025984836742281914]], [[0.01912032440304756, 0.05624265596270561, 0.013910394161939621], [-0.006877447012811899, -0.017651548609137535, -0.003528071567416191], [0.005718575324863195, -0.011886595748364925, -0.01417873241007328]], [[-0.02453594096004963, 0.006632399279624224, -0.0764239951968193], [-0.019447285681962967, -0.07020621001720428, -0.009299008175730705], [-0.024700170382857323, -0.01869208551943302, -0.02537650614976883]], [[0.027622947469353676, -0.04019627720117569, 0.03479169309139252], [-0.020546941086649895, 0.017490070313215256, -0.003930387087166309], [-0.02006792090833187, 0.01817258633673191, -0.013162401504814625]], [[-0.026439767330884933, -0.06625225394964218, -0.023323990404605865], [-0.03135329857468605, -0.029932595789432526, -0.047243811190128326], [-0.09153011441230774, -0.04157201200723648, -0.008326760493218899]], [[0.00566658703610301, -0.05818495154380798, -0.011726288124918938], [-0.08876606822013855, -0.08146541565656662, -0.09126117825508118], [-0.019468966871500015, -0.01211109571158886, -0.056048717349767685]], [[-0.006206942722201347, 0.014771559275686741, -0.009103374555706978], [-0.001079906476661563, -0.06481627374887466, -0.044526606798172], [-0.053061939775943756, -0.027059169486165047, -0.056854765862226486]], [[-0.07198227941989899, 0.011418246664106846, -0.007416455075144768], [0.030339382588863373, -0.046406250447034836, -0.02581680752336979], [-0.01951923780143261, 0.014671030454337597, -0.011932410299777985]], [[-0.017649399116635323, -0.009416772052645683, 0.00937073677778244], [-0.08142631500959396, -0.1045263335108757, -0.056764259934425354], [-0.11169900745153427, -0.054194580763578415, -0.019510654732584953]], [[0.0030181226320564747, -0.05625417083501816, -0.054583124816417694], [-0.03783014044165611, -0.01804266683757305, -0.010936757549643517], [-0.029385950416326523, 0.018581807613372803, -0.04395122453570366]], [[-0.06015437841415405, -0.025066807866096497, -0.011515398509800434], [-0.06491530686616898, -0.027509311214089394, -0.06760992854833603], [-0.06156228110194206, -0.045432187616825104, 0.015177332796156406]], [[-0.06282272934913635, -0.03965718671679497, -0.07940439879894257], [-0.027554569765925407, -0.06942909210920334, -0.025004804134368896], [-0.03736235946416855, -0.06261297315359116, -0.04749017581343651]], [[-0.03307521343231201, 0.029931429773569107, 0.032584287226200104], [-0.0429561585187912, -0.08699050545692444, -0.050405438989400864], [-0.06230201572179794, -0.04029367119073868, -0.012524614110589027]], [[-0.024659790098667145, 0.010252228938043118, -0.02591116540133953], [-0.05786348506808281, -0.031523820012807846, -0.03679971396923065], [-0.021324114874005318, -0.029759900644421577, -0.03366187959909439]], [[-0.059807561337947845, 0.024498941376805305, -0.00862443819642067], [-0.08685428649187088, -0.0006999318138696253, -0.03694238141179085], [-0.016196003183722496, 0.04420478641986847, -0.02000386267900467]], [[-0.02948755770921707, -0.008509193547070026, 0.024789785966277122], [-0.05320129916071892, -0.06476102024316788, -0.033835072070360184], [-0.005886494647711515, -0.02812862955033779, 0.007042878307402134]], [[0.016445426270365715, 0.03219624608755112, 0.020792365074157715], [-0.025029392912983894, -0.06887992471456528, -0.06100907176733017], [-0.02559676207602024, 2.3119077013689093e-05, 0.006063986569643021]], [[-0.008386058732867241, 0.026995431631803513, -0.01818430796265602], [-0.06310849636793137, -0.04853960499167442, -0.0787920206785202], [-0.03465671092271805, -0.03448546305298805, -0.039168018847703934]], [[-0.03950081393122673, 0.0014536360977217555, -0.01705622486770153], [-0.003785915905609727, -0.009664923883974552, -0.0953473299741745], [-0.03579181432723999, -0.017775699496269226, 0.017193177714943886]], [[-0.05704404041171074, -0.03544086590409279, -0.06885970383882523], [-0.004629401955753565, -0.04671363905072212, -0.06636372953653336], [0.03092392161488533, 0.029656553640961647, -0.014183473773300648]], [[-0.07412930577993393, 0.03654341399669647, -0.05497725307941437], [-0.05023517087101936, -0.06390819698572159, -0.07507509738206863], [-0.04475009813904762, -0.050693415105342865, -0.0663045197725296]], [[-0.03710208088159561, 0.018302135169506073, -0.07046421617269516], [-0.03920023888349533, -0.0448966808617115, -0.022685136646032333], [0.022067273035645485, -0.025154007598757744, -0.04736095666885376]], [[-0.05619616061449051, -0.03591269254684448, 0.005246790125966072], [-0.0471486933529377, -0.020698361098766327, -0.04467232525348663], [-0.020214926451444626, -0.0685199722647667, -0.014896906912326813]], [[0.012233353219926357, -0.05844159796833992, -0.030026549473404884], [-0.0018842407735064626, -0.043252985924482346, -0.035197727382183075], [-0.015330665744841099, -0.03453066200017929, -0.02594108320772648]], [[-0.09303084760904312, -0.019815893843770027, -0.05280633643269539], [-0.07652140408754349, -0.06841918081045151, -0.062376413494348526], [-0.014280863106250763, -0.10889480262994766, -0.09507902711629868]], [[-0.01182535383850336, -0.05266007408499718, 0.025574591010808945], [-0.07448789477348328, -0.010619536973536015, -0.06762369722127914], [-0.0377424955368042, 0.01647200435400009, -0.019864600151777267]], [[-0.044981613755226135, 0.019382918253540993, -0.07386638969182968], [-0.06683008372783661, -0.06335917860269547, -0.07193523645401001], [0.003644730895757675, -0.048296406865119934, -0.00546992477029562]]], [[[0.21160316467285156, 0.317931205034256, 0.044770292937755585], [-0.06340830028057098, -0.2699742913246155, 0.04202448949217796], [0.5458275675773621, -0.41915181279182434, -0.6132392287254333]], [[0.20038919150829315, 0.22531931102275848, -0.015094703994691372], [-0.35904738306999207, 0.11158154904842377, -0.694779098033905], [-0.3598783612251282, -0.6159374713897705, -0.5368013978004456]], [[0.1283138394355774, -0.7202921509742737, -1.278100609779358], [0.0043777404353022575, -0.08684547990560532, -1.0725127458572388], [-0.08676160126924515, -0.12534117698669434, -0.049961622804403305]], [[-0.10787656903266907, 0.28036460280418396, 0.006715357769280672], [-0.39788925647735596, 0.3596102297306061, 0.38021597266197205], [-0.6419957876205444, -0.7967883348464966, -0.15204644203186035]], [[-0.1328376829624176, 0.7419232130050659, -0.10784740000963211], [0.11925293505191803, 0.16926106810569763, 0.15269586443901062], [0.8001165986061096, -0.15696176886558533, -0.7097187638282776]], [[-0.5260376334190369, -0.19931699335575104, -1.4004268646240234], [-0.6775332093238831, 0.19943402707576752, 0.03116374835371971], [-0.1773129254579544, -0.1869950294494629, 0.04805243760347366]], [[0.3738185167312622, -0.16839073598384857, -0.35750558972358704], [-0.5043811202049255, 0.06041138246655464, 0.24015311896800995], [0.1916513890028, -0.9446606040000916, -0.4591411054134369]], [[0.12066851556301117, -0.1981702446937561, -0.0065245917066931725], [0.14236600697040558, 0.666998028755188, 0.3338897228240967], [-0.45219215750694275, -0.4358256161212921, 0.7595361471176147]], [[0.07113086432218552, 0.1990637183189392, -0.05680361017584801], [-0.051364850252866745, -0.20123955607414246, -0.2030673772096634], [0.3451179265975952, -0.4691011905670166, -0.360100120306015]], [[0.29908066987991333, -0.6651923060417175, -0.7991493940353394], [0.5512198805809021, 0.35760030150413513, -0.5477660298347473], [-0.0632941946387291, 0.18239381909370422, 0.6952024698257446]], [[0.24469327926635742, -0.06493652611970901, -0.4567814767360687], [-0.43839144706726074, 0.7039279341697693, 0.3933621644973755], [-0.07844603061676025, -0.5219399929046631, 0.4271971881389618]], [[-0.49488675594329834, 0.4678768217563629, -0.33928388357162476], [-0.49248918890953064, 0.29980117082595825, 0.4736681580543518], [0.024903735145926476, -0.7642364501953125, -0.3587648868560791]], [[-0.017596647143363953, -0.5173811316490173, -1.2541078329086304], [0.2876758277416229, -0.29363399744033813, -0.6980301141738892], [0.631007730960846, 0.16398605704307556, 0.9591381549835205]], [[0.1616513431072235, 0.28591907024383545, -0.07919064164161682], [-0.09702347964048386, 0.4921615421772003, 0.004143103025853634], [-0.5155242085456848, -0.5628073811531067, 0.09687015414237976]], [[-0.27252396941185, 0.12432144582271576, -0.6331958174705505], [-0.37815186381340027, 0.005255077965557575, -0.5902989506721497], [0.2913126051425934, -0.16116401553153992, -0.25636589527130127]], [[0.22419723868370056, 0.23124440014362335, 0.010811373591423035], [-0.2570245563983917, -0.05148177221417427, -0.77107173204422], [-0.5597089529037476, -0.16593168675899506, -0.5620271563529968]], [[-0.5538384318351746, 0.30681267380714417, -0.15023206174373627], [-0.5170404314994812, -0.014795905910432339, 0.5366950035095215], [-0.06686685234308243, -0.7337520718574524, -0.21499741077423096]], [[0.23444247245788574, 0.13836708664894104, 0.005545704159885645], [0.07107577472925186, 0.36301347613334656, -0.24410821497440338], [-0.3589003384113312, -0.28616049885749817, -0.03368115797638893]], [[0.2564331293106079, 0.29514408111572266, -0.5712021589279175], [-0.4136611819267273, 0.5061551928520203, -0.24514280259609222], [-0.6164318919181824, -0.5948043465614319, -0.3799452781677246]], [[-0.19892175495624542, -0.2672703266143799, -1.2126917839050293], [-0.41220948100090027, -0.45325520634651184, -0.3356506824493408], [0.3335764408111572, 0.6455217599868774, 0.06835752725601196]], [[0.023716963827610016, 1.1865906715393066, 0.6871168613433838], [0.653204619884491, 0.079875148832798, 0.7206860184669495], [0.5073761343955994, -0.5002711415290833, -1.37393319606781]], [[-0.18988431990146637, 0.4890347421169281, -0.2624902129173279], [0.09064966440200806, 0.08183033019304276, 0.4853791892528534], [1.387156367301941, 0.3997003436088562, -0.32047390937805176]], [[0.5779523253440857, 0.26864156126976013, 0.7128542065620422], [0.5524563789367676, 1.1648436784744263, 0.9375782012939453], [-0.4540887773036957, -0.26217934489250183, -0.046766459941864014]], [[0.03258465975522995, -0.12686024606227875, 0.12605741620063782], [0.13583417236804962, -0.16255684196949005, -0.07238742709159851], [0.31899476051330566, -0.05525948107242584, -0.31038060784339905]], [[1.1711713075637817, 1.2791979312896729, 0.3932761251926422], [0.7688597440719604, 2.1551101207733154, 1.4789962768554688], [-0.02807137928903103, -0.27151569724082947, -0.031550418585538864]], [[0.7936185002326965, 0.5814003944396973, 0.18649958074092865], [0.5312443971633911, 1.4061362743377686, -0.46560904383659363], [-0.20509324967861176, 0.6628021001815796, 0.2093469649553299]], [[0.23748968541622162, -0.4151597321033478, -0.7085012793540955], [0.03356197848916054, -0.6175183057785034, -1.0516910552978516], [-0.34124982357025146, -0.8840619325637817, -0.9218448996543884]], [[0.12386637181043625, 0.71639084815979, 0.28699231147766113], [0.29694128036499023, 0.7580164074897766, 0.2534322142601013], [-0.04722485691308975, 0.04404045268893242, -0.015433192253112793]], [[-0.3161655068397522, 0.6107062697410583, -0.27076274156570435], [-0.4939541518688202, 0.12371997535228729, 0.1427011638879776], [-0.3329802453517914, -0.49509480595588684, -0.11133395880460739]], [[0.11836415529251099, -0.1614520251750946, -0.3549368679523468], [-0.6363032460212708, -0.16404512524604797, -0.1440696269273758], [-0.027260031551122665, -0.5209776163101196, -0.1960776299238205]], [[0.22564812004566193, -0.0938500165939331, -0.18999138474464417], [0.25455212593078613, 1.538596272468567, -0.2658328115940094], [-0.39792099595069885, 0.3705143928527832, 0.5609641671180725]], [[0.2795773148536682, 0.22288089990615845, -0.1402185708284378], [0.5055943131446838, 0.6411052942276001, 1.1409072875976562], [-0.5327290892601013, 0.10052728652954102, 0.047016143798828125]], [[0.36439499258995056, 1.0722262859344482, 0.2796567678451538], [0.9463025331497192, 1.5108364820480347, 0.9465259909629822], [0.0951346904039383, 0.6287504434585571, 0.12096668034791946]], [[0.3739144802093506, -0.02007293701171875, -0.7152345776557922], [-0.43311813473701477, 0.6937029957771301, 0.1680176705121994], [-0.3208766281604767, -0.21119339764118195, 0.47854703664779663]], [[0.061013199388980865, -0.3748604357242584, -0.1691230684518814], [-0.8242954015731812, -0.5592840313911438, -0.0964580848813057], [-0.20455987751483917, -1.5125151872634888, -1.0351451635360718]], [[-0.41149967908859253, -0.17909014225006104, -1.0378109216690063], [-0.1319848746061325, 0.2503705322742462, -0.8386373519897461], [0.14776213467121124, 0.40783923864364624, 0.81180739402771]], [[-0.28284066915512085, 0.49984660744667053, 0.01450321450829506], [0.15719252824783325, -0.24130533635616302, 0.39881205558776855], [1.1340488195419312, 0.37923920154571533, -0.3758124113082886]], [[-0.172116219997406, 0.05602692812681198, 0.1263488233089447], [0.3147190809249878, -1.045125126838684, -0.4518117904663086], [-0.05356920510530472, -0.334381103515625, -0.6819227933883667]], [[0.17558856308460236, -0.7876125574111938, -0.4040912091732025], [0.612427294254303, 0.6110949516296387, 0.24955233931541443], [-0.13776689767837524, 0.9580392837524414, 1.328006386756897]], [[-0.25743240118026733, -0.1923324018716812, -0.8007592558860779], [-0.20488858222961426, 0.5679570436477661, -0.37029707431793213], [-0.18347804248332977, 0.18888148665428162, 0.8502054810523987]], [[0.07102810591459274, -0.003133803140372038, 0.25435468554496765], [0.2733694612979889, -0.941851794719696, -0.3276694715023041], [-0.4489119052886963, -0.8470047116279602, -1.2363871335983276]], [[-0.1781802922487259, -0.07548228651285172, -0.19386416673660278], [-0.7021811008453369, -0.3723042905330658, -0.49484845995903015], [0.2927468419075012, -0.6752284169197083, -0.6940167546272278]], [[-0.8261273503303528, -0.7359204292297363, -0.7125041484832764], [-0.08290126174688339, -0.4078935384750366, -0.7850473523139954], [0.04651225730776787, 0.7470198273658752, -0.4747406244277954]], [[0.2937467694282532, 0.5946293473243713, 0.3023880422115326], [0.021278085187077522, 0.45335355401039124, 0.48911067843437195], [-0.4560706317424774, -0.5739585161209106, -0.5159077644348145]], [[0.14769873023033142, -0.6240738034248352, -0.432479590177536], [0.493442177772522, 0.6990770697593689, 0.4310780167579651], [-0.623985230922699, 0.44075918197631836, 0.7775880694389343]]], [[[0.5176101326942444, 0.25981956720352173, -0.7601069808006287], [0.6087551712989807, -0.18024592101573944, -0.3127528429031372], [0.3164794445037842, 0.08874979615211487, 0.27345314621925354]], [[0.6922311782836914, 0.244474858045578, -0.8613004088401794], [-0.7148836851119995, -0.572056233882904, -0.728681206703186], [-0.31362247467041016, 0.08924376964569092, 0.5232791900634766]], [[0.15360960364341736, 0.3480018675327301, -0.15025866031646729], [-0.48157790303230286, -0.3378986716270447, -0.21641722321510315], [-0.5817344784736633, -0.09975123405456543, -0.09740003943443298]], [[-0.1823689341545105, -0.398003488779068, -0.12680965662002563], [0.18756109476089478, 0.1076647937297821, 0.6117597222328186], [-0.16691023111343384, -0.2129974514245987, 0.38960134983062744]], [[-0.014893031679093838, 0.5857118368148804, 0.37055423855781555], [-0.3062165379524231, -0.30367153882980347, -0.27201420068740845], [0.03575534746050835, -0.9205014705657959, -0.7630305886268616]], [[0.36411482095718384, 0.9531087279319763, 0.5823118686676025], [-0.5665566325187683, 0.41217929124832153, 0.8839702606201172], [-0.582062840461731, -0.020391317084431648, -0.08072634786367416]], [[-0.39906609058380127, -0.4416497051715851, -0.14826877415180206], [-0.17265154421329498, 0.43347451090812683, 1.166900396347046], [0.19820672273635864, -0.497418075799942, 0.39449021220207214]], [[0.6845758557319641, 0.39134788513183594, 1.0944526195526123], [0.4003121256828308, 0.7217589616775513, 0.45984020829200745], [0.08921357244253159, 0.01831529475748539, 0.4638167917728424]], [[0.1427564173936844, 0.7229443192481995, 0.6674947738647461], [-0.0785219669342041, -0.024142036214470863, -0.25774893164634705], [-0.029158806428313255, -0.8227430582046509, -1.0759992599487305]], [[0.29507848620414734, 0.12207473814487457, 0.5057196617126465], [0.401326447725296, 0.9532058238983154, 0.39785078167915344], [-0.05496346950531006, 0.32052597403526306, 0.17805758118629456]], [[-0.2227502316236496, -0.49026718735694885, -0.18004202842712402], [-0.7137681245803833, 0.2772480249404907, 0.5196439623832703], [0.2674347162246704, -0.0346481055021286, 0.5161463022232056]], [[-0.7459647059440613, -0.35302677750587463, -0.035370055586099625], [-0.2976667582988739, 0.2562982141971588, 1.1447734832763672], [-0.060194600373506546, 0.1251707375049591, 0.6211075782775879]], [[0.458418071269989, 0.08209164440631866, 0.33450329303741455], [0.09888684749603271, -0.1986275166273117, 0.18872582912445068], [-0.2936556339263916, -0.45386651158332825, 0.14316760003566742]], [[0.07207842916250229, -0.49617135524749756, 0.06126071885228157], [0.16322022676467896, 0.24117575585842133, 0.24180026352405548], [-0.11975766718387604, -0.2908071279525757, 0.17253294587135315]], [[0.14311763644218445, 0.28894707560539246, -0.2720988988876343], [-0.05703888460993767, -0.24261033535003662, -0.20087212324142456], [-0.3493242859840393, 0.02698240987956524, 0.178771510720253]], [[0.6605420708656311, 0.5607316493988037, -0.04633145406842232], [0.06548689305782318, -0.30987730622291565, -0.9990081191062927], [0.15237662196159363, -0.1584112048149109, 0.14130081236362457]], [[-0.5212335586547852, -0.431252121925354, -0.1487918198108673], [-0.14019788801670074, 0.15233856439590454, 0.9731597304344177], [-0.042851850390434265, 0.35433533787727356, 0.44764837622642517]], [[-0.09834108501672745, -0.6483151316642761, 0.1264704316854477], [0.29359951615333557, 0.2019556760787964, 0.28361377120018005], [-0.08471672236919403, -0.026411255821585655, 0.3127923011779785]], [[0.03610337898135185, -0.3024337589740753, -0.2648922801017761], [-0.05239798128604889, -0.10396835952997208, 0.5233701467514038], [-0.45276641845703125, -0.34551000595092773, 0.35440799593925476]], [[-0.161301851272583, 1.1848326921463013, 0.7506722211837769], [-0.463260680437088, 0.9120603799819946, 0.5650675892829895], [-0.6900683045387268, 0.4903249144554138, -0.5201687812805176]], [[0.17468295991420746, 0.853946328163147, 0.6075744032859802], [-0.3446671962738037, -0.7905725240707397, -0.3587527275085449], [0.3447059988975525, -0.37967371940612793, -0.8517336249351501]], [[-0.20790036022663116, 0.2978566288948059, 0.45579540729522705], [-0.07465832680463791, 0.0024674024898558855, 0.26577016711235046], [-0.17015083134174347, -1.050683617591858, -1.217271327972412]], [[1.1573500633239746, 0.7646617293357849, 1.250306248664856], [-0.26864373683929443, -0.010623143054544926, 0.45518046617507935], [-0.1754380464553833, -0.10466169565916061, 0.8271849155426025]], [[0.021762825548648834, -0.21748670935630798, -0.3074415624141693], [0.11072839051485062, -0.23865096271038055, -0.4099375903606415], [0.24805164337158203, -0.010134938172996044, -0.21970456838607788]], [[1.7447524070739746, 1.261775255203247, 0.2873028814792633], [-0.3395823836326599, -0.4695071280002594, 0.03258578106760979], [0.4425692856311798, -1.1174818277359009, 1.0363447666168213]], [[-0.08777780830860138, -1.0053309202194214, -1.3274943828582764], [-1.4134657382965088, -1.5410370826721191, -2.0564730167388916], [-0.9652101993560791, -0.3618040978908539, 0.3511972427368164]], [[1.6066726446151733, 1.0390393733978271, 0.40693753957748413], [-0.1238311156630516, -1.0385937690734863, -1.2532094717025757], [0.05196397751569748, -1.3305562734603882, -0.16995581984519958]], [[0.3530779778957367, -0.13347406685352325, 0.45513755083084106], [0.2276677042245865, -0.6225753426551819, -0.4044126570224762], [-0.2357863336801529, -0.04335283115506172, 0.44721806049346924]], [[-0.21286597847938538, -0.3796915113925934, 0.21444812417030334], [0.07379040867090225, -0.12273617833852768, 0.8102381825447083], [0.2697935104370117, 0.047029271721839905, 0.2173832356929779]], [[-0.27794212102890015, -0.3118571639060974, -0.38533225655555725], [-0.3391266465187073, 0.4494418799877167, 0.36178919672966003], [0.2460043877363205, -0.08514431118965149, -0.3051609694957733]], [[-0.30778512358665466, -0.8937984704971313, -0.15411518514156342], [-0.4255935549736023, 0.15407563745975494, 0.5250158905982971], [-0.48042231798171997, 0.14410261809825897, 1.2756590843200684]], [[0.41023731231689453, 0.8691616654396057, 0.8293577432632446], [-0.37273287773132324, -0.5072722434997559, 0.7790115475654602], [-0.1365446150302887, 0.5471093058586121, 0.5454457402229309]], [[0.9146251678466797, 0.5049139261245728, 0.18193967640399933], [0.04409164562821388, -1.2124550342559814, -0.460959255695343], [-0.10551963746547699, 0.7392324805259705, 0.6393430829048157]], [[-0.005359173286706209, -0.2969721555709839, -0.10242392867803574], [-0.441899836063385, -0.03672308847308159, 0.7361350655555725], [0.09662347286939621, -0.13798977434635162, 0.5104133486747742]], [[-0.33722689747810364, -0.04114178568124771, 0.14156273007392883], [-0.3164413869380951, 0.6148197650909424, 0.993903636932373], [-0.2488696277141571, -0.7475199699401855, 0.21946589648723602]], [[0.628594696521759, 0.15515340864658356, 0.6280075907707214], [0.4756387770175934, 0.18044406175613403, 0.04405386000871658], [0.018771855160593987, -0.32823610305786133, -0.14245405793190002]], [[-0.12755905091762543, 0.34944939613342285, 0.4790351092815399], [0.0065475283190608025, -0.35928216576576233, -0.0417267270386219], [0.027339670807123184, -0.9482000470161438, -1.239237666130066]], [[0.10604036599397659, 0.31134033203125, -0.03810596838593483], [-0.049922432750463486, -0.7913334965705872, -0.9730518460273743], [-0.16388240456581116, -0.1889546811580658, -0.9057111740112305]], [[-0.45849889516830444, 0.0615578331053257, 0.1786237359046936], [-0.47909411787986755, 0.001176012447103858, 0.03459089621901512], [-0.42738690972328186, 1.0315229892730713, 0.36990848183631897]], [[0.3328656256198883, -0.11010731011629105, 0.4191517233848572], [0.2980239689350128, 0.24238939583301544, 0.00016221038822550327], [0.1408478170633316, -0.08112359791994095, 0.16825826466083527]], [[0.09005033224821091, 0.2883510887622833, 0.1641208678483963], [-0.2725366950035095, -1.1589518785476685, -0.9833840131759644], [-0.5330151915550232, -0.7005044221878052, -0.6272529363632202]], [[0.35033363103866577, 0.28239431977272034, -0.4904395043849945], [0.040050093084573746, 0.09566490352153778, 0.4302540123462677], [-0.08178359270095825, 0.047185126692056656, 0.36517634987831116]], [[0.1687733680009842, 0.3425549864768982, 0.32538536190986633], [-0.125846728682518, -0.5399137139320374, -0.22038860619068146], [0.35202163457870483, 0.1180153638124466, -0.3101850748062134]], [[0.6328973174095154, 0.2626802623271942, 0.08956705033779144], [-0.11600621789693832, -1.0236127376556396, -0.5181448459625244], [-0.16933080554008484, 0.22449861466884613, 0.17179323732852936]], [[0.16299371421337128, 0.3137046992778778, 0.02684755250811577], [-0.2212626039981842, -0.40748074650764465, -0.058614347130060196], [-0.16358980536460876, 1.2453099489212036, 0.6224901676177979]]], [[[-0.0074088298715651035, -0.24452859163284302, 0.4856400787830353], [0.7483465671539307, -0.5078292489051819, 0.29463210701942444], [-0.00138405233155936, -0.5918340086936951, -0.100746288895607]], [[-0.1648802012205124, 0.12359272688627243, 1.0063178539276123], [0.3994534909725189, -0.7441361546516418, -0.20630349218845367], [0.48655036091804504, -0.31170299649238586, -0.38286617398262024]], [[-0.6328795552253723, -0.22788850963115692, 0.4045427739620209], [-0.22356799244880676, 0.54746013879776, 0.46703702211380005], [0.02196606993675232, 0.2650526165962219, -0.6733580231666565]], [[0.27471476793289185, -0.49123615026474, 0.13374359905719757], [0.3499954342842102, -0.7910498976707458, -0.2870164215564728], [0.5402845740318298, -0.32492801547050476, 0.08727087825536728]], [[-0.5358887910842896, -0.3442520797252655, 0.0966859757900238], [-0.572942316532135, -0.696924090385437, 0.9478955268859863], [-0.8854694962501526, 0.004572397563606501, 0.5284194946289062]], [[0.5399592518806458, -0.15668334066867828, 0.07522337883710861], [0.4719160497188568, 0.7883966565132141, 0.5136841535568237], [0.08930917829275131, 0.7704173922538757, -0.01817227341234684]], [[-0.14005567133426666, -0.21463969349861145, -0.10138643532991409], [0.46862196922302246, -1.6243200302124023, -0.11656378954648972], [0.013519863598048687, -1.1216881275177002, 0.5980233550071716]], [[0.4878752827644348, 0.33144932985305786, -0.5513688325881958], [0.3958483934402466, 0.6877622604370117, 0.10617800056934357], [0.09270021319389343, 0.5922000408172607, 0.0294137354940176]], [[-0.3655296564102173, -0.5264962315559387, -0.43223536014556885], [0.0354851596057415, -0.5193806290626526, 0.7739415168762207], [0.24844838678836823, 0.010585552081465721, 0.32356032729148865]], [[-0.004667449276894331, -0.22813306748867035, -0.6141733527183533], [0.1510247141122818, 0.2290041595697403, 0.24351198971271515], [0.0884442925453186, 0.29625973105430603, 0.006418438162654638]], [[-0.3406505882740021, 0.2303239405155182, -0.5607919096946716], [-0.10382867604494095, -0.10399821400642395, -0.08014225214719772], [-0.1517103910446167, 0.06205671653151512, 0.7158282995223999]], [[0.06579148769378662, -0.7139729857444763, -0.07171182334423065], [0.6080894470214844, -0.710341215133667, -0.3167118728160858], [0.35404497385025024, -0.09861569106578827, 0.01602044887840748]], [[-0.5534992814064026, -0.6211106181144714, -0.5278387069702148], [0.3768591284751892, 0.5148714184761047, 0.5512811541557312], [0.20374517142772675, 0.06242261826992035, -0.3704982399940491]], [[0.09537719190120697, -0.41649025678634644, -0.16972379386425018], [0.33256199955940247, -0.38284629583358765, 0.26032382249832153], [0.10260893404483795, -0.05503077805042267, -0.033784691244363785]], [[0.018895545974373817, -0.14347565174102783, 0.19977344572544098], [0.22685237228870392, 0.10776510834693909, 0.2151465266942978], [0.03430537134408951, 0.01443775650113821, -0.34513095021247864]], [[-0.13032230734825134, -0.29279741644859314, 0.27660542726516724], [0.05531008169054985, -0.10471823066473007, 0.4687351882457733], [0.19812238216400146, -0.11170041561126709, -0.4173424243927002]], [[0.2695758640766144, -0.6555644869804382, -0.2164381444454193], [0.6144781112670898, -0.5185723900794983, -0.5138500332832336], [0.40199539065361023, 0.05647945776581764, -0.19354572892189026]], [[0.26027795672416687, -0.23105095326900482, -0.3399639427661896], [0.3524134159088135, -0.43570855259895325, 0.38004976511001587], [0.24917668104171753, -0.27552053332328796, 0.1660449206829071]], [[0.014736805111169815, -0.14846865832805634, 0.025091173127293587], [0.0908169224858284, 0.021011527627706528, -0.2892310321331024], [0.5269728899002075, -0.09609251469373703, -0.7206228971481323]], [[-0.03962841257452965, -0.5816551446914673, -0.373594731092453], [0.6849081516265869, 0.8654382228851318, 0.6216338872909546], [0.3587225079536438, 0.6551799178123474, -0.07339730858802795]], [[-0.31225937604904175, -0.4674113094806671, 0.07232190668582916], [-0.4806469976902008, -1.5994070768356323, 0.3464238941669464], [-0.830675482749939, -0.014523168094456196, 0.38055363297462463]], [[-0.213232159614563, -0.27165570855140686, 0.22725528478622437], [-0.3110053241252899, -0.383826345205307, 0.7364808320999146], [-0.812807559967041, -0.7111441493034363, 0.12684936821460724]], [[0.6036439538002014, 0.13067831099033356, 0.3440644443035126], [0.727653980255127, -1.9840223789215088, 0.32041338086128235], [0.09272601455450058, -1.7875202894210815, 0.6868218779563904]], [[-0.4839269518852234, -0.34831365942955017, -0.164017915725708], [-0.2532326579093933, -0.14370864629745483, 0.3050261437892914], [0.17728398740291595, 0.11795986443758011, 0.3409882187843323]], [[-0.1060672178864479, 0.18902689218521118, 0.3039933741092682], [-0.7764948606491089, 0.4041799306869507, 1.053622841835022], [-0.47851094603538513, 0.7963457107543945, 1.0615426301956177]], [[-0.4410936236381531, 0.7110729813575745, 1.0006202459335327], [-0.7200363874435425, -0.12439676374197006, 0.2264748513698578], [-0.4062555432319641, -0.10878141969442368, -0.1080426499247551]], [[-0.2887694537639618, 0.24396908283233643, 0.554996132850647], [-0.06456495821475983, 0.04932299256324768, 0.6033902168273926], [-0.32963231205940247, 0.8278475403785706, -0.15057824552059174]], [[0.020729869604110718, -0.030187714844942093, -0.4583011269569397], [-0.003846348961815238, -0.15663735568523407, 0.276646226644516], [-0.09023869782686234, -0.06823323667049408, 0.10231925547122955]], [[0.21789990365505219, -0.5939208269119263, -0.18038594722747803], [0.31891927123069763, -0.6283249855041504, 0.2953018248081207], [0.4081190824508667, -0.1862155944108963, 0.058174192905426025]], [[-0.3584383428096771, -0.04205993190407753, -0.6075422763824463], [0.258081316947937, -0.4756520986557007, 0.2056017369031906], [0.1655401885509491, -0.35232236981391907, 0.672448456287384]], [[-0.01021800097078085, 0.041991956532001495, 0.10387289524078369], [0.12536044418811798, -0.7379357814788818, -0.18806472420692444], [0.2464463710784912, -0.8263534307479858, -0.12084844708442688]], [[0.9319740533828735, 0.42579540610313416, 0.3319751024246216], [0.770747184753418, -1.2557557821273804, -0.10651865601539612], [0.2887868285179138, -1.6932592391967773, 0.35254138708114624]], [[0.8029810190200806, 1.2792079448699951, 0.5696290135383606], [-0.26099127531051636, 0.3276502192020416, 0.29401832818984985], [-0.35359644889831543, 0.146419957280159, 0.5802146196365356]], [[-0.16067060828208923, 0.01609306037425995, -0.07559462636709213], [0.028586581349372864, -0.5155236124992371, -0.3263922333717346], [0.249637633562088, -0.18709899485111237, 0.12709571421146393]], [[0.053941238671541214, -0.4169611930847168, 0.1347203403711319], [0.6294792890548706, -4.2768049240112305, -1.1290092468261719], [0.3112250566482544, -3.4653780460357666, -0.3483181893825531]], [[-0.3585667014122009, -0.076716847717762, -0.3201483190059662], [-0.31567952036857605, 0.5517171621322632, 0.5228463411331177], [-0.12161519378423691, 0.7655094265937805, 0.07902579009532928]], [[-0.2635452151298523, -0.3634587824344635, 0.10385922342538834], [-0.2783263921737671, -0.5235887765884399, 0.6424297094345093], [-0.4416463077068329, -0.28649014234542847, 0.18035249412059784]], [[-0.2346106767654419, -0.09188785403966904, 0.3055492639541626], [0.23682978749275208, -1.6049498319625854, 0.8287810683250427], [0.035383082926273346, -1.5063138008117676, 0.026698457077145576]], [[0.16638849675655365, 0.23953412473201752, -0.36251556873321533], [0.42116719484329224, 0.14651110768318176, -0.03773488476872444], [0.06406373530626297, -0.20283564925193787, 0.0011543682776391506]], [[-0.10352037847042084, 0.0741342157125473, -0.39111781120300293], [-0.10326007753610611, 0.25008130073547363, 0.399236261844635], [-0.0831766352057457, 0.33973655104637146, 0.22716915607452393]], [[0.16899460554122925, 0.06397748738527298, 0.8125042915344238], [0.21032029390335083, -3.330317974090576, 0.6166414022445679], [-0.543333113193512, -3.0988447666168213, -0.48148542642593384]], [[-0.2184314876794815, -0.4243837594985962, 0.239524707198143], [0.3932301998138428, -0.34824255108833313, 0.15801236033439636], [0.2957379221916199, 0.06305702030658722, -0.3198356628417969]], [[-0.6693300008773804, -0.3203403353691101, -0.015181760303676128], [-0.7126099467277527, 0.007690449245274067, 0.7156374454498291], [-0.5208026170730591, 0.0958361104130745, 0.4904080629348755]], [[0.12315406650304794, 0.1249602735042572, -0.040590498596429825], [-0.23819833993911743, -0.16593074798583984, -0.01801684871315956], [-0.012433034367859364, 0.14223244786262512, 0.36887967586517334]], [[0.385440856218338, 0.48309043049812317, -0.21363554894924164], [-0.10770075023174286, -0.11948644369840622, -0.051309067755937576], [-0.3218737244606018, -0.2085510939359665, 0.28457164764404297]]], [[[-0.010111227631568909, -0.03925003856420517, 0.0030385437421500683], [0.009304225444793701, -0.009931589476764202, -0.0737857073545456], [-0.016572989523410797, 0.02353462018072605, -0.055337775498628616]], [[0.006754604633897543, 0.029876936227083206, -0.03712132200598717], [-0.0538753978908062, -0.0764770656824112, -0.009157351218163967], [0.038682762533426285, 0.0065986826084554195, -0.09313174337148666]], [[-0.0652160793542862, -0.033647991716861725, 0.05037122592329979], [-0.034772105515003204, -0.05835307762026787, -0.04785081744194031], [0.00839187391102314, -0.013387201353907585, -0.0498882532119751]], [[-0.03266698122024536, -0.008490698412060738, -0.014861791394650936], [-0.049728184938430786, -0.036584075540304184, -0.03878054767847061], [-0.054230984300374985, -0.04968615993857384, -0.08251237869262695]], [[-0.03982790559530258, -0.02217807061970234, -0.052244625985622406], [-0.03351239487528801, -0.05153627693653107, 0.006295098457485437], [-0.006073411554098129, 0.07199740409851074, -0.07149670273065567]], [[-0.07343550771474838, -0.017643369734287262, -0.0581471249461174], [0.03181023150682449, -0.05344914272427559, 0.06600859016180038], [0.040754158049821854, -0.026266299188137054, -0.0002679491008166224]], [[0.02959338389337063, 0.015882840380072594, -0.06860800832509995], [-0.024181287735700607, -0.08027146756649017, 0.00794279109686613], [-0.013732120394706726, 0.00292618153616786, -0.0738053023815155]], [[-0.052102215588092804, -0.026866847649216652, 0.00747476052492857], [-0.024139437824487686, -0.037109024822711945, 0.03171643987298012], [0.07349693775177002, -0.039484161883592606, 0.02333419770002365]], [[-0.0020328809041529894, 0.013191688805818558, -0.03005628101527691], [-0.09227625280618668, -0.061896126717329025, -0.030055968090891838], [0.06126949191093445, -0.05951381474733353, 0.010944796726107597]], [[-0.0021701727528125048, 0.004879610612988472, 0.019377348944544792], [-0.032217297703027725, -0.05104193463921547, -0.0074417488649487495], [0.013668878003954887, -0.024086706340312958, -0.06393109261989594]], [[-0.004160948097705841, 0.007221736013889313, -0.02915884554386139], [-0.07657723128795624, -0.10036589205265045, -0.04275210574269295], [0.05955006554722786, -0.019736720249056816, -0.01443087961524725]], [[-0.05141444504261017, 0.020680923014879227, -0.03861253708600998], [-0.03833824768662453, -0.08514203131198883, -0.07984332740306854], [-0.025366930291056633, 0.013922590762376785, 0.00471116229891777]], [[-0.050221506506204605, -0.018771441653370857, -0.0349956713616848], [0.04072117805480957, -0.07123544812202454, -0.009051977656781673], [0.052956342697143555, 0.024565517902374268, -0.038189880549907684]], [[0.002374767791479826, -0.036073990166187286, -0.015500509180128574], [-0.06250158697366714, -0.0901331976056099, -0.07662556320428848], [-0.011106036603450775, -0.0006938243750482798, -0.024174168705940247]], [[-0.03348242864012718, 0.020635288208723068, -0.02040828950703144], [-0.045589715242385864, -0.0006479473668150604, -0.0696137547492981], [-0.01566551811993122, -0.021676834672689438, -0.01704980805516243]], [[-0.03115968033671379, -0.03589320555329323, 0.009674536995589733], [-0.009654920548200607, -0.0355132557451725, -0.007119526155292988], [0.04527910053730011, 0.005011989269405603, -0.010809473693370819]], [[-0.042818497866392136, 0.03512265533208847, 0.008483449928462505], [-0.031074773520231247, -0.012132792733609676, 0.008238165639340878], [-0.035645853728055954, -0.014155593700706959, -0.07132494449615479]], [[0.0545835979282856, 0.022898096591234207, -0.03562682867050171], [-0.022198835387825966, -0.02518201433122158, -0.03518112748861313], [0.051148831844329834, 0.016851115971803665, -0.08460810780525208]], [[-0.06343831866979599, 0.0037149095442146063, -0.01800231635570526], [-0.003268731292337179, -0.03732829540967941, 0.01704295165836811], [-0.04614871367812157, 0.014460892416536808, 0.003746133064851165]], [[-0.00040127814281731844, -0.03437696024775505, 0.02041432075202465], [-0.08005811274051666, -0.012549050152301788, 0.00863354466855526], [-0.07920253276824951, -0.08054526150226593, 0.059061214327812195]], [[-0.042114391922950745, -0.05801810696721077, -0.021720319986343384], [-0.10152540355920792, 0.011736880987882614, 0.014047940261662006], [0.0039444430731236935, 0.019122468307614326, 0.0014495138311758637]], [[-0.013789248652756214, -0.05625496059656143, 0.016864463686943054], [-0.04854587838053703, 0.005906735081225634, -0.0439230315387249], [-0.018626827746629715, 0.06134781241416931, -0.012457548640668392]], [[-0.0324513204395771, -0.03195587918162346, 0.013645900413393974], [0.013728207908570766, -0.052576806396245956, -0.05416829511523247], [0.0025675464421510696, 0.025650687515735626, -0.03197436407208443]], [[-0.03654631972312927, -0.0649527832865715, 0.008933750912547112], [-0.08058637380599976, -0.08222484588623047, 0.005606216844171286], [0.02786363661289215, -0.008341015316545963, -0.003097429173067212]], [[-0.06180978938937187, 0.010541262105107307, -0.03651062026619911], [-0.05379592999815941, -0.06907426565885544, -0.012694431468844414], [-0.10638722777366638, -0.021202070638537407, -0.02100483886897564]], [[-0.062133580446243286, -0.05003637075424194, -0.03316962718963623], [-0.00759029109030962, -0.007605339400470257, -0.06586528569459915], [-0.008960486389696598, -0.05470998212695122, -0.04852883145213127]], [[-0.04675917327404022, -0.051788609474897385, -0.032080601900815964], [-0.05238886550068855, -0.01459185965359211, 0.026971150189638138], [0.04505658522248268, -0.04853811115026474, 0.008477714844048023]], [[-0.004549105651676655, 0.044757694005966187, -0.07382769137620926], [-0.07278217375278473, -0.08224370330572128, -0.0775112435221672], [0.01643824763596058, -0.006176031194627285, -0.02698568068444729]], [[-0.012760360725224018, -0.003081528004258871, -0.04265217483043671], [-0.05805828049778938, -0.08198156207799911, -0.009021277539432049], [-0.03175365924835205, -0.009306284599006176, -0.018119538202881813]], [[-0.044912535697221756, -0.04608793556690216, -0.06848397105932236], [-0.03842297941446304, -0.008990542963147163, 0.011786933057010174], [0.04793326184153557, -0.027771148830652237, -0.01874246634542942]], [[-0.010384456254541874, 0.017566069960594177, -0.0334702730178833], [-0.05261049419641495, -0.04486459121108055, -0.025946101173758507], [-0.053743328899145126, -0.012685096822679043, -0.007767719682306051]], [[0.0058347731828689575, 0.01886647380888462, -0.019530536606907845], [-0.017376592382788658, -0.04643372446298599, -0.03656619042158127], [0.020574061200022697, -0.03951750695705414, 0.015489890240132809]], [[0.03856980800628662, 0.01341138407588005, -0.02979671210050583], [-0.0708443894982338, -0.040009595453739166, -0.002564705442637205], [-0.04569339379668236, -0.08639973402023315, -0.08562541753053665]], [[0.0265008844435215, -0.025414206087589264, -0.06050429493188858], [-0.05641712248325348, 0.012620221823453903, -0.043249305337667465], [-0.03226484730839729, -0.052482400089502335, -0.01186335552483797]], [[-0.039436861872673035, -0.023962363600730896, -0.0197907704859972], [-0.019384874030947685, -0.006111511494964361, -0.013956467621028423], [-0.028659919276833534, -0.00876813754439354, -0.05179746821522713]], [[-0.002821001224219799, 0.021198153495788574, -0.06562182307243347], [-0.02555786445736885, -0.1031208261847496, -0.035201989114284515], [-0.017865056172013283, -0.01383395679295063, 0.020209958776831627]], [[-0.001467364956624806, -0.0067473482340574265, -0.023332910612225533], [-0.09964925050735474, -0.055621810257434845, -0.011131751351058483], [-0.0653151273727417, -0.010705648921430111, -0.03964436799287796]], [[0.016438057646155357, -0.06946748495101929, -0.07878533005714417], [0.048021409660577774, -0.07618990540504456, 0.024644020944833755], [0.03178507834672928, -0.07692504674196243, 0.02491350844502449]], [[-0.036373164504766464, -0.05283409729599953, -0.07179484516382217], [-0.057764217257499695, -0.024133624508976936, -0.0740862786769867], [0.04149078205227852, -0.04379803314805031, -0.004541650880128145]], [[-0.036591753363609314, -0.016009250655770302, -0.03571319952607155], [0.0033214872237294912, -0.06250210851430893, -0.019420910626649857], [0.03550345450639725, -0.06262198835611343, -0.05261800065636635]], [[-0.017265038564801216, 0.0021586220245808363, -0.04835394024848938], [0.0175975002348423, 0.005544528365135193, -0.014351410791277885], [-0.0029724054038524628, -0.019532835111021996, -0.07881422340869904]], [[-0.03726596757769585, -0.022457828745245934, -0.052508458495140076], [-0.011906543746590614, -0.043947912752628326, -0.05143817886710167], [0.005276198033243418, -0.009215027093887329, 0.018791841343045235]], [[0.000755166809540242, 0.013404511846601963, -0.04468771442770958], [0.012780770659446716, -0.032110750675201416, -0.0019686466548591852], [0.022010356187820435, -0.0642203539609909, -0.033559173345565796]], [[-0.044421400874853134, -0.07191678881645203, -0.026056384667754173], [-0.020871004089713097, -0.04082396253943443, -0.004096135497093201], [-0.01294735912233591, 0.006205912213772535, -0.02698102593421936]], [[-0.05169419199228287, -0.03855866566300392, -0.06464152038097382], [-0.033008817583322525, -0.03684612736105919, -0.03240508586168289], [-0.01855096034705639, -0.004897912032902241, 0.02329225465655327]]], [[[-0.06809701025485992, -0.03133539855480194, -0.09453865140676498], [-0.09388148784637451, -0.037806812673807144, -0.09702832251787186], [-0.13195498287677765, -0.048936713486909866, -0.10622982680797577]], [[-0.057074014097452164, -0.07673091441392899, -0.016476843506097794], [-0.0828452929854393, -0.05102857947349548, -0.042251553386449814], [-0.10198569297790527, -0.07848389446735382, -0.11107314378023148]], [[0.013830007053911686, -0.0907895416021347, 0.020647192373871803], [-0.026681281626224518, -0.015590828843414783, -0.06247873976826668], [-0.0433717742562294, -0.03885003179311752, -0.04495568946003914]], [[-0.0433228500187397, 0.003719385014846921, -0.10405699163675308], [-0.07295773923397064, -0.02477145567536354, -0.04358125850558281], [-0.020430173724889755, -0.0657714456319809, -0.06520115584135056]], [[-0.1293165534734726, -0.0793711245059967, -0.08121811598539352], [-0.053349126130342484, -0.05755438655614853, -0.06239990144968033], [-0.09447386115789413, -0.07839280366897583, -0.06818617880344391]], [[-0.023027664050459862, -0.06653104722499847, -0.004653312265872955], [-0.03285909816622734, -0.06905411928892136, 0.029105132445693016], [-0.03877786919474602, -0.0547482930123806, -0.08796199411153793]], [[-0.09136095643043518, -0.004913681652396917, -0.09058808535337448], [-0.10200905799865723, -0.07290492206811905, -0.039673417806625366], [-0.09908506274223328, -0.021890811622142792, -0.03855150565505028]], [[-0.06922242045402527, -0.0004253158695064485, -0.025818437337875366], [0.025408372282981873, -0.012995275668799877, -0.0637274831533432], [-0.029070474207401276, -0.025972764939069748, -0.05722885951399803]], [[-0.05812999606132507, -0.09397419542074203, -0.05300648882985115], [-0.020502444356679916, 0.006646316964179277, -0.032522838562726974], [-0.10582904517650604, -0.09474874287843704, -0.09167829155921936]], [[-0.08775938302278519, 0.007536709774285555, -0.052626967430114746], [-0.0735999345779419, 0.03700423985719681, -0.03362392634153366], [-0.081666499376297, -0.032268889248371124, -0.05856796354055405]], [[-0.0875934511423111, -0.030899973586201668, -0.04266227409243584], [-0.06745638698339462, -0.04893110319972038, -0.059539008885622025], [-0.09249933809041977, -0.012281134724617004, -0.04078512266278267]], [[-0.08400142192840576, -0.05346553027629852, -0.047200508415699005], [-0.10366814583539963, -0.03540054336190224, -0.10527601838111877], [-0.04013483598828316, -0.03773704171180725, -0.07383346557617188]], [[-0.05156359076499939, -0.08033771067857742, -0.054520200937986374], [-0.08004000037908554, -0.06249632686376572, -0.042576782405376434], [-0.12552258372306824, -0.08844147622585297, -0.019157566130161285]], [[-0.10105685889720917, -0.017950085923075676, -0.047167785465717316], [-0.12155407667160034, -0.041440386325120926, -0.09606320410966873], [-0.07550011575222015, -0.07926099747419357, -0.09224619716405869]], [[-0.04595474153757095, -0.08239860087633133, -0.08224407583475113], [-0.03928409144282341, -0.050970520824193954, -0.09217653423547745], [-0.0712403655052185, -0.058969710022211075, -0.09966830164194107]], [[-0.059324853122234344, 0.00384986842982471, -0.018108686432242393], [0.024075645953416824, -0.06431010365486145, -0.04102945327758789], [-0.0366237536072731, -0.06829680502414703, -0.02263426035642624]], [[-0.009129627607762814, 0.026869291439652443, -0.1023307740688324], [-0.03237098082900047, -0.00928824208676815, -0.08862137049436569], [-0.060749731957912445, -0.027441181242465973, -0.03880525752902031]], [[-0.11214438080787659, 0.03966992348432541, -0.09458533674478531], [-0.055609330534935, -0.03928402438759804, -0.11746720224618912], [-0.10242755711078644, 0.017581213265657425, -0.09012378752231598]], [[-0.0076266382820904255, -0.021893514320254326, -0.021502984687685966], [-0.08718112856149673, -0.06293714791536331, -0.07797829061746597], [-0.0962042585015297, -0.007147965952754021, -0.08428903669118881]], [[-0.05891040340065956, -0.10909518599510193, -0.04537378251552582], [-0.08019860088825226, -0.05265388637781143, -0.021193262189626694], [-0.06459425389766693, -0.014035976491868496, -0.0708392933011055]], [[-0.10296385735273361, -0.11195416748523712, -0.011174583807587624], [-0.07502178102731705, -0.037673044949769974, -0.03332838416099548], [-0.029407992959022522, -0.09495460987091064, 0.00014983587607275695]], [[-0.12505868077278137, -0.12809520959854126, -0.0052640317007899284], [-0.08817018568515778, -0.11288948357105255, -0.06898527592420578], [-0.1193392425775528, -0.15115180611610413, -0.0700143501162529]], [[-0.0012628004187718034, 0.006431240122765303, -0.05667993798851967], [-0.08577977865934372, 0.022839713841676712, -0.07100055366754532], [-0.05595635622739792, -0.04873676970601082, -0.06951180100440979]], [[-0.003295853966847062, -0.0016822614707052708, 0.01676079072058201], [-0.013461217284202576, -0.02149868570268154, -0.04987720772624016], [0.0031825383193790913, -0.029654663056135178, -0.001056098728440702]], [[-0.06916047632694244, -0.0819467231631279, -0.029197514057159424], [-0.04135125130414963, -0.022898802533745766, -0.01825682632625103], [-0.051527831703424454, -0.007988997735083103, -0.06225275993347168]], [[0.0015218541957437992, -0.06629865616559982, -0.024864058941602707], [-0.04338417947292328, -0.14167803525924683, -0.05692671984434128], [-0.028713872656226158, -0.15653878450393677, -0.07576902955770493]], [[-0.0643247738480568, -0.06509839743375778, -0.027960650622844696], [-0.02825731225311756, -0.08266258984804153, -0.08633730560541153], [-0.02504282258450985, -0.01867075078189373, -0.060794807970523834]], [[-0.006427655927836895, 0.03204213082790375, -0.08537165075540543], [-0.06001356616616249, 0.007882648147642612, -0.08895431458950043], [-0.08082593232393265, -0.029181303456425667, -0.10719253122806549]], [[-0.02558748424053192, -0.03483201190829277, -0.09846794605255127], [-0.0121992789208889, -0.017309650778770447, -0.030172238126397133], [-0.0161649938672781, -0.044162970036268234, -0.052432820200920105]], [[0.033626869320869446, -0.04701916500926018, -0.024102777242660522], [-0.007837971672415733, -0.026791919022798538, -0.0014159182319417596], [0.0010520678479224443, -0.046819716691970825, -0.0475134439766407]], [[0.01180296577513218, -0.0423947237432003, -0.09933193773031235], [-0.11291961371898651, 0.010073215700685978, -0.1169944629073143], [-0.09721393138170242, -0.016275275498628616, -0.10602261871099472]], [[0.02080819383263588, -0.08235303312540054, -0.05481696128845215], [-0.052797865122556686, -0.05636728182435036, -0.04153449088335037], [-0.025853563100099564, -0.09656065702438354, -0.05363430455327034]], [[-0.02755572833120823, -0.04319855570793152, -0.09862065315246582], [-0.08199138939380646, -0.02778947539627552, -0.1396491676568985], [-0.13853903114795685, -0.12381453067064285, -0.07962284982204437]], [[-0.0504811555147171, -0.027815070003271103, -0.02516275830566883], [-0.08613172173500061, -0.07829707860946655, -0.06793850660324097], [-0.09951996803283691, -0.07125172764062881, -0.0541808120906353]], [[-0.03017536737024784, -0.10223489254713058, 0.017630165442824364], [-0.02959241159260273, -0.13353675603866577, -0.03710314631462097], [-0.014160708524286747, -0.09999439120292664, -0.08257916569709778]], [[-0.1410880833864212, -0.027916226536035538, -0.07383239269256592], [-0.049166418612003326, -0.04921996593475342, -0.03578973561525345], [-0.08710888028144836, -0.07785750180482864, -0.05853228643536568]], [[-0.017759306356310844, -0.06775108724832535, -0.020796431228518486], [-0.06005314737558365, -0.11106952279806137, 0.003992088139057159], [-0.06237996369600296, -0.06161537021398544, -0.06433161348104477]], [[-0.019494211301207542, -0.06976362317800522, -0.03322647511959076], [0.021890103816986084, -0.068791463971138, 0.010506655089557171], [-0.07517287135124207, -0.026712600141763687, -0.10281436145305634]], [[-0.07808217406272888, -0.06278856843709946, -0.04239477217197418], [-0.028825918212532997, -0.0617491751909256, -0.009246003814041615], [-0.021535389125347137, 0.004138594958931208, 0.0010453352006152272]], [[0.005787889007478952, -0.043028559535741806, -0.020438633859157562], [0.017041675746440887, -0.006067925598472357, -0.02767372317612171], [0.0006348793394863605, -0.07962774485349655, 0.01029974315315485]], [[-0.010739443823695183, -0.08225226402282715, -0.10364855825901031], [-0.05116527900099754, -0.026312993839383125, -0.08905651420354843], [-0.12004993110895157, -0.05402373522520065, -0.06527981907129288]], [[-0.047919124364852905, -0.023014115169644356, -0.018606076017022133], [-0.07959658652544022, -0.05779319629073143, -0.10715078562498093], [-0.11886905878782272, -0.07903216034173965, -0.07225557416677475]], [[-0.02311507984995842, 0.0007624250138178468, 0.004477606154978275], [-0.06540323793888092, -0.008315450511872768, -0.017379358410835266], [-0.06424504518508911, -0.02805899828672409, -0.06276682019233704]], [[-0.10324657708406448, -0.09683609008789062, 0.008950242772698402], [-0.0998227447271347, -0.03639782965183258, -0.010735665448009968], [-0.09153875708580017, -0.10158973932266235, -0.09949908405542374]], [[-0.016559364274144173, -0.045296378433704376, -0.015282263979315758], [-0.016093501821160316, -0.039354052394628525, 0.01473994366824627], [-0.05001828074455261, -0.05526354908943176, -0.0879145935177803]]], [[[0.2202915996313095, -0.3276421129703522, 0.07917656749486923], [0.6936347484588623, 1.0723791122436523, 0.6138026714324951], [0.17630517482757568, -0.07866033911705017, 0.4442059099674225]], [[-0.2869392931461334, 0.3585589826107025, 0.31471019983291626], [0.5131051540374756, 0.8010010123252869, 0.3440597653388977], [0.23341719806194305, -0.24429866671562195, -0.4542577862739563]], [[-0.11111576855182648, -0.29048293828964233, 0.09959027171134949], [0.477852463722229, 0.8880292177200317, 0.7347040772438049], [0.011430599726736546, -0.5127086639404297, -0.0840248391032219]], [[0.016857480630278587, 0.2536274492740631, 0.13399766385555267], [0.13314177095890045, 0.13713976740837097, -0.3653230369091034], [-0.21488775312900543, 0.1873340606689453, -0.1224445253610611]], [[-0.36837056279182434, -0.8621732592582703, -0.6284135580062866], [-0.45915162563323975, 0.1804080307483673, 0.21534140408039093], [-0.6535637974739075, 0.30324357748031616, -0.1086941510438919]], [[0.8591160178184509, -0.160552516579628, -0.15846069157123566], [0.6794204115867615, 0.4040739834308624, -0.335737407207489], [0.2649063766002655, 0.23274601995944977, -0.3778750002384186]], [[0.8415206074714661, -0.0829428881406784, 0.32197466492652893], [0.4472000002861023, 0.18370041251182556, 0.464731365442276], [-0.6762163639068604, -0.19744566082954407, -0.009156044572591782]], [[-0.5994246006011963, 0.22742798924446106, -0.07625970244407654], [-0.07918454706668854, -0.3851652145385742, -0.3640574812889099], [-0.385089635848999, 0.1512020379304886, 0.044039174914360046]], [[-0.4004580080509186, 0.29559391736984253, 0.010519828647375107], [0.29857009649276733, 0.42139559984207153, 0.3386007249355316], [-0.04213738813996315, -0.555460512638092, -0.07704634219408035]], [[-0.32186856865882874, 0.7883412837982178, 0.06043783575296402], [0.37077710032463074, -0.059694804251194, -0.18722431361675262], [0.03998709097504616, 0.018152477219700813, 0.3226057291030884]], [[1.0122116804122925, -0.7565764784812927, -0.48251938819885254], [-0.21071726083755493, -0.7358214259147644, 0.2895747423171997], [-1.2582595348358154, -0.0229182206094265, 0.040552884340286255]], [[0.19201229512691498, -0.9533029794692993, -1.4559965133666992], [-0.059756215661764145, -1.1870262622833252, -1.5071024894714355], [-0.4759940207004547, -0.0547846183180809, -1.0457440614700317]], [[-1.2579336166381836, -1.3661584854125977, -0.47865137457847595], [-0.9927690625190735, -0.15507787466049194, 0.8078010678291321], [-0.34890681505203247, 0.2189306914806366, 0.4719725549221039]], [[-0.11921988427639008, 0.9764502048492432, -0.48926079273223877], [0.5435116291046143, 0.0005692419363185763, -0.4911777079105377], [-0.1798931509256363, 0.06897172331809998, 0.012366571463644505]], [[-0.12589243054389954, 0.1786094605922699, -0.08610901981592178], [0.4637070596218109, 0.6715222001075745, -0.22310909628868103], [0.2887050211429596, -0.27135375142097473, -0.4152313768863678]], [[0.6046612858772278, 0.7529375553131104, 0.06424602121114731], [1.1256017684936523, 1.2073718309402466, -0.1374749392271042], [0.02088782750070095, -0.3871400058269501, -0.3666040897369385]], [[0.21155096590518951, -0.6794766783714294, -1.1320440769195557], [0.24184541404247284, -1.0237722396850586, -1.4316867589950562], [-0.2644910514354706, -0.1686258316040039, -1.0940673351287842]], [[-0.17726683616638184, 0.8654647469520569, -0.047536399215459824], [0.4470108449459076, 0.1919492930173874, -0.37012791633605957], [0.04701215773820877, -0.3449922800064087, -0.16677673161029816]], [[0.04608868062496185, 0.5972349047660828, 0.4216812252998352], [0.9806980490684509, 0.8768969178199768, -0.059057142585515976], [0.6589125990867615, -0.14995123445987701, -0.7571401000022888]], [[-0.03538878634572029, -1.0678820610046387, -0.20141835510730743], [-0.5229640007019043, 0.13268223404884338, -0.08402587473392487], [0.008766266517341137, 0.3836441934108734, 0.2692273259162903]], [[-0.8799375891685486, -1.0192033052444458, -0.4088243842124939], [-0.6767476797103882, 0.12414140999317169, 0.23354773223400116], [-0.7701504826545715, -0.07574230432510376, -0.0699775293469429]], [[-0.17189078032970428, -0.7375275492668152, -0.24131309986114502], [-0.4485451877117157, 0.012675141915678978, 0.6560884118080139], [-0.77191561460495, 0.20103910565376282, 0.3773859143257141]], [[-0.655292272567749, -1.798002004623413, 0.3403845429420471], [-0.5666393637657166, 0.7284731864929199, 1.1912790536880493], [-0.7818776965141296, -0.002946865279227495, 0.3828897476196289]], [[-0.5520078539848328, -0.17033801972866058, 0.17769570648670197], [-0.2806501090526581, -0.09263085573911667, 0.5919917225837708], [-0.24329592287540436, 0.044842351227998734, 0.31222233176231384]], [[0.2745356857776642, -0.3683393597602844, -0.1345858871936798], [0.808738648891449, 1.163862943649292, 0.5748226642608643], [-0.45987075567245483, 0.0630745068192482, 0.4399524927139282]], [[-0.8747931122779846, 0.1748061329126358, 0.4209236204624176], [-0.003308839164674282, 0.5065564513206482, 0.247026726603508], [-0.4843877851963043, -0.5289189219474792, -0.6779807209968567]], [[-0.8707348704338074, 0.28506705164909363, 0.5807235836982727], [-0.15763384103775024, 1.4153683185577393, 1.2369946241378784], [-0.3636181950569153, 0.22773218154907227, 1.076650857925415]], [[-0.17342549562454224, 0.6978698968887329, 0.07402633875608444], [0.33758342266082764, 1.0906667709350586, 0.10296323150396347], [0.38279005885124207, 0.36569324135780334, -0.07375197857618332]], [[-0.49101513624191284, 0.11360394209623337, -0.9093708395957947], [-0.18476736545562744, -0.4422796368598938, -0.7642135620117188], [-0.21108219027519226, -0.039694737643003464, -0.5261656641960144]], [[0.8455400466918945, -0.1635475605726242, -0.015276209451258183], [0.14266638457775116, 0.27351710200309753, 0.2479492574930191], [-0.5699427723884583, -0.2946719527244568, -0.09747567772865295]], [[-0.059244751930236816, -0.05159325525164604, -0.260799378156662], [0.24150359630584717, -0.3404594659805298, -0.5892842411994934], [-0.5942816734313965, -0.5565228462219238, -1.0299614667892456]], [[-0.4886646568775177, -1.2199187278747559, 0.6150377988815308], [-0.27038249373435974, 0.4372320771217346, 0.9566227793693542], [-0.8322276473045349, -0.3815379738807678, 0.3409275412559509]], [[-0.3737512528896332, 0.22334830462932587, 0.11371909081935883], [-0.20534703135490417, 0.922753095626831, 0.11319652944803238], [-0.39442262053489685, 0.5592461228370667, 0.02847318723797798]], [[0.6724784970283508, 0.045224372297525406, -0.42792457342147827], [0.24554133415222168, -0.1708400398492813, -0.33090126514434814], [-0.6450514197349548, 0.007811485789716244, -0.28004786372184753]], [[0.37958571314811707, -0.4295659363269806, 0.17117922008037567], [0.028239022940397263, 0.4803023040294647, 0.6355045437812805], [-0.7051994800567627, -0.3236575722694397, -0.049097876995801926]], [[-1.0138288736343384, -0.15455837547779083, -0.3053589165210724], [-0.1344490796327591, -0.03068898618221283, 0.3219149112701416], [0.25601625442504883, 0.02084195427596569, 0.3548385202884674]], [[-0.3036137521266937, -0.7559229135513306, -0.29134196043014526], [-0.307217538356781, -0.08939006179571152, 0.703641414642334], [-0.6103448271751404, 0.06378550082445145, 0.34262803196907043]], [[-0.7383887767791748, -1.295666217803955, 0.05467703565955162], [-0.12380018830299377, 0.7368842363357544, 0.5401975512504578], [-0.4271005690097809, -0.4660225212574005, -0.22593887150287628]], [[-0.3743002712726593, -1.6315114498138428, -0.355081707239151], [-1.0226904153823853, -1.4742368459701538, -0.478333979845047], [-0.7777467370033264, -0.25673341751098633, -0.25252795219421387]], [[-0.4766371250152588, 0.1090763583779335, -0.4392915666103363], [-0.012109422124922276, -0.23539936542510986, -0.09705767780542374], [0.008756942115724087, 0.2851579487323761, 0.15711912512779236]], 