weights['RES8'] = {"conv0.weight": [[[[0.659816324710846, 0.08536895364522934, -0.3475565016269684], [-0.018745308741927147, -0.7921513915061951, 0.28178781270980835], [-0.17819660902023315, 0.20950984954833984, 0.3295503556728363]]], [[[0.2606256306171417, -0.27242451906204224, -0.08642619848251343], [-0.8389222621917725, -1.066622018814087, -0.5674983859062195], [0.6240648031234741, 1.0043286085128784, 0.8716176152229309]]], [[[-0.6345654726028442, -0.15676254034042358, 1.0842280387878418], [-0.8753170967102051, -0.39658960700035095, 1.2812249660491943], [-0.9026705622673035, -0.2126428633928299, 1.1122440099716187]]], [[[-0.16385982930660248, -0.2309921383857727, -0.23809681832790375], [-0.20151862502098083, 0.10324294865131378, -0.23311476409435272], [-0.11234104633331299, -0.11881008744239807, -0.2560184895992279]]], [[[-1.2331880331039429, 0.7552232146263123, 0.460977166891098], [0.7092750668525696, 1.2435132265090942, -0.537351667881012], [0.3768933415412903, -0.5845314860343933, -0.8548134565353394]]], [[[-1.2733919620513916, 0.27530691027641296, 1.1205589771270752], [-0.3777261972427368, -0.08415132015943527, 0.5169316530227661], [1.6514842510223389, -0.11518197506666183, -1.4937084913253784]]], [[[-0.01022140122950077, -0.6155024170875549, -0.061347559094429016], [0.466910183429718, -0.005199749022722244, -1.0140385627746582], [0.3514963984489441, 1.3571213483810425, -0.23054639995098114]]], [[[-0.3007521629333496, 0.9908376336097717, -0.5662440061569214], [-1.2841992378234863, 0.08441630750894547, 1.2546836137771606], [1.5482616424560547, -0.9987026453018188, -0.5529547929763794]]], [[[0.8981306552886963, 1.2524245977401733, 0.42666205763816833], [0.7659749984741211, 0.30610254406929016, -0.8446431159973145], [-0.23613455891609192, -0.9929788708686829, -1.129212737083435]]], [[[0.3224930465221405, 0.7738100290298462, -1.099022626876831], [0.2906540036201477, 0.7190418243408203, -1.0538289546966553], [0.007873790338635445, 1.0603933334350586, -0.62471604347229]]], [[[0.0581107959151268, -0.13215690851211548, 0.5766649842262268], [-0.05316958948969841, -0.8433177471160889, -0.16829663515090942], [0.677093505859375, 0.2144981473684311, -0.4303213357925415]]], [[[-0.18167561292648315, 0.319729745388031, 0.577751100063324], [-0.513677179813385, -0.720004677772522, 0.07049309462308884], [0.9804968237876892, -0.6379662752151489, 0.016475994139909744]]], [[[0.20172230899333954, -0.5918880105018616, 0.36105576157569885], [0.7058279514312744, -1.6002057790756226, 0.8282131552696228], [0.8104373812675476, -1.3431366682052612, 0.6272960901260376]]], [[[-0.43408721685409546, 0.6146254539489746, 0.2817904055118561], [0.465579628944397, 0.6842825412750244, -0.5416033267974854], [0.20769330859184265, -0.5612596869468689, -0.49260973930358887]]], [[[-0.5564390420913696, -0.04978049919009209, 0.6244253516197205], [-1.2931116819381714, -0.0669161006808281, 1.131845235824585], [-1.178536057472229, -0.11769118160009384, 1.0668253898620605]]], [[[-1.0140730142593384, -1.1389288902282715, -0.5295177102088928], [0.396648108959198, 0.6246874332427979, 0.8560377955436707], [0.34141045808792114, 0.610750675201416, 0.14948874711990356]]], [[[-0.001041604671627283, -0.04129252955317497, -0.04007309302687645], [0.12251511961221695, 0.06386987864971161, 0.06136249005794525], [0.05739305913448334, -0.036826808005571365, -0.06763441860675812]]], [[[0.8539297580718994, 0.2572527527809143, -1.1434495449066162], [1.0431668758392334, -0.131472647190094, -0.9596841931343079], [0.242754727602005, 0.047815047204494476, -0.33230504393577576]]], [[[-0.29517772793769836, -1.2030144929885864, -0.05037858709692955], [-0.5600764155387878, -0.5422248840332031, 0.9849287271499634], [-0.15480199456214905, 0.5515498518943787, 1.3212366104125977]]], [[[-0.643159806728363, 1.2475862503051758, -0.6153387427330017], [-0.8138698935508728, 1.816240668296814, -0.7371119260787964], [-0.7313905954360962, 1.7363646030426025, -0.8164811134338379]]], [[[0.4939132034778595, 0.5777766108512878, 0.7388709187507629], [0.3647592067718506, 0.506519615650177, 0.5881040096282959], [-0.8348053097724915, -1.2282763719558716, -1.1322678327560425]]], [[[0.4820723831653595, 0.5004936456680298, 0.4925937056541443], [-0.542278528213501, -0.05036013200879097, -0.45921018719673157], [-0.640539824962616, -0.5696979761123657, -0.2292671948671341]]], [[[-0.20619560778141022, -0.7148374915122986, 1.2121131420135498], [0.6901910901069641, -1.5491232872009277, -0.44219034910202026], [0.784687340259552, 0.6266029477119446, -0.2866065800189972]]], [[[0.3388546109199524, 0.4046272933483124, 0.46649792790412903], [-0.4207519292831421, -0.39075803756713867, 0.14974038302898407], [0.2861131727695465, -0.4105290174484253, -0.060866426676511765]]], [[[-0.5026909708976746, -0.35540375113487244, 0.9378993511199951], [-0.30334702134132385, -0.4730773866176605, 0.6912974715232849], [0.8272175788879395, -0.26833727955818176, -0.4701268672943115]]], [[[0.05023797228932381, -0.8340049386024475, -0.4690913259983063], [-0.10556326806545258, -0.2868915796279907, 0.04872859641909599], [0.5498602390289307, 0.43037787079811096, 0.9052519798278809]]], [[[0.990202009677887, -1.4172343015670776, 0.4931214153766632], [-0.8972285985946655, -0.170338973402977, 1.0743709802627563], [-0.059041544795036316, 1.5230916738510132, -1.5175334215164185]]], [[[0.789322555065155, 0.30935224890708923, -0.9839703440666199], [1.143312931060791, -0.2534095048904419, -0.8928375840187073], [0.48419100046157837, -0.13527841866016388, -0.2596626579761505]]], [[[1.077410340309143, 0.10140042752027512, -0.4555312991142273], [0.2644427418708801, -1.4248905181884766, 0.07104317098855972], [-0.2799549698829651, -0.3614645302295685, 1.1121180057525635]]], [[[0.34909147024154663, 1.0887891054153442, 0.41859859228134155], [-1.103184461593628, -0.9533971548080444, -1.3098530769348145], [0.2982010841369629, 1.0994147062301636, 0.42863866686820984]]], [[[-0.029091013595461845, -0.753720760345459, -0.9159261584281921], [0.49201133847236633, -0.15953099727630615, -1.106668472290039], [1.2066000699996948, 0.5698131918907166, -0.10660496354103088]]], [[[0.00790153257548809, -0.2103918194770813, -0.5606052279472351], [-0.16514068841934204, 0.30969855189323425, 0.10504797846078873], [0.13131026923656464, -0.11005949974060059, 0.4986647665500641]]], [[[1.0182979106903076, 0.5261533856391907, -1.4350625276565552], [0.27183330059051514, 0.10132182389497757, -0.27481961250305176], [-1.1419451236724854, -0.6407718658447266, 1.8265506029129028]]], [[[0.36492064595222473, 0.5683449506759644, 0.16191495954990387], [0.15059952437877655, 0.3078930079936981, -0.6642932295799255], [0.09344132989645004, -0.1678820699453354, -0.9321632981300354]]], [[[0.6058776378631592, 0.5723884105682373, 0.17186781764030457], [-0.5579207539558411, -1.1956902742385864, -0.8127595782279968], [0.6171563863754272, 0.1220802441239357, 0.6388675570487976]]], [[[0.45920872688293457, -1.2285479307174683, 0.5884187817573547], [0.548096776008606, -1.4162706136703491, 0.5361958742141724], [0.5472225546836853, -1.4232664108276367, 0.49797293543815613]]], [[[0.3017779290676117, 1.1114888191223145, 0.7179691791534424], [-0.6343173980712891, 0.44222012162208557, 0.4744628071784973], [-0.8963811993598938, -0.6698687672615051, 0.31369614601135254]]], [[[0.4087487459182739, -0.12700049579143524, -0.046834781765937805], [0.7595651745796204, 0.5876538157463074, -0.18094776570796967], [1.0951131582260132, 0.6526193618774414, -0.18884654343128204]]], [[[-0.2060808688402176, -0.3143024444580078, -0.8253441452980042], [0.9135062098503113, 1.1691665649414062, 1.2562929391860962], [-0.8876379132270813, -0.3256741166114807, -0.39204296469688416]]], [[[0.06917092204093933, -0.07910441607236862, -0.030127789825201035], [0.3833860456943512, 0.0923672541975975, -0.028769372031092644], [0.5326473712921143, -0.5744507312774658, 0.002389378845691681]]], [[[-0.673948347568512, -1.1717166900634766, -1.369617223739624], [1.1413999795913696, 0.9231163859367371, 0.678294837474823], [0.3056107461452484, 0.029613392427563667, -0.1089768037199974]]], [[[0.8638048768043518, -0.5998255014419556, -0.23791088163852692], [-0.11867520958185196, -0.7822474837303162, 0.2918303608894348], [-0.07845348864793777, 0.10325723141431808, 0.582317590713501]]], [[[-0.32870352268218994, 0.040747303515672684, 0.6339157819747925], [-0.245881587266922, 0.9844024777412415, 0.791397213935852], [0.35665661096572876, 0.9165420532226562, -0.3951094448566437]]], [[[0.9749417901039124, 0.4562441408634186, -0.1110188364982605], [0.4970218539237976, -0.9669151902198792, -0.6231077313423157], [-0.5229158997535706, -0.807158887386322, 1.1587567329406738]]], [[[1.6257190704345703, -0.4392273724079132, -1.1059837341308594], [0.2527083158493042, 0.21894919872283936, -0.3791651129722595], [-1.8085068464279175, 0.49297332763671875, 1.4035165309906006]]]], "bn1.running_mean": [5.605193857299268e-45, 0.5215333700180054, 0.7156420350074768, 44.31960678100586, 5.153331756591797, 2.662205457687378, 5.605193857299268e-45, 5.605193857299268e-45, 1.6052216291427612, 31.519243240356445, 1.3508321046829224, 5.605193857299268e-45, 13.381034851074219, 1.5910378694534302, 3.609480142593384, 5.605193857299268e-45, 31.476354598999023, 0.7230385541915894, 10.412036895751953, 0.42948421835899353, 0.6114677786827087, 6.129375457763672, 1.1144903898239136, 3.178896427154541, 0.12130329757928848, 5.605193857299268e-45, 5.605193857299268e-45, 1.5479215383529663, 5.511308670043945, 1.5257083177566528, 7.922928489279002e-06, 0.40547606348991394, 7.767210960388184, 0.5249695181846619, 1.5094218254089355, 3.5544273853302, 5.605193857299268e-45, 7.618973731994629, 6.1196794509887695, 1.132690191268921, 5.605193857299268e-45, 1.138124942779541, 1.6431125402450562, 5.605193857299268e-45, 0.5994338393211365], "bn1.running_var": [5.605193857299268e-45, 5.273749828338623, 11.846830368041992, 732.0484008789062, 143.35464477539062, 58.4664306640625, 5.605193857299268e-45, 5.605193857299268e-45, 13.34074592590332, 325.1825256347656, 17.118885040283203, 5.605193857299268e-45, 148.609619140625, 21.921615600585938, 44.26001739501953, 5.605193857299268e-45, 338.7342834472656, 7.294097423553467, 132.4612579345703, 4.418353080749512, 9.408468246459961, 55.24593734741211, 10.49232006072998, 37.843265533447266, 0.9374955892562866, 5.605193857299268e-45, 5.605193857299268e-45, 25.697839736938477, 57.91252136230469, 21.968700408935547, 9.378934009873774e-06, 4.923737049102783, 45.19876480102539, 5.782464981079102, 16.15862274169922, 69.0531997680664, 5.605193857299268e-45, 124.37220764160156, 83.71366119384766, 16.737323760986328, 5.605193857299268e-45, 24.456867218017578, 33.25959396362305, 5.605193857299268e-45, 8.0177001953125], "bn1.num_batches_tracked": 52652, "conv1.weight": [[[[-0.28296801447868347, -0.08405270427465439, -0.14932101964950562], [-0.07080549001693726, 0.03977970406413078, -0.10891304910182953], [-0.17478547990322113, -0.12352950125932693, -0.18836699426174164]], [[-0.14163096249103546, -0.08833518624305725, -0.08436886966228485], [-0.02496209926903248, 0.0023122348356992006, 0.054392144083976746], [0.036621615290641785, 0.10729911923408508, 0.02026631124317646]], [[-0.11682744324207306, -0.06526520103216171, -0.03440779075026512], [-0.09983281791210175, -0.16225196421146393, 0.02445150353014469], [-0.1082770898938179, -0.43332430720329285, -0.1033342257142067]], [[-0.07914254814386368, -0.07493916153907776, -0.17502693831920624], [-0.09620556235313416, -0.055810216814279556, -0.14647704362869263], [-0.15477317571640015, -0.2242993712425232, -0.13971269130706787]], [[-0.23257596790790558, -0.27972620725631714, -0.18838971853256226], [-0.3786524832248688, -0.4777136445045471, -0.35299864411354065], [-0.01677142083644867, -0.0960734486579895, 0.020899370312690735]], [[-0.0025486352387815714, 0.04258840158581734, 0.0784255638718605], [0.030194729566574097, -0.01093848142772913, 0.099185511469841], [-0.03374446555972099, -0.08118678629398346, -0.040459733456373215]], [[-0.09284482151269913, -0.1406295746564865, -0.1556512415409088], [-0.04808811843395233, -0.1132952943444252, -0.08096995204687119], [-0.17073774337768555, -0.21518045663833618, -0.1342070996761322]], [[-0.01981598697602749, -0.016193760558962822, 0.020181730389595032], [0.015361777506768703, -0.033331599086523056, -0.09866081923246384], [0.039388108998537064, -0.08463180810213089, -0.06396391987800598]], [[-0.03699924796819687, -0.1122751384973526, -0.016256015747785568], [-0.307780385017395, -0.18316251039505005, -0.17922206223011017], [0.02231229841709137, -0.06147296726703644, 0.09356620907783508]], [[-0.0437394417822361, -0.12904419004917145, -0.11150036007165909], [-0.13117213547229767, -0.14187008142471313, -0.1670413762331009], [0.07800062000751495, 0.025983288884162903, 0.10003853589296341]], [[-0.05993269756436348, -0.18975895643234253, -0.11446471512317657], [-0.07242423295974731, -0.02891855500638485, -0.125588521361351], [-0.17729607224464417, -0.08786485344171524, 0.04418084770441055]], [[-0.11468113958835602, -0.11926711350679398, -0.13101515173912048], [-0.1030527725815773, -0.09862909466028214, -0.1265718638896942], [-0.19656644761562347, -0.12408332526683807, -0.1411881297826767]], [[0.03448424115777016, 0.025527676567435265, 0.004770876374095678], [-0.002967987209558487, -0.05926180258393288, 0.14063000679016113], [-0.0701337605714798, -0.10176575928926468, 0.011907819658517838]], [[-0.008878963068127632, -0.17470984160900116, -0.15107131004333496], [-0.07620500028133392, -0.18910273909568787, -0.1911008059978485], [-0.06351490318775177, -0.09907069802284241, 0.12739762663841248]], [[-0.22922581434249878, -0.1588672548532486, -0.2083604335784912], [-0.21906551718711853, -0.09704039245843887, -0.16016045212745667], [-0.2473393976688385, -0.40575963258743286, -0.34891071915626526]], [[-0.124104805290699, -0.058916423469781876, -0.08732403069734573], [-0.07026420533657074, -0.1270187795162201, -0.008593117818236351], [-0.04604059457778931, -0.09018053114414215, -0.051571376621723175]], [[-0.09659279882907867, -0.13141074776649475, -0.20218421518802643], [-0.04551957547664642, -0.10770078003406525, -0.12272375822067261], [-0.1975661963224411, -0.1841476410627365, -0.15606507658958435]], [[-0.07899025082588196, -0.19284582138061523, -0.21042360365390778], [-0.11146362870931625, -0.38963961601257324, -0.08305802941322327], [-0.2252303659915924, -0.15502160787582397, -0.0735551193356514]], [[-0.25120609998703003, -0.06722833961248398, -0.09069175273180008], [-0.10231593251228333, -0.05261814594268799, -0.10241222381591797], [-0.20602767169475555, -0.35785549879074097, -0.31853365898132324]], [[-0.06135789677500725, -0.1490318775177002, -0.010871384292840958], [0.16414698958396912, -0.12063387781381607, 0.03652969375252724], [0.009579637087881565, -0.11552251130342484, -0.029533501714468002]], [[-0.11936545372009277, -0.10918974131345749, -0.07675065845251083], [-0.2195030301809311, -0.1414427012205124, -0.18925741314888], [0.00265761511400342, 0.0008754640584811568, 0.14300537109375]], [[-0.11103203147649765, -0.0869663804769516, -0.1597667783498764], [-0.19716668128967285, -0.14184893667697906, -0.1678493767976761], [-0.10034582763910294, -0.12215998023748398, -0.08699408173561096]], [[-0.09929921478033066, -0.1363639533519745, -0.20933908224105835], [-0.06349098682403564, -0.1004270613193512, -0.13720397651195526], [-0.26424866914749146, -0.31173595786094666, -0.18929600715637207]], [[0.03394279256463051, -0.036447882652282715, -0.013119236566126347], [-0.09491568803787231, -0.08276660740375519, -0.14724108576774597], [0.0036631575785577297, -0.055498480796813965, -0.07126503437757492]], [[-0.23120875656604767, -0.1184890940785408, -0.2582841217517853], [-0.1960298717021942, -0.1312248855829239, -0.08776109665632248], [-0.1634022444486618, -0.23954427242279053, -0.30545705556869507]], [[-0.05730298534035683, -0.1760227531194687, -0.12914195656776428], [0.13740205764770508, 0.012283839285373688, 0.02463018335402012], [-0.04515606164932251, -0.21518200635910034, -0.08926663547754288]], [[-0.06585527956485748, -0.18485315144062042, -0.05774228274822235], [0.07024488598108292, 0.005914498120546341, 0.08229392766952515], [0.1649075448513031, 0.04005320742726326, 0.09466397017240524]], [[-0.05876944214105606, -0.09741159528493881, -0.13238747417926788], [-0.023690037429332733, -0.12140141427516937, -0.15884949266910553], [-0.049974747002124786, -0.15489478409290314, -0.046495404094457626]], [[-0.054761819541454315, -0.11341983824968338, -0.15085050463676453], [-0.07431190460920334, -0.11510683596134186, -0.10027597844600677], [-0.1983513981103897, -0.1506531685590744, -0.03466108813881874]], [[0.05021071061491966, 0.10414550453424454, 0.04905613884329796], [0.09450525790452957, 0.024571290239691734, 0.052924882620573044], [-0.05563009902834892, -0.03292332962155342, 0.0016849974635988474]], [[-0.08486325293779373, -0.13198496401309967, -0.21712514758110046], [-0.0500640943646431, -0.12355291843414307, -0.08952371031045914], [-0.2460276037454605, -0.3729802966117859, -0.16451777517795563]], [[-0.011877620592713356, 0.015479279682040215, -0.01829354278743267], [0.022466257214546204, 0.029296999797225, 0.08008093386888504], [0.08315259963274002, 0.04185091704130173, 0.1131775975227356]], [[-0.0631006583571434, -0.07608143240213394, -0.21250392496585846], [-0.003360387636348605, -0.08243286609649658, -0.017723679542541504], [-0.1202467754483223, -0.2190537452697754, -0.12967172265052795]], [[-0.20438909530639648, -0.11997709423303604, -0.2169920802116394], [-0.10520309209823608, -0.09712501615285873, -0.06312205642461777], [-0.28036394715309143, -0.30120089650154114, -0.126668781042099]], [[0.038238268345594406, -0.20523735880851746, -0.10812568664550781], [0.10734354704618454, -0.023397397249937057, 0.09041536599397659], [-0.015159969218075275, -0.09990522265434265, -0.07768771052360535]], [[0.2700956463813782, 0.09198719263076782, 0.18810385465621948], [0.15830272436141968, 0.022239036858081818, 0.23268304765224457], [0.1879633516073227, 0.03331691771745682, 0.23049265146255493]], [[-0.03863096609711647, -0.021489566192030907, 0.03942158445715904], [-0.13545216619968414, -0.19076916575431824, -0.10231588780879974], [0.0026086459401994944, -0.1243637278676033, -0.06936675310134888]], [[-0.050941988825798035, -0.12703357636928558, -0.1288198083639145], [-0.09696689248085022, -0.15918073058128357, -0.13613872230052948], [0.06315415352582932, 0.08261674642562866, 0.06762605905532837]], [[-0.023379836231470108, -0.021487468853592873, -0.025942876935005188], [-0.08703771233558655, -0.134235218167305, -0.019796807318925858], [0.09286347031593323, -0.044999632984399796, 0.08925915509462357]], [[0.010855454951524734, 0.014731422998011112, -0.10725632309913635], [-0.04096667841076851, -0.1147918552160263, -0.1391545981168747], [-0.06882356107234955, -0.10022567957639694, -0.13455264270305634]], [[-0.06557349115610123, -0.0663047581911087, -0.1070282831788063], [-0.0303668025881052, -0.11054237931966782, -0.05322552099823952], [-0.04121511057019234, 0.09288308024406433, 0.11460814625024796]], [[-0.22218716144561768, -0.14867469668388367, -0.12089333683252335], [-0.15933860838413239, -0.001623687450774014, -0.2086731195449829], [-0.26138466596603394, -0.22074973583221436, -0.31087860465049744]], [[-0.07335274666547775, -0.07685045152902603, -0.06817889958620071], [-0.10855952650308609, -0.2022968977689743, -0.043022993952035904], [-0.08583943545818329, -0.171680748462677, -0.007845762185752392]], [[0.05450301989912987, -0.050073180347681046, -0.11346413195133209], [-0.032924771308898926, -0.1683531403541565, -0.21790184080600739], [-0.011660621501505375, -0.06112920120358467, -0.004483077209442854]], [[-0.06291235238313675, -0.007066546939313412, -0.08714867383241653], [-0.03434358909726143, -0.10460328310728073, 0.030218850821256638], [-0.10736927390098572, -0.19744743406772614, -0.056227341294288635]]], [[[0.9051846265792847, -0.46863600611686707, -0.16417238116264343], [-0.5921007394790649, 0.26581519842147827, 0.7276461720466614], [-0.8428995013237, 0.32645368576049805, 0.008293559774756432]], [[1.009907603263855, -0.6908164620399475, -0.5103214383125305], [0.42137911915779114, -1.3839448690414429, -0.016359403729438782], [0.5221880674362183, -0.0006478040013462305, 0.10106169432401657]], [[1.3773119449615479, 1.7049388885498047, -1.876601219177246], [-0.4659339487552643, 0.6960654854774475, 0.24510590732097626], [0.4707150459289551, 0.45754101872444153, 0.7293288707733154]], [[0.3992597758769989, -0.11342191696166992, 1.1423931121826172], [-2.1209583282470703, 0.044922132045030594, 0.7257100939750671], [-1.2796564102172852, 0.39730027318000793, 0.8748927116394043]], [[0.3378741145133972, 0.43446457386016846, -0.3386595845222473], [-0.32460543513298035, -0.07577516883611679, -0.16692234575748444], [-0.5580348372459412, -0.4057544767856598, -0.001109902048483491]], [[1.8736047744750977, 1.4824845790863037, 0.03291184827685356], [0.13945886492729187, 0.7624236941337585, -0.13103845715522766], [-0.03347383067011833, -0.4041765034198761, 0.06790226697921753]], [[-1.1418994665145874, 0.6528339982032776, 1.3234002590179443], [-0.44415467977523804, 0.0024051261134445667, -0.6863749623298645], [0.6699783802032471, -0.1874469667673111, -0.28921279311180115]], [[1.4339885711669922, 0.700062096118927, -0.536748468875885], [-0.5868388414382935, -0.5075585246086121, -1.0270473957061768], [0.29825836420059204, -1.694879412651062, -0.3520886301994324]], [[0.14557015895843506, -0.29030534625053406, -0.228449285030365], [-0.45015859603881836, -0.337096244096756, -0.2371577024459839], [-0.602191686630249, -0.8936114311218262, 0.012257610447704792]], [[-1.5859745740890503, 0.03400728106498718, 1.053952693939209], [-0.9600866436958313, 0.5010971426963806, -0.24135515093803406], [-0.0777878686785698, 0.43726077675819397, 0.047468021512031555]], [[0.7197293043136597, 0.1492949277162552, 0.20795390009880066], [-0.29851672053337097, -0.40477311611175537, -1.0402089357376099], [0.4621351361274719, -0.7407931685447693, 0.4739111363887787]], [[0.6057084798812866, 0.6267591714859009, 0.5985482335090637], [-1.029518723487854, 0.2162097692489624, -0.38661420345306396], [-0.4162648022174835, -0.7400107383728027, -0.16026729345321655]], [[0.4650474488735199, 0.37366950511932373, -0.5824378132820129], [-1.0254685878753662, 0.027195364236831665, -1.123772382736206], [0.30721625685691833, -0.22366002202033997, -0.24831357598304749]], [[0.0981547087430954, -0.22804862260818481, -0.20588330924510956], [-0.7253558039665222, -0.2850115895271301, -0.3686729073524475], [-0.25015926361083984, -0.10436943173408508, 0.454998642206192]], [[1.0785903930664062, 1.696426272392273, -0.7372639775276184], [-0.8216303586959839, 0.44280412793159485, 0.5824186205863953], [0.28242701292037964, 0.18138110637664795, 0.48142632842063904]], [[0.9090772867202759, -0.31393522024154663, -0.9657256603240967], [1.2099103927612305, -1.3459738492965698, -0.3966403901576996], [0.6451265215873718, -0.5442192554473877, -0.43498900532722473]], [[0.34873244166374207, -0.3600967228412628, 0.01322862133383751], [-1.5282799005508423, 0.15867100656032562, 0.34701693058013916], [-0.8334635496139526, 0.4008644223213196, 0.37807950377464294]], [[-1.7730512619018555, -0.18218792974948883, 1.4677555561065674], [-0.9467563033103943, 0.28580400347709656, 0.6255728602409363], [-0.0981498435139656, -0.10410113632678986, 0.4341200292110443]], [[1.5514339208602905, -0.14861464500427246, -2.295773506164551], [-0.5477880239486694, -0.8729032278060913, -0.4020208418369293], [-0.1731353998184204, -0.012268142774701118, -0.4623875916004181]], [[-1.5889697074890137, 1.2485851049423218, -1.680575966835022], [-1.5565248727798462, -0.5143429636955261, -1.6224664449691772], [-0.43652933835983276, 0.07703845947980881, -0.47888311743736267]], [[-0.012126507237553596, 0.7301250100135803, -0.6278932094573975], [-0.7222724556922913, 0.3264373540878296, -0.3079903721809387], [-0.36120104789733887, -1.456368327140808, -0.5543259978294373]], [[-1.2792418003082275, -0.9999026656150818, -0.26339754462242126], [-2.0989348888397217, -0.8032979965209961, -0.10521876811981201], [-0.6929011940956116, -0.389327734708786, 0.28271618485450745]], [[0.6435365676879883, 0.6746335029602051, 0.31560570001602173], [0.31078219413757324, 0.8641142249107361, -0.7231564521789551], [0.5164092183113098, -0.5247981548309326, -0.7000858187675476]], [[-0.006864665076136589, 0.6735799908638, -0.9994345903396606], [-0.38282647728919983, 0.8898289799690247, -0.08434008061885834], [0.09035009890794754, -0.7156522870063782, -0.4396926462650299]], [[1.3528438806533813, 0.6667523980140686, -1.8707499504089355], [-0.05414198338985443, 0.7110950946807861, 0.21649691462516785], [-0.04043016582727432, -0.6594906449317932, 0.0422179140150547]], [[1.0382757186889648, -0.7008432149887085, -0.49613702297210693], [0.9104057550430298, -1.1431924104690552, 0.15814274549484253], [0.7241143584251404, -0.05179053917527199, -0.12001799046993256]], [[2.0026867389678955, -0.9385395646095276, -1.4224268198013306], [-0.35721421241760254, -0.785848081111908, -1.3130292892456055], [-0.2237999439239502, -0.4616130590438843, -0.5100008845329285]], [[-1.9597578048706055, -0.2904272973537445, 1.713640809059143], [-1.287415862083435, 0.027098529040813446, 0.6127046346664429], [-0.02098844200372696, -0.20835982263088226, 0.37348881363868713]], [[1.6095458269119263, -0.1785854995250702, 0.06095448508858681], [-0.4402184784412384, 0.3462061285972595, 0.2544704079627991], [-0.14966943860054016, -0.11439445614814758, 0.1985907405614853]], [[0.6964175701141357, -0.41213464736938477, -0.7119024395942688], [0.5056691765785217, -1.6051901578903198, -1.4748985767364502], [0.34454452991485596, -0.7695445418357849, -1.109622836112976]], [[-0.03173298016190529, -0.06895296275615692, 1.1467450857162476], [-0.6567912697792053, 0.22086304426193237, -0.1116470918059349], [-0.6661230325698853, -1.1868845224380493, -0.3768855631351471]], [[0.4857749044895172, -0.3769669830799103, -0.22567300498485565], [0.6399128437042236, -1.0200811624526978, 0.22066077589988708], [0.4294055104255676, -0.2795109450817108, -0.10367893427610397]], [[2.4802820682525635, 1.0447648763656616, 1.2464041709899902], [0.45974835753440857, 0.8714241981506348, 0.31334006786346436], [0.6170564293861389, -0.44171515107154846, -0.37558698654174805]], [[-0.6258848905563354, -0.4653652608394623, -0.20002399384975433], [-1.4825230836868286, -0.5248351693153381, -1.2477729320526123], [-0.5193279385566711, -0.3120456635951996, 0.06934886425733566]], [[1.1169573068618774, -0.9920058846473694, -0.5594806671142578], [0.3901749849319458, -0.5986046195030212, -0.4759714901447296], [0.8955856561660767, 0.24996627867221832, 0.030656704679131508]], [[0.3568146228790283, -0.051062390208244324, -0.10631917417049408], [-1.3267426490783691, -0.2332746535539627, -0.7025542259216309], [-0.5633377432823181, -0.3877963423728943, -0.15445667505264282]], [[-0.1743885576725006, 1.028777837753296, -0.9984061121940613], [-0.610100507736206, 0.9883661866188049, 0.030865194275975227], [0.01808689348399639, -0.7458445429801941, -0.6408244967460632]], [[-0.9944156408309937, 1.3272703886032104, 0.8804123401641846], [-0.553616464138031, -0.23005513846874237, 0.27032098174095154], [0.550922691822052, 0.9883719682693481, 0.9701469540596008]], [[0.5962657332420349, 0.3584694564342499, -0.21566732227802277], [-0.44466695189476013, -1.8349113464355469, -0.9990273118019104], [0.3995065987110138, -1.5843279361724854, -1.317819595336914]], [[-0.38480719923973083, -0.0527305081486702, -0.2620408236980438], [-1.0067601203918457, -0.7170956134796143, -0.31161779165267944], [0.25198498368263245, -0.040786053985357285, 0.0163548793643713]], [[-0.5082070231437683, -0.6118341684341431, 0.11176789551973343], [0.9798879027366638, -1.7012014389038086, -0.2461691051721573], [0.6637766361236572, -1.4844666719436646, -1.5688976049423218]], [[0.9946609735488892, -0.5336567759513855, -0.611484169960022], [-0.5817618370056152, 0.2588830590248108, 0.621757984161377], [-0.4891112446784973, 0.48531442880630493, -0.007352450862526894]], [[-0.23439805209636688, 0.9205672144889832, -1.1329474449157715], [-0.6388739347457886, -0.5865405797958374, 0.10976514965295792], [0.24082519114017487, 0.6417391896247864, 0.7547649145126343]], [[1.5559709072113037, -0.05490947514772415, -0.294060081243515], [-1.0947656631469727, -0.21859993040561676, -0.09936471283435822], [-0.39157459139823914, -0.08619433641433716, 0.3490973114967346]], [[1.1854865550994873, 1.6068332195281982, 1.2772488594055176], [0.38476037979125977, 0.5856866836547852, 0.5622312426567078], [1.0784896612167358, -0.5957633852958679, -0.7882416844367981]]], [[[-0.16176903247833252, 0.9528762102127075, 0.21868149936199188], [-0.6674857139587402, -0.06795129925012589, -0.10037414729595184], [0.23803925514221191, 0.2409348338842392, -0.22256308794021606]], [[1.0581998825073242, 0.10799796134233475, -0.15482473373413086], [-0.5419246554374695, -0.7149255275726318, -0.5449069738388062], [-0.44369885325431824, -0.34810006618499756, -0.5694942474365234]], [[0.20469892024993896, -0.6177522540092468, -1.5927624702453613], [0.8892168998718262, -0.553543210029602, -1.7413936853408813], [0.1699233204126358, 0.5319846868515015, -0.06152427941560745]], [[-0.10706422477960587, -0.16686639189720154, -0.8062736988067627], [0.5493999719619751, 0.2964043915271759, -0.8289046883583069], [0.8982628583908081, 0.20494744181632996, -1.0745090246200562]], [[0.8616929054260254, 0.6914715766906738, -1.4041846990585327], [-1.544349193572998, -1.9643529653549194, -1.972129464149475], [-1.770024299621582, -0.9696163535118103, -0.5838713645935059]], [[1.913978934288025, 0.4160515069961548, -1.8296000957489014], [2.32377552986145, 0.7041013240814209, -1.7445231676101685], [0.8605133295059204, 1.5664936304092407, 0.3488997220993042]], [[-0.14121638238430023, -0.46862098574638367, -0.27779945731163025], [1.089730143547058, 0.8441016674041748, -0.282428115606308], [0.12742146849632263, 0.8420261144638062, 0.2289462387561798]], [[2.18489408493042, 0.09926728904247284, -1.5824750661849976], [3.300128936767578, 2.0587210655212402, -1.310595989227295], [1.5916829109191895, 2.3382015228271484, 1.1928820610046387]], [[0.2981119751930237, 0.3647975027561188, -0.4265371859073639], [-1.2142055034637451, -1.84657621383667, -1.3244448900222778], [-1.7388297319412231, -1.5722181797027588, -0.5337256193161011]], [[1.0328562259674072, 0.5063875317573547, -0.21998842060565948], [1.5358355045318604, 0.5090001225471497, -1.596722960472107], [0.3856949210166931, 0.7443661689758301, 0.141853466629982]], [[0.502623975276947, 0.21989333629608154, 0.029611751437187195], [1.0229264497756958, 0.10609240084886551, -0.6161400079727173], [-0.407625675201416, -0.5179668664932251, -0.8547502160072327]], [[-0.22668029367923737, 0.23384907841682434, 0.23455575108528137], [1.45492684841156, 1.0495831966400146, -0.04935804381966591], [0.7188735008239746, 0.7422744035720825, -0.46456286311149597]], [[0.6040976047515869, -0.4978906214237213, -2.374476432800293], [1.2673794031143188, -0.1330985575914383, -2.389791250228882], [0.3520044684410095, 0.8227156400680542, -0.15541145205497742]], [[0.36679303646087646, 0.6927623748779297, -0.5574120879173279], [-1.0933513641357422, -1.034229040145874, -0.8100643157958984], [-1.0934038162231445, -0.9249691963195801, -0.3593297600746155]], [[-0.2612297534942627, -0.40142643451690674, -1.3474087715148926], [0.6790274977684021, -0.1950065940618515, -1.6102560758590698], [0.1552937924861908, 0.5103167295455933, 0.27171996235847473]], [[1.0863004922866821, 0.4494885802268982, -0.14566324651241302], [-0.04588516801595688, -0.056106869131326675, 0.06384167820215225], [-0.375306099653244, -0.29431548714637756, -0.005061003379523754]], [[-0.12947720289230347, 0.15815365314483643, 0.08607419580221176], [0.02690267749130726, 0.22229412198066711, -0.07740086317062378], [0.37230029702186584, 0.09806624799966812, -0.36649206280708313]], [[-0.1523941308259964, 0.5272884964942932, -0.47947099804878235], [0.5586538314819336, -0.01726905256509781, -1.8217244148254395], [-0.20897069573402405, 0.13315017521381378, -0.5828978419303894]], [[0.5973100662231445, 0.11554792523384094, -0.6065565943717957], [-0.954318106174469, -1.8511418104171753, -0.3112821877002716], [-1.0535879135131836, -1.1123509407043457, -0.3007480204105377]], [[0.11869147419929504, 0.6914591789245605, -2.443610429763794], [0.16767972707748413, 0.22265222668647766, -3.5740058422088623], [-1.0167039632797241, 0.7053887248039246, 1.2684147357940674]], [[0.8957486748695374, 0.5602394938468933, -0.7080591320991516], [1.4488754272460938, 0.6625195145606995, -0.9953469038009644], [0.6879242658615112, 1.1104018688201904, -0.023509010672569275]], [[-0.2646118104457855, 0.012480591423809528, -0.91398024559021], [0.9382147789001465, 0.6543676853179932, -1.0701076984405518], [0.9082897305488586, 0.9206926822662354, -0.7136101722717285]], [[-0.08060143142938614, -0.4090186655521393, -0.024302411824464798], [1.4732074737548828, 0.7780144214630127, -0.21647807955741882], [0.4816877245903015, 1.1700279712677002, 0.27259522676467896]], [[0.3803383409976959, 0.828296422958374, 0.2726401388645172], [1.1179194450378418, 0.8956598043441772, -0.6420891880989075], [0.08891995251178741, 1.0625864267349243, -0.00036090839421376586]], [[0.08817480504512787, 0.9042539000511169, 0.08503544330596924], [0.6610621809959412, 0.0068491422571241856, -0.9127250909805298], [0.037874285131692886, 0.9117032885551453, -0.05006475746631622]], [[0.48049402236938477, 0.10989399254322052, -0.20624244213104248], [-0.5853902101516724, 0.07487444579601288, 0.3525300920009613], [-0.6139392852783203, 0.16992633044719696, -0.08702509105205536]], [[1.711980938911438, -1.2710545063018799, -3.0025949478149414], [1.9622864723205566, -2.382582187652588, -2.9847452640533447], [0.556865930557251, -0.4774600565433502, 0.6197214722633362]], [[-0.15340165793895721, 0.609250545501709, -0.36328956484794617], [0.41402187943458557, 0.03997258469462395, -1.6386526823043823], [-0.29476988315582275, -0.0015721747186034918, -0.6384170055389404]], [[-1.1318939924240112, 0.6211733222007751, -0.24926631152629852], [-1.6147291660308838, -1.12800133228302, -0.674383282661438], [-1.1852123737335205, -1.0870254039764404, -1.1032856702804565]], [[1.268981695175171, 0.012921738438308239, -0.9010699987411499], [0.6802563667297363, -0.13586682081222534, -1.0748847723007202], [-0.6323555707931519, -0.25439178943634033, -0.11208222061395645]], [[-1.311296820640564, -0.24016167223453522, -0.15679308772087097], [-0.04916534200310707, 0.8784351348876953, -0.24800875782966614], [-0.01709740050137043, 0.6642391681671143, -0.7491708993911743]], [[0.9997074604034424, 0.07015090435743332, -0.2553609013557434], [0.5118956565856934, 0.30275270342826843, -0.340385377407074], [0.45270389318466187, 0.2587786018848419, -0.3420323431491852]], [[1.177194595336914, -1.3786855936050415, -1.5347375869750977], [2.623494863510132, 0.025243908166885376, -2.474876642227173], [0.7722834348678589, 1.0703279972076416, 0.9367505311965942]], [[0.03199309483170509, 0.48211669921875, -0.8294950127601624], [-0.34160178899765015, 0.1223478764295578, -0.7908889651298523], [-0.52369225025177, -0.38834139704704285, -0.8206538558006287]], [[0.9002131819725037, -0.3346080482006073, -0.7826438546180725], [0.42441678047180176, -0.36386382579803467, -0.7496228218078613], [-0.7586166262626648, -0.6400513052940369, -0.5236395001411438]], [[0.19938258826732635, -0.5039183497428894, -2.1571238040924072], [0.5800039172172546, -0.8136314749717712, -3.0820119380950928], [0.23774521052837372, 0.672656238079071, -0.34579604864120483]], [[-0.07256276160478592, 0.3239108622074127, -0.0832916870713234], [1.4227252006530762, 1.4617778062820435, -0.08826028555631638], [0.5903230309486389, 1.6510943174362183, 1.0471467971801758]], [[0.33753088116645813, -0.01110566034913063, -0.30487295985221863], [-0.00713588111102581, -0.5339193940162659, -0.3696375787258148], [-0.12872132658958435, -0.5091214179992676, -0.33786019682884216]], [[0.22255165874958038, -0.779201328754425, -1.3738187551498413], [0.8215070366859436, 0.9871789813041687, -0.690217912197113], [-0.37854063510894775, 0.3653019964694977, 0.29942092299461365]], [[-0.0206085704267025, 0.6063829660415649, 0.32444798946380615], [-0.4034862816333771, -0.16172970831394196, 0.14208455383777618], [-0.8604903817176819, -0.4361637234687805, 0.5025530457496643]], [[-0.07580416649580002, -0.2245526760816574, -0.4023202061653137], [1.0470101833343506, 1.086788535118103, 0.11693911999464035], [-0.02486152946949005, 0.2071436047554016, -0.2767332196235657]], [[-0.22073064744472504, 0.10470602661371231, -0.36351683735847473], [-1.1274998188018799, -0.9131333231925964, -0.18759313225746155], [-0.5389113426208496, -0.01700757071375847, -0.41713470220565796]], [[-0.3105258345603943, 0.38141947984695435, -0.6858454346656799], [-1.5369337797164917, -0.9165623784065247, -0.5130599141120911], [-1.5102065801620483, -1.4316517114639282, 0.9981508255004883]], [[-0.36274316906929016, 0.5635377764701843, -0.34826213121414185], [-0.9923256039619446, -1.088067650794983, -1.4497650861740112], [-1.7817295789718628, -1.631352186203003, -1.6510429382324219]], [[2.5784735679626465, -0.07879532128572464, -1.778964877128601], [3.9565937519073486, 1.8098241090774536, -2.2521250247955322], [1.631819248199463, 1.7325986623764038, 1.255441665649414]]], [[[0.3481332063674927, -0.3263178765773773, -0.3704088032245636], [-0.29518336057662964, -0.5171194076538086, -0.7337402701377869], [0.16959920525550842, 0.1967317909002304, 0.33518025279045105]], [[0.44508519768714905, -0.4702497124671936, -0.4690297544002533], [0.11562453955411911, -1.0719940662384033, -1.391403079032898], [0.9969759583473206, 0.554905354976654, 0.5617007613182068]], [[-0.07393106818199158, 1.2389382123947144, 2.1639139652252197], [-0.792251467704773, 1.8713113069534302, 2.701890707015991], [-0.7428295612335205, 1.4005093574523926, 2.2304935455322266]], [[0.41240954399108887, 0.24728386104106903, 0.20091891288757324], [0.5971413254737854, 0.816159725189209, 0.8265339732170105], [0.42748987674713135, 0.9143986701965332, 1.058463215827942]], [[1.1862635612487793, 0.3123965561389923, 0.2656551003456116], [0.6224899888038635, -0.16946685314178467, -0.41195639967918396], [0.7611007690429688, -0.45917201042175293, -0.818396270275116]], [[-0.09543728828430176, 0.12703827023506165, -0.18815791606903076], [-0.5903483033180237, -0.2737821936607361, -1.1293855905532837], [0.9122430086135864, 1.0317623615264893, 0.04850619286298752]], [[0.4622375965118408, -0.5941039323806763, -0.27167460322380066], [0.5386404991149902, -0.07733223587274551, -0.31758153438568115], [1.0963681936264038, 0.6506708264350891, 0.3114629089832306]], [[-0.7754459977149963, -0.7010812163352966, -0.22876803576946259], [-1.395564079284668, -0.8119236826896667, -0.7326936721801758], [0.3917156755924225, 0.7769417762756348, 0.46325579285621643]], [[0.8361998200416565, -0.16358114778995514, 0.22883176803588867], [0.8646510243415833, -0.11524510383605957, 0.10138201713562012], [0.9562188386917114, -0.5539751052856445, -0.8773831129074097]], [[0.3549962043762207, -0.31976208090782166, -0.5520540475845337], [1.0871859788894653, 1.4258300065994263, 0.28701114654541016], [1.4987517595291138, 1.660510540008545, 0.2896931767463684]], [[-0.33918946981430054, -0.5744071006774902, 0.011855027638375759], [-0.16227824985980988, -0.2982199788093567, -0.05871877446770668], [0.8403798341751099, 0.5171695351600647, 0.32242336869239807]], [[0.01630217395722866, 0.38270676136016846, 0.6561599373817444], [-0.13641805946826935, 0.23850683867931366, 0.2298135757446289], [0.39697474241256714, 0.8446933031082153, 0.5001385807991028]], [[-0.5426498651504517, -0.17498479783535004, -0.22909019887447357], [-0.44206854701042175, 1.5296919345855713, 0.8296853303909302], [-0.11119063943624496, 1.0961960554122925, -0.02734646573662758]], [[0.8002706170082092, -0.23158064484596252, 0.354760080575943], [0.5068809986114502, -0.19889642298221588, 0.1006789430975914], [0.6507616639137268, -0.7980881333351135, -0.7689105868339539]], [[0.09833366423845291, 1.1527373790740967, 2.1477482318878174], [-0.6975343227386475, 1.4642910957336426, 2.8837661743164062], [-0.8995120525360107, 0.5924381613731384, 1.9238693714141846]], [[0.6741228103637695, -0.45684921741485596, -0.5902262926101685], [0.3911987245082855, -1.1297388076782227, -1.5078589916229248], [0.8447718024253845, -0.26241055130958557, -0.2037702351808548]], [[0.32952311635017395, 0.0011958647519350052, 0.008965397253632545], [0.051519010215997696, 0.026828644797205925, 0.05268097668886185], [0.11938347667455673, 0.37128832936286926, 0.44594308733940125]], [[0.8849976062774658, -0.3747906982898712, 0.03832881152629852], [0.6962786316871643, 0.9661017656326294, 0.890975832939148], [1.6512469053268433, 1.4892117977142334, 0.9179114103317261]], [[0.0978853702545166, -0.01394284050911665, 0.46011972427368164], [-0.22694450616836548, 0.5169215798377991, 1.383834719657898], [-0.4786392152309418, 0.6728189587593079, 2.500107526779175]], [[-0.6543976068496704, -0.462636262178421, -0.21074816584587097], [-0.5624558925628662, 1.15815007686615, 1.3435946702957153], [-0.2706322968006134, 0.7902763485908508, 0.6071859002113342]], [[0.1863812506198883, 0.16938620805740356, 0.48043373227119446], [0.0010115003678947687, -0.4321977198123932, -0.3537321090698242], [0.4063951075077057, -0.3277169466018677, -0.8113721013069153]], [[0.3883765935897827, 0.4630369246006012, 0.5237410664558411], [0.3912067115306854, 0.6833063960075378, 0.8869547247886658], [0.14260777831077576, 0.5056998133659363, 0.5437918305397034]], [[-0.3614201545715332, -0.564052402973175, 0.018896052613854408], [-0.6501920819282532, -0.608535885810852, -0.535605251789093], [0.7159531712532043, 0.6506211161613464, 0.3151765465736389]], [[0.18064427375793457, -0.07661092281341553, -0.024774989113211632], [0.02453843504190445, -0.4751109182834625, -0.7058380246162415], [0.4668838083744049, -0.030751602724194527, -0.4658190906047821]], [[0.4131734371185303, 1.1372487545013428, 1.1334229707717896], [-0.8033454418182373, 0.4443809688091278, 0.27086448669433594], [-0.5931509137153625, 0.6673824191093445, 0.5193045735359192]], [[0.2739439010620117, -0.648945152759552, -0.7352532744407654], [0.3743804097175598, -0.9548720121383667, -1.2381688356399536], [1.0166996717453003, 0.09833215922117233, -0.059798549860715866]], [[-0.5008939504623413, -0.5688528418540955, -1.023367166519165], [-0.6671456098556519, -0.6030821800231934, -2.264695405960083], [0.9971559047698975, 1.0458495616912842, -1.3991613388061523]], [[0.9079741835594177, -0.4289955496788025, 0.07957100123167038], [0.6418505907058716, 0.8174321055412292, 0.9840291738510132], [1.4364755153656006, 1.40935480594635, 0.940939724445343]], [[0.6801812052726746, -0.3090311586856842, -0.09842774271965027], [-0.05718659237027168, -0.21180734038352966, -0.2824987769126892], [0.5428563356399536, 0.2502584755420685, 0.6240025758743286]], [[1.230464220046997, 0.22040000557899475, 0.4949226379394531], [0.6645068526268005, -0.433159202337265, -0.23448583483695984], [1.3258334398269653, 0.8228088617324829, 1.0297619104385376]], [[0.6824583411216736, -0.8946694135665894, -1.134120225906372], [1.544479489326477, 0.21100926399230957, -0.44059714674949646], [2.5413155555725098, 1.6774799823760986, 0.8132175207138062]], [[0.47208985686302185, -0.3141220211982727, -0.5751801133155823], [0.5308735966682434, -0.5304813981056213, -0.9926048517227173], [1.1469331979751587, 0.5208010673522949, 0.16666556894779205]], [[-0.4977947473526001, -0.6997446417808533, -1.084485411643982], [-1.3835370540618896, -0.976794421672821, -1.8512496948242188], [0.9434705972671509, 1.2643094062805176, 0.060396958142519]], [[0.2977791130542755, -0.6897106766700745, -0.32646963000297546], [0.33360153436660767, -0.11682560294866562, 0.0011145103489980102], [0.7372685074806213, -0.1777603030204773, -0.5476341247558594]], [[1.66880464553833, 0.5744032859802246, 0.7614747285842896], [0.7412790656089783, -0.3749315142631531, -0.4689772427082062], [0.9700109958648682, 0.5394017696380615, 0.5497804284095764]], [[-0.6399545669555664, -0.19353574514389038, -0.6173189282417297], [-0.48706912994384766, 1.7543082237243652, 0.865210771560669], [0.12313321232795715, 1.8554067611694336, 0.6144697070121765]], [[0.28091055154800415, -0.032429344952106476, 0.0801660567522049], [-0.01160600408911705, -0.46645259857177734, -0.2160804718732834], [0.2348669022321701, -0.16839691996574402, 0.11407865583896637]], [[0.7509679794311523, 0.08063133805990219, 0.2976912260055542], [0.43757349252700806, -0.5799751281738281, -0.4380035400390625], [1.0273005962371826, 0.27087804675102234, 0.5500742793083191]], [[1.8178871870040894, 1.01028573513031, 1.520450234413147], [0.7795597314834595, 0.03436301648616791, 0.35887205600738525], [1.1990644931793213, 0.7040035128593445, 0.6980798840522766]], [[0.3818663954734802, -0.46382424235343933, -0.016739366576075554], [-0.01198404747992754, -0.4996313452720642, -0.17456398904323578], [0.3190704882144928, -0.5199121832847595, -0.30142128467559814]], [[0.9157496690750122, -0.6990123391151428, -0.34806355834007263], [1.1716448068618774, -0.873478889465332, -1.0460269451141357], [1.8194440603256226, 0.5352649092674255, 0.408643513917923]], [[0.30392012000083923, -0.3785017132759094, -0.3404272496700287], [-0.3252118229866028, -0.1882883906364441, -0.5730003118515015], [-0.0785357728600502, 0.23693908751010895, 0.4120423495769501]], [[0.534633994102478, -0.31673240661621094, 0.1802283078432083], [-0.12908104062080383, -0.718562662601471, -0.08642493188381195], [-0.3711976706981659, -0.9450869560241699, 0.003835086477920413]], [[0.7854624390602112, -0.29754725098609924, -0.0985855758190155], [0.2676229774951935, -0.11403851956129074, -0.1530928611755371], [0.6414881944656372, 0.2329448163509369, 0.193624347448349]], [[-0.8817442059516907, -1.0126030445098877, -1.0673744678497314], [-1.762986421585083, -1.3706544637680054, -1.4117449522018433], [0.4408026337623596, 0.8851866722106934, 0.5945048928260803]]], [[[0.1655927300453186, -0.5443557500839233, -0.5125911235809326], [0.5904534459114075, 0.1968960165977478, -0.22502431273460388], [-0.6970821022987366, -0.4250237047672272, -0.45438867807388306]], [[0.011858134530484676, -0.1615600883960724, 0.2514624297618866], [1.069852590560913, 1.533136248588562, 1.201356053352356], [-0.708814799785614, -0.11308367550373077, 0.09015659242868423]], [[0.5056613087654114, 0.3666655421257019, -0.7612899541854858], [-0.26359662413597107, 0.20417553186416626, -0.1479911059141159], [-1.2238515615463257, -1.1720845699310303, -0.9165034890174866]], [[0.3512018024921417, -0.017745256423950195, -0.4830820560455322], [1.130620002746582, 1.3144333362579346, 0.15318983793258667], [-0.0925493836402893, 0.2233777791261673, -0.6703528165817261]], [[-0.942704975605011, -0.44870397448539734, 0.05063166469335556], [0.3778069317340851, 0.7352611422538757, 0.9088616967201233], [-0.6304307579994202, -0.19901804625988007, 0.2359776496887207]], [[0.07552732527256012, 0.9038837552070618, 1.0699483156204224], [2.1309823989868164, 2.5992772579193115, 1.9902575016021729], [-0.5068855285644531, -0.815706193447113, -0.6458078622817993]], [[-0.9026024341583252, -0.3652637004852295, 0.055517420172691345], [0.7360003590583801, 0.33369097113609314, -0.5325596332550049], [1.3463928699493408, 0.5436073541641235, -0.042501334100961685]], [[-0.6494231820106506, -0.2817486822605133, 0.10570625960826874], [0.42517393827438354, 0.7772994041442871, 0.48613762855529785], [-2.3303229808807373, -2.7399866580963135, -2.505777359008789]], [[-1.2142294645309448, -0.6112631559371948, 0.3134598135948181], [0.12941907346248627, 1.59879732131958, 1.915520429611206], [-1.1873047351837158, 0.07824036478996277, 1.0635521411895752]], [[-2.283684253692627, -0.7902445197105408, -0.24587175250053406], [-0.334393173456192, -0.12574222683906555, -0.24260370433330536], [0.25915437936782837, -0.3383948802947998, -0.4095782935619354]], [[-1.4616279602050781, -1.1995797157287598, -0.841968297958374], [1.448127269744873, 2.057065725326538, 0.4447746276855469], [-0.6285449266433716, -0.22116850316524506, -1.0370961427688599]], [[-0.6700164675712585, -0.4605972468852997, -0.3688490390777588], [0.8744492530822754, 1.7817630767822266, 0.29400521516799927], [-0.47479990124702454, 0.02689637430012226, -0.9201011061668396]], [[-1.2331823110580444, -1.0027496814727783, -0.7779592871665955], [-0.20137663185596466, -0.38307809829711914, -0.6951956748962402], [-0.6130836009979248, -0.20064741373062134, -0.9669682383537292]], [[-0.6932322382926941, -0.3345382511615753, -0.028163829818367958], [0.3905903697013855, 0.9070407152175903, 0.7254654765129089], [-0.7702209949493408, -0.3271913528442383, 0.13880707323551178]], [[0.44767722487449646, 0.34664052724838257, -0.5033674836158752], [-0.23159627616405487, 0.134930819272995, 0.04344413802027702], [-1.4283909797668457, -1.331443428993225, -0.9559022784233093]], [[0.257491797208786, -0.16674652695655823, -0.04535570368170738], [0.30148059129714966, 0.3230430781841278, 0.519405722618103], [0.04759280011057854, 0.4641527831554413, 0.6160804033279419]], [[0.2654453217983246, -0.15208281576633453, -0.37974491715431213], [0.4064313769340515, 0.5375369191169739, -0.3201795518398285], [-0.1120850071310997, 0.09777642041444778, -0.6435241103172302]], [[-1.7850888967514038, -0.8053931593894958, 0.48634427785873413], [-0.7023622393608093, -0.15785308182239532, 0.24626946449279785], [-0.3014090061187744, -0.5571299195289612, -0.08609285950660706]], [[0.6043145060539246, -0.39865267276763916, -0.9386284947395325], [0.5541945695877075, 0.3892301619052887, 0.3717406690120697], [-0.8609976172447205, -0.2675577700138092, 0.2897171378135681]], [[-3.060582160949707, -0.6589543223381042, -0.8757349252700806], [-0.857670247554779, -0.4305950701236725, -0.3163212537765503], [0.5455809831619263, -0.33421576023101807, 0.32767024636268616]], [[-0.5550547242164612, 0.018180344253778458, -0.11650369316339493], [0.499003529548645, 2.0616025924682617, 1.1033985614776611], [-0.4222871959209442, 0.5911262035369873, 0.015873277559876442]], [[-0.20975135266780853, -0.47629404067993164, -1.0890694856643677], [1.1722090244293213, 3.0298449993133545, 0.8852545022964478], [-0.7975655794143677, -0.06091216951608658, -0.6859670281410217]], [[-0.3212670683860779, -0.11376962810754776, -0.16574418544769287], [1.0736792087554932, 1.0625633001327515, 0.09348875284194946], [0.5340637564659119, 0.5000633001327515, -0.2711547911167145]], [[-1.0661097764968872, -0.9433084726333618, -0.7796279191970825], [0.4220365583896637, 1.3687480688095093, 0.7171281576156616], [-0.750216543674469, -0.06247251480817795, -0.7092941999435425]], [[0.3028203547000885, 0.13697165250778198, -0.3939957022666931], [0.26787248253822327, 0.3728499114513397, 0.1466624140739441], [-0.24563761055469513, -0.4347783625125885, -0.5887536406517029]], [[-0.3184454143047333, -0.41354241967201233, 0.0725383311510086], [0.8044323921203613, 0.9475411772727966, 0.43257805705070496], [0.5381885766983032, 1.1587351560592651, 0.6141611933708191]], [[-0.7003481388092041, 0.08645657449960709, 0.6442620754241943], [0.8100332617759705, 1.07342529296875, 1.205998182296753], [-1.9420521259307861, -2.0601189136505127, -1.3880631923675537]], [[-1.498800277709961, -0.6443634629249573, 0.7336264848709106], [-0.44823750853538513, -0.0883779227733612, 0.4453076124191284], [-0.16365914046764374, -0.44764721393585205, 0.058058787137269974]], [[-0.17346055805683136, -0.5974871516227722, -0.09311424195766449], [0.8987278342247009, 0.8930432796478271, 0.7669475078582764], [-1.0964773893356323, -0.4105951488018036, -0.15881942212581635]], [[-1.3368065357208252, -0.8464081883430481, -0.2925179898738861], [2.0828967094421387, 3.36993408203125, 3.1094861030578613], [-1.444901704788208, -0.8579122424125671, -0.5357736945152283]], [[-0.6171757578849792, -0.794999361038208, -0.49572938680648804], [1.3353320360183716, 0.5193877816200256, -0.7218902707099915], [1.5205999612808228, 0.6424688696861267, -0.6724254488945007]], [[0.06439458578824997, -0.2697795033454895, -0.06242848187685013], [0.10379055142402649, 0.3225432336330414, -0.2400970757007599], [0.09426016360521317, 0.5446155667304993, -0.26728835701942444]], [[-0.037506114691495895, 0.3127182722091675, 0.8750633001327515], [1.5700150728225708, 2.0288772583007812, 2.3309085369110107], [-1.201087236404419, -0.5705142021179199, -0.1495683491230011]], [[-0.20027342438697815, -0.09411290287971497, 0.0601789765059948], [0.6248396635055542, 0.5774787664413452, -0.15710270404815674], [-0.22237716615200043, -0.2679593861103058, -0.41963380575180054]], [[-0.8733876943588257, -0.9632161259651184, -0.5123599767684937], [1.7981754541397095, 2.8078582286834717, 2.0423362255096436], [-1.5833925008773804, -0.5743271112442017, -0.9952033758163452]], [[-0.8638333082199097, -0.4847991466522217, -0.4591905176639557], [-0.008978944271802902, 0.05949239805340767, -0.4264860451221466], [-0.16616670787334442, 0.3007899224758148, -0.7305160760879517]], [[-1.0547235012054443, -0.3922761082649231, -0.8461049795150757], [0.04888206347823143, 1.5314334630966187, 0.6277931928634644], [-0.17843876779079437, 0.2947770059108734, -0.3429654836654663]], [[0.3888116180896759, 0.3261202275753021, 0.48486605286598206], [-1.2696343660354614, -1.4942823648452759, -1.2899534702301025], [0.04906890168786049, -0.2958180904388428, -0.21140816807746887]], [[-0.2789257764816284, -0.18068288266658783, -0.2964300513267517], [-0.19101116061210632, 0.8187206387519836, 0.5744068026542664], [-0.8722454309463501, -0.4299103915691376, -0.4995649755001068]], [[-0.3199287950992584, -0.43454745411872864, 0.09047834575176239], [0.014485417865216732, -0.20645569264888763, -0.3584272563457489], [-0.1623149961233139, 0.13420657813549042, -0.17418396472930908]], [[-0.8583944439888, -1.3014521598815918, -0.8412342071533203], [0.6146010756492615, 0.41528746485710144, -0.11788326501846313], [1.1097513437271118, 1.0677006244659424, 0.08225423097610474]], [[0.01985323615372181, -0.6134326457977295, -0.21439585089683533], [0.8955721855163574, 0.7161361575126648, 0.6767023801803589], [-0.6737611293792725, -0.022856980562210083, -0.04783039540052414]], [[0.29337504506111145, -0.024882955476641655, -0.40505078434944153], [-0.0679984763264656, -0.6118087768554688, -0.613839864730835], [0.14026440680027008, -0.5961481928825378, -0.31490495800971985]], [[-0.7789695262908936, -1.0733956098556519, -0.5224460363388062], [0.9957717657089233, 1.842560052871704, 1.7068978548049927], [-1.9702645540237427, -0.8451475501060486, -0.022040074691176414]], [[-0.0743868425488472, 0.056669775396585464, 0.46912452578544617], [1.9659476280212402, 2.087595224380493, 2.058103084564209], [-0.3050425052642822, -0.4104490280151367, -0.3428170382976532]]], [[[-0.08227068930864334, -0.37270915508270264, -0.4238928258419037], [-0.9562928676605225, 0.31984034180641174, 0.2507065534591675], [-1.0331342220306396, -0.39428743720054626, -0.13715532422065735]], [[-0.6876102685928345, -0.8864302039146423, -0.5826442837715149], [-0.35621047019958496, 0.9540116190910339, 1.1794087886810303], [-1.0595955848693848, -0.5942857265472412, -0.26337289810180664]], [[0.07626471668481827, 0.48729950189590454, -0.6870706677436829], [-1.1386373043060303, -0.4214158356189728, 0.3953619599342346], [0.1772373616695404, -1.2277107238769531, -0.5746211409568787]], [[-1.2728302478790283, 0.23555466532707214, 0.20186026394367218], [-0.9536352753639221, 1.4299641847610474, 1.1112929582595825], [-1.5692702531814575, 0.04856035113334656, -0.21302403509616852]], [[0.7622264623641968, 0.22715644538402557, 1.143953561782837], [-1.4519927501678467, -0.0008354078163392842, -0.020347462967038155], [-0.8888245820999146, -1.0923669338226318, 0.28226351737976074]], [[-0.8099877238273621, 1.470172643661499, 0.9762247800827026], [-0.3365464210510254, 1.9824028015136719, 1.772979736328125], [-1.6337207555770874, -1.0618114471435547, -0.08352344483137131]], [[0.23785793781280518, -0.398476243019104, 0.704471230506897], [-0.5306220650672913, 0.6329333186149597, 0.639130175113678], [-0.5683716535568237, 0.13113245368003845, -0.10601456463336945]], [[-1.319121241569519, 0.4802233874797821, 0.3755929470062256], [-1.073625922203064, 1.4990912675857544, 1.6159135103225708], [-1.596265435218811, -0.3431093096733093, 0.27692773938179016]], [[0.22189240157604218, 0.17150549590587616, 1.584981083869934], [-1.119512915611267, 0.7484018802642822, 0.8866796493530273], [-1.045214295387268, -0.4896948039531708, 0.6405781507492065]], [[0.8200860023498535, -1.2489596605300903, 0.22777056694030762], [0.12570175528526306, -0.20745307207107544, 0.3659880757331848], [-1.6660552024841309, -1.0098493099212646, -0.364958256483078]], [[-1.025530457496643, 0.2527157962322235, 0.7097366452217102], [-0.5791096091270447, 2.450979232788086, 0.795693576335907], [-0.6437884569168091, 0.5845860838890076, -0.5346019864082336]], [[-1.2890480756759644, -0.3597516119480133, 0.478322297334671], [-0.8402199149131775, 1.277499794960022, 1.1568419933319092], [-0.3506587743759155, 0.010461038909852505, 0.17357952892780304]], [[0.7052107453346252, 1.2067593336105347, 0.1025506779551506], [-2.0113303661346436, 0.7162681221961975, 0.13145455718040466], [-0.10477504134178162, 0.8813245296478271, -0.49988266825675964]], [[0.6201222538948059, 0.06861817836761475, 1.4092917442321777], [-0.5992618203163147, 0.8773496747016907, 0.4737603962421417], [-1.0579173564910889, -1.033486008644104, -0.2239283174276352]], [[0.3493797779083252, 0.8587045669555664, -0.153772234916687], [-1.129170536994934, -0.38429611921310425, 0.7207571268081665], [0.17391271889209747, -1.0789304971694946, -0.46243664622306824]], [[-0.4301142990589142, 0.29666271805763245, -0.11770188063383102], [-0.755859375, 0.3493424952030182, 0.6269001364707947], [-1.4730488061904907, -0.5846489667892456, 0.5729638934135437]], [[-0.7787073850631714, -0.07091926783323288, -0.27127206325531006], [-0.7795019745826721, 0.9309853911399841, 0.05438569188117981], [-0.803120493888855, 0.1262204349040985, -0.2027306705713272]], [[0.6194707155227661, -0.5382041335105896, 0.15481089055538177], [-0.17422637343406677, 0.5571446418762207, 0.3715816140174866], [-1.4416636228561401, -0.351444810628891, -0.4545281231403351]], [[-0.06347931921482086, 0.1519891321659088, -0.6077510714530945], [-1.2706818580627441, -0.28557488322257996, 0.3463934063911438], [-0.7845281958580017, -0.7293938398361206, 0.4540024697780609]], [[0.36890915036201477, -0.07997551560401917, 0.3840841054916382], [-0.7468123435974121, -0.9930825233459473, 0.5487214922904968], [-0.23901012539863586, -1.2817946672439575, -0.28336119651794434]], [[-0.3281268775463104, 0.6464987993240356, 0.9939053058624268], [-1.0846266746520996, 1.1016689538955688, 0.7985371947288513], [0.15340562164783478, 0.5084111094474792, 0.22856375575065613]], [[-1.4411877393722534, 0.24223016202449799, 0.3751889765262604], [-1.1609562635421753, 1.3498482704162598, 1.6064436435699463], [-0.9028816223144531, -0.5735886693000793, -0.16703224182128906]], [[-0.7918606400489807, 0.6172232627868652, 0.6572504639625549], [-0.4769474267959595, 1.9884804487228394, 0.9645824432373047], [0.011765025556087494, 1.80231511592865, 0.44857704639434814]], [[-0.3321797847747803, 0.42743635177612305, 1.2682628631591797], [-1.2330995798110962, 0.29222217202186584, 0.7579194903373718], [0.035122599452733994, 0.023962294682860374, 0.060973264276981354]], [[-0.37512698769569397, 0.09598331153392792, -0.1660332977771759], [-0.3980558514595032, 0.4173037111759186, 1.1640409231185913], [0.46074172854423523, -0.8763370513916016, 0.3488144278526306]], [[-0.5542922616004944, -0.15807600319385529, -0.5137562155723572], [-0.316971093416214, 1.642641305923462, 1.316653847694397], [-0.8973448872566223, 0.5175997614860535, 0.5961823463439941]], [[-0.3546109199523926, 0.7120736837387085, 0.3559461534023285], [-0.05646791681647301, 0.9479315876960754, 1.5876561403274536], [-1.4753813743591309, -0.7657342553138733, -0.017226042225956917]], [[0.6566212177276611, -0.38168469071388245, 0.2866237461566925], [-0.3511323928833008, 0.44453370571136475, 0.3333584666252136], [-1.5120054483413696, -0.4618512690067291, -0.6144927740097046]], [[0.5472505688667297, 0.2557242214679718, -0.4728795289993286], [-0.9651989936828613, 0.8194215297698975, 0.24021361768245697], [-0.7948093414306641, -0.21546132862567902, -0.331807404756546]], [[-0.6420567631721497, -0.8669963479042053, 0.4421372413635254], [-0.49900445342063904, 0.3848680257797241, 0.7747671008110046], [-0.8631390333175659, -1.1634318828582764, -1.1678264141082764]], [[-0.6133508682250977, -0.11800650507211685, 0.25882720947265625], [-0.865691065788269, 1.5665181875228882, 0.5568479895591736], [-1.1337672472000122, 0.83782559633255, -0.4485795199871063]], [[-0.6900965571403503, -0.47348061203956604, -0.725841760635376], [-0.506870687007904, 0.7395696640014648, 0.4533403813838959], [-1.23004949092865, 0.3482505977153778, 0.20873083174228668]], [[-0.2629547417163849, 0.4538523852825165, 0.35264211893081665], [0.5856204628944397, 1.5080949068069458, 2.5264720916748047], [-2.109518527984619, -0.25387367606163025, 0.9371971487998962]], [[-0.07379921525716782, -0.10548907518386841, 0.9178594350814819], [-0.5285069942474365, 1.112494945526123, 0.41836121678352356], [-1.3818540573120117, -0.35494813323020935, -0.6863106489181519]], [[-0.26690858602523804, 0.2428363412618637, 0.6974132657051086], [-0.6124156713485718, 1.4508520364761353, 1.046050786972046], [-0.8141908645629883, -0.7574842572212219, -0.8644075989723206]], [[0.3915804326534271, 0.5413315296173096, -0.4557650685310364], [-1.5429295301437378, 0.8795458674430847, 0.33704009652137756], [-0.1564246118068695, 0.4782518148422241, -0.5535050630569458]], [[-0.23989565670490265, 1.0911375284194946, 0.8811933994293213], [-0.9288654327392578, 0.8236304521560669, 0.8915229439735413], [1.2869685888290405, 0.8055633902549744, 0.45526057481765747]], [[-1.206254482269287, -1.0714298486709595, -0.05885935202240944], [-2.3101553916931152, -1.5896464586257935, -0.39546388387680054], [-0.9688105583190918, -0.6447044610977173, 0.269207239151001]], [[-0.12710432708263397, 0.0455387644469738, 0.7636390328407288], [-1.2735414505004883, -0.33740749955177307, 0.6623420119285583], [-0.6217015385627747, 0.03487425297498703, 0.17892295122146606]], [[0.4475506842136383, 0.4955206513404846, 0.4303690493106842], [-1.498179316520691, 0.36130815744400024, -0.001556781237013638], [-0.17461763322353363, 0.7086492776870728, -0.3324245810508728]], [[-0.39114007353782654, -0.3752829134464264, -0.41271108388900757], [-0.7159539461135864, 0.603036642074585, 0.3269123435020447], [-1.9631829261779785, -0.21200983226299286, -0.44518548250198364]], [[0.26018571853637695, -0.30449536442756653, -0.4558877944946289], [-1.1885778903961182, -0.3112231492996216, 0.38200488686561584], [-1.1704533100128174, -0.9473461508750916, 0.15692879259586334]], [[0.31825587153434753, 1.2278398275375366, 0.18139712512493134], [-1.2077561616897583, -0.1112307757139206, 0.03022676706314087], [0.01980767585337162, -0.666320264339447, -0.9572641253471375]], [[-0.2581867277622223, 0.0544930025935173, -0.16385121643543243], [-1.115097999572754, 1.067633867263794, 1.0008339881896973], [-1.3182480335235596, -0.8032349348068237, -0.7057862877845764]], [[-0.210248664021492, 0.5908593535423279, 0.5062604546546936], [0.6180651783943176, 1.146668553352356, 2.550804853439331], [-1.7660449743270874, -0.15174542367458344, 0.7571625113487244]]], [[[-0.17718535661697388, -0.09291525185108185, -0.06959471851587296], [-0.18187879025936127, -0.17283092439174652, -0.16664347052574158], [-0.1569240689277649, -0.15807054936885834, -0.20970511436462402]], [[-0.16723008453845978, -0.23665474355220795, -0.07392658293247223], [-0.2590291202068329, -0.36895331740379333, -0.18893933296203613], [-0.13312461972236633, -0.17956969141960144, -0.19870109856128693]], [[-0.1243983581662178, -0.05528726056218147, -0.03924280032515526], [0.015898680314421654, -0.05190823972225189, 0.02323857508599758], [-0.08404506742954254, -0.09478931874036789, -0.1834515482187271]], [[-0.09460333734750748, -0.08525672554969788, -0.07877513021230698], [-0.07025381177663803, -0.05134028568863869, -0.10183532536029816], [-0.05078763887286186, -0.11073752492666245, -0.14290714263916016]], [[-0.45051610469818115, -0.4107552766799927, -0.3117966055870056], [-0.2995026409626007, -0.45928481221199036, -0.3557668626308441], [-0.3525193929672241, -0.28413209319114685, -0.12777836620807648]], [[-0.020530302077531815, 0.01829429529607296, 0.011187540367245674], [-0.026582859456539154, -0.015114686451852322, 0.012824627570807934], [-0.034281715750694275, 0.04898374155163765, -0.10069310665130615]], [[-0.1366196870803833, -0.17633835971355438, -0.025006243959069252], [-0.12908633053302765, -0.1960553526878357, -0.15535543859004974], [-0.12156643718481064, -0.17287257313728333, -0.15086397528648376]], [[0.025276297703385353, 0.019188908860087395, 0.0226427149027586], [0.05898192152380943, 0.0381992943584919, 0.021493099629878998], [-0.017189059406518936, -0.010155045427381992, 0.04104512184858322]], [[-0.18503879010677338, -0.0815984308719635, -0.09101660549640656], [-0.13086587190628052, -0.29045960307121277, -0.14494836330413818], [-0.18593405187129974, -0.10695918649435043, 0.014506912790238857]], [[-0.0966579020023346, 0.014941012486815453, -0.10653974115848541], [-0.026942607015371323, -0.08500991761684418, -0.16490906476974487], [0.0751095861196518, -0.035981860011816025, -0.008128446526825428]], [[-0.3022073209285736, -0.2139701247215271, -0.11790645122528076], [-0.13989737629890442, -0.28946274518966675, -0.2431708127260208], [-0.2848322093486786, -0.1644507795572281, -0.07657301425933838]], [[-0.1381835639476776, -0.16078679263591766, -0.07757584005594254], [-0.04111989215016365, -0.06918305158615112, -0.10641531646251678], [-0.13677442073822021, -0.09459778666496277, -0.14449751377105713]], [[-0.11525034159421921, -0.15537868440151215, -0.09060507267713547], [-0.0963340550661087, -0.12967045605182648, -0.08529837429523468], [-0.16761288046836853, -0.1455637812614441, -0.008574624545872211]], [[-0.3318767845630646, -0.3663184940814972, -0.1972210556268692], [-0.18548916280269623, -0.34529608488082886, -0.34316369891166687], [-0.2614785432815552, -0.25150707364082336, -0.02026090770959854]], [[-0.27944251894950867, -0.11034204810857773, -0.14485470950603485], [-0.13102805614471436, -0.1401715874671936, -0.010743478313088417], [-0.13993525505065918, -0.10529399663209915, 0.06443619728088379]], [[-0.020856641232967377, -0.03593994677066803, -0.13586698472499847], [0.0785699188709259, 0.01050002221018076, -0.02319866418838501], [0.10383211076259613, 0.07814566045999527, -0.06324239075183868]], [[-0.08572614938020706, -0.08164522796869278, -0.07792366296052933], [-0.06490876525640488, -0.1278088092803955, -0.09830054640769958], [-0.03333749622106552, -0.0906844437122345, -0.09159429371356964]], [[-0.11119099706411362, -0.08255718648433685, 0.07106709480285645], [-0.20773617923259735, -0.2970920205116272, -0.2021525651216507], [-0.27602314949035645, -0.3019883930683136, -0.04578682780265808]], [[-0.23725120723247528, -0.13499243557453156, -0.05122847855091095], [-0.15548105537891388, -0.14001959562301636, -0.01853213645517826], [-0.08247263729572296, -0.07089686393737793, 0.023799128830432892]], [[-0.3023836612701416, -0.13292548060417175, -0.03576904535293579], [-0.24290744960308075, -0.16739410161972046, -0.13861365616321564], [-0.2222936749458313, -0.10851455479860306, -0.13037480413913727]], [[-0.04962018504738808, -0.048200808465480804, -0.11090563982725143], [-0.04309256374835968, -0.1182401105761528, -0.10992283374071121], [0.045785628259181976, 0.0071387211792171, 3.201175331923878e-06]], [[-0.2257881760597229, -0.2555457055568695, -0.18971985578536987], [-0.17850930988788605, -0.11864802241325378, -0.20526713132858276], [-0.09231892973184586, -0.201459601521492, -0.13549315929412842]], [[-0.0800982266664505, -0.13086074590682983, -0.041210535913705826], [-0.09364478290081024, -0.14936012029647827, -0.07220293581485748], [-0.06602390855550766, -0.11438505351543427, -0.15383754670619965]], [[-0.025830766186118126, -0.03156818822026253, -0.04692249745130539], [-0.006229497026652098, 0.01482279784977436, -0.062193769961595535], [-0.028774335980415344, -0.056227970868349075, -0.12084196507930756]], [[-0.1883493810892105, -0.08829396218061447, -0.03287001699209213], [-0.1328137367963791, -0.11665146797895432, -0.043340954929590225], [-0.08939546346664429, -0.11435534060001373, -0.03104587271809578]], [[-0.06110992282629013, -0.14322412014007568, -0.06874257326126099], [-0.15875151753425598, -0.18827113509178162, -0.11318901926279068], [-0.08242513239383698, -0.16174781322479248, -0.17692069709300995]], [[-0.1395241767168045, -0.16062960028648376, -0.061314672231674194], [-0.12250519543886185, -0.13324934244155884, -0.14694201946258545], [-0.11129545420408249, -0.05289110168814659, -0.13444899022579193]], [[-0.06711667776107788, -0.12103216350078583, 0.024240456521511078], [-0.0494086779654026, -0.111160047352314, -0.02492038905620575], [-0.11624975502490997, -0.09940909594297409, 0.010175335220992565]], [[-0.11035193502902985, -0.15593664348125458, 0.004985347855836153], [-0.05929059535264969, -0.060440849512815475, -0.037777382880449295], [-0.050640419125556946, -0.12798665463924408, -0.057565316557884216]], [[-0.01173374429345131, 0.030509956181049347, -0.023654749616980553], [0.0893298014998436, -0.004975105170160532, -0.03396250307559967], [0.03192245215177536, 0.055368755012750626, -0.024173427373170853]], [[-0.04322806000709534, -0.13935059309005737, 0.022421719506382942], [-0.05721401050686836, -0.10119389742612839, -0.1215592473745346], [-0.06635373085737228, -0.09488749504089355, -0.08715523779392242]], [[-0.04966336116194725, -0.04959136247634888, -0.06334792077541351], [0.029126379638910294, 0.10121209174394608, -0.0349060483276844], [0.03651200234889984, -0.024839725345373154, -0.11976142972707748]], [[-0.1207224503159523, -0.03574478626251221, 0.022620033472776413], [0.0014885349664837122, -0.04601125046610832, 0.13395366072654724], [-0.13372135162353516, -0.19599205255508423, -0.09310441464185715]], [[-0.07289721816778183, -0.15237188339233398, -0.013013910502195358], [-0.02873467653989792, -0.08962312340736389, -0.0944666936993599], [-0.08101266622543335, -0.07674616575241089, -0.17402023077011108]], [[-0.06275928020477295, -0.04731946811079979, -0.009146876633167267], [-0.18859140574932098, -0.2056031972169876, -0.1757734715938568], [-0.07060419768095016, -0.23350511491298676, -0.195244699716568]], [[-0.3282161056995392, -0.2663459777832031, -0.30074429512023926], [-0.3673519194126129, -0.21528400480747223, -0.21561859548091888], [-0.08026832342147827, -0.09232384711503983, -0.03629974275827408]], [[-0.13715259730815887, -0.024724915623664856, -0.06004123389720917], [-0.07652930915355682, -0.08105580508708954, -0.13704699277877808], [0.017204253003001213, -0.05970190837979317, -0.09650900214910507]], [[-0.08014006912708282, -0.055480845272541046, -0.15581369400024414], [0.03779549151659012, -0.024249469861388206, -0.07974666357040405], [0.05685834586620331, -0.0005397254135459661, -0.01933550275862217]], [[0.010884895920753479, 0.06060907617211342, -0.02629975415766239], [0.10126849263906479, 0.1087123230099678, 0.018699396401643753], [0.06180008873343468, 0.08800133317708969, 0.10916908085346222]], [[-0.09462513774633408, -0.07384014874696732, -0.15149568021297455], [-0.10827317088842392, -0.08089195936918259, -0.20687252283096313], [-0.130568265914917, -0.10934698581695557, -0.08938338607549667]], [[-0.06349870562553406, -0.12971758842468262, -0.07834459841251373], [-0.0016757447738200426, -0.009263562969863415, 0.015227681025862694], [-0.0942034050822258, -0.08935804665088654, -0.16210271418094635]], [[-0.19938990473747253, -0.09150430560112, -0.05532750114798546], [-0.20174936950206757, -0.13584095239639282, -0.07133575528860092], [-0.055818039923906326, -0.09404797852039337, -0.16620981693267822]], [[-0.07676524668931961, -0.10501812398433685, -0.07769738882780075], [0.0021752004977315664, -0.03444352746009827, -0.03806326910853386], [-0.00492905406281352, -0.044559258967638016, -0.11190492659807205]], [[-0.20024044811725616, -0.24184022843837738, -0.2369309514760971], [-0.1984522044658661, -0.25178787112236023, -0.16362591087818146], [-0.14863979816436768, -0.20593507587909698, -0.07935027033090591]], [[-0.05475025624036789, 0.019236473366618156, -0.03278619050979614], [0.09098866581916809, 0.04412199184298515, 0.07811033725738525], [0.008224358782172203, 0.04131336510181427, -0.05884740129113197]]], [[[-0.06739025563001633, -0.10927313566207886, -0.024138709530234337], [-0.030605675652623177, -0.04891027882695198, -0.10401913523674011], [-0.04832044988870621, 0.0264283400028944, -0.04603775218129158]], [[-0.09605575352907181, 0.023498915135860443, -0.012093445286154747], [-0.09205503016710281, -0.1093994677066803, -0.03481569141149521], [0.01655072160065174, 0.0366576723754406, 0.025494391098618507]], [[0.030099280178546906, -0.07929358631372452, -0.025622045621275902], [-0.05885661393404007, -0.09477148950099945, -0.08992975205183029], [-0.02047533541917801, -0.045186951756477356, -0.09883004426956177]], [[-0.09175141900777817, -0.11622780561447144, 0.08463632315397263], [-0.08225493878126144, -0.06609895825386047, -0.05889715626835823], [-0.08483930677175522, -0.048028819262981415, 0.04100213944911957]], [[-0.10686632245779037, 0.02669200487434864, 0.01000811904668808], [-0.06469172239303589, -0.08372574299573898, -0.002072963397949934], [-0.099528007209301, -0.04406306892633438, -0.09051642566919327]], [[-0.019314292818307877, -0.07167080044746399, -0.08312494307756424], [0.06435196101665497, -0.09635254740715027, -0.019630026072263718], [-0.02090456523001194, -0.06588185578584671, -0.050239380449056625]], [[-0.03014623001217842, 0.0035337742883712053, 0.036561157554388046], [-0.06345134228467941, -0.11361940205097198, -0.01730896160006523], [-0.0085827661678195, 0.0034867399372160435, -0.06362885981798172]], [[-0.035660769790410995, 0.020374752581119537, -0.014871145598590374], [0.02443777769804001, 0.03432869911193848, -0.009713364765048027], [-0.01841496303677559, -0.07770389318466187, -0.014421872794628143]], [[-0.07326085865497589, 0.06868607550859451, -0.041657455265522], [0.009898270480334759, -0.009592980146408081, -0.03034820407629013], [-0.03473033756017685, -0.12532317638397217, -0.020800381898880005]], [[-0.09731724113225937, -0.08724337071180344, 0.0014548104954883456], [0.021762441843748093, -0.09640196710824966, -0.020400121808052063], [-0.06416260451078415, -0.13879776000976562, -0.09516829252243042]], [[-0.07397082448005676, 0.07051213830709457, -0.03777892515063286], [-0.08752954006195068, -0.09135869890451431, -0.06499353796243668], [0.061177320778369904, -0.13923189043998718, -0.0446603037416935]], [[-0.10974392294883728, 0.07324443012475967, 0.06576915085315704], [-0.07264983654022217, -0.11042565107345581, -0.09480731934309006], [-0.09490840882062912, -0.07541905343532562, 0.09173174202442169]], [[-0.0053808982484042645, 0.034232672303915024, -0.06304328143596649], [0.023258725181221962, -0.025735169649124146, -0.04219400882720947], [-0.0360523946583271, -0.0548817440867424, -0.07707306742668152]], [[-0.11857976019382477, -0.004077848978340626, 0.0010139124933630228], [-0.09583346545696259, -0.12977959215641022, -0.08925063908100128], [-0.09570136666297913, -0.10311643779277802, -0.045225728303194046]], [[0.02759711444377899, -0.10150029510259628, -0.029594482854008675], [-0.07802794128656387, -0.0323227196931839, -0.0865345150232315], [-0.07235643267631531, 0.021135736256837845, 0.08995246142148972]], [[0.03204464912414551, -0.09708882123231888, -0.01213293056935072], [0.007179118227213621, -0.07316453009843826, -0.045436885207891464], [-0.023518327623605728, -0.03074846975505352, -0.05546193942427635]], [[-0.089290551841259, -0.05775634944438934, 0.1090826690196991], [-0.06335637718439102, -0.0384867899119854, -0.007639553397893906], [-0.07142486423254013, -0.026705637574195862, 0.03514222800731659]], [[-0.08702404797077179, -0.04546870291233063, -0.021659014746546745], [-0.05931541696190834, -0.06281201541423798, -0.049903787672519684], [0.014577560126781464, -0.07134505361318588, -0.09943702071905136]], [[0.0056325532495975494, -0.12104971706867218, -0.043087780475616455], [-0.034955814480781555, -0.06925874948501587, -0.0012470701476559043], [-0.10536395013332367, 0.06829985231161118, 0.12771859765052795]], [[0.07294874638319016, -0.07833758741617203, -0.005366933532059193], [0.02602224424481392, -0.0609968937933445, -0.025123173370957375], [-0.1320822685956955, -0.14848953485488892, -0.04223146662116051]], [[-0.05823126807808876, -0.0537642166018486, -0.012464635074138641], [-0.027675902470946312, 0.03422078862786293, 0.07323677837848663], [-0.103415846824646, -0.03940676897764206, -0.047265730798244476]], [[0.0033295468892902136, -0.025176748633384705, 0.11953599750995636], [-0.08537539839744568, -0.02716495655477047, -0.049643270671367645], [-0.0882328450679779, -0.0585700161755085, -0.08716003596782684]], [[-0.0984673872590065, -0.1081901490688324, 0.11776088178157806], [-0.019338026642799377, -0.08533849567174911, -0.07632271945476532], [-0.04199142009019852, 0.026605525985360146, 0.03818005695939064]], [[-0.029040012508630753, -0.03602009639143944, 0.07495054602622986], [0.010290216654539108, -0.06741194427013397, -0.07513048499822617], [-0.05553809180855751, -0.052319273352622986, -0.04146056994795799]], [[0.024595046415925026, -0.08715618401765823, -0.07298078387975693], [-0.08734814077615738, -0.11211638897657394, -0.03941666707396507], [-0.08601317554712296, -0.11038607358932495, 0.03219642490148544]], [[0.027372129261493683, -0.021964270621538162, -0.08753468841314316], [-0.0693344846367836, -0.04473008215427399, -0.09816659241914749], [-0.06756564974784851, -0.08328401297330856, -0.08505769819021225]], [[0.03557836636900902, -0.09675656259059906, -0.04939340800046921], [-0.09011261910200119, -0.05728243291378021, -0.013011516071856022], [-0.021564116701483727, -0.09641794860363007, -0.04506296664476395]], [[-0.12977111339569092, -0.05479733645915985, -0.06403131037950516], [-0.1138993576169014, -0.12135843932628632, -0.09436380118131638], [0.02139546535909176, -0.08110729604959488, -0.03700108081102371]], [[-0.0723637193441391, -0.09582590311765671, 0.060232099145650864], [-0.09228163957595825, -0.1114957258105278, -0.024698438122868538], [-0.07019331306219101, -0.05205618217587471, 0.008760970085859299]], [[0.02510385774075985, -0.019397201016545296, -0.08226796239614487], [0.020588306710124016, -0.014218163676559925, -0.07315195351839066], [-0.027591846883296967, -0.061759769916534424, -0.060493458062410355]], [[-0.11299023032188416, -0.04702948406338692, 0.06644681841135025], [-0.08987283706665039, -0.0802907794713974, -0.05026037618517876], [-0.0784231498837471, -0.022258514538407326, 0.03341810405254364]], [[0.016248997300863266, -0.06452023237943649, -0.038077883422374725], [-0.11099769175052643, -0.08737225085496902, -0.06904573738574982], [-0.05404924601316452, -0.07983234524726868, -0.022100770846009254]], [[0.0031495471484959126, -0.10917367041110992, -0.03356025367975235], [-0.10465365648269653, -0.07946773618459702, -0.02294948697090149], [-0.0920475423336029, -0.005543054547160864, 0.03061218373477459]], [[-0.046279847621917725, -0.10638133436441422, 0.04559927433729172], [-0.09140615910291672, -0.020436963066458702, -0.06840188801288605], [-0.046103160828351974, -0.12813518941402435, 0.014010583981871605]], [[-0.07199065387248993, -0.03146398067474365, -0.029903553426265717], [-0.039987966418266296, -0.04284180328249931, -0.05462640896439552], [-0.06189697980880737, -0.07972002774477005, -0.0979805737733841]], [[-0.06346692144870758, 0.07856435328722, -0.0837356448173523], [0.026210542768239975, -0.004290035925805569, -0.04996347054839134], [-0.1089211031794548, -0.10904450714588165, -0.012720588594675064]], [[0.04412158951163292, -0.07316508889198303, 0.06801071017980576], [0.013649489730596542, -0.08268501609563828, -0.09468089044094086], [-0.09662184119224548, -0.048617660999298096, -0.07269790768623352]], [[0.0501197874546051, -0.0531684048473835, -0.09576039761304855], [0.07144732028245926, -0.09902643412351608, -0.0140521926805377], [-0.054003067314624786, -0.11684349924325943, -0.01848556287586689]], [[0.0034667234867811203, -0.027270231395959854, -0.09664630889892578], [0.01064235344529152, 0.024086320772767067, -0.10456494987010956], [-0.03957914188504219, -0.08160396665334702, -0.04275623708963394]], [[-0.02367846854031086, 0.04985137656331062, -0.04970584064722061], [0.07820568978786469, 0.022008560597896576, -0.08927162736654282], [-0.05102252587676048, -0.09940063208341599, -0.09081081300973892]], [[-0.14566798508167267, -0.023268677294254303, -0.06727110594511032], [-0.024051213636994362, -0.03649665042757988, -0.04176252707839012], [-0.031961213797330856, -0.0377255417406559, -0.07123709470033646]], [[0.0225127711892128, -0.09918650984764099, -0.06096704676747322], [-0.04949425160884857, -0.07887256890535355, -0.0765685886144638], [-0.04077647626399994, -0.0047921850346028805, 0.12168187648057938]], [[0.05424356088042259, -0.03993290662765503, -0.04737702012062073], [0.06514424085617065, -0.06829708814620972, -0.09979844838380814], [-0.04352060332894325, -0.10233325511217117, -0.0785500705242157]], [[-0.08703465014696121, -0.10406062006950378, 0.017928848043084145], [-0.05836394056677818, -0.07406821846961975, -0.014719899743795395], [-0.052678268402814865, -0.11800902336835861, -0.07764134556055069]], [[0.00747384037822485, -0.07785236835479736, -0.09079703688621521], [-0.031939875334501266, -0.07252661138772964, -0.06680049002170563], [-0.09053393453359604, -0.03954404219985008, -0.01855812594294548]]], [[[-1.28902268409729, 0.3244469463825226, 0.5845949649810791], [0.08489567041397095, -0.5802805423736572, 0.4323429465293884], [1.0520260334014893, 0.12943650782108307, -0.229737788438797]], [[-0.2778146266937256, -0.9182842969894409, 0.02045285888016224], [0.9334852695465088, -0.1454119086265564, -0.03736064210534096], [0.7446185946464539, 0.7634446024894714, -0.3124881088733673]], [[-0.31985169649124146, -2.0432705879211426, -1.1129862070083618], [0.10589293390512466, 0.21182453632354736, -1.0042210817337036], [-0.36594289541244507, 0.020158274099230766, -0.3161214292049408]], [[-0.7507458329200745, 1.1369781494140625, 0.229603111743927], [-0.12888695299625397, -0.013585385866463184, 0.31003710627555847], [0.283150851726532, -0.9475630521774292, -0.11486432701349258]], [[-1.47747802734375, -1.5560650825500488, -0.5794416069984436], [0.7065457105636597, -1.5304309129714966, -0.8738564848899841], [1.1112862825393677, -0.07607019692659378, -1.5853461027145386]], [[-0.08096148073673248, 1.4935111999511719, -1.5560648441314697], [0.487874299287796, 2.435478687286377, -1.4529478549957275], [0.9235409498214722, 0.8780180811882019, -0.7646922469139099]], [[0.9454692602157593, 0.8527068495750427, -1.1308398246765137], [-0.5198275446891785, 0.927666187286377, -0.04937966912984848], [-0.4581744968891144, -0.033899176865816116, 0.11396856606006622]], [[-0.8427452445030212, 1.3156911134719849, -1.0027302503585815], [0.47631099820137024, 2.364880323410034, -1.1954706907272339], [1.0253177881240845, 0.3229103982448578, -0.09490898996591568]], [[-1.731520414352417, -3.070246458053589, -0.5021011829376221], [-0.10155865550041199, -2.659106731414795, -0.9854705929756165], [0.7991212606430054, 0.2039462924003601, -1.112044095993042]], [[1.0344955921173096, 0.17577581107616425, -1.6084402799606323], [-0.46321865916252136, 1.2108206748962402, -0.7704376578330994], [-0.3933464288711548, 0.8075992465019226, -0.22164596617221832]], [[-0.4770297408103943, 0.9714780449867249, -0.09666284918785095], [-0.27345284819602966, -0.36046773195266724, 0.29336607456207275], [0.0920633003115654, -0.4821145236492157, 0.30607807636260986]], [[0.0357423834502697, 1.6146332025527954, 0.3650622069835663], [0.3678661584854126, 0.380503386259079, -0.08127542585134506], [0.18877483904361725, -1.0565468072891235, -0.5185715556144714]], [[0.483673095703125, 0.6790810823440552, -2.341914415359497], [0.23281385004520416, 0.5906822085380554, 0.27409911155700684], [-0.3237249255180359, 0.3109183609485626, 0.8016941547393799]], [[-0.779667854309082, -0.6067551970481873, 0.11530335247516632], [0.13130459189414978, -1.0661894083023071, 0.25451335310935974], [1.06680166721344, 0.3972371220588684, -0.036250777542591095]], [[-0.26038187742233276, -1.6018387079238892, -0.883226752281189], [0.05700723081827164, 0.14553602039813995, -0.33592337369918823], [-0.5164483785629272, -0.7600973844528198, -0.11358662694692612]], [[-0.0872594341635704, -0.8715742826461792, 0.1965801864862442], [0.0346495658159256, -1.067549467086792, -1.3718667030334473], [0.28143826127052307, -0.295561283826828, -1.5650314092636108]], [[-0.7654302716255188, 1.0898444652557373, 0.16306191682815552], [-0.1269717961549759, -0.26390525698661804, 0.013370458967983723], [0.4602685570716858, -0.6638476848602295, -0.2942380905151367]], [[0.5262297987937927, 0.5536345839500427, -1.8810776472091675], [-0.4476165175437927, 0.9187216758728027, -0.3022170066833496], [-0.34392866492271423, 0.6400319337844849, -0.39033743739128113]], [[-1.74567449092865, -1.7087364196777344, 0.8323194980621338], [-0.09210675209760666, -2.556486129760742, 0.31150105595588684], [0.2602834105491638, 0.04960024356842041, -0.992272675037384]], [[0.6082677245140076, -1.1249706745147705, -2.469310998916626], [0.2664836645126343, 1.0434030294418335, -1.1444435119628906], [0.6142858862876892, 0.5845165252685547, 0.9538819789886475]], [[0.883845865726471, -0.40080246329307556, -0.3260669708251953], [1.5504834651947021, 1.2688672542572021, -1.413830280303955], [1.0969904661178589, 0.5702879428863525, -1.855484962463379]], [[-0.8153017163276672, 0.6410483717918396, 1.1065226793289185], [0.5057903528213501, -0.945241391658783, -0.23430895805358887], [1.1149402856826782, -0.5934269428253174, -0.9967740774154663]], [[0.8503490090370178, 1.5619696378707886, -1.232824683189392], [-0.10106957703828812, 0.9447759985923767, -0.39003556966781616], [-0.054446686059236526, -0.7134417295455933, -0.21621547639369965]], [[1.1311829090118408, 0.17632922530174255, 0.8118133544921875], [0.504777193069458, 0.4158143401145935, -0.5627951622009277], [-0.05532180145382881, -0.33197376132011414, -0.9281080961227417]], [[0.15392141044139862, -0.4068123400211334, 0.05871715024113655], [0.16042710840702057, 0.7211557626724243, -0.15096791088581085], [-0.5983400940895081, -0.37168624997138977, -0.2236921191215515]], [[-0.7824230790138245, 0.5794417858123779, 0.4459429681301117], [0.18306675553321838, -0.12502069771289825, -0.33998188376426697], [0.7513697147369385, 0.19544433057308197, -0.5031859874725342]], [[1.1438813209533691, -0.32911860942840576, -2.144109010696411], [2.004539966583252, 2.275756359100342, -1.6682101488113403], [2.2576472759246826, 2.7841637134552, 0.8953786492347717]], [[0.5240969061851501, 0.5069395899772644, -1.591467022895813], [-0.4209194779396057, 0.7177448272705078, -0.06630850583314896], [-0.33656230568885803, 0.43965598940849304, -0.20053595304489136]], [[-2.0820395946502686, -0.588956892490387, 0.2796390652656555], [-0.31801745295524597, -1.2829935550689697, 0.4335608184337616], [0.896756112575531, 0.3120017349720001, -0.09300563484430313]], [[0.6850516200065613, -0.8008351922035217, -0.12903904914855957], [1.1234254837036133, 0.09537791460752487, 0.1937408447265625], [1.3585491180419922, 1.2671796083450317, 0.7121292948722839]], [[0.7140451073646545, 1.383574366569519, -0.08894303441047668], [-0.6361130475997925, 0.7289978265762329, 0.16686038672924042], [-0.5492557883262634, -0.4060332477092743, -0.029201317578554153]], [[0.33314749598503113, 0.48790037631988525, 0.8135053515434265], [0.07143809646368027, 0.3026960790157318, -0.8296447396278381], [0.6826011538505554, 0.08145676553249359, -0.8729767203330994]], [[0.9326016306877136, 0.6642223000526428, -1.572860598564148], [-0.04100983217358589, 2.203474998474121, -1.6076407432556152], [0.14685004949569702, 0.6140960454940796, -0.6057451963424683]], [[-0.19494611024856567, 0.8506242036819458, -0.04516805708408356], [-1.1842515468597412, 0.005426658317446709, 0.5674112439155579], [0.22200891375541687, 0.12186343222856522, 0.27367427945137024]], [[-0.8134312033653259, -0.6174495816230774, -0.15646055340766907], [0.7050593495368958, -0.5943323969841003, 0.5974939465522766], [0.7594660520553589, 0.8128384351730347, 0.3802984654903412]], [[0.026112031191587448, 0.6929891109466553, -2.00663161277771], [0.1133539155125618, 0.23158343136310577, 0.38608518242836], [-0.20430545508861542, 0.37842682003974915, 0.9357007145881653]], [[1.263443112373352, 0.2241460680961609, 0.2707146108150482], [0.8185816407203674, 0.7956435084342957, -0.7520682215690613], [0.6287826299667358, -0.5580700635910034, -0.5653132796287537]], [[0.21141323447227478, -0.4235195517539978, 0.10690571367740631], [0.4366094768047333, -0.3404427170753479, -0.6918310523033142], [0.7303770780563354, -0.1203533411026001, -1.6732779741287231]], [[0.657084047794342, -1.2864347696304321, -0.21153242886066437], [0.8549416661262512, 0.49651676416397095, 0.1292431652545929], [0.016735099256038666, -0.5842636823654175, -0.48976248502731323]], [[-0.5553196668624878, -0.17630530893802643, -0.13176093995571136], [0.10516474395990372, -0.8808205127716064, 0.31107428669929504], [-0.054569609463214874, -0.7051687836647034, 0.007414791267365217]], [[1.2808387279510498, 0.7310467958450317, -0.2449091523885727], [0.11086879670619965, 1.2540313005447388, -0.4981369972229004], [-0.42391467094421387, -0.06740876287221909, -0.6785489916801453]], [[-1.372607707977295, -0.35186150670051575, 1.0559215545654297], [0.17966459691524506, -1.3072160482406616, 0.6698476672172546], [0.672574520111084, 0.08104319870471954, -0.4108659327030182]], [[-0.5110400319099426, -0.9552197456359863, -0.27500060200691223], [0.47933465242385864, -1.448898196220398, -0.19229243695735931], [0.7659153938293457, -0.9501826763153076, 0.43601566553115845]], [[-1.4585100412368774, -1.128883957862854, 0.7125939726829529], [0.4138436019420624, -0.8524649143218994, 0.37688425183296204], [1.0110256671905518, 0.5492615103721619, -0.5346091985702515]], [[1.20335054397583, 2.955268383026123, -2.604077100753784], [0.04161841794848442, 3.3919036388397217, -1.0126444101333618], [0.8875541090965271, 0.7500733733177185, 0.19567488133907318]]], [[[0.5462951064109802, -0.0835530161857605, 0.06366602331399918], [0.0684344619512558, -0.6925944089889526, -0.7454943060874939], [-0.07870898395776749, -0.38492992520332336, 0.003811661619693041]], [[0.42354094982147217, 1.1112899780273438, 0.4266812205314636], [-0.04175862669944763, 0.761696457862854, 0.29613012075424194], [-0.06343347579240799, 0.3786577880382538, 0.04997658729553223]], [[0.2488827109336853, -0.36820968985557556, -1.0592012405395508], [-0.19512654840946198, -1.7571203708648682, -2.1944684982299805], [0.2059299498796463, -0.17741809785366058, -0.637942373752594]], [[0.7256675958633423, -0.2248392403125763, 0.5047584772109985], [0.3279481828212738, -0.562343418598175, 0.24335400760173798], [1.0605323314666748, 0.0444527193903923, 0.6702156066894531]], [[0.5326366424560547, 0.2680783271789551, -0.5217759013175964], [-0.19301557540893555, -0.21562910079956055, -1.3955336809158325], [-0.3512726426124573, 0.31729480624198914, -0.2846296429634094]], [[1.1890640258789062, 1.3497674465179443, 1.26969313621521], [-0.5117555260658264, -0.7511988878250122, -0.4750503897666931], [-0.20960110425949097, -0.6792603731155396, -0.6343603134155273]], [[-0.11113739013671875, -0.4266664981842041, 0.4983782470226288], [-0.5314459204673767, -0.1734394133090973, 1.392444372177124], [0.04587438330054283, -0.13356472551822662, 0.5174267888069153]], [[1.7087986469268799, 2.404846668243408, 1.9565821886062622], [-0.02866983413696289, 0.248947411775589, 0.12236544489860535], [-0.6089951395988464, -0.8659508228302002, -1.3128130435943604]], [[1.1908763647079468, 1.0222424268722534, 0.5539239048957825], [0.22634001076221466, 0.06343831866979599, -0.5939115285873413], [0.6746777296066284, 0.950624406337738, 0.5492572784423828]], [[0.7530192136764526, -0.09007561951875687, 0.8769213557243347], [-0.24919211864471436, -0.9956830143928528, 0.710681676864624], [0.21240420639514923, -0.19692659378051758, 0.7916616797447205]], [[-0.002757710637524724, 0.010097644291818142, 0.986545205116272], [-0.8745843172073364, -0.36417844891548157, 0.7589716911315918], [0.5689608454704285, 0.2006133794784546, 0.5078504085540771]], [[0.1721055507659912, 0.17446012794971466, 0.8777516484260559], [-0.0067699626088142395, -0.030623935163021088, 1.1921203136444092], [0.9904528856277466, 0.19580434262752533, 0.393604040145874]], [[0.22437794506549835, -0.3903462886810303, 1.3700133562088013], [0.9715771079063416, 0.1606147140264511, 1.80636465549469], [0.7511765360832214, 0.2386462539434433, 1.633333444595337]], [[0.707024872303009, 0.09918555617332458, -0.028771940618753433], [-0.11578468978404999, -0.7149919271469116, -0.9002155065536499], [0.24691714346408844, 0.2929322123527527, 0.19665595889091492]], [[0.23334915935993195, -0.1797122210264206, -0.771095335483551], [-0.16125209629535675, -1.6344069242477417, -2.2108676433563232], [0.20673920214176178, 0.1287725865840912, -0.634422242641449]], [[-0.8581333160400391, -0.5597010254859924, -1.1187783479690552], [0.20005108416080475, 0.869330644607544, 0.31984955072402954], [-0.08759448677301407, 0.7377637028694153, 0.4017324149608612]], [[0.47569549083709717, -0.07121706753969193, 0.5492274761199951], [0.02635839208960533, -0.46836334466934204, 0.2426537722349167], [0.384407103061676, -0.18559956550598145, 0.4170488119125366]], [[0.5631494522094727, -0.3132396340370178, 0.7501096129417419], [-0.706098735332489, -1.7338308095932007, -0.06936553120613098], [-0.1394335925579071, -0.7112372517585754, 0.4111722409725189]], [[0.0026109134778380394, -0.9907549023628235, -1.4275563955307007], [0.6976948976516724, -0.90317302942276, -1.608342170715332], [0.4747721254825592, 0.10822833329439163, -0.12150479853153229]], [[0.44063666462898254, 0.6341128945350647, 0.4667273461818695], [1.2817726135253906, 1.363872766494751, 1.51602041721344], [1.2701702117919922, 2.0889484882354736, 2.0331456661224365]], [[1.1209102869033813, 2.6970884799957275, 2.674048900604248], [-0.5348138213157654, 0.6941051483154297, 0.7369527816772461], [0.8412351608276367, 1.481717586517334, 0.7201256155967712]], [[0.9238236546516418, 0.7601147294044495, 1.1130139827728271], [-0.4633564352989197, -0.3115852475166321, 0.16775818169116974], [0.9381265044212341, 0.5660190582275391, 0.5195969939231873]], [[-0.04516451805830002, 0.3563108444213867, 1.380202293395996], [-0.5150819420814514, 0.32987844944000244, 2.1677894592285156], [-0.4409347176551819, -0.5529959797859192, 0.5513145327568054]], [[-0.03291112929582596, 0.8160700798034668, 1.0656696557998657], [-0.7974828481674194, 0.29278504848480225, 0.6099715828895569], [0.5350487232208252, 0.9721840023994446, 0.39004892110824585]], [[1.0339558124542236, 1.0774047374725342, 1.2996869087219238], [0.3105374574661255, -0.7277839183807373, -0.27874070405960083], [0.47142717242240906, -0.18824583292007446, -0.0020820910576730967]], [[-0.7369118928909302, -0.3130074143409729, -0.08101116120815277], [-0.571033239364624, 0.13156567513942719, 0.3069075047969818], [-0.007372892461717129, 0.43080630898475647, 0.6245623230934143]], [[1.6150115728378296, 0.41309651732444763, 0.6788234710693359], [1.1646430492401123, -0.7684152722358704, -1.038621425628662], [-0.5341788530349731, -1.625590205192566, -1.1728328466415405]], [[0.30463042855262756, -0.4824756979942322, 0.6321911215782166], [-0.7946307063102722, -1.6535866260528564, -0.11718916147947311], [-0.17440323531627655, -0.6178090572357178, 0.41156163811683655]], [[0.19607363641262054, -0.8543241620063782, -0.5922920107841492], [0.1885630190372467, -1.0852583646774292, -1.1104540824890137], [0.14380761981010437, -0.5019017457962036, 0.13796547055244446]], [[0.17905209958553314, 2.7692346572875977, 1.5525567531585693], [0.15695862472057343, 2.685711145401001, 2.0642123222351074], [-0.41668227314949036, 0.7633926868438721, 0.20736566185951233]], [[0.033004507422447205, -0.401762992143631, 0.5277062654495239], [-0.09140428155660629, -0.07586848735809326, 1.6297698020935059], [0.7498677372932434, 0.08246386796236038, 1.00080144405365]], [[-0.6019479036331177, -0.32442137598991394, -0.1653701663017273], [-0.43808549642562866, 0.36450228095054626, 0.6239707469940186], [-0.3048335015773773, 0.1659630686044693, 0.36325567960739136]], [[1.2085715532302856, 0.5658697485923767, 0.6961538791656494], [-0.12258407473564148, -0.919963002204895, -0.4855022728443146], [-0.269797146320343, -0.5532224178314209, -0.24731935560703278]], [[0.5388543009757996, 0.0675206109881401, 1.0127538442611694], [-0.25518253445625305, -1.0365408658981323, 0.011168270371854305], [0.7031329870223999, 0.06603734195232391, 0.75111985206604]], [[-0.7779242396354675, 0.634515106678009, 0.009041925892233849], [-0.624665379524231, 0.846500039100647, 0.550158679485321], [-1.0676933526992798, -0.3205266296863556, -0.29848065972328186]], [[0.381477028131485, -0.4167405068874359, 1.5215272903442383], [1.1580175161361694, 0.16335433721542358, 1.9597135782241821], [0.9685103893280029, 0.3704189956188202, 1.8839950561523438]], [[0.43956616520881653, 2.0642147064208984, 1.8629066944122314], [-0.5546199679374695, 0.9812524914741516, 0.7828365564346313], [0.5246681571006775, 1.3139163255691528, 0.24241186678409576]], [[0.09007487446069717, 0.5589084625244141, 0.40400180220603943], [-0.3454800546169281, 0.2794284224510193, 0.4336516261100769], [-0.7331987023353577, 0.18948453664779663, 0.5761855244636536]], [[0.3151804804801941, 2.539857864379883, 1.816280484199524], [0.3381175398826599, 2.4727895259857178, 2.0129904747009277], [-0.40893131494522095, 0.3665378987789154, -0.20534159243106842]], [[-0.1244717612862587, -0.22169853746891022, 0.4490149915218353], [-0.5386263132095337, -0.5757039785385132, -0.011469664983451366], [-0.6985365152359009, -0.3844648599624634, 0.49968773126602173]], [[-0.9867467880249023, -0.558803141117096, -0.23670746386051178], [-0.12263965606689453, 1.3243800401687622, 2.191040515899658], [0.3327055871486664, 1.2327313423156738, 1.5324921607971191]], [[0.49185988306999207, -0.16253691911697388, -0.04591286554932594], [0.3995913565158844, -0.8379844427108765, -0.7759628295898438], [0.19317182898521423, -0.2347787469625473, 0.2778969407081604]], [[-0.4606674611568451, -0.10791436582803726, -0.7495570182800293], [-0.45287635922431946, -0.5113179087638855, -1.2366857528686523], [-0.8455900549888611, 0.004035842139273882, 0.13932698965072632]], [[0.13969677686691284, -0.9245443344116211, -0.9638749957084656], [-0.3073878288269043, -1.3416128158569336, -1.5406876802444458], [0.030914826318621635, 0.02902091294527054, 0.3803175091743469]], [[0.7448247075080872, 1.3284375667572021, 1.336876392364502], [-0.405365526676178, -0.162546768784523, 0.18726913630962372], [-0.3798876404762268, -0.07588419318199158, 0.1337825208902359]]], [[[-0.3699926435947418, -0.3996489644050598, -0.07412261515855789], [-0.4358731806278229, -0.5264641046524048, 0.795257031917572], [0.39838019013404846, 0.6130861043930054, -0.382896363735199]], [[-1.345240592956543, -1.6341147422790527, -1.2042133808135986], 