module.exports = {"conv0.weight": [[[[-0.11125414818525314, -0.26116740703582764, -0.18584460020065308], [-0.7663722634315491, -0.35256555676460266, 1.1734237670898438], [-0.2879966199398041, 0.8585334420204163, 0.22069889307022095]]], [[[-0.36641958355903625, -0.5642420053482056, -0.023683084174990654], [-1.191970705986023, -0.8836209177970886, 0.10308097302913666], [-0.10003138333559036, 0.6663042306900024, 1.1889468431472778]]], [[[-0.6478246450424194, -0.49550098180770874, 0.05136216804385185], [0.5782809257507324, 0.5950210094451904, 1.3244526386260986], [0.6197431087493896, 0.8243177533149719, 0.9816333651542664]]], [[[0.13882990181446075, -0.13201256096363068, 0.14178413152694702], [0.01206995639950037, -0.0006127956439740956, -0.0011558113619685173], [0.04081321135163307, -0.2923482656478882, 0.11520339548587799]]], [[[0.23824357986450195, 0.6764114499092102, 0.6616975665092468], [0.3689239025115967, 0.1255439817905426, -0.014707593247294426], [-0.3515968918800354, -0.993547797203064, -0.9805784225463867]]], [[[-1.548037052154541, 0.12290159612894058, 1.187711477279663], [-1.4797773361206055, 0.10787619650363922, 1.4151904582977295], [-0.9094753265380859, 0.14972944557666779, 0.7872200608253479]]], [[[0.802198052406311, 0.8469574451446533, 0.5949076414108276], [-1.4080380201339722, -1.0030699968338013, -0.84636390209198], [0.496971070766449, 0.5413336753845215, -0.027398230507969856]]], [[[0.8404228687286377, 0.10567953437566757, -1.002147912979126], [1.1741833686828613, 0.024456918239593506, -1.161859393119812], [1.4685126543045044, -0.14359678328037262, -1.1902602910995483]]], [[[0.6854414939880371, 1.0209108591079712, 0.39237886667251587], [0.8273828625679016, 0.3865981698036194, -0.6830767393112183], [-0.13881751894950867, -0.6333122253417969, -0.9914179444313049]]], [[[0.6678828597068787, 0.6503400206565857, -1.1808650493621826], [0.7771740555763245, 0.5223325490951538, -1.0666128396987915], [0.5106769800186157, 0.5448407530784607, -1.0323675870895386]]], [[[-0.15445369482040405, 0.217106893658638, 0.5221721529960632], [-0.21749050915241241, -0.809315025806427, -0.5811684727668762], [0.8883002400398254, 0.7319436073303223, -0.32269158959388733]]], [[[0.0689597949385643, 0.6673054695129395, 1.0419577360153198], [-0.5379052758216858, -0.2015060931444168, 0.17331752181053162], [-0.5934296250343323, -0.8555481433868408, -0.5037631392478943]]], [[[0.4251485764980316, -0.8651623129844666, 0.33347994089126587], [0.8926258683204651, -1.466610074043274, 1.0914462804794312], [0.571976363658905, -1.5952214002609253, 0.6580635905265808]]], [[[0.09168596565723419, 0.2526819109916687, -0.1629219502210617], [0.4849943518638611, 0.3853877782821655, -0.3050030767917633], [0.09726200997829437, -0.2591394782066345, -0.525528073310852]]], [[[0.08516556024551392, -0.06083356589078903, 0.0685780867934227], [-0.017796868458390236, 0.05838057026267052, 0.5678417086601257], [-0.43738362193107605, 0.08263365179300308, 0.029494112357497215]]], [[[-1.0371267795562744, -0.2711077034473419, 0.5210925936698914], [0.003549223067238927, 1.3735935688018799, 1.2144089937210083], [0.07396110892295837, 0.17865006625652313, -1.22671639919281]]], [[[0.2095990926027298, 0.004566617775708437, 0.7732263207435608], [0.07475997507572174, -0.2389315813779831, 0.3006211817264557], [-0.4788580536842346, -0.8558244705200195, -0.04116569831967354]]], [[[0.9331087470054626, 0.6039755940437317, -0.14663147926330566], [0.5820573568344116, -0.5990799069404602, -0.7304067015647888], [-0.23831631243228912, -0.8507373332977295, -0.6766902208328247]]], [[[-0.7954742908477783, -0.5780537724494934, 0.09084604680538177], [-0.38492992520332336, 0.18167804181575775, 0.8816906809806824], [-0.3622816205024719, 0.4664945602416992, 0.6656162142753601]]], [[[-0.9835612773895264, 0.7916949987411499, -0.05804932117462158], [-1.126120686531067, 1.1735432147979736, 0.19509677588939667], [-1.1105961799621582, 1.0970841646194458, 0.002610929775983095]]], [[[0.20490333437919617, 0.2060646265745163, 0.1321326047182083], [0.7213459014892578, 0.9917302131652832, 0.8135265111923218], [-0.9700630307197571, -1.0318166017532349, -1.1276779174804688]]], [[[1.10340416431427, 1.2341352701187134, 0.9548579454421997], [-0.5854457020759583, -0.4233074486255646, -0.4595595598220825], [-0.48588746786117554, -0.8162431716918945, -0.4476425051689148]]], [[[-0.7348400354385376, 0.059223324060440063, 0.7772557735443115], [1.8513251543045044, -0.7278185486793518, -1.0748661756515503], [-1.0135457515716553, 0.6669049859046936, 0.3448532223701477]]], [[[0.15304921567440033, 0.15858475863933563, 0.053439825773239136], [-0.013168087229132652, -0.04299316927790642, -0.0056535410694777966], [0.004764469340443611, 0.13020721077919006, -0.05134560540318489]]], [[[-1.067859411239624, -0.12529326975345612, 1.2145277261734009], [-0.6500842571258545, 0.024574724957346916, 0.623484194278717], [1.7618876695632935, 0.15968240797519684, -1.832741379737854]]], [[[-1.0079646110534668, -1.4754550457000732, -1.381023645401001], [0.10546279698610306, 0.25486478209495544, 0.11704134941101074], [1.195894479751587, 1.3457896709442139, 1.2511993646621704]]], [[[0.7018804550170898, -1.2329978942871094, 0.5646207332611084], [-0.9489275217056274, -0.04820244014263153, 0.9741004109382629], [0.18168450891971588, 1.3394750356674194, -1.4605518579483032]]], [[[0.6467997431755066, 0.43676093220710754, -1.0319308042526245], [0.7003803849220276, -0.8123922348022461, 0.08958269655704498], [-0.9214905500411987, -0.3917086124420166, 1.4492641687393188]]], [[[0.35539448261260986, -0.16299276053905487, 0.28638386726379395], [0.3268173635005951, -0.2772091329097748, 0.3801528215408325], [0.043971072882413864, -0.5509494543075562, -0.35736778378486633]]], [[[0.039735473692417145, 0.5104634761810303, 0.45828428864479065], [-0.36269617080688477, -0.6664388179779053, -0.6969094276428223], [0.32522809505462646, 0.7274357080459595, 0.1722111701965332]]], [[[-0.6299341320991516, -1.0922378301620483, -0.8901962041854858], [0.6212784647941589, -0.14662763476371765, -0.5043619275093079], [1.2576707601547241, 0.5880945920944214, 0.4675517678260803]]], [[[0.9546495079994202, 0.09252555668354034, -0.9173934459686279], [-1.7505730390548706, 0.7191514372825623, 1.0051493644714355], [0.8692985773086548, -0.7241014838218689, -0.06709793955087662]]], [[[1.1714657545089722, 0.2912169396877289, -1.45735764503479], [0.1856493502855301, 0.18325291574001312, -0.3479575514793396], [-1.263924479484558, -0.43827328085899353, 1.8236589431762695]]], [[[-0.021019257605075836, -0.2750810384750366, 0.47793257236480713], [-0.09586617350578308, -1.0567905902862549, -0.14900583028793335], [0.8647983074188232, 0.010124880820512772, 0.22071394324302673]]], [[[0.13378851115703583, 0.9124357104301453, 0.3506873846054077], [-1.2671527862548828, -0.9677887558937073, -1.2212077379226685], [0.29582729935646057, 0.6322120428085327, -0.0009422266739420593]]], [[[1.1566338539123535, -0.5766531825065613, -0.24274247884750366], [1.204619288444519, -0.7001837491989136, -0.4232061505317688], [0.8586545586585999, -0.7851986885070801, -0.18012110888957977]]], [[[0.9952757954597473, 0.9905330538749695, 0.3712824583053589], [0.013453866355121136, 0.17079982161521912, -0.227870374917984], [-1.0110493898391724, -1.01953125, -0.35490846633911133]]], [[[-0.07060404121875763, -0.5978706479072571, -0.06694389134645462], [1.0219519138336182, 1.1344869136810303, 1.2400398254394531], [-0.5985770225524902, -1.0483334064483643, -0.7679010033607483]]], [[[0.4030497670173645, -0.31723085045814514, -1.6069525480270386], [1.208470344543457, 1.1263760328292847, -0.11286144703626633], [-0.30968600511550903, 0.7639481425285339, 0.14433808624744415]]], [[[0.6002930402755737, -0.24542541801929474, -0.25252145528793335], [0.8900285959243774, -0.09775730967521667, -0.5882436037063599], [0.7001098394393921, -0.3269471824169159, -0.29321321845054626]]], [[[-0.6145644187927246, -0.4757539629936218, -0.3252922296524048], [0.9756224155426025, 1.3779785633087158, 1.3524260520935059], [-0.6753707528114319, -0.8680025935173035, -0.8411397933959961]]], [[[-0.30788806080818176, -0.09400883316993713, 0.4168402850627899], [-0.7410014867782593, -0.4047291874885559, 0.0254586860537529], [-0.30995410680770874, 0.6363667845726013, 0.9317497611045837]]], [[[1.4003533124923706, 1.3176649808883667, 1.202634334564209], [0.25644659996032715, 0.2993680536746979, 0.3612552285194397], [-0.7441299557685852, -0.7963570356369019, -0.9178534150123596]]], [[[0.576803982257843, -0.037667546421289444, -0.47166624665260315], [0.793241024017334, 0.19317027926445007, -0.8623284697532654], [-1.2259976863861084, -0.0256064273416996, 1.344641089439392]]], [[[1.2485623359680176, -0.5804209113121033, -0.868984043598175], [0.4795871078968048, 0.8190174698829651, -0.13208293914794922], [-1.4761312007904053, 0.37040194869041443, 0.9031435251235962]]]], "bn1.running_mean": [5.382625102996826, 0.5386872887611389, 6.035904407501221, 5.605193857299268e-45, 3.0122852325439453, 5.605193857299268e-45, 0.7797417640686035, 5.605193857299268e-45, 5.605193857299268e-45, 5.605193857299268e-45, 2.582097291946411, 0.9043110609054565, 47.68095779418945, 7.139357089996338, 0.12097173929214478, 13.019042015075684, 5.732001781463623, 0.08667650073766708, 1.0146679878234863, 6.703881740570068, 2.1184024810791016, 1.2559205293655396, 2.593106508255005, 5.0846357345581055, 8.395294189453125, 5.605193857299268e-45, 0.08756659924983978, 1.9283604621887207, 0.05800030753016472, 0.4400392174720764, 12.984334945678711, 0.7097783088684082, 5.605193857299268e-45, 1.910927176475525, 0.9562135338783264, 2.197911262512207, 5.605193857299268e-45, 1.3309036493301392, 0.9987327456474304, 5.605193857299268e-45, 3.3086466789245605, 5.605193857299268e-45, 5.605193857299268e-45, 1.0633548498153687, 1.762140154838562], "bn1.running_var": [86.9505844116211, 7.62510871887207, 184.27249145507812, 5.605193857299268e-45, 80.56529998779297, 5.605193857299268e-45, 11.401893615722656, 5.605193857299268e-45, 5.605193857299268e-45, 5.605193857299268e-45, 29.555683135986328, 14.666837692260742, 475.4339294433594, 114.54666137695312, 1.484238624572754, 157.44448852539062, 55.69077682495117, 1.1801800727844238, 16.880197525024414, 123.25798797607422, 36.29612350463867, 19.562265396118164, 36.85765075683594, 88.04170227050781, 130.96080017089844, 5.605193857299268e-45, 1.4106428623199463, 39.160213470458984, 0.9245345592498779, 8.171971321105957, 217.13645935058594, 10.176724433898926, 5.605193857299268e-45, 32.46038055419922, 15.996822357177734, 51.15266418457031, 5.605193857299268e-45, 50.172569274902344, 21.297893524169922, 5.605193857299268e-45, 66.84898376464844, 5.605193857299268e-45, 5.605193857299268e-45, 27.36467742919922, 38.28108215332031], "bn1.num_batches_tracked": 204785, "conv1.weight": [[[[-0.3042309582233429, 0.6694932579994202, -0.24063976109027863], [0.20726937055587769, 0.5503951907157898, -0.7387655377388], [0.9028220176696777, -0.9802557826042175, -1.3858625888824463]], [[-0.3106687068939209, 1.2242189645767212, 0.6486987471580505], [0.23330473899841309, 1.469536542892456, 0.3436543643474579], [-1.137632131576538, -0.5407513380050659, -0.3226015567779541]], [[-0.6951006054878235, -0.37634068727493286, -1.3098746538162231], [-1.0293431282043457, -0.6366921067237854, -0.7743976712226868], [-0.07554537802934647, -1.970854640007019, -2.00716495513916]], [[0.20200879871845245, 0.2493085414171219, -0.4219549298286438], [0.3183249831199646, 0.524798572063446, -0.12384480237960815], [-0.34917280077934265, -0.5111199617385864, -0.49304893612861633]], [[-0.15968988835811615, 0.5343948006629944, 0.11849702894687653], [0.43880248069763184, 0.26334723830223083, -0.31509828567504883], [-0.2146298587322235, -1.1668730974197388, -1.1239173412322998]], [[-0.8985192179679871, 1.9004358053207397, -0.45597994327545166], [-1.2372018098831177, 1.5512727499008179, -1.2274030447006226], [-0.8218545913696289, 0.06435295194387436, -1.031906247138977]], [[-0.7491943836212158, -0.09951362013816833, -0.8396075367927551], [0.9545649290084839, 0.6225374937057495, -0.1139158234000206], [0.6323028802871704, 0.020843297243118286, -0.8444262146949768]], [[0.7335353493690491, 0.7472295165061951, 0.4766790568828583], [0.685928225517273, -0.07633718848228455, -0.23008468747138977], [1.1521096229553223, 0.20204097032546997, 0.24174532294273376]], [[-0.35418152809143066, 0.2852998673915863, 0.052332185208797455], [0.5230516791343689, 0.03979650139808655, 0.3695586919784546], [0.4258764088153839, -1.5673125982284546, 0.06327357888221741]], [[0.5101890563964844, 0.4293195605278015, 0.6577701568603516], [0.753862202167511, -0.28984200954437256, 0.33757272362709045], [0.7017067074775696, -0.8523858785629272, 0.2389158457517624]], [[-0.3045099079608917, 0.05307836830615997, -0.005244388245046139], [0.43947017192840576, -0.4385145902633667, 0.1476876437664032], [0.6689503192901611, -0.5405869483947754, -0.43056923151016235]], [[-0.22918032109737396, 0.7948883771896362, -0.4068266451358795], [0.1714278757572174, 0.9185146689414978, -0.01625320315361023], [-1.12723970413208, -0.9979059100151062, -1.5827308893203735]], [[-1.5618222951889038, 0.8694413304328918, 0.35348349809646606], [-0.5852665305137634, 1.405810832977295, 0.21460404992103577], [0.09296755492687225, 0.47292086482048035, 0.44158414006233215]], [[0.6466120481491089, 0.748710572719574, 0.17254002392292023], [0.8178557753562927, 0.2196834236383438, -0.06994123756885529], [-0.10091215372085571, -1.3786622285842896, -0.6855091452598572]], [[-1.0273516178131104, 0.05138363316655159, -0.874208927154541], [-0.8597874641418457, 0.5260007977485657, -0.48151546716690063], [-0.7544567584991455, -0.6009303331375122, -0.8290408849716187]], [[-0.27137720584869385, 0.00824581366032362, -0.5719561576843262], [-0.3386518061161041, 0.0684269517660141, -0.033182863146066666], [-0.13245889544487, -2.1406188011169434, -2.554312229156494]], [[-0.4192942678928375, 1.078705072402954, -0.2940506339073181], [-0.2204838991165161, 1.2286134958267212, 0.08299651741981506], [-1.2921134233474731, -0.6086735725402832, -1.1707514524459839]], [[0.28240978717803955, 0.7225922346115112, 0.12266606837511063], [0.6679378747940063, 1.1598097085952759, 0.24912819266319275], [-1.313102126121521, -1.0955103635787964, -1.4636549949645996]], [[-0.40344616770744324, 1.0389997959136963, -0.15152351558208466], [-0.5653932690620422, 0.979900598526001, -0.44786596298217773], [-0.10509484261274338, -0.5806678533554077, -0.8638485074043274]], [[-0.8748705387115479, 0.7349827289581299, -0.6090316772460938], [-0.5888298153877258, 0.49266061186790466, -1.092613697052002], [-0.19401127099990845, -0.9311513304710388, -1.330964207649231]], [[0.13828791677951813, 0.6158963441848755, -0.05731536075472832], [0.8136115074157715, 0.14208942651748657, -0.564276397228241], [0.8132914304733276, -0.536247730255127, -0.4135240316390991]], [[-0.1928883194923401, -0.02714332565665245, -0.45969638228416443], [0.5912414193153381, 0.2509787380695343, -0.06111837923526764], [1.7279044389724731, -0.05795454978942871, -0.9559286236763]], [[0.4431025981903076, 1.7214150428771973, -0.5924391150474548], [1.2799479961395264, 0.9715089201927185, -2.2767739295959473], [2.474843740463257, 1.3028154373168945, -1.5917755365371704]], [[-0.117398202419281, 0.09208539873361588, 0.17638486623764038], [0.34642866253852844, 0.2978091537952423, 0.36210528016090393], [-0.3987066149711609, -0.7342801094055176, -0.18828505277633667]], [[2.1855266094207764, 2.5513243675231934, -0.9364214539527893], [1.5202397108078003, 1.2703821659088135, -3.104130506515503], [2.285115957260132, 1.5965063571929932, -2.276134729385376]], [[0.6237973570823669, 0.2269766926765442, 0.598366916179657], [0.1555892676115036, -0.49606773257255554, -0.4592127203941345], [1.7592575550079346, 0.08753277361392975, 0.11873429268598557]], [[1.1164194345474243, 1.4405694007873535, -1.4643428325653076], [1.873687505722046, 1.2479400634765625, -3.1983656883239746], [2.9920153617858887, 1.914536952972412, -1.6366021633148193]], [[0.17189504206180573, 0.976026177406311, -0.39290744066238403], [0.35947468876838684, 1.4401931762695312, -1.159603238105774], [0.6816464066505432, -0.0963650494813919, -0.6553205847740173]], [[0.18732237815856934, 0.239407017827034, -0.2771258056163788], [0.5488543510437012, 0.41869354248046875, -0.10292817652225494], [-0.1529901623725891, -1.0214741230010986, -1.003591775894165]], [[-0.6281906962394714, 0.2723785638809204, 0.03541133180260658], [0.5721675753593445, 0.1623387485742569, 0.6102819442749023], [0.4067484140396118, -0.21560312807559967, 0.02399289235472679]], [[0.10394751280546188, 0.27990201115608215, 0.2877441346645355], [0.05521702766418457, -0.044027019292116165, -0.10360696911811829], [0.4072719216346741, 0.20742341876029968, -0.31948551535606384]], [[0.3997489809989929, 1.583993673324585, 0.2525881826877594], [1.2418346405029297, 1.555112600326538, -1.8219780921936035], [2.4625422954559326, 1.1342570781707764, -0.8179541230201721]], [[2.272588014602661, 3.105684280395508, -0.3528057932853699], [1.7564806938171387, 2.0444295406341553, -2.563877582550049], [2.52787446975708, 0.6839488744735718, -1.785847544670105]], [[-0.17643561959266663, 0.39875465631484985, 0.043039172887802124], [0.27435141801834106, 0.5778324007987976, 0.368045449256897], [-0.18244366347789764, -0.16074539721012115, -0.27334800362586975]], [[-0.8114820718765259, 0.4857044219970703, 0.014740190468728542], [0.6785728335380554, 1.1205708980560303, 0.5896896123886108], [-0.6299057602882385, -0.6975687146186829, -0.9091180562973022]], [[0.3862382471561432, 0.8919106125831604, 0.4325542151927948], [0.314384788274765, 0.4410057067871094, -0.6939989924430847], [0.49955469369888306, 0.019539395347237587, -0.6444507837295532]], [[-0.45196834206581116, -0.10754081606864929, -0.5920388102531433], [0.3869625926017761, 0.1677088886499405, -0.7212123274803162], [1.1935820579528809, -0.24397625029087067, -1.2666652202606201]], [[-0.09964478760957718, 0.9565077424049377, 0.3163314163684845], [0.047040700912475586, 0.7323296070098877, 0.3237030804157257], [0.5480257868766785, -0.663047194480896, -0.6498701572418213]], [[-0.1559038907289505, 0.637900710105896, 0.6809917688369751], [-0.6527248024940491, -0.4038792550563812, 0.5379101634025574], [0.8335887789726257, -1.5297608375549316, -1.2925876379013062]], [[0.39835530519485474, 0.6913493275642395, 0.21344953775405884], [0.24455012381076813, -0.031758323311805725, -0.24819040298461914], [0.6708284020423889, -0.6124364733695984, -1.10361647605896]], [[0.2566540539264679, 0.9502807855606079, 0.30554115772247314], [0.19409304857254028, 0.640720009803772, 0.025136558338999748], [0.6067147254943848, -0.7960488200187683, -1.1520696878433228]], [[-0.41616782546043396, 1.2486368417739868, 0.16548483073711395], [-0.20338976383209229, 0.7128013372421265, 0.08791839331388474], [-0.023508867248892784, -0.898293137550354, -0.5470556616783142]], [[-0.05312841385602951, -0.21311433613300323, -1.1045866012573242], [0.3973151743412018, 0.2342367321252823, -0.19998331367969513], [0.09061317145824432, -1.1508764028549194, -1.3489669561386108]], [[0.5658115744590759, 1.5312010049819946, -0.5411080121994019], [0.40172773599624634, 0.9655975699424744, -1.7327488660812378], [0.9778264760971069, 0.27741581201553345, -0.9085081815719604]], [[0.511141836643219, 1.4807733297348022, -0.22896991670131683], [-0.010854864493012428, 1.0086349248886108, -1.0649806261062622], [0.7442934513092041, -0.4204793870449066, -1.5731477737426758]]], [[[-0.3038110136985779, -0.1626456081867218, 0.050289336591959], [0.6586394309997559, -0.30990928411483765, -0.7640551328659058], [-0.3283865451812744, 0.41976431012153625, -0.31820160150527954]], [[0.7587933540344238, 0.8997717499732971, -0.07526583969593048], [0.7992838621139526, 0.4058404862880707, -1.150424838066101], [-0.7180529236793518, 0.10961823165416718, -0.6970176100730896]], [[-0.9569110870361328, -0.08061377704143524, 0.227296382188797], [-0.08566015213727951, 0.26156067848205566, 0.28923332691192627], [-0.024102946743369102, 0.18086229264736176, 0.04632486775517464]], [[0.4441995620727539, 0.5142012238502502, 0.1445576399564743], [0.7509898543357849, 0.733424723148346, 0.4638833999633789], [0.11575429141521454, -0.01129619125276804, 0.4512605667114258]], [[0.2565159797668457, -0.5269424915313721, -0.12341679632663727], [-1.9792389869689941, -2.9197418689727783, -2.179769992828369], [-0.44399377703666687, -1.3891932964324951, -1.3998018503189087]], [[0.3434017598628998, 0.29988205432891846, -0.12946529686450958], [2.2756567001342773, 1.5393728017807007, 1.5132681131362915], [0.6287762522697449, 0.11057490110397339, -0.022174451500177383]], [[1.0445822477340698, 0.8386088609695435, 0.8261222243309021], [-0.5051455497741699, -1.5485116243362427, -1.679366111755371], [-0.24170085787773132, 0.6352823376655579, -0.08978237211704254]], [[-0.04495802894234657, 0.9620549082756042, 0.23423358798027039], [0.17713458836078644, 1.78691565990448, 1.6602290868759155], [-1.031753420829773, 0.15420575439929962, 0.6510945558547974]], [[-0.04794185981154442, -1.8190425634384155, -1.4340952634811401], [-1.9848016500473022, -1.0961352586746216, -1.8015533685684204], [-0.9853996634483337, -0.04117731377482414, 0.06447482854127884]], [[0.34361255168914795, -0.14615106582641602, -0.9396461844444275], [0.5546562671661377, 1.8801765441894531, 1.3006645441055298], [-0.9492290616035461, 0.12196335941553116, 0.5658254623413086]], [[-0.30046263337135315, 0.38111820816993713, 0.753946840763092], [-0.6533659100532532, -0.7939599752426147, -0.6606926918029785], [-0.9218859076499939, -0.07670346647500992, -0.04326601326465607]], [[0.6989296674728394, -0.2549257278442383, -0.08507514744997025], [-0.7065284848213196, -1.6445609331130981, -1.2767630815505981], [-0.11658365279436111, -1.0210062265396118, -1.7580622434616089]], [[-0.21382379531860352, 1.172341227531433, 0.3606759309768677], [0.6339857578277588, 1.142831802368164, 0.8586103320121765], [0.7640613913536072, -0.4317423701286316, -0.38891738653182983]], [[0.3407197892665863, -0.9378345012664795, -1.273918867111206], [-0.11325880140066147, 0.09099384397268295, 0.5605619549751282], [-1.0000253915786743, -0.04267601668834686, 0.46257084608078003]], [[-0.09951068460941315, 0.0003357218229211867, -0.2246725857257843], [0.18782851099967957, 0.08308885991573334, 0.10135631263256073], [0.24159127473831177, 0.24096204340457916, 0.3658400774002075]], [[-0.8664382696151733, -1.0898053646087646, -1.008522629737854], [0.09938090294599533, -0.11774270981550217, -0.8669716715812683], [-0.25718575716018677, 0.35427847504615784, -0.22234833240509033]], [[0.6227020025253296, 0.038810137659311295, -0.24081829190254211], [-0.14349591732025146, -0.6776413917541504, -1.0403486490249634], [0.7778624296188354, -0.005374203436076641, -1.107054352760315]], [[0.7424443364143372, 0.23437748849391937, -0.43687453866004944], [-0.1868758350610733, -0.8055155873298645, -0.34029853343963623], [-1.1655066013336182, -1.292696475982666, 0.28327256441116333]], [[0.6543136239051819, 0.4576887786388397, -0.7137590646743774], [0.6168670654296875, -0.03791779652237892, -1.0532389879226685], [0.00641866959631443, 0.13741973042488098, -0.34562352299690247]], [[0.005821597296744585, -1.1896098852157593, -0.7374461889266968], [1.8005021810531616, 0.5088587403297424, 0.7231114506721497], [0.5561137199401855, -0.17195335030555725, -0.7806448340415955]], [[-0.7629424333572388, -2.9022293090820312, -2.04653263092041], [-3.1926939487457275, -3.3126189708709717, -3.0996956825256348], [0.5824025273323059, 0.08594060689210892, -0.8103391528129578]], [[0.8978859186172485, 0.30599096417427063, 1.0631886720657349], [-3.321841239929199, -4.69598913192749, -5.698429584503174], [-0.3530190587043762, -1.3525357246398926, -2.7453362941741943]], [[0.37265995144844055, 0.4984680116176605, 0.33917534351348877], [0.5563996434211731, 0.6885756254196167, 0.25767338275909424], [0.6235007643699646, 0.8819570541381836, -0.5488113760948181]], [[-0.29469481110572815, -0.5517880320549011, 0.33662980794906616], [-0.460910826921463, -0.5008683800697327, 0.013922245241701603], [-0.8029009103775024, 0.06994524598121643, 0.6199349761009216]], [[0.18944130837917328, 1.388458490371704, 1.4729245901107788], [0.2873266637325287, 0.24262920022010803, -0.34688135981559753], [-1.1937708854675293, -0.5317761301994324, -1.7109216451644897]], [[0.42531681060791016, 0.7787268161773682, -0.14997407793998718], [0.4150308072566986, 0.9201816916465759, -0.725800096988678], [0.5252025127410889, 1.5457100868225098, -0.17024290561676025]], [[0.43151533603668213, 0.8681197166442871, 0.27358898520469666], [1.6761560440063477, 0.8664276599884033, -0.008389608934521675], [0.1615687906742096, 0.7853160500526428, -0.8505999445915222]], [[1.1685329675674438, 0.9557079672813416, -0.5425907969474792], [0.5197574496269226, 0.034773509949445724, -0.740273118019104], [-0.3380683660507202, -0.753984272480011, -1.307114601135254]], [[1.1438915729522705, -0.33567315340042114, -0.9001779556274414], [-0.7674371004104614, -1.0484061241149902, -1.2441208362579346], [0.17861242592334747, 0.4303499162197113, 0.36537790298461914]], [[0.17670191824436188, 0.46062910556793213, 0.8043039441108704], [-0.20011891424655914, -1.1706968545913696, -1.0083762407302856], [0.12665240466594696, 0.32628965377807617, -0.21257685124874115]], [[0.592470645904541, 1.047627568244934, 0.04232008382678032], [-0.06819194555282593, 0.11389591544866562, -0.47281137108802795], [-0.11719746142625809, 0.16827566921710968, -0.4271860122680664]], [[0.5765570998191833, -0.48323938250541687, 0.3998772203922272], [0.4944474697113037, 0.26523128151893616, -0.1581430286169052], [-0.03872246295213699, 0.5285063982009888, -0.972088634967804]], [[2.0953457355499268, 1.5687705278396606, 0.33077988028526306], [0.5657878518104553, 0.5362921357154846, -0.027442311868071556], [-0.6831536293029785, -0.21556706726551056, -1.5244665145874023]], [[-0.012464803643524647, 0.46289440989494324, -0.6215154528617859], [0.1475798636674881, -0.229084774851799, -0.7620893120765686], [-0.49603357911109924, -0.01965266838669777, -0.24206645786762238]], [[0.4641413688659668, 0.480136513710022, 0.5029393434524536], [0.16532549262046814, -0.9313358068466187, -0.9892529249191284], [-0.7526928782463074, -0.7484286427497864, -0.4938691258430481]], [[-0.2077244520187378, -0.3594989776611328, -0.6073075532913208], [0.04100384935736656, 0.9980618953704834, 1.5404161214828491], [-0.5101972818374634, -0.44709303975105286, 0.48138707876205444]], [[0.8805191516876221, -0.3768499493598938, 0.09178121387958527], [-2.940469741821289, -3.947699546813965, -5.060667514801025], [-0.23213635385036469, -0.5389065742492676, -1.9103243350982666]], [[-1.8809866905212402, -2.0109705924987793, -1.3474147319793701], [-1.3779922723770142, -2.46358323097229, -2.626237630844116], [1.1830898523330688, 0.1058146134018898, -0.9877999424934387]], [[-0.6130639910697937, -0.6747726202011108, -0.3193475008010864], [-1.2402915954589844, -0.2675248086452484, -0.30622872710227966], [-0.6891841888427734, 0.3127964735031128, -0.14921320974826813]], [[-0.3536502718925476, 0.05120784416794777, -0.7076207995414734], [-0.19248855113983154, 1.0532593727111816, 0.8494403958320618], [-0.5119482278823853, -0.1335037350654602, 0.3913075625896454]], [[-1.0515862703323364, -1.4218077659606934, -0.6879991888999939], [-0.6882914900779724, -1.7055062055587769, -2.232055902481079], [1.4675145149230957, 0.3597911298274994, -1.1212196350097656]], [[-0.16864050924777985, 0.41284650564193726, -0.0473623126745224], [0.558707058429718, -0.5533881783485413, -0.839694619178772], [0.13972793519496918, 0.17432419955730438, 0.2654428482055664]], [[0.1436505913734436, -1.3455991744995117, 0.03155393525958061], [-0.535434901714325, -0.5807938575744629, -0.5731201767921448], [0.03775906562805176, 0.19659997522830963, -0.27479416131973267]], [[1.0533934831619263, 1.0366026163101196, 0.4353489875793457], [-0.1874637007713318, -0.4239504039287567, -0.5473443865776062], [-0.5794902443885803, -0.16961602866649628, -1.2485119104385376]], [[1.3544529676437378, 0.2272436022758484, -0.7439340949058533], [-0.6687717437744141, -0.636177659034729, -0.3074047267436981], [-0.8579650521278381, -0.50880366563797, -0.9974932670593262]]], [[[-0.1483641117811203, 0.6788310408592224, 1.0492719411849976], [0.14434155821800232, 0.08031962811946869, 0.3352268636226654], [-0.5353103280067444, -0.36775216460227966, -0.583968460559845]], [[0.43220415711402893, -0.3159930109977722, -0.6760505437850952], [0.899005115032196, -0.46646806597709656, -1.3967525959014893], [0.8776304125785828, 0.40439218282699585, -0.7013912200927734]], [[-0.5816178321838379, 0.8649797439575195, 1.469233512878418], [0.23902271687984467, 1.5369369983673096, 0.8731364011764526], [-0.7783917188644409, 0.07492388039827347, -0.7493566870689392]], [[0.14553774893283844, 0.06033990532159805, 0.022184547036886215], [0.2431485503911972, 0.21866893768310547, -0.03422411158680916], [0.2505031228065491, -0.13733839988708496, -0.6557809114456177]], [[0.44994017481803894, -0.8575716614723206, -1.0817017555236816], [0.9517045617103577, -0.8192843198776245, 0.03337625414133072], [1.0932483673095703, 0.25866323709487915, 0.7299774885177612]], [[-1.2961784601211548, 1.3111323118209839, 0.6627369523048401], [-0.9377739429473877, 2.2331418991088867, 1.075756549835205], [-1.988945722579956, 0.8435579538345337, 0.010771086439490318]], [[0.32731595635414124, -0.6383175849914551, -0.896012544631958], [0.18398161232471466, -1.044956088066101, -0.5820960402488708], [0.991587221622467, 0.927217960357666, 0.6030319333076477]], [[-0.6201620101928711, -0.8839736580848694, 1.5571370124816895], [-1.0189968347549438, 0.0714055597782135, 2.3197100162506104], [-1.4974716901779175, -0.3039266765117645, 0.9909728169441223]], [[0.21297532320022583, -0.23458543419837952, 1.0261586904525757], [-0.13110119104385376, -0.38523122668266296, 1.304642915725708], [-0.28209561109542847, -1.1112219095230103, -0.21457184851169586]], [[-0.2979315221309662, -0.6362430453300476, 0.7959622144699097], [-0.5216467380523682, 0.39330971240997314, 1.3988646268844604], [-0.8364080786705017, 0.07083168625831604, 0.34953585267066956]], [[-0.611923336982727, -1.8618632555007935, -0.22988300025463104], [-0.28403550386428833, -1.0425679683685303, 0.5660293102264404], [0.4908570945262909, 0.3741982877254486, 0.681645393371582]], [[0.07742280513048172, -0.7805326581001282, -1.8270642757415771], [0.6168481707572937, 0.050126366317272186, -0.09079615026712418], [0.6219589710235596, 0.45902079343795776, 0.25284522771835327]], [[0.2283111959695816, 0.4193958640098572, -1.308226227760315], [0.541167676448822, 1.5662178993225098, -1.1025811433792114], [-1.1573245525360107, 0.020876213908195496, -2.4002504348754883]], [[-0.2999024987220764, -0.6427374482154846, 0.015318457037210464], [-0.44203996658325195, 0.03767314925789833, 0.5548941493034363], [-0.38388875126838684, -0.47315701842308044, -0.3824349641799927]], [[-0.03986767306923866, 0.5673742294311523, 0.7995139360427856], [-0.4627319574356079, 0.7372606992721558, 0.7465834021568298], [-0.7775918245315552, -0.21925988793373108, -0.38948336243629456]], [[-0.29491472244262695, 0.7870306968688965, 1.6923620700836182], [0.1731906235218048, 0.522673487663269, 0.9505020976066589], [-0.49255144596099854, -0.5148001909255981, -0.8820372223854065]], [[-0.02443072572350502, -0.568713903427124, -1.885448932647705], [0.3475751280784607, 0.8582300543785095, 0.07251817733049393], [0.26996010541915894, 0.7150126099586487, 0.412672221660614]], [[0.5735399723052979, -0.567097544670105, -1.0025056600570679], [0.673994779586792, 0.11545815318822861, -0.22087334096431732], [0.8258607387542725, 0.08186516165733337, 0.17023958265781403]], [[-0.5566446185112, 0.8382298350334167, 0.6469919681549072], [-0.10642997175455093, 0.4723460078239441, -0.2460600584745407], [-0.5692264437675476, -0.1734365075826645, -0.6378486752510071]], [[-1.324690341949463, 1.0905243158340454, 0.16675467789173126], [-1.2602777481079102, 1.5766971111297607, 0.5941312909126282], [-2.3924834728240967, 0.0689467340707779, -0.6264174580574036]], [[-1.0639511346817017, -1.7926057577133179, -1.1017271280288696], [0.26201191544532776, -0.6572785377502441, 0.4656011164188385], [0.7655132412910461, 0.4085348844528198, 1.04319429397583]], [[-0.02984600141644478, -0.7985557317733765, -1.0866966247558594], [0.24955826997756958, -1.0144015550613403, 0.2537432014942169], [0.7438625693321228, 0.007370621897280216, 0.6768061518669128]], [[-1.8533341884613037, 0.17508290708065033, 0.9886166453361511], [-0.6704100966453552, -0.26292264461517334, 0.7912566661834717], [0.07521418482065201, 1.094561219215393, 0.6239638328552246]], [[0.13734376430511475, 0.03065120242536068, 0.6704905033111572], [-0.010542591102421284, -0.009085460565984249, 0.7958957552909851], [-0.40077126026153564, -0.3279373049736023, -0.04119491949677467]], [[-2.541942834854126, 0.36864593625068665, 0.3752037584781647], [-1.0406455993652344, 1.5480079650878906, 0.7900811433792114], [-1.671790361404419, 1.255831003189087, -0.5505951642990112]], [[-1.9467639923095703, -1.4764633178710938, -0.7418023943901062], [-0.2677190899848938, -1.8429899215698242, -1.5100557804107666], [0.2970236539840698, -0.45639851689338684, -0.886576235294342]], [[-0.9528589248657227, 1.6247191429138184, 1.3470635414123535], [-0.4277190566062927, 1.5857410430908203, 0.4354116916656494], [-1.9599545001983643, 0.9132004976272583, -1.3201192617416382]], [[0.3439234793186188, 1.0035706758499146, -0.2614368200302124], [-0.23213498294353485, 0.8244323134422302, -0.2961542308330536], [-1.0765254497528076, -0.325642853975296, -0.4677450656890869]], [[-0.08943120390176773, -0.8185998201370239, -0.5970577001571655], [0.11181801557540894, 0.062299229204654694, 0.20320117473602295], [0.41604092717170715, -0.30623960494995117, -0.16491544246673584]], [[0.2973693013191223, -0.2485034018754959, -0.07584469020366669], [0.732470691204071, -0.34239423274993896, 0.46109217405319214], [0.8587095737457275, 0.518262505531311, 0.3262990117073059]], [[-0.11763045191764832, -1.4390431642532349, -0.5556256771087646], [0.49303779006004333, -0.5845525860786438, -0.0617382749915123], [0.42999503016471863, 0.22405481338500977, 0.09635209292173386]], [[-1.6727708578109741, 0.29460442066192627, 1.089160442352295], [-0.4677872061729431, -0.5420163869857788, 0.35794660449028015], [-0.5463184714317322, 0.4282304048538208, 0.4778762757778168]], [[-2.2232189178466797, 0.45554688572883606, 0.6166329979896545], [-1.6077178716659546, 0.5432930588722229, 0.5945985317230225], [-1.382864236831665, 0.21005968749523163, 0.8971951007843018]], [[0.09043099731206894, -1.00348961353302, -1.0297712087631226], [0.5568369626998901, -0.5855615735054016, -0.7237832546234131], [1.1478302478790283, 0.5279260277748108, -0.6245825886726379]], [[0.5378357768058777, -0.32569533586502075, -0.725247859954834], [1.0314608812332153, -1.010576605796814, -0.8063862919807434], [1.2189879417419434, 0.6185808777809143, 0.05594036728143692]], [[-0.29998743534088135, -1.275222659111023, 0.9798897504806519], [-1.1455159187316895, -0.5759972333908081, 1.6801449060440063], [-1.629022479057312, -0.8804162740707397, 0.8773208260536194]], [[0.08202957361936569, -0.7067827582359314, -0.9425456523895264], [0.4014928638935089, -0.8155856728553772, 0.23215457797050476], [0.9803855419158936, 0.01663065515458584, 0.8439601063728333]], [[-0.5676614046096802, -0.8708912134170532, -0.4047242999076843], [0.7485324144363403, -0.3672952950000763, 0.0007485513342544436], [1.45775306224823, 1.2081860303878784, 0.7054375410079956]], [[-0.7914212942123413, -0.9616009593009949, 0.43947213888168335], [-0.08521942049264908, 0.047203756868839264, 0.24364659190177917], [-0.7865690588951111, 0.27016663551330566, -0.37788254022598267]], [[-0.7735309600830078, -0.8134852647781372, 1.1306489706039429], [-1.1100242137908936, 0.2572019398212433, 1.831321358680725], [-1.6080013513565063, -0.45193323493003845, 0.41459664702415466]], [[-0.8263412714004517, -0.5112671852111816, -0.08975860476493835], [0.29011425375938416, -0.775751531124115, -0.1455441564321518], [1.4074108600616455, 1.2234994173049927, 0.7452920079231262]], [[-0.6879338026046753, -0.01314493641257286, 0.1800176501274109], [-0.42471200227737427, -0.2061798870563507, 0.006206832826137543], [-0.4042632579803467, -0.31143301725387573, -0.2617655098438263]], [[-0.39275747537612915, 0.4903630316257477, 1.220134973526001], [-0.4511095881462097, 0.9013276100158691, 1.9989840984344482], [-0.6130784153938293, -0.36254534125328064, 0.059195809066295624]], [[-1.0094525814056396, 0.46679437160491943, 0.644315242767334], [-0.6316946148872375, 0.826850950717926, 0.8100773692131042], [-0.7338769435882568, 0.47106659412384033, 1.062274694442749]], [[-1.1203207969665527, -0.520702064037323, 0.5093709230422974], [-0.6348715424537659, 0.002331926953047514, 1.1960241794586182], [-0.29096850752830505, 0.4944804608821869, 1.444610357284546]]], [[[-0.022534510120749474, -0.04964557662606239, -0.04291518032550812], [0.008979057893157005, 0.008850868791341782, 0.0015667346306145191], [-0.01164082158356905, -0.014400454238057137, 0.0020050229504704475]], [[-0.0029326577205210924, -0.02320614829659462, -0.014462876133620739], [0.00448707677423954, -0.03418143838644028, -0.05442824959754944], [-0.08184938877820969, -0.006566146854311228, 0.01286887377500534]], [[0.005518150515854359, -0.020241694524884224, 0.01222795620560646], [-0.09387993067502975, -0.07980234920978546, -0.10554707050323486], [0.039739955216646194, -0.036147233098745346, -0.0439777635037899]], [[-0.02818307839334011, -0.056050628423690796, -0.0439496748149395], [-0.020151805132627487, -0.03107188269495964, -0.06536085158586502], [-0.0776585191488266, -0.007588650565594435, 0.011152342893183231]], [[-0.044355519115924835, -0.059519995003938675, -0.008842354640364647], [-0.034725237637758255, -0.05530449002981186, -0.06570473313331604], [-0.03741127997636795, 0.019245069473981857, -0.03725414723157883]], [[-0.009000593796372414, -0.05107514560222626, 0.01225999929010868], [0.007573883514851332, -0.023281924426555634, -0.01625807397067547], [0.017283674329519272, -0.0544734001159668, -0.009594953618943691]], [[-0.027517810463905334, -0.0316421277821064, 0.03895052149891853], [-0.05004337430000305, -0.07303345203399658, -0.05406403914093971], [-0.09043867886066437, 0.013634981587529182, -0.05245138332247734]], [[-0.10508754104375839, -0.02235763520002365, -0.07614906132221222], [-0.08215588331222534, -0.025114595890045166, -0.09292781352996826], [0.0022531275171786547, 0.011480591259896755, -0.03595512732863426]], [[-0.033673543483018875, -0.04452396556735039, -0.007532276678830385], [0.005925689358264208, -0.013076401315629482, -0.015871670097112656], [-0.0866987481713295, -0.018525000661611557, -0.023468082770705223]], [[-0.08857040107250214, 0.013092998415231705, -0.05496803671121597], [-0.04311133921146393, -0.042079534381628036, -0.020647358149290085], [-0.07907499372959137, -0.02405618689954281, -0.00901063159108162]], [[0.041617535054683685, 0.01925264485180378, -0.031192651018500328], [-0.040217604488134384, 0.02703690342605114, -0.033669471740722656], [0.004690046422183514, 0.007268399931490421, 0.007397437933832407]], [[-0.08041215687990189, 0.003326478647068143, -0.0344473198056221], [-0.04853462800383568, -0.028675157576799393, -0.03687704727053642], [-0.03633354976773262, 0.020855804905295372, -0.05492067337036133]], [[-0.008359323255717754, -0.0505237802863121, -0.04866413027048111], [-0.02971760742366314, -0.021961547434329987, -0.013965380378067493], [-0.03180941939353943, -0.03308473527431488, -0.03295189514756203]], [[-0.06769011169672012, 0.012768881395459175, -0.011738792061805725], [-0.08835835009813309, 0.03479102998971939, -0.03871125727891922], [-0.057305190712213516, -0.024722866714000702, -0.0392262302339077]], [[-0.03665925934910774, -0.05537417158484459, -0.05755120888352394], [-0.06645090878009796, -0.05099977180361748, 0.010008426383137703], [-0.00949281919747591, -0.06798048317432404, -0.031226422637701035]], [[-0.0598340667784214, -0.048050008714199066, -0.044479966163635254], [-0.05189837887883186, -0.004612949211150408, -0.06795365363359451], [0.011851396411657333, -0.05239488556981087, -0.03951774537563324]], [[-0.0028280369006097317, -0.06492049992084503, -0.016047930344939232], [0.009913448244333267, -0.019976025447249413, -0.053846389055252075], [-0.07611026614904404, -0.047832947224378586, -0.04264252260327339]], [[-0.02506577968597412, -0.04524783417582512, 0.007805232889950275], [-0.06594451516866684, -0.0407712385058403, -0.018254833295941353], [-0.014399382285773754, 0.026794128119945526, -0.023681968450546265]], [[-0.03585170954465866, -0.042354170233011246, 0.015134189277887344], [-0.07136785238981247, -0.05714691802859306, -0.06934789568185806], [-0.09186599403619766, -0.011579075828194618, -0.02594255469739437]], [[0.01907804235816002, 0.05615809187293053, 0.01388925313949585], [-0.0068668765015900135, -0.017609266564249992, -0.0035227863118052483], [0.00570800481364131, -0.011865454725921154, -0.014157591387629509]], [[-0.024493658915162086, 0.006621828768402338, -0.07625486701726913], [-0.019405003637075424, -0.07003708183765411, -0.009277867153286934], [-0.02465788833796978, -0.01864980347454548, -0.025334224104881287]], [[0.027580665424466133, -0.040111713111400604, 0.03470712900161743], [-0.020504659041762352, 0.017447788268327713, -0.003919816575944424], [-0.02002563886344433, 0.018130304291844368, -0.013141260482370853]], [[-0.02639748528599739, -0.06608312577009201, -0.023281708359718323], [-0.031268734484910965, -0.029890313744544983, -0.04715924710035324], [-0.09136098623275757, -0.041487447917461395, -0.008305619470775127]], [[0.0056560165248811245, -0.0581003874540329, -0.011705147102475166], [-0.08859694004058838, -0.08129628747701645, -0.091092050075531], [-0.019426684826612473, -0.012089954689145088, -0.0559641532599926]], [[-0.006196372210979462, 0.01475041825324297, -0.009082233533263206], [-0.0010772638488560915, -0.0646471455693245, -0.04444204270839691], [-0.05297737568616867, -0.027016887441277504, -0.0567702017724514]], [[-0.07181315124034882, 0.011397105641663074, -0.007405884563922882], [0.03029710054397583, -0.04632168635725975, -0.025774525478482246], [-0.019476955756545067, 0.014649889431893826, -0.011911269277334213]], [[-0.01760711707174778, -0.009395631030201912, 0.009349595755338669], [-0.08125718683004379, -0.10435720533132553, -0.05667969584465027], [-0.1115298792719841, -0.05411001667380333, -0.01946837268769741]], [[0.003012837376445532, -0.05616960674524307, -0.05449856072664261], [-0.03774557635188103, -0.01800038479268551, -0.010915616527199745], [-0.02934366837143898, 0.01853952556848526, -0.043866660445928574]], [[-0.06006981432437897, -0.025024525821208954, -0.011494257487356663], [-0.0647461786866188, -0.02746702916920185, -0.06744080036878586], [-0.06147771701216698, -0.04534762352705002, 0.015156191773712635]], [[-0.06265360116958618, -0.03957262262701988, -0.0792352706193924], [-0.027512287721037865, -0.06925996392965317, -0.024962522089481354], [-0.03727779537439346, -0.06247192248702049, -0.04740561172366142]], [[-0.032990649342536926, 0.029889147728681564, 0.03249972313642502], [-0.04287159442901611, -0.08682137727737427, -0.05032087489962578], [-0.06221745163202286, -0.04020910710096359, -0.012503473088145256]], [[-0.024617508053779602, 0.010231087915599346, -0.025868883356451988], [-0.057778920978307724, -0.03143925592303276, -0.036715149879455566], [-0.021281832829117775, -0.029717618599534035, -0.033577315509319305]], [[-0.05972299724817276, 0.024456659331917763, -0.008603297173976898], [-0.08668515831232071, -0.0006986104999668896, -0.03685781732201576], [-0.016153721138834953, 0.044120222330093384, -0.019961580634117126]], [[-0.02944527566432953, -0.008488052524626255, 0.02474750392138958], [-0.05311673507094383, -0.0645918920636177, -0.0337505079805851], [-0.00587592413648963, -0.02808634750545025, 0.007032307796180248]], [[0.016403144225478172, 0.03211168199777603, 0.020750083029270172], [-0.02498711086809635, -0.0687107965350151, -0.060924507677555084], [-0.025554480031132698, 2.3077785954228602e-05, 0.006053416058421135]], [[-0.00836491771042347, 0.02695314958691597, -0.01814202591776848], [-0.0629393681883812, -0.04845504090189934, -0.07862289249897003], [-0.03457214683294296, -0.03440089896321297, -0.03908345475792885]], [[-0.039416249841451645, 0.001450993469916284, -0.017013942822813988], [-0.003780630649998784, -0.00964378286153078, -0.09517820179462433], [-0.035707250237464905, -0.017733417451381683, 0.017150895670056343]], [[-0.056959476321935654, -0.0353563018143177, -0.06869057565927505], [-0.004618831444531679, -0.04662907496094704, -0.06619460135698318], [0.030881639569997787, 0.029614271596074104, -0.014162332750856876]], [[-0.07396017760038376, 0.03645884990692139, -0.05489268898963928], [-0.05015060678124428, -0.06373906880617142, -0.07490596920251846], [-0.04466553404927254, -0.05060885101556778, -0.06613539159297943]], [[-0.037017516791820526, 0.01825985312461853, -0.07029508799314499], [-0.039115674793720245, -0.04481211677193642, -0.02264285460114479], [0.022024990990757942, -0.0251117255538702, -0.047276392579078674]], [[-0.056111596524715424, -0.0358281284570694, 0.005236219614744186], [-0.04706412926316261, -0.020656079053878784, -0.04458776116371155], [-0.020172644406557083, -0.06835084408521652, -0.014875765889883041]], [[0.012212212197482586, -0.058357033878564835, -0.02998426742851734], [-0.0018815981457009912, -0.04316842183470726, -0.03511316329240799], [-0.015309524722397327, -0.034446097910404205, -0.025898801162838936]], [[-0.09286171942949295, -0.019773611798882484, -0.0527217723429203], [-0.07635227590799332, -0.06825005263090134, -0.06229184940457344], [-0.014259722083806992, -0.10872567445039749, -0.0949098989367485]], [[-0.01180421281605959, -0.05257550999522209, 0.025532308965921402], [-0.0743187665939331, -0.010598395951092243, -0.06745456904172897], [-0.037657931447029114, 0.01642972230911255, -0.019822318106889725]], [[-0.04489704966545105, 0.01934063620865345, -0.07369726151227951], [-0.06666095554828644, -0.0631900504231453, -0.07176610827445984], [0.0036394456401467323, -0.04821184277534485, -0.005459354259073734]]], [[[0.276160329580307, -0.01416862104088068, -0.23465129733085632], [0.19965504109859467, -0.7131230235099792, -0.9629799723625183], [1.1861121654510498, -0.16225825250148773, -0.28535422682762146]], [[0.3843928575515747, 0.29351696372032166, 0.6603099703788757], [-0.3071461021900177, -0.006718856748193502, -0.20702789723873138], [-0.7254058718681335, -1.3264867067337036, -0.2907828092575073]], [[0.012266429141163826, -0.9123072624206543, -0.9087086915969849], [0.407541960477829, -0.21166253089904785, -1.2262276411056519], [1.2946738004684448, 0.5563053488731384, 0.17063204944133759]], [[-0.8354963064193726, -0.24724586308002472, -0.07340851426124573], [-0.4869375228881836, 0.12381143867969513, 0.006806885823607445], [-0.23079557716846466, -0.6114035844802856, -0.3383611738681793]], [[-0.8468971848487854, -0.42266950011253357, -0.16993959248065948], [-0.3292812407016754, -0.181649848818779, 0.5759031772613525], [0.047611724585294724, -1.6672518253326416, -1.6415235996246338]], [[-0.1674635410308838, 0.4777257442474365, -0.7492586374282837], [-0.5350550413131714, 0.05684288591146469, -0.5730707049369812], [1.4264429807662964, 0.6216399073600769, -0.01655345782637596]], [[-0.25138160586357117, -1.0391170978546143, -0.45786333084106445], [0.35466817021369934, 0.5840052366256714, 0.6263026595115662], [-0.90199875831604, -1.8263100385665894, -0.858513593673706]], [[0.6383588910102844, -0.09020040929317474, -0.18145838379859924], [0.43862926959991455, 0.3186647891998291, 0.6017075777053833], [0.8505454659461975, 0.49851569533348083, 2.505591630935669]], [[-0.4891304075717926, -0.8928678035736084, -0.4725899398326874], [-0.32196447253227234, -1.3987916707992554, -0.7104145884513855], [0.309650719165802, -0.5373306274414062, -0.3561667799949646]], [[0.30419275164604187, -0.8859403133392334, -1.3561524152755737], [0.283969521522522, -0.36188337206840515, -0.5408579111099243], [0.6470917463302612, 0.5939064025878906, 2.0961289405822754]], [[0.05689774081110954, -0.6708923578262329, -0.5484549403190613], [0.47846150398254395, 0.8716377019882202, 0.5026825070381165], [-0.3665347099304199, -0.9740169048309326, 0.3414861261844635]], [[-1.0696853399276733, -0.3508196175098419, -0.17563115060329437], [-0.5575323700904846, 0.5033681392669678, 0.8864418268203735], [0.4694410264492035, -1.237779140472412, -1.4970948696136475]], [[-0.4965275526046753, -1.347578763961792, -1.119882583618164], [-0.5046138167381287, -1.5267595052719116, -1.1535348892211914], [1.6532610654830933, 0.25447604060173035, 1.169413685798645]], [[0.24411581456661224, -0.291123628616333, 0.10080251097679138], [-0.12049567699432373, -0.4317987859249115, 0.45044705271720886], [-0.07908007502555847, -0.30265355110168457, 1.0058724880218506]], [[-0.8081424832344055, -0.6344155669212341, -0.21919162571430206], [-0.3561682403087616, -0.6145200133323669, -0.8900602459907532], [1.421758770942688, 0.6150535345077515, -0.08215499669313431]], [[0.10180073231458664, -0.044913165271282196, 0.29437682032585144], [-0.30126670002937317, -0.6656017899513245, -1.436640739440918], [0.698186457157135, 0.5313957929611206, -0.4810965359210968]], [[-1.0643129348754883, -0.3997425436973572, -0.014232700690627098], [-0.33644771575927734, 0.4226183593273163, 0.7680427432060242], [0.8818087577819824, -0.6024448871612549, -1.3595136404037476]], [[-0.17341656982898712, -0.5702422261238098, -0.09708353877067566], [-0.2168097198009491, -0.2647484242916107, 0.2914186418056488], [-0.9496061205863953, -1.5913482904434204, 0.3943908214569092]], [[1.2900093793869019, 1.3093512058258057, 0.4982958734035492], [-0.13025610148906708, 0.22777552902698517, -0.4513176381587982], [-0.0487043596804142, -0.7573522925376892, -0.3582276701927185]], [[-0.6958552598953247, -0.219914510846138, -1.5784472227096558], [-0.7448861598968506, -0.9626522064208984, -1.5754610300064087], [1.4412025213241577, 0.9472407102584839, -0.30252933502197266]], [[-0.5629748106002808, 0.011384939774870872, 0.2359018176794052], [0.2728406488895416, -0.6567859053611755, 0.05731114000082016], [-0.7046943306922913, -1.8716646432876587, -3.2519285678863525]], [[-1.0012178421020508, -0.6583621501922607, -0.2400313764810562], [0.5245770812034607, 0.14328426122665405, 0.3747369349002838], [0.24212045967578888, -1.2021971940994263, -2.9464304447174072]], [[0.3884173631668091, -0.5440152287483215, -0.015810439363121986], [0.9594132900238037, -0.13896267116069794, -1.279175877571106], [0.3279550075531006, -0.7118814587593079, -0.7484214901924133]], [[0.01967393420636654, -0.42083460092544556, -0.020873691886663437], [0.16176657378673553, -0.2106945812702179, 0.27191516757011414], [0.06790395081043243, -0.25043728947639465, 0.1483129858970642]], [[1.1736235618591309, 0.4416385889053345, 0.5019025802612305], [0.9545167088508606, 0.9205300211906433, 0.5237373113632202], [0.9993603229522705, -0.3326464295387268, -0.3968600630760193]], [[1.913254737854004, 1.5495799779891968, 1.007972240447998], [1.6434142589569092, 2.305521249771118, -0.21493186056613922], [0.1877271682024002, 0.7098077535629272, 0.2813940644264221]], [[0.800810694694519, -0.25128841400146484, -0.46854567527770996], [-0.03747577592730522, -1.2207854986190796, -1.4091347455978394], [0.8712756037712097, -0.3117726743221283, -0.3931000232696533]], [[0.6206361055374146, 0.1386718899011612, -0.09500311315059662], [0.5237426161766052, -0.3712865114212036, -1.3365237712860107], [1.6038527488708496, 0.0023117950186133385, -0.3248536288738251]], [[-0.13290421664714813, -0.13012631237506866, 0.027612244710326195], [-0.38137027621269226, -0.8652533292770386, 0.09118913114070892], [-0.17618787288665771, -1.0275254249572754, -0.7226784229278564]], [[-0.05130186676979065, -0.7713843584060669, -0.5580032467842102], [0.43089139461517334, 0.28237929940223694, -0.11420148611068726], [-0.29392388463020325, -0.7689352035522461, -0.4235435426235199]], [[1.117244839668274, 0.5242458581924438, 0.15296560525894165], [0.9202942252159119, 1.750017762184143, 0.008906657807528973], [-0.07843247801065445, 0.40614083409309387, 0.916382372379303]], [[0.6130928993225098, -0.6056411266326904, -0.41350308060646057], [0.8868438005447388, -0.3168097138404846, -1.3179033994674683], [0.4206062853336334, -0.48168516159057617, -0.8430009484291077]], [[0.8011314272880554, 0.41681286692619324, -0.37426745891571045], [1.449015498161316, 0.7146052718162537, -0.8763019442558289], [1.9748660326004028, 0.4958108961582184, -0.4536462426185608]], [[-0.26852527260780334, -0.8652760982513428, -0.681281566619873], [-0.07266943156719208, 0.5530892014503479, 0.4540015161037445], [-0.9841452240943909, -0.7722642421722412, 0.6510426998138428]], [[-0.09123844653367996, -0.5446971654891968, 0.27081626653671265], [-0.395133376121521, -0.24316690862178802, 0.5119025707244873], [-0.9972785711288452, -2.192699909210205, -0.7146762609481812]], [[-0.1375478059053421, -0.5413311123847961, -0.9111674427986145], [-0.30055850744247437, -0.6185957789421082, -0.5006874203681946], [0.8094135522842407, 0.5855103731155396, 1.9261887073516846]], [[-0.8985256552696228, -0.7135749459266663, -0.24221591651439667], [0.4787832200527191, -0.46385419368743896, 0.21538425981998444], [0.0510859414935112, -1.180781602859497, -2.5208675861358643]], [[0.03196880593895912, 0.23778297007083893, 1.0749461650848389], [0.3665348291397095, -1.0811080932617188, -0.408704549074173], [0.21397733688354492, -0.4266906678676605, -1.8234403133392334]], [[0.352242648601532, -1.0175174474716187, -0.6949607729911804], [0.6930058598518372, 0.2803339958190918, -0.5235108733177185], [0.583246648311615, 1.2543072700500488, 1.4149764776229858]], [[-0.1888318657875061, -0.7432363629341125, -1.325324296951294], [-0.014279714785516262, -0.05483654886484146, -0.9447828531265259], [0.9325821399688721, 1.0338568687438965, 1.6708555221557617]], [[0.5320979952812195, 0.4329967200756073, 1.1428329944610596], [0.1935950517654419, -1.0941120386123657, -0.6077057123184204], [-0.1967785507440567, -0.9157416224479675, -2.1376423835754395]], [[-0.4234977960586548, 0.05624258890748024, 0.36655712127685547], [-0.1214381605386734, 0.021759873256087303, -0.24963149428367615], [1.2149577140808105, 0.15005886554718018, -0.10974886268377304]], [[-1.2632384300231934, -1.2467353343963623, -0.4249823987483978], [-0.376211017370224, -0.9894907474517822, -1.3711607456207275], [0.4439394772052765, 1.20187509059906, -0.442242294549942]], [[0.10387247055768967, -0.09145321696996689, -0.2856547236442566], [0.17700687050819397, -0.1789134293794632, -1.0231504440307617], [1.237430214881897, 0.13023659586906433, -0.15306973457336426]], [[0.4600227177143097, -0.7879070043563843, -0.7251840829849243], [0.4664396345615387, 0.10311438143253326, -0.7713465094566345], [0.09953239560127258, 0.19226282835006714, 0.5094372034072876]]], [[[0.7959480881690979, -0.3973493278026581, -0.6126192808151245], [0.2890560030937195, -0.933021068572998, -0.40424951910972595], [-0.1964164674282074, -0.36788874864578247, -0.005137448664754629]], [[0.6937590837478638, 0.612945020198822, -0.7802034616470337], [-2.385946035385132, -1.5688947439193726, -2.1264612674713135], [-0.6489065289497375, 0.13803666830062866, 0.16464072465896606]], [[0.9253689050674438, 0.38970643281936646, 0.03837337717413902], [0.325043261051178, -0.4187186658382416, 0.017055736854672432], [-0.11341039091348648, -0.30298668146133423, -0.04062119498848915]], [[-0.25932860374450684, -0.502889096736908, -0.4006699025630951], [0.20441482961177826, -0.33557137846946716, 0.22237259149551392], [-0.1769268959760666, -0.44104400277137756, 0.258454293012619]], [[-1.1656216382980347, -0.40496861934661865, -0.5883980393409729], [-1.5584564208984375, -0.8392433524131775, -0.08607252687215805], [-1.5976178646087646, -1.9478274583816528, -1.0820392370224]], [[-0.1803322434425354, 0.7657846212387085, 0.1429758071899414], [-1.3916518688201904, -0.590560793876648, 0.21321040391921997], [-0.6970047950744629, 0.026126567274332047, 0.38850724697113037]], [[-0.2567700445652008, -0.35401132702827454, -1.046876072883606], [-0.8073639273643494, -0.4355393350124359, 0.03477834537625313], [-1.0396583080291748, -1.8263567686080933, -1.32586669921875]], [[0.21835196018218994, 0.18077780306339264, 0.07810261845588684], [-0.14946934580802917, -0.0817594975233078, -1.7014548778533936], [-0.1925085335969925, 0.19502876698970795, -0.05118850991129875]], [[0.302215039730072, 0.75165855884552, 0.47530806064605713], [0.06530237197875977, -0.621518075466156, -0.6129883527755737], [0.1904333531856537, -1.1061464548110962, -1.3508025407791138]], [[-0.0618477538228035, -0.3598502576351166, 0.3509361445903778], [-0.005810020957142115, -0.127390518784523, -1.026702642440796], [-0.2201460599899292, -0.023086952045559883, -0.178622767329216]], [[-0.4133508801460266, -0.6722473502159119, -0.9733065962791443], [-1.1257771253585815, -0.4609363079071045, -0.705686628818512], [-0.7557324767112732, -0.714059591293335, -0.3766848146915436]], [[-2.0601723194122314, -0.518785834312439, -1.007080078125], [-1.6533573865890503, -0.605172872543335, 0.4149136245250702], [-1.25822913646698, -1.2016769647598267, -0.4259883761405945]], [[0.3843821585178375, 0.07340355962514877, -0.26559343934059143], [-0.020947540178894997, -0.8481511473655701, -0.40322941541671753], [-0.27368709444999695, -0.6541797518730164, -0.1291384994983673]], [[0.14540760219097137, -0.29227563738822937, -0.34541720151901245], [-0.050189897418022156, -0.14891579747200012, -0.5838102102279663], [-0.20449776947498322, -0.10893464833498001, 0.21571581065654755]], [[-0.31757691502571106, 0.04080536589026451, -0.34324193000793457], [0.0514465868473053, -0.792711079120636, -0.005311066750437021], [-0.045066919177770615, -0.5081712603569031, 0.04108678922057152]], [[1.1924875974655151, -0.05062690004706383, -0.027982786297798157], [0.2580223083496094, -1.2975507974624634, -1.074623942375183], [0.26919227838516235, -0.6704109907150269, 0.33448126912117004]], [[-1.553879737854004, -0.0835278183221817, -0.5473265647888184], [-1.2867887020111084, -0.7078208923339844, 0.5391350984573364], [-0.5426289439201355, -0.513043224811554, -0.23914103209972382]], [[-0.46238091588020325, -1.4336872100830078, -1.4574826955795288], [-0.19538278877735138, -0.5454913377761841, -0.8328285217285156], [-0.8596765398979187, -0.14517827332019806, -0.04381664842367172]], [[1.2748327255249023, -0.045491818338632584, 0.05358163267374039], [-1.0211306810379028, -1.217556357383728, -0.16370022296905518], [-0.9822691082954407, -0.2034531980752945, 0.7897334694862366]], [[-0.8787455558776855, -0.15555645525455475, 0.4369675815105438], [-1.31253981590271, -1.100122332572937, -0.10846809297800064], [-0.9056612253189087, -0.23275066912174225, -0.4938129484653473]], [[-0.3448944389820099, 0.4852612614631653, -0.03418652340769768], [-0.565855860710144, -1.0765851736068726, 0.16312402486801147], [-0.14188143610954285, -1.2248610258102417, -1.3947826623916626]], [[-0.3585442900657654, 0.5747907161712646, 0.02630474790930748], [-0.6225174069404602, -0.6596968770027161, 0.33587145805358887], [-0.48437047004699707, -1.9353803396224976, -1.898093581199646]], [[0.1091131716966629, -0.5212503671646118, -0.3468315899372101], [-1.3425102233886719, -1.5089006423950195, -0.8945869207382202], [-1.8687833547592163, -1.9606060981750488, -0.4712914228439331]], [[-0.14937739074230194, -0.6560025215148926, -0.544133186340332], [0.14798669517040253, -0.6572583913803101, -0.3769729733467102], [0.21821469068527222, -0.347683846950531, -0.25687238574028015]], [[1.1168973445892334, 0.2921985685825348, -1.2038549184799194], [-1.1907967329025269, -1.8993422985076904, -0.9907320737838745], [-1.1506493091583252, -3.084381103515625, -0.4646185040473938]], [[1.029239535331726, -0.816611111164093, -0.8332584500312805], [-1.8362387418746948, -2.397106409072876, -2.5728650093078613], [-1.7361500263214111, -0.8656713366508484, -0.17597460746765137]], [[0.8859990239143372, -0.394643634557724, -0.3409378230571747], [-0.5062537789344788, -2.1404716968536377, -1.553543210029602], [-0.4116823375225067, -2.34438157081604, -0.7198963165283203]], [[-0.3549014925956726, -0.8208054304122925, 0.24883688986301422], [0.014868193306028843, -1.6454493999481201, -1.2690435647964478], [-0.2951832413673401, -0.7069716453552246, -1.0455175638198853]], [[-0.5486403703689575, -0.21375545859336853, -0.4867366552352905], [-0.3946508765220642, -0.5123839378356934, 0.398664653301239], [-0.5396739840507507, -0.6650466322898865, -0.5067036151885986]], [[0.412327378988266, -0.7217905521392822, -0.7821385860443115], [-0.466894268989563, -0.6011596322059631, -0.2844889461994171], [-0.19492371380329132, -0.8316161036491394, -0.8527280688285828]], [[0.3776695728302002, -0.4538111090660095, -0.27460238337516785], [-1.9867826700210571, -1.7691348791122437, -2.6895880699157715], [-1.106784701347351, -0.19058866798877716, -0.09090006351470947]], [[-0.4366697371006012, -0.436563640832901, -0.3156658709049225], [-1.0675861835479736, -1.7972381114959717, -0.5206055641174316], [-1.443995714187622, -1.22392737865448, -1.1456772089004517]], [[-0.6337320804595947, -1.222059965133667, -0.06473789364099503], [-1.030410647392273, -3.2272989749908447, -1.8486837148666382], [-1.5602401494979858, -1.4008396863937378, -1.9498931169509888]], [[0.3162291944026947, -0.23632602393627167, -1.0678859949111938], [-0.8312009572982788, -0.8237783312797546, -0.5995347499847412], [-0.6629236340522766, -0.8743903040885925, -0.2896400988101959]], [[-0.1598905622959137, 0.05751018598675728, -0.6774041652679443], [-1.4563127756118774, -0.4698595106601715, -0.5725022554397583], [-1.7604795694351196, -2.1406149864196777, -1.1691678762435913]], [[-0.3080670237541199, 0.011673538014292717, -0.21175970137119293], [-0.2648395895957947, -0.1827079951763153, -1.3301752805709839], [-0.24335752427577972, 0.08484812080860138, -0.09177333861589432]], [[-0.5326270461082458, 0.3499402105808258, 0.19230622053146362], [-0.49501344561576843, -0.9061344861984253, 0.2702956199645996], [-0.26693639159202576, -1.719596028327942, -1.7470734119415283]], [[0.8258235454559326, 1.0649158954620361, 0.09673024713993073], [-0.12183582037687302, -0.7758662700653076, -0.3750351667404175], [-0.5464600920677185, -0.8621187806129456, -1.897396445274353]], [[0.43108153343200684, -0.017614737153053284, 0.7388789057731628], [-0.14926178753376007, -0.63804692029953, -0.6998332142829895], [-0.47561436891555786, 0.25597819685935974, -0.5575112104415894]], [[0.10358043015003204, -0.22886358201503754, -0.1538158357143402], [0.12252756208181381, -0.11724802851676941, -1.1366068124771118], [0.07404767721891403, 0.015826843678951263, 0.10840070247650146]], [[0.7717322707176208, 0.9847646951675415, 0.2640673816204071], [-1.131030559539795, -1.5593037605285645, -0.8802796602249146], [-1.4433479309082031, -1.3026317358016968, -1.7361857891082764]], [[0.6227673292160034, -0.1276705265045166, -0.512804388999939], [-0.23216257989406586, -0.937027633190155, 0.0994461327791214], [-0.2210416942834854, -0.37321969866752625, 0.05025593563914299]], [[0.5059152841567993, 0.4262441396713257, 0.3728170692920685], [0.3067772090435028, -1.038041591644287, 0.023238254711031914], [0.8387627005577087, -0.3122211694717407, -0.26395124197006226]], [[0.07038787007331848, -0.5296242833137512, 0.278689980506897], [-0.3089398443698883, -2.0154457092285156, -1.1231927871704102], [-0.3873511552810669, -0.7295728325843811, -1.3884199857711792]], [[-0.35350301861763, -0.42401954531669617, 0.20749986171722412], [-0.7884107828140259, -1.494504451751709, -1.344739556312561], [-0.6952415108680725, 0.1752326339483261, -0.8852105736732483]]], [[[-0.6020050644874573, -0.012038546614348888, 0.6760700345039368], [0.18767189979553223, 0.16685760021209717, 0.0359962098300457], [0.17030946910381317, 0.12615929543972015, -1.2087041139602661]], [[0.7458748817443848, 0.27757278084754944, 0.5234972238540649], [1.5222995281219482, -0.9598146677017212, -0.8314191699028015], [1.5299261808395386, -0.4068552851676941, -0.39906421303749084]], [[-0.961979866027832, 0.15073278546333313, 0.5546496510505676], [-0.7740463614463806, 1.0905146598815918, 0.16631081700325012], [-0.04143041372299194, 0.5108171105384827, -1.7534104585647583]], [[0.0050532016903162, 0.03222835808992386, 0.43996208906173706], [-0.0330931693315506, -0.011348272673785686, -0.04603874310851097], [-0.052799124270677567, 0.08486389368772507, -0.13788825273513794]], [[0.5385159254074097, -0.13184382021427155, -0.23526138067245483], [-0.04753658175468445, -1.848086953163147, 0.15286216139793396], [0.20798508822917938, 0.14537635445594788, 1.2535474300384521]], [[0.1604793816804886, -0.5484263300895691, 0.5448485612869263], [0.9454420208930969, 0.7498970031738281, 1.2245237827301025], [0.5869906544685364, 0.9318944215774536, -0.3385101556777954]], [[0.9836081862449646, 0.3630404472351074, 0.4766947031021118], [0.44616201519966125, -3.608454704284668, -1.5294896364212036], [-0.4051367938518524, -2.168750286102295, 0.18878643214702606]], [[0.5725473761558533, -0.955097496509552, -0.5826733708381653], [-0.08049339056015015, 0.487641304731369, 0.5552768707275391], [-0.10891801863908768, 1.3882099390029907, 0.7590482831001282]], [[-0.16556555032730103, -1.2347248792648315, 0.07639950513839722], [-0.8055160045623779, -0.6531885862350464, 1.569905161857605], [-0.2742348611354828, 0.7745822072029114, 0.7441360950469971]], [[0.22628848254680634, -1.5251381397247314, -0.6772342324256897], [-0.05486610531806946, -0.21383598446846008, 0.3868235945701599], [-0.012763562612235546, 0.7472519874572754, 0.4362589120864868]], [[0.48598721623420715, 0.39963918924331665, -0.42522192001342773], [0.0778798833489418, -0.2525322139263153, -0.380624920129776], [-0.087105892598629, 0.3452568054199219, 0.35558849573135376]], [[0.7108141183853149, -0.41635316610336304, 0.15945322811603546], [0.688121497631073, -2.2460389137268066, -0.7415283918380737], [0.36470305919647217, -0.7718634605407715, 0.2960205376148224]], [[0.4379900395870209, -0.35909923911094666, -0.6821785569190979], [1.3044153451919556, 0.5576756000518799, 0.12288906425237656], [0.7642715573310852, -0.7027605175971985, -1.7252763509750366]], [[0.5254221558570862, -1.1913342475891113, -0.1451043337583542], [-0.055248960852622986, -0.3755112886428833, 0.9665281176567078], [-0.14823468029499054, 0.6706209182739258, 0.5939109921455383]], [[-0.6219136118888855, -0.5539801716804504, 0.25823813676834106], [-0.6832290291786194, 0.1118311807513237, 0.2884727418422699], [-0.6480045914649963, 0.368187814950943, -0.8094733953475952]], [[-0.7387162446975708, 0.15171273052692413, 0.8170762658119202], [-0.5417921543121338, 0.5318852663040161, 0.32492440938949585], [0.47734296321868896, 0.5474075078964233, -1.5397487878799438]], [[0.6495784521102905, -0.6962916851043701, 0.3310422897338867], [0.5429350733757019, -1.8688291311264038, -0.3875977098941803], [0.2937808930873871, -0.7315797805786133, -0.019084744155406952]], [[1.370953917503357, -0.3576987385749817, -0.513268232345581], [0.9205076694488525, -0.8637233972549438, 0.3254068195819855], [1.0529026985168457, 0.5750079154968262, 1.152557134628296]], [[-0.02795013040304184, 0.042645182460546494, 0.32073572278022766], [0.26450687646865845, 0.49058306217193604, 0.10063433647155762], [0.681071400642395, -0.0925079733133316, -1.4442739486694336]], [[0.10338585823774338, -1.0152791738510132, 0.054410260170698166], [1.0273345708847046, 0.566081166267395, 0.3673354685306549], [0.3556979298591614, 0.4020790755748749, -1.4106013774871826]], [[-0.021455951035022736, -1.6352696418762207, 0.16224928200244904], [-1.3349131345748901, -2.841200590133667, 0.8488501310348511], [-0.9695626497268677, 0.17332570254802704, 1.228316068649292]], [[0.721092939376831, -0.8354960680007935, 0.4955112040042877], [-1.7609657049179077, -2.1500682830810547, 0.7092971205711365], [-1.8229292631149292, -0.9646813869476318, 0.8054038286209106]], [[0.18116344511508942, -0.35039690136909485, 0.04811054468154907], [0.400356650352478, -2.5105538368225098, -0.031716298311948776], [0.07552055269479752, -1.7926701307296753, 0.19058610498905182]], [[-0.2674427330493927, -0.019809750840067863, 0.02403450198471546], [-0.2532324194908142, 0.1605856865644455, -0.012992032803595066], [-0.11256006360054016, 0.3071373403072357, -0.12387862801551819]], [[-1.13620126247406, -0.07791643589735031, 0.30467936396598816], [-1.3362400531768799, 1.0165438652038574, 1.1345080137252808], [0.8667744398117065, 2.319136619567871, 0.7128058075904846]], [[-0.0429781973361969, 0.9600908160209656, 0.5799700617790222], [-0.9072460532188416, 0.12945552170276642, -1.3791587352752686], [-0.18897461891174316, -1.128767967224121, -2.445773124694824]], [[-0.7709531784057617, -0.18509064614772797, 0.11664948612451553], [0.027970299124717712, 0.1509251743555069, 0.04056358337402344], [0.8754589557647705, 1.471451759338379, -0.2261311262845993]], [[0.5834346413612366, -0.7974693775177002, -0.6992570161819458], [0.36532947421073914, 0.10650917887687683, 0.058644603937864304], [0.9569328427314758, 0.7022744417190552, 0.6118849515914917]], [[0.6723684668540955, -1.3648260831832886, -0.4783351421356201], [-0.25575822591781616, -0.9041455388069153, 0.8499091863632202], [-0.4417143166065216, -0.06878058612346649, -0.007002240512520075]], [[0.09918104112148285, 0.6163642406463623, -0.1841723471879959], [0.15372775495052338, -0.7625214457511902, -0.7531370520591736], [-0.3434411585330963, -0.5937408208847046, -0.2951281666755676]], [[0.775801956653595, 0.433601975440979, 0.18123425543308258], [-0.2977765202522278, -1.1588389873504639, -1.4094609022140503], [-0.4975305199623108, -1.960695743560791, -1.0586073398590088]], [[0.6304306983947754, -0.3799915015697479, 0.01361260935664177], [0.461887925863266, -1.7132941484451294, -0.2658885717391968], [-0.1489938497543335, -2.022550106048584, -0.27774977684020996]], [[0.5410419702529907, -0.2695681154727936, -0.02468039095401764], [-0.6595355868339539, 0.21291851997375488, -0.8450244665145874], [-0.004044903442263603, 0.7399002313613892, 0.5147314667701721]], [[0.4529021084308624, 0.5334586501121521, 0.01409737579524517], [0.03961732238531113, -0.2955869436264038, -0.5538672804832458], [-0.009811005555093288, -0.22920285165309906, -0.758950412273407]], [[0.8291615843772888, 0.14515908062458038, 0.3319098949432373], [1.266769528388977, -5.158740520477295, -2.3809452056884766], [0.41788449883461, -4.410778045654297, -0.1973973661661148]], [[0.7849148511886597, -1.0484085083007812, -0.8922260999679565], [0.17975378036499023, 0.29037418961524963, 0.43223583698272705], [-0.10540994256734848, 1.1381826400756836, 0.45561349391937256]], [[0.6691473126411438, -0.8270571231842041, 0.13991570472717285], [-1.2532881498336792, -1.6900628805160522, 0.7177569270133972], [-1.2283872365951538, -0.30186641216278076, 0.8940550088882446]], [[0.022446276620030403, 0.05674942582845688, 1.3895634412765503], [-0.3474307060241699, -2.4151127338409424, 0.7078311443328857], [0.6112037301063538, -1.829756498336792, -0.37351569533348083]], [[0.14444150030612946, 0.28914281725883484, 0.4035260081291199], [-0.3010203242301941, 0.3418242931365967, -0.5820584297180176], [0.018673591315746307, 0.10629690438508987, -0.9012675285339355]], [[0.1577225923538208, -0.49579179286956787, -0.22843711078166962], [-0.6780484318733215, 0.2410276085138321, 0.4305867850780487], [-0.38630157709121704, 0.9140715003013611, 0.11960642784833908]], [[1.0573433637619019, 0.907697856426239, 2.528794527053833], [-0.05760100856423378, -4.0684027671813965, 0.996751606464386], [0.7999807596206665, -3.191762924194336, -0.07901424169540405]], [[-0.5934633016586304, -0.12309163808822632, 0.1710229218006134], [0.21055473387241364, -0.1943751871585846, -0.12343785911798477], [-0.0198015458881855, 0.3139950633049011, -1.1776834726333618]], [[-0.558234691619873, -0.011885439045727253, 1.1406197547912598], [-1.2722748517990112, 0.1505368947982788, 1.0407452583312988], [-0.8167728185653687, 0.5390229821205139, -0.11313928663730621]], [[0.07211176306009293, -1.1105735301971436, -0.17745374143123627], [-0.4436355531215668, -0.325522243976593, -0.5171787738800049], [0.2552502155303955, 0.228915736079216, 0.28755220770835876]], [[1.0446515083312988, -0.09154832363128662, 0.24747304618358612], [-0.44295546412467957, -0.43907392024993896, -0.9625797867774963], [-0.4838809370994568, -0.0034362799488008022, 0.05820014700293541]]], [[[-0.010090086609125137, -0.039165474474430084, 0.0030332584865391254], [0.00928308442234993, -0.00991044845432043, -0.07361657917499542], [-0.016530707478523254, 0.02349233813583851, -0.05525321140885353]], [[0.006744034122675657, 0.029834654182195663, -0.03703675791621208], [-0.05379083380103111, -0.07630793750286102, -0.009136210195720196], [0.0385981984436512, 0.006588112097233534, -0.09296261519193649]], [[-0.06504695117473602, -0.03356342762708664, 0.050286661833524704], [-0.03468754142522812, -0.05826851353049278, -0.04776625335216522], [0.008370732888579369, -0.013366060331463814, -0.04980368912220001]], [[-0.032582417130470276, -0.008469557389616966, -0.014840650372207165], [-0.0496436208486557, -0.0364995114505291, -0.038695983588695526], [-0.0541464202105999, -0.04960159584879875, -0.08234325051307678]], [[-0.039743341505527496, -0.022135788574814796, -0.05216006189584732], [-0.033427830785512924, -0.05145171284675598, 0.006284527946263552], [-0.006062841042876244, 0.07182827591896057, -0.0713275745511055]], [[-0.07326637953519821, -0.01760108768939972, -0.058062560856342316], [0.03172566741704941, -0.053364578634500504, 0.06583946198225021], [0.04066959396004677, -0.02622401714324951, -0.0002672884438652545]], [[0.029551101848483086, 0.01584055833518505, -0.06843888014554977], [-0.024139005690813065, -0.08010233938694, 0.00792165007442236], [-0.013710979372262955, 0.002920896280556917, -0.07363617420196533]], [[-0.05201765149831772, -0.02682456560432911, 0.007464190013706684], [-0.024097155779600143, -0.03702446073293686, 0.03163187578320503], [0.07332780957221985, -0.03939959779381752, 0.02329191565513611]], [[-0.0020275956485420465, 0.013170547783374786, -0.030013998970389366], [-0.0921071246266365, -0.06181156262755394, -0.030013686046004295], [0.06118492782115936, -0.05942925065755844, 0.010923655703663826]], [[-0.002164887497201562, 0.004869040101766586, 0.01933506689965725], [-0.03213273361325264, -0.050957370549440384, -0.007431178353726864], [0.013647736981511116, -0.024044424295425415, -0.06376196444034576]], [[-0.004150377586483955, 0.007211165502667427, -0.029116563498973846], [-0.07640810310840607, -0.10019676387310028, -0.04266754165291786], [0.059465501457452774, -0.019694438204169273, -0.014409738592803478]], [[-0.05132988095283508, 0.020638640969991684, -0.038527972996234894], [-0.03825368359684944, -0.08497290313243866, -0.07967419922351837], [-0.02532464824616909, 0.013901449739933014, 0.004700591787695885]], [[-0.05013694241642952, -0.018729159608483315, -0.034911107271909714], [0.040636613965034485, -0.07106631994247437, -0.009030836634337902], [0.05287177860736847, 0.024523235857486725, -0.0381053164601326]], [[0.002369482535868883, -0.0359894260764122, -0.015479368157684803], [-0.06241622939705849, -0.08996406942605972, -0.07645643502473831], [-0.011084895581007004, -0.000692503061145544, -0.024131886661052704]], [[-0.0333978645503521, 0.020593006163835526, -0.020366007462143898], [-0.04550515115261078, -0.0006466260529123247, -0.06944462656974792], [-0.01562411803752184, -0.021634552627801895, -0.017007526010274887]], [[-0.031117398291826248, -0.03580864146351814, 0.009653395973145962], [-0.009633779525756836, -0.035428691655397415, -0.007108955644071102], [0.045194536447525024, 0.005001418758183718, -0.010788332670927048]], [[-0.04273393377661705, 0.035038091242313385, 0.008462308906018734], [-0.031032491475343704, -0.012111651711165905, 0.008217024616897106], [-0.03556128963828087, -0.014134452678263187, -0.07115581631660461]], [[0.05449903383851051, 0.022855814546346664, -0.035542264580726624], [-0.022156553342938423, -0.025139732286334038, -0.03509656339883804], [0.05106426775455475, 0.016808833926916122, -0.0844389796257019]], [[-0.06326919049024582, 0.0037096242886036634, -0.01796003431081772], [-0.0032634460367262363, -0.03724373131990433, 0.017000669613480568], [-0.04606414958834648, 0.014439751394093037, 0.003740847809240222]], [[-0.0004006174858659506, -0.034292396157979965, 0.020372038707137108], [-0.07988898456096649, -0.012527909129858017, 0.008612403646111488], [-0.07903340458869934, -0.08037613332271576, 0.05897665023803711]], [[-0.04202982783317566, -0.057933542877435684, -0.02167803794145584], [-0.10135627537965775, 0.011715739965438843, 0.014026799239218235], [0.003933872561901808, 0.019080186262726784, 0.0014468712033703923]], [[-0.013768107630312443, -0.056170396506786346, 0.01682218164205551], [-0.04846131429076195, 0.005896164570003748, -0.043838467448949814], [-0.018584545701742172, 0.061263248324394226, -0.01243640761822462]], [[-0.03236675634980202, -0.03187131509184837, 0.013624759390950203], [0.013707066886126995, -0.05249224230647087, -0.05408373102545738], [0.002562261186540127, 0.025608405470848083, -0.03188979998230934]], [[-0.03646175563335419, -0.06478365510702133, 0.00891260989010334], [-0.08041724562644958, -0.0820557177066803, 0.0055956463329494], [0.027821354568004608, -0.008319874294102192, -0.0030921439174562693]], [[-0.061725225299596786, 0.010520121082663536, -0.036426056176424026], [-0.05371136590838432, -0.06890513747930527, -0.012673290446400642], [-0.10621809959411621, -0.021159788593649864, -0.020962556824088097]], [[-0.0620490163564682, -0.04995180666446686, -0.033085063099861145], [-0.007579720579087734, -0.007594768889248371, -0.06569615751504898], [-0.008939345367252827, -0.05462541803717613, -0.048444267362356186]], [[-0.04667460918426514, -0.0517040453851223, -0.03199603781104088], [-0.05230430141091347, -0.014570718631148338, 0.026928868144750595], [0.044972021132707596, -0.048453547060489655, 0.008456573821604252]], [[-0.004538535140454769, 0.0446731299161911, -0.07365856319665909], [-0.07261304557323456, -0.08207457512617111, -0.07734211534261703], [0.016395965591073036, -0.006165460683405399, -0.026943398639559746]], [[-0.012739219702780247, -0.0030762427486479282, -0.04256761074066162], [-0.0579737164080143, -0.08181243389844894, -0.009000136516988277], [-0.031669095158576965, -0.009285143576562405, -0.01807725615799427]], [[-0.04482797160744667, -0.046003371477127075, -0.06831484287977219], [-0.03833841532468796, -0.008969401940703392, 0.011765792034566402], [0.04784869775176048, -0.027728866785764694, -0.018700184300541878]], [[-0.010363315232098103, 0.017523787915706635, -0.033385708928108215], [-0.05252593010663986, -0.044780027121305466, -0.025903819128870964], [-0.05365876480937004, -0.012663955800235271, -0.007757149171084166]], [[0.005824202671647072, 0.018824191763997078, -0.019488254562020302], [-0.017334310337901115, -0.04634916037321091, -0.03648162633180618], [0.020531779155135155, -0.03943294286727905, 0.015468749217689037]], [[0.038485243916511536, 0.01339024305343628, -0.029754430055618286], [-0.07067526131868362, -0.03992503136396408, -0.0025594201870262623], [-0.04560882970690727, -0.08623060584068298, -0.08545628935098648]], [[0.026458602398633957, -0.02537192404270172, -0.060419730842113495], [-0.056332558393478394, 0.012599080801010132, -0.04316474124789238], [-0.03218028321862221, -0.05239783599972725, -0.0118422145023942]], [[-0.03935229778289795, -0.023920081555843353, -0.019748488441109657], [-0.019342591986060143, -0.0061009409837424755, -0.013935326598584652], [-0.02861763723194599, -0.008746996521949768, -0.05171290412545204]], [[-0.002815715968608856, 0.02115587145090103, -0.0654526948928833], [-0.025515582412481308, -0.10295169800519943, -0.03511742502450943], [-0.01782277412712574, -0.013812815770506859, 0.020167676731944084]], [[-0.0014647223288193345, -0.006736777722835541, -0.02329062856733799], [-0.09948012232780457, -0.05553724616765976, -0.011110610328614712], [-0.06514599919319153, -0.01068450789898634, -0.039559803903102875]], [[0.016395775601267815, -0.06929835677146912, -0.078616201877594], [0.04793684557080269, -0.07602077722549438, 0.024601738899946213], [0.03170051425695419, -0.07675591856241226, 0.024871226400136948]], [[-0.03628860041499138, -0.05274953320622444, -0.071625716984272], [-0.05767965316772461, -0.024091342464089394, -0.07391715049743652], [0.04140621796250343, -0.04371346905827522, -0.0045310803689062595]], [[-0.03650718927383423, -0.01596696861088276, -0.03562863543629646], [0.0033162019681185484, -0.06241649016737938, -0.019378628581762314], [0.03541889041662216, -0.06247643008828163, -0.05253343656659126]], [[-0.017222756519913673, 0.0021533367689698935, -0.048269376158714294], [0.017555218189954758, 0.005533957853913307, -0.014330269768834114], [-0.00296712014824152, -0.019490553066134453, -0.07864509522914886]], [[-0.03718140348792076, -0.02241554670035839, -0.05242389440536499], [-0.011885402724146843, -0.04386334866285324, -0.051353614777326584], [0.005265627522021532, -0.009193886071443558, 0.018749559298157692]], [[0.0007538454956375062, 0.013383370824158192, -0.044603150337934494], [0.012759629637002945, -0.03202618658542633, -0.0019633613992482424], [0.021968074142932892, -0.06405122578144073, -0.03347460925579071]], [[-0.04433683678507805, -0.07174766063690186, -0.02601410262286663], [-0.020828722044825554, -0.04073939844965935, -0.004085564985871315], [-0.01292621809989214, 0.00619534170255065, -0.026938743889331818]], [[-0.05160962790250778, -0.038474101573228836, -0.06447239220142365], [-0.03292425349354744, -0.0367615632712841, -0.032320521771907806], [-0.018508678302168846, -0.004887341521680355, 0.023249972611665726]]], [[[-0.06792788207530975, -0.031250834465026855, -0.09436952322721481], [-0.09371235966682434, -0.03772224858403206, -0.09685919433832169], [-0.1316167265176773, -0.04885214939713478, -0.1060606986284256]], [[-0.05698945000767708, -0.07656178623437881, -0.01643456146121025], [-0.08267616480588913, -0.0509440153837204, -0.04216698929667473], [-0.1018165647983551, -0.07831476628780365, -0.1109040156006813]], [[0.013808866031467915, -0.09062041342258453, 0.02060491032898426], [-0.026638999581336975, -0.015569687820971012, -0.06239417567849159], [-0.043287210166454315, -0.03876546770334244, -0.04487112537026405]], [[-0.043238285928964615, 0.003714099759235978, -0.10388786345720291], [-0.07278861105442047, -0.024729173630475998, -0.043496694415807724], [-0.020387891680002213, -0.06560231745243073, -0.06503202766180038]], [[-0.12897829711437225, -0.07920199632644653, -0.08104898780584335], [-0.0532645620405674, -0.057469822466373444, -0.06231533735990524], [-0.09430473297834396, -0.07822367548942566, -0.06801705062389374]], [[-0.02298538200557232, -0.0663619190454483, -0.00464274175465107], [-0.032774534076452255, -0.06888499110937119, 0.029062850400805473], [-0.03869330510497093, -0.054663728922605515, -0.08779286593198776]], [[-0.09119182825088501, -0.004903111141175032, -0.09041895717382431], [-0.10183992981910706, -0.07273579388856888, -0.03958885371685028], [-0.0989159345626831, -0.02184852957725525, -0.03846694156527519]], [[-0.0690532922744751, -0.00042465521255508065, -0.025776155292987823], [0.02536609023809433, -0.012974134646356106, -0.06355835497379303], [-0.029028192162513733, -0.025930482894182205, -0.057144295424222946]], [[-0.05804543197154999, -0.09380506724119186, -0.052921924740076065], [-0.020460162311792374, 0.006635746452957392, -0.03243827447295189], [-0.10565991699695587, -0.09457961469888687, -0.09150916337966919]], [[-0.08759025484323502, 0.007526139263063669, -0.05254240334033966], [-0.07343080639839172, 0.03691967576742172, -0.033539362251758575], [-0.08149737119674683, -0.03218432515859604, -0.05848339945077896]], [[-0.08742432296276093, -0.030857691541314125, -0.04257771000266075], [-0.06728725880384445, -0.0488465391099453, -0.05945444479584694], [-0.0923302099108696, -0.012259993702173233, -0.040700558573007584]], [[-0.08383229374885559, -0.05338096618652344, -0.04711594432592392], [-0.10349901765584946, -0.03531597927212715, -0.1051068902015686], [-0.04005027189850807, -0.037652477622032166, -0.0736643373966217]], [[-0.051479026675224304, -0.08016858249902725, -0.05443563684821129], [-0.07987087219953537, -0.06241176277399063, -0.04249221831560135], [-0.1251843273639679, -0.0882723480463028, -0.019115284085273743]], [[-0.100887730717659, -0.017907803878188133, -0.04708322137594223], [-0.12138494849205017, -0.04135582223534584, -0.09589407593011856], [-0.07533098757266998, -0.0790918692946434, -0.09207706898450851]], [[-0.04587017744779587, -0.08222947269678116, -0.08207494765520096], [-0.039199527353048325, -0.05088595673441887, -0.09200740605592728], [-0.07107123732566833, -0.05888514593243599, -0.0994991734623909]], [[-0.05924028903245926, 0.003844583174213767, -0.01806640438735485], [0.02403336390852928, -0.06414097547531128, -0.040944889187812805], [-0.036539189517498016, -0.06812767684459686, -0.022591978311538696]], [[-0.009108486585319042, 0.0268270093947649, -0.10216164588928223], [-0.03228641673922539, -0.009267101064324379, -0.08845224231481552], [-0.06066516786813736, -0.02739889919757843, -0.038720693439245224]], [[-0.11197525262832642, 0.039585359394550323, -0.09441620856523514], [-0.05552476644515991, -0.03919946029782295, -0.11729807406663895], [-0.10225842893123627, 0.017538931220769882, -0.08995465934276581]], [[-0.00761606777086854, -0.021851232275366783, -0.021460702642798424], [-0.08701200038194656, -0.06276801973581314, -0.0778091624379158], [-0.09603513032197952, -0.007137395441532135, -0.08411990851163864]], [[-0.058825839310884476, -0.10892605781555176, -0.04528921842575073], [-0.08002947270870209, -0.052569322288036346, -0.02115098014473915], [-0.06442512571811676, -0.014014835469424725, -0.07067016512155533]], [[-0.10279472917318344, -0.11178503930568695, -0.011153442785143852], [-0.07485265284776688, -0.03758848085999489, -0.0332438200712204], [-0.02936571091413498, -0.09478548169136047, 0.00014950554759707302]], [[-0.12486021220684052, -0.12775695323944092, -0.005253461189568043], [-0.0880010575056076, -0.11272035539150238, -0.06881614774465561], [-0.11917011439800262, -0.15081354975700378, -0.06984522193670273]], [[-0.001260157790966332, 0.006420669611543417, -0.05659537389874458], [-0.08561065047979355, 0.02279743179678917, -0.07083142548799515], [-0.05587179213762283, -0.04865220561623573, -0.06934267282485962]], [[-0.0032905687112361193, -0.0016796188428997993, 0.016718508675694466], [-0.013440076261758804, -0.021456403657794, -0.04979264363646507], [0.0031772530637681484, -0.029612381011247635, -0.0010534561006352305]], [[-0.06899134814739227, -0.08177759498357773, -0.02915523201227188], [-0.04126668721437454, -0.022856520488858223, -0.018214544281363487], [-0.05144326761364937, -0.007967856712639332, -0.062168195843696594]], [[0.0015192115679383278, -0.06612952798604965, -0.024821776896715164], [-0.04329961538314819, -0.14133977890014648, -0.05684215575456619], [-0.028671590611338615, -0.15620052814483643, -0.07559990137815475]], [[-0.06415564566850662, -0.06492926925420761, -0.027918368577957153], [-0.02821503020823002, -0.08249346166849136, -0.08616817742586136], [-0.025000540539622307, -0.018628468737006187, -0.06071024388074875]], [[-0.006417085416615009, 0.03195756673812866, -0.08520252257585526], [-0.059929002076387405, 0.007861507125198841, -0.08878518640995026], [-0.08065680414438248, -0.029139021411538124, -0.10702340304851532]], [[-0.02554520219564438, -0.034747447818517685, -0.0982988178730011], [-0.01217813789844513, -0.017267368733882904, -0.03012995608150959], [-0.016122711822390556, -0.04407840594649315, -0.05234825611114502]], [[0.03354230523109436, -0.04693460091948509, -0.02406049519777298], [-0.007816830649971962, -0.026749636977910995, -0.0014132756041362882], [0.001049425220116973, -0.04673515260219574, -0.047428879886865616]], [[0.011781824752688408, -0.04231015965342522, -0.09916280955076218], [-0.11275048553943634, 0.010052074678242207, -0.11682533472776413], [-0.09704480320215225, -0.016232993453741074, -0.10585349053144455]], [[0.020765911787748337, -0.08218390494585037, -0.05473239719867706], [-0.0527133010327816, -0.05628271773457527, -0.04144992679357529], [-0.02581128105521202, -0.09639152884483337, -0.053549740463495255]], [[-0.027513446286320686, -0.04311399161815643, -0.09845152497291565], [-0.08182226121425629, -0.027747193351387978, -0.13931091129779816], [-0.1382007747888565, -0.12364540249109268, -0.0794537216424942]], [[-0.05039659142494202, -0.02777278795838356, -0.025120476260781288], [-0.08596259355545044, -0.07812795042991638, -0.0677693784236908], [-0.09935083985328674, -0.07108259946107864, -0.054096248000860214]], [[-0.030133085325360298, -0.10206576436758041, 0.01758788339793682], [-0.029550129547715187, -0.13319849967956543, -0.037018582224845886], [-0.014139567501842976, -0.09982526302337646, -0.08241003751754761]], [[-0.14074982702732086, -0.027873944491147995, -0.07366326451301575], [-0.04908185452222824, -0.04913540184497833, -0.03570517152547836], [-0.0869397521018982, -0.07768837362527847, -0.05844772234559059]], [[-0.0177170243114233, -0.06758195906877518, -0.020754149183630943], [-0.05996858328580856, -0.1109003946185112, 0.003981517627835274], [-0.062295399606227875, -0.06153080612421036, -0.0641624853014946]], [[-0.01945192925632, -0.06959449499845505, -0.033141911029815674], [0.02184782177209854, -0.06862233579158783, 0.0104855140671134], [-0.0750037431716919, -0.026670318096876144, -0.10264523327350616]], [[-0.07791304588317871, -0.06261944025754929, -0.0423102080821991], [-0.028783636167645454, -0.06166461110115051, -0.009224862791597843], [-0.021493107080459595, 0.004128024447709322, 0.0010426925728097558]], [[0.005777318496257067, -0.04294399544596672, -0.02039635181427002], [0.016999393701553345, -0.006057355087250471, -0.02763144113123417], [0.0006335580255836248, -0.07945861667394638, 0.010278602130711079]], [[-0.010718302801251411, -0.08208313584327698, -0.10347943007946014], [-0.05108071491122246, -0.026270711794495583, -0.08888738602399826], [-0.1198808029294014, -0.05393917113542557, -0.0651106908917427]], [[-0.04783456027507782, -0.022971833124756813, -0.01856379397213459], [-0.07942745834589005, -0.057708632200956345, -0.10698165744543076], [-0.11869993060827255, -0.07886303216218948, -0.07208644598722458]], [[-0.023072797805070877, 0.0007611036999151111, 0.00446703564375639], [-0.06523410975933075, -0.008294309489428997, -0.017337076365947723], [-0.06407591700553894, -0.028016716241836548, -0.06259769201278687]], [[-0.10307744890451431, -0.09666696190834045, 0.008929101750254631], [-0.09965361654758453, -0.036313265562057495, -0.010714524425566196], [-0.09136962890625, -0.10142061114311218, -0.09932995587587357]], [[-0.01651708222925663, -0.04521181434392929, -0.015261122956871986], [-0.016051219776272774, -0.03926948830485344, 0.014718802645802498], [-0.04993371665477753, -0.05517898499965668, -0.08774546533823013]]], [[[-0.25902965664863586, -0.4336933195590973, -0.024279247969388962], [0.21347466111183167, 0.6037939786911011, 0.16153837740421295], [0.2183263897895813, -0.04958684369921684, 0.23799043893814087]], [[-0.7265160083770752, 0.10821481049060822, 0.0974196121096611], [-0.08221373707056046, 0.24557653069496155, 0.10319485515356064], [0.18629126250743866, -0.1934964656829834, 0.10402575135231018]], [[0.03797539323568344, -0.05224575474858284, 0.06305454671382904], [0.035829801112413406, 0.3308306932449341, 0.043245796114206314], [0.16258372366428375, -0.37984925508499146, 0.3609316945075989]], [[-0.1412309855222702, 0.2888244390487671, 0.3924626111984253], [-0.0027928841300308704, -0.00012432286166585982, -0.28470802307128906], [-0.2379138320684433, 0.11552809923887253, -0.15864045917987823]], [[0.1331923007965088, -0.640956461429596, -0.3514808118343353], [-0.26834583282470703, 0.013656717725098133, -0.3487870395183563], [-0.30472007393836975, 0.13980422914028168, -0.5110870003700256]], [[0.09798722714185715, -0.28992849588394165, -0.06619873642921448], [-0.05386471748352051, -0.07935695350170135, -0.18139834702014923], [-0.23520468175411224, -0.16174907982349396, 0.011619485914707184]], [[-0.03968248516321182, -0.48948177695274353, 0.16563837230205536], [-0.15300767123699188, -0.4112165868282318, -0.08362890779972076], [-0.36400049924850464, -0.1334676593542099, -0.05027524754405022]], [[0.1658855378627777, 0.046402160078287125, 0.3609253168106079], [0.03308221697807312, -0.5390295386314392, -0.18409055471420288], [-0.3821735382080078, 0.08909469842910767, 0.04706322401762009]], [[-0.07451719045639038, 0.12015005201101303, 0.47624868154525757], [0.36919641494750977, 0.2178640514612198, 0.0341859832406044], [0.1630983054637909, -0.48201191425323486, -0.26833468675613403]], [[-0.11392667889595032, 0.13619449734687805, 0.3744036853313446], [0.4130490720272064, -0.3126583695411682, -0.12557201087474823], [-0.080690898001194, -0.06687725335359573, 0.26935842633247375]], [[0.5689444541931152, -1.1423848867416382, -0.7461929321289062], [-0.7591308355331421, -1.378740668296814, -0.39875736832618713], [-1.0410643815994263, -0.3477533161640167, -0.4200702905654907]], [[0.2314610481262207, -0.45848700404167175, -0.6278018951416016], [-0.09725284576416016, -0.9163373708724976, -0.9452151656150818], [-0.41613343358039856, 0.03761854022741318, -0.6690489649772644]], [[-0.8241088390350342, -1.2801073789596558, -0.3516708314418793], [-1.1169867515563965, -0.7494780421257019, 0.1466338187456131], [-0.20194554328918457, 0.09291287511587143, 0.45927920937538147]], [[0.1301034390926361, 0.7868776917457581, 0.1669020652770996], [0.4093788266181946, -0.31693586707115173, -0.4825974106788635], [-0.23462069034576416, -0.07741527259349823, -0.03231697902083397]], [[-0.24265262484550476, 0.25398823618888855, 0.04856400936841965], [0.3255850672721863, 0.3202032744884491, -0.456604927778244], [0.35202857851982117, -0.33342358469963074, -0.24893499910831451]], [[0.7179720997810364, 1.0185010433197021, -0.006447261665016413], [0.9158031344413757, 0.8540762662887573, -0.5975357890129089], [0.240645632147789, -0.339955598115921, -0.1326979696750641]], [[-0.02029690146446228, -0.3170664608478546, -0.32417717576026917], [-0.02718062698841095, -0.8692235350608826, -0.7025701999664307], [-0.4059126079082489, -0.12561537325382233, -0.5818691849708557]], [[0.011544652283191681, 0.7540874481201172, 0.4198346734046936], [0.41362521052360535, -0.2711804509162903, -0.5119522213935852], [0.10143256932497025, -0.5863974094390869, -0.23980404436588287]], [[-0.4030134975910187, 0.460432231426239, 0.2391558736562729], [0.3485054075717926, 0.45807841420173645, -0.12588661909103394], [0.28498345613479614, -0.17731831967830658, -0.100437231361866]], [[-0.3178372085094452, -1.2874292135238647, 0.009717789478600025], [-1.0526447296142578, -0.4972407817840576, -0.1865176558494568], [-0.43467554450035095, -0.12853136658668518, 0.18862561881542206]], [[-0.28649482131004333, -0.8562929630279541, -0.2514670789241791], [-0.39506709575653076, 0.08162198960781097, -0.1585797518491745], [-0.41328802704811096, -0.1393398940563202, -0.39842459559440613]], [[-0.08477812260389328, -0.7414584755897522, -0.1921529322862625], [-0.371456116437912, -0.12886692583560944, 0.12298624217510223], [-0.38962897658348083, 0.10459551960229874, 0.04639863967895508]], [[-0.527025043964386, -1.60163152217865, 0.23336268961429596], [-0.5557065606117249, 0.6633803248405457, 0.5671231150627136], [-0.1595381647348404, 0.20804347097873688, 0.137135311961174]], [[-0.024887515231966972, -0.041132472455501556, 0.18683645129203796], [-0.09560002386569977, -0.3613479435443878, -0.09371453523635864], [-0.1042882576584816, 0.015307096764445305, -0.03775931894779205]], [[0.2245962917804718, -0.10493811219930649, -0.4135057330131531], [0.3092331886291504, 0.7324497699737549, -0.4196704030036926], [-0.1874305158853531, 0.027319563552737236, -0.3067838251590729]], [[-0.8645135760307312, 0.08653213828802109, -0.010410936549305916], [-0.3149029314517975, 0.24002625048160553, -0.0954069197177887], [0.10820131748914719, 0.018591856583952904, -0.1555233895778656]], [[-0.40362128615379333, 0.5925538539886475, 0.5643397569656372], [-0.13396833837032318, 1.0940332412719727, 0.322327584028244], [0.045831792056560516, 0.425545334815979, 0.7182620167732239]], [[0.03969677910208702, 0.5617071390151978, 0.2079826444387436], [0.39504706859588623, 0.6524686813354492, -0.31100165843963623], [0.6834420561790466, 0.19178539514541626, -0.3033885657787323]], [[0.0027258649934083223, 0.49927058815956116, -0.004654296673834324], [0.012985297478735447, -0.4265831708908081, -0.5940386652946472], [-0.06810743361711502, -0.09996966272592545, -0.4050649404525757]], [[0.1620151400566101, -0.4050348699092865, -0.1040162444114685], [-0.45777958631515503, -0.33825477957725525, -0.3338577151298523], [-0.423883855342865, -0.4258505403995514, -0.30530408024787903]], [[-0.11059953272342682, -0.12488873302936554, -0.4321513772010803], [-0.1458924263715744, -0.5432842373847961, -0.6031137108802795], [-0.22232870757579803, -0.42864498496055603, -0.6836768984794617]], [[-1.0175895690917969, -1.4383999109268188, 0.3038891851902008], [-0.46953776478767395, 0.2479502558708191, 0.6565890908241272], [-0.372405081987381, -0.03242683410644531, 0.18652552366256714]], [[-0.2714376449584961, 0.1523040384054184, 0.0759705901145935], [-0.30015841126441956, 0.4026263952255249, -0.3863900899887085], [-0.15984100103378296, 0.34209415316581726, -0.3636820614337921]], [[0.1498109996318817, -0.15765713155269623, -0.4754888415336609], [-0.18445400893688202, -0.5880036950111389, -0.5247418284416199], [-0.40947410464286804, -0.15389718115329742, -0.2818088233470917]], [[-0.48907503485679626, -0.8244011402130127, 0.05793387070298195], [-0.6567539572715759, -0.04547412320971489, 0.22477371990680695], [-0.5564689636230469, -0.08049888908863068, 0.20917174220085144]], [[-0.22734029591083527, -0.29726138710975647, -0.1163465604186058], [0.03226237744092941, -0.30991920828819275, -0.09878350049257278], [0.3169124722480774, -0.08365944027900696, -0.01372186653316021]], [[-0.02968992106616497, -0.7341628074645996, -0.19911988079547882], [-0.19278492033481598, -0.2774357795715332, 0.07703772932291031], [-0.227294921875, -0.038810018450021744, -0.04191047325730324]], [[-0.71341472864151, -1.281799077987671, -0.03301868215203285], [-0.37448951601982117, 0.23718468844890594, -0.2328857034444809], [-0.0689895898103714, -0.31386271119117737, -0.24580824375152588]], [[-0.40171724557876587, -2.2341151237487793, -0.5125385522842407], [-1.2732443809509277, -1.8313242197036743, -0.7587288022041321], [-0.8033941984176636, -0.4400552213191986, -0.4271812438964844]], [[0.08373592048883438, -0.0853891596198082, -0.38262009620666504], [0.14001323282718658, -0.3690572679042816, -0.4342383146286011], [0.10047803819179535, 0.22929057478904724, -0.04095672443509102]], [[-0.707155168056488, -0.7940137982368469, 0.32061728835105896], [-0.35938864946365356, 0.841000497341156, 0.03323151171207428], [0.10863124579191208, -0.01980467699468136, -0.1802368313074112]], [[-0.5619877576828003, 0.12097867578268051, 0.19267705082893372], [0.257041871547699, 0.20533359050750732, -0.10731185227632523], [0.2953786253929138, -0.3666189908981323, 0.048878125846385956]], [[0.23520652949810028, -0.4892193675041199, 0.10648380219936371], [-0.09143140912055969, -0.6002352237701416, -0.20093873143196106], 